tree
version=v3
num_class=1
num_tree_per_iteration=1
label_index=0
max_feature_idx=205
objective=tweedie
feature_names=Column_0 Column_1 Column_2 Column_3 Column_4 Column_5 Column_6 Column_7 Column_8 Column_9 Column_10 Column_11 Column_12 Column_13 Column_14 Column_15 Column_16 Column_17 Column_18 Column_19 Column_20 Column_21 Column_22 Column_23 Column_24 Column_25 Column_26 Column_27 Column_28 Column_29 Column_30 Column_31 Column_32 Column_33 Column_34 Column_35 Column_36 Column_37 Column_38 Column_39 Column_40 Column_41 Column_42 Column_43 Column_44 Column_45 Column_46 Column_47 Column_48 Column_49 Column_50 Column_51 Column_52 Column_53 Column_54 Column_55 Column_56 Column_57 Column_58 Column_59 Column_60 Column_61 Column_62 Column_63 Column_64 Column_65 Column_66 Column_67 Column_68 Column_69 Column_70 Column_71 Column_72 Column_73 Column_74 Column_75 Column_76 Column_77 Column_78 Column_79 Column_80 Column_81 Column_82 Column_83 Column_84 Column_85 Column_86 Column_87 Column_88 Column_89 Column_90 Column_91 Column_92 Column_93 Column_94 Column_95 Column_96 Column_97 Column_98 Column_99 Column_100 Column_101 Column_102 Column_103 Column_104 Column_105 Column_106 Column_107 Column_108 Column_109 Column_110 Column_111 Column_112 Column_113 Column_114 Column_115 Column_116 Column_117 Column_118 Column_119 Column_120 Column_121 Column_122 Column_123 Column_124 Column_125 Column_126 Column_127 Column_128 Column_129 Column_130 Column_131 Column_132 Column_133 Column_134 Column_135 Column_136 Column_137 Column_138 Column_139 Column_140 Column_141 Column_142 Column_143 Column_144 Column_145 Column_146 Column_147 Column_148 Column_149 Column_150 Column_151 Column_152 Column_153 Column_154 Column_155 Column_156 Column_157 Column_158 Column_159 Column_160 Column_161 Column_162 Column_163 Column_164 Column_165 Column_166 Column_167 Column_168 Column_169 Column_170 Column_171 Column_172 Column_173 Column_174 Column_175 Column_176 Column_177 Column_178 Column_179 Column_180 Column_181 Column_182 Column_183 Column_184 Column_185 Column_186 Column_187 Column_188 Column_189 Column_190 Column_191 Column_192 Column_193 Column_194 Column_195 Column_196 Column_197 Column_198 Column_199 Column_200 Column_201 Column_202 Column_203 Column_204 Column_205
feature_infos=[-0.49798458814620972:5.711097240447998] [-0.32472646236419678:5.8191585540771484] [-1.1934499740600586:4.1432161331176758] [-1.8209398984909058:3.976776123046875] [-0.17217130959033966:6.1632852554321289] [-5.8467512130737305:0.366982102394104] [-0.21052423119544983:6.0957074165344238] [-0.30421936511993408:6.0366249084472656] [-4.088038444519043:0.67791956663131714] [-5.3985605239868164:0.94927918910980225] [-5.3085031509399414:1.1814702749252319] [-5.2710161209106445:1.2621390819549561] [-0.41360923647880554:4.4330081939697266] [-1.6340041160583496:2.1070466041564941] [-1.4804518222808838:2.2618250846862793] [-0.21308623254299164:6.08929443359375] [-1.5913738012313843:1.8369125127792358] [-0.50321805477142334:3.9489510059356689] [-0.50468844175338745:5.2492384910583496] [-3.2233238220214844:2.9665782451629639] none [-0.47360694408416748:4.2489871978759766] [-0.44263172149658203:5.448946475982666] [-0.47235724329948425:4.2337689399719238] [-0.33539626002311707:5.6069235801696777] none none none [-1.8257418870925903:0.54772257804870605] [-0.16222143173217773:6.1644139289855957] [-0.54129999876022339:2.5558755397796631] [-0.39691537618637085:4.6916961669921875] [-0.47618791460990906:3.5030829906463623] [-0.76876586675643921:5.069185733795166] [-0.29427358508110046:6.0196504592895508] [-1.7029386758804321:0.58722025156021118] none [-4.0477099418640137:0.40741366147994995] [-0.53288727998733521:2.7038681507110596] [-3.8453667163848877:0.41239362955093384] [-0.31348082423210144:4.335669994354248] [-1.2649110555648804:0.79056942462921143] none [-3.6247878074645996:0.49054235219955444] [-0.70912033319473267:2.111309289932251] [-2.8777339458465576:0.93719702959060669] [-0.46100911498069763:3.4947834014892578] [-4.7011842727661133:0.25829082727432251] [-0.16222643852233887:6.1644139289855957] [-0.16222576797008514:6.1644139289855957] [-0.1622258722782135:6.1644139289855957] [-1.7495623826980591:3.6877543926239014] [-0.35196638107299805:4.360407829284668] [-0.22850809991359711:5.3894329071044922] [-0.16222198307514191:6.1644139289855957] [-0.16222190856933594:6.1644139289855957] [-0.16222190856933594:6.1644139289855957] [-0.83910608291625977:3.9030570983886719] [-0.35589531064033508:4.3584866523742676] [-5.3408932685852051:0.25013521313667297] [-0.16222147643566132:6.1644139289855957] [-0.16222146153450012:6.1644139289855957] [-0.16222147643566132:6.1644139289855957] [-1.8103036880493164:3.6377899646759033] [-0.36687842011451721:4.3296833038330078] [-0.17569348216056824:6.1433134078979492] [-0.16222143173217773:6.1644139289855957] [-0.16222141683101654:6.1644139289855957] [-0.16222141683101654:6.1644139289855957] [-0.9570080041885376:3.8165662288665771] [-0.38384771347045898:4.2961215972900391] [-5.9146871566772461:0.22816237807273865] [-0.16224811971187592:6.1644139289855957] [-0.16222378611564636:6.1644139289855957] [-0.16222864389419556:6.1644139289855957] [-1.8284940719604492:3.5407266616821289] [-0.38618168234825134:4.2691287994384766] [-0.16421833634376526:6.1639704704284668] [-0.28110021352767944:3.9534168243408203] [-0.19425587356090546:6.037147045135498] [-0.23533974587917328:5.3001923561096191] [-0.93446260690689087:3.7580392360687256] [-0.40093600749969482:4.2502155303955078] [-4.2073192596435547:0.71892935037612915] [-0.59850776195526123:4.4260468482971191] [-0.84322267770767212:3.4400670528411865] [-0.68913215398788452:3.7757322788238525] [-1.5674479007720947:3.0357544422149658] [-0.69213414192199707:5.0263862609863281] [-1.6380274295806885:4.2883405685424805] [-0.3038860559463501:5.7726292610168457] [-0.40959200263023376:5.1103935241699219] [-0.33640041947364807:5.4994993209838867] [-1.5492256879806519:4.1091656684875488] [-0.56496971845626831:5.5912642478942871] [-1.7147738933563232:2.4475991725921631] [-3.4648356437683105:0.96587187051773071] [-1.0925972461700439:3.0677134990692139] [-2.0926582813262939:1.5923916101455688] [-0.77985715866088867:5.3460507392883301] [-0.33853012323379517:5.939455509185791] [-5.5759286880493164:0.30547294020652771] [-0.16621752083301544:6.1640505790710449] [-0.16385112702846527:6.1643867492675781] [-0.16431123018264771:6.1643385887145996] [-1.0004993677139282:4.589813232421875] [-0.22660644352436066:5.9636435508728027] [-0.61789059638977051:2.3694591522216797] [-1.2013803720474243:1.1634595394134521] [-0.88477790355682373:1.7389055490493774] [-0.92536008358001709:2.7018256187438965] [-2.5098366737365723:2.5721714496612549] [-0.96779388189315796:3.6576645374298096] [-0.23249527812004089:4.3011627197265625] [-1.6911346912384033:0.75480550527572632] [-0.4183935821056366:4.1706981658935547] [-1.1786890029907227:2.1018764972686768] [-1.6759227514266968:2.5601987838745117] [-0.87003487348556519:3.164663553237915] [-0.44500601291656494:4.6425247192382812] [-1.2813718318939209:1.5516257286071777] none [-0.59475284814834595:3.2355518341064453] [-0.8481680154800415:2.9996027946472168] [-0.76135700941085815:3.0700969696044922] [-0.69583415985107422:3.0540521144866943] [-2.5969908237457275:4.0505785942077637] [-0.44719472527503967:5.3074917793273926] [-0.67360365390777588:2.9562487602233887] [-0.28178673982620239:5.6671695709228516] [-0.40216255187988281:5.3836092948913574] [-0.29402995109558105:5.3812618255615234] [-1.028529167175293:4.2001709938049316] [-0.46790584921836853:5.7352614402770996] [-0.55361455678939819:3.7456438541412354] [-0.23739612102508545:6.0341153144836426] [-0.30781251192092896:5.957242488861084] [-0.24997609853744507:5.953345775604248] [-5.0576086044311523:1.6670112609863281] [-0.38931509852409363:5.848052978515625] [-0.18964020907878876:6.1241164207458496] [-0.41141954064369202:2.9521467685699463] [-0.46203631162643433:4.2287883758544922] [-0.39938867092132568:2.3935337066650391] [-1.3051173686981201:3.1778037548065186] [-0.67794948816299438:4.1430635452270508] [-1.3068603277206421:2.5937175750732422] [-3.0333881378173828:1.7916234731674194] [-2.2466833591461182:2.1240601539611816] [-3.6245248317718506:1.5407088994979858] [-2.6919522285461426:2.5764985084533691] [-1.7785650491714478:2.8553934097290039] none none none none none none [-1.2736631631851196:2.312227725982666] [-1.2736631631851196:2.312227725982666] [-1.2736631631851196:2.312227725982666] [-0.87940531969070435:2.3580951690673828] none none [-1.5683722496032715:2.232083797454834] [-1.594538688659668:2.1474373340606689] [-1.7296202182769775:1.9272209405899048] [-1.4873154163360596:2.3013575077056885] [-1.5348687171936035:2.526777982711792] [-1.3473966121673584:2.949000358581543] [-1.8325022459030151:2.3024506568908691] [-1.9705021381378174:3.1290242671966553] [-1.9731091260910034:1.8163529634475708] [-1.0003833770751953:2.8504974842071533] [-0.99713611602783203:3.2113182544708252] [-0.97577494382858276:3.4140317440032959] [-1.4179590940475464:2.1917312145233154] [-1.0101330280303955:4.0306720733642578] none [-1.495785117149353:3.2399320602416992] [-2.0455899238586426:2.536179780960083] [-0.82523566484451294:3.6629674434661865] [-1.1970256567001343:2.1581239700317383] [-1.8004187345504761:1.2837255001068115] [-1.6294167041778564:1.8039644956588745] [-1.287097692489624:3.8121387958526611] [-1.8720088005065918:3.3350400924682617] [-1.2321150302886963:3.1830134391784668] none none none [-0.98460203409194946:1.9164931774139404] none none [-1.2296067476272583:2.9322855472564697] [-1.8004187345504761:1.2837255001068115] [-1.0266776084899902:2.5123424530029297] [-1.5975618362426758:2.1736018657684326] [-3.030825138092041:1.6222782135009766] [-1.0672866106033325:2.8997712135314941] [-1.1245622634887695:2.0640699863433838] [-1.5491933822631836:1.549193263053894] [-1.341640830039978:1.341640830039978] [-8.945256233215332:1.3575258255004883] [-6.3554749488830566:2.1208145618438721] [-2.2815539836883545:12.36998462677002]
tree_sizes=1961 1985 1767 2092 1775 1994 1872 1880 1989 2095 1980 1883 1992 1995 2103 1990 1778 1878 1887 1769 2105 2101 1995 1988 2009 1876 1880 2000 2100 1770 2001 2000 2110 2003 1877 1901 1667 1885 1665 1896 2010 2003 2013 1889 2122 1788 1993 2002 1902 1888 2008 1886 2009 1907 2116 2120 1999 2005 2002 2005 2010 1788 2014 2012 2008 2015 2013 2117 1895 1905 2118 1787 2011 2131 2125 1901 1904 1784 2136 1794 2004 1916 1911 1899 2014 1899 1909 1782 2012 1792 2015 2118 1908 2026 2015 2009 1790 2014 2028 1792 1903 1903 2014 1901 1786 2007 2020 2005 2126 1784 1903 2009 1910 2006 2015 2029 2009 1908 1792 1917 2128 2132 1905 2021 2131 2141 2013 1915 2019 1695 1917 2034 1906 1802 2015 2029 1915 1910 1910 1911 1805 1798 1792 1681 2143 1904 1799 2014 1802 2025 1915 2018 2031 1907 2014 2020 2137 1905 2027 2140 1913 1912 1912 1910 2137 1788 2136 2025 2018 2031 1811 1903 1813 1915 2144 1911 2260 2144 2032 1916 1801 2028 2026 1806 1925 1918 2031 1912 1912 1917 2034 2029 1916 2030 2038 2021 1800 2146 1913 2137

Tree=0
num_leaves=17
num_cat=0
split_feature=204 205 204 150 201 2 201 139 2 169 139 109 114 201 202 103
split_gain=88.7491 26.1901 9.98802 8.749 61.0522 48.6386 36.3106 30.4081 25.8689 12.2893 14.5105 6.38357 6.25762 5.4714 5.24768 5.13955
threshold=-1.5514262318611143 0.71971744298934948 1.1287354826927187 0.5165584683418275 1.0000000180025095e-35 -0.38457590341567988 -0.96824583411216725 -0.32206897437572474 -0.38457590341567988 -0.58114203810691822 -0.35266508162021631 1.0000000180025095e-35 0.51248116791248333 0.58094753324985515 1.0000000180025095e-35 -0.16286862641572949
decision_type=2 2 2 2 2 2 2 2 2 2 2 2 2 2 2 2
left_child=-1 2 3 6 8 -6 7 -2 -5 13 -11 15 -12 -8 -14 -3
right_child=1 11 -4 4 5 -7 9 -9 -10 10 12 -13 14 -15 -16 -17
leaf_value=-0.72957262023491476 -0.68925531522797812 -0.66679152662274621 -0.67411512304452725 -0.66297666859884186 -0.74902043167349586 -0.69355162275492499 -0.6815367756506393 -0.73019049092814969 -0.69882614345538374 -0.70254689968672024 -0.67341169364948161 -0.6868892404522996 -0.68066870371950328 -0.66684619682611812 -0.69483033922778847 -0.67976169916252593
leaf_weight=520.26960828900337 381.18627396225929 727.08823528885841 366.39093118906021 433.26715663075447 314.09926491975784 318.2573527097702 566.35416498780251 346.34803867340088 375.93504908680916 533.74754822254181 445.67034268379211 390.06985327601433 537.7745101749897 458.98774456977844 509.62867650389671 526.92524510622025
leaf_count=881 537 909 477 530 575 458 767 588 555 802 578 543 725 574 738 707
internal_value=-0.689681 -0.686811 -0.690075 -0.691195 -0.697824 -0.721104 -0.688667 -0.708743 -0.679631 -0.683882 -0.688395 -0.675717 -0.683336 -0.674961 -0.687559 -0.672241
internal_weight=0 7231.73 5587.65 5221.26 1441.56 632.357 3779.7 727.534 809.202 3052.16 2026.82 1644.08 1493.07 1025.34 1047.4 1254.01
internal_count=10944 10063 7904 7427 2118 1033 5309 1125 1085 4184 2843 2159 2041 1341 1463 1616
is_linear=0
shrinkage=1


Tree=1
num_leaves=17
num_cat=0
split_feature=204 205 204 150 201 2 201 175 83 106 169 201 109 0 33 132
split_gain=72.1709 21.2329 8.09777 7.11179 49.6888 39.9814 29.4654 28.674 21.3196 10.1502 9.51684 7.71845 5.18037 4.63064 2.79774 2.55571
threshold=-1.5514262318611143 0.71971744298934948 1.1287354826927187 0.5165584683418275 1.0000000180025095e-35 -0.38457590341567988 -0.96824583411216725 0.019245768897235397 0.31294518709182745 -0.21550978720188138 -0.58114203810691822 0.58094753324985515 1.0000000180025095e-35 1.0000000180025095e-35 1.0000000180025095e-35 -0.43410225212574
decision_type=2 2 2 2 2 2 2 2 2 2 2 2 2 2 2 2
left_child=-1 2 3 6 8 -6 7 -2 -5 10 -8 15 13 -3 -11 -12
right_child=1 12 -4 4 5 -7 9 -9 -10 14 11 -13 -14 -15 -16 -17
leaf_value=-0.036046398279698605 -0.03512228538256492 0.021537341775996907 0.014017787366961958 -0.0072626650374335274 -0.053881429071727771 -0.0034837157953473852 0.011601733587005178 0.0048297288146313226 0.02521714323433066 0.017545906440705698 -0.0026008347110349429 -0.011920405108792737 0.0025126084144323772 0.0093680918531342094 0.0066963614726225883 0.0085096173670908652
leaf_weight=518.30314666032791 400.26463684439659 652.91272833943367 366.18008834123611 402.26593780517578 311.47212496399879 318.24602913856506 611.99992200732231 325.91955217719078 406.12776443362236 625.93014720082283 413.48867735266685 601.62807768583298 390.06263303756714 600.07286188006401 383.171207010746 414.66148582100868
leaf_count=881 671 815 477 589 575 458 808 454 496 801 592 901 543 801 521 561
internal_value=0 0.00258448 -0.000356954 -0.00136627 -0.00735088 -0.0284115 0.000912366 -0.0171914 0.00905482 0.0052215 0.00116653 -0.00330013 0.0125764 0.0157093 0.0134262 0.00296226
internal_weight=0 7224.4 5581.36 5215.18 1438.11 629.718 3777.06 726.184 808.394 3050.88 2041.78 1429.78 1643.05 1252.99 1009.1 828.15
internal_count=10944 10063 7904 7427 2118 1033 5309 1125 1085 4184 2862 2054 2159 1616 1322 1153
is_linear=0
shrinkage=0.1


Tree=2
num_leaves=15
num_cat=0
split_feature=204 205 200 202 144 191 194 180 119 126 180 52 31 164
split_gain=58.647 17.2721 7.01026 5.91246 36.1451 25.1869 22.15 19.2293 16.1291 14.7612 8.75947 6.50016 5.66373 6.1096
threshold=-1.5514262318611143 0.67059171199798595 -1.010682553052902 1.0000000180025095e-35 -0.97412705421447743 -0.75165200233459462 1.0000000180025095e-35 -0.68878358602523793 -0.30510388314723963 0.12310717999935152 -0.58701941370964039 -0.30518759787082667 -0.31923265755176539 -0.27526785433292383
decision_type=2 2 2 2 2 2 2 2 2 2 2 2 2 2
left_child=-1 2 -2 5 -5 9 10 -6 11 -4 -7 -9 13 -3
right_child=1 12 3 4 7 6 -8 8 -10 -11 -12 -13 -14 -15
leaf_value=-0.032547864440644551 -0.010756200389165711 0.0062968075038902921 0.0017619147063927057 0.021835125621858395 -0.029564511052451177 0.026464002644743152 -0.0080941327148543688 -0.0034573235008293437 -0.016916166897725054 -0.025693758574652354 0.0096234049445310041 0.013124163558224163 0.000634496816296685 0.019862995483438034
leaf_weight=516.70360389351845 589.38313835859299 581.54508385062218 439.97823360562325 478.60287329554558 364.25064295530319 617.23238971829414 439.87571048736572 523.4557329416275 597.71599417924881 352.87128609418869 618.21113777160645 431.13728746771812 410.60649380087852 773.53000563383102
leaf_count=881 879 785 616 602 596 757 648 755 917 562 834 568 574 970
internal_value=0 0.00232717 -0.000456401 0.000791823 -0.00274764 0.00422659 0.011176 -0.00888644 -0.00403431 -0.0104577 0.018037 0.00403162 0.0109233 0.0140409
internal_weight=0 7218.4 5452.71 4863.33 2395.16 2468.17 1675.32 1916.56 1552.31 792.85 1235.44 954.593 1765.68 1355.08
internal_count=10944 10063 7734 6855 3438 3417 2239 2836 2240 1178 1591 1323 2329 1755
is_linear=0
shrinkage=0.1


Tree=3
num_leaves=18
num_cat=0
split_feature=204 205 204 64 201 116 111 186 202 191 108 129 87 202 109 103 202
split_gain=47.6308 14.0575 5.92874 5.72754 9.42231 44.6838 30.7098 12.648 6.3252 30.3084 25.603 15.9232 8.16254 4.68238 3.79706 4.07542 5.44599
threshold=-1.5514262318611143 0.71971744298934948 1.1287354826927187 -0.32237872481346125 0.58094753324985515 0.084314765408635153 0.12478187307715417 -0.21752114593982694 1.0000000180025095e-35 -0.65021803975105275 -0.9163244068622588 -0.23919519037008283 0.24184239655733111 -0.89442722499370564 1.0000000180025095e-35 -0.16343601047992704 1.0000000180025095e-35
decision_type=2 2 2 2 2 2 2 2 2 2 2 2 2 2 2 2 2
left_child=-1 2 3 4 6 -6 7 -2 10 -10 -5 -11 13 -12 15 -3 -17
right_child=1 14 -4 8 5 -7 -8 -9 9 11 12 -13 -14 -15 -16 16 -18
leaf_value=-0.029371145041125719 0.0019673388337249033 0.02125079958200693 0.012010424368702642 -0.017340430714100529 -0.041063169234154158 0.010623390281690959 0.02207140185387424 -0.022483871049436714 0.016177133556232622 -0.0027623089647114034 0.025387661268364892 -0.027581819566706314 0.001592010778254259 0.010384450542488434 0.0016129616287042675 0.016282546496447 0.00022342042529820171
leaf_weight=515.40352544188499 392.02201643586159 399.29504886269569 365.54981952905655 373.28695428371429 332.68863996863365 336.37529119849205 410.4431539773941 459.55204740166664 543.03028893470764 638.01114481687546 438.58138743042946 434.5483386516571 452.53801220655441 395.69018319249153 389.94311961531639 466.17293894290924 386.0424812734127
leaf_count=881 547 491 477 574 586 452 514 726 702 915 538 710 636 527 543 592 533
internal_value=0 0.00209587 -0.000300034 -0.00116431 -0.00548398 -0.0150775 -0.000397945 -0.0112278 0.00138222 -0.00307216 0.00571718 -0.012818 0.0124059 0.0182717 0.0102294 0.0129141 0.00900797
internal_weight=0 7213.77 5572.32 5206.77 1931.08 669.064 1262.02 851.574 3275.69 1615.59 1660.1 1072.56 1286.81 834.272 1641.45 1251.51 852.215
internal_count=10944 10063 7904 7427 2825 1038 1787 1273 4602 2327 2275 1625 1701 1065 2159 1616 1125
is_linear=0
shrinkage=0.1


Tree=4
num_leaves=15
num_cat=0
split_feature=204 205 123 123 174 202 201 0 205 0 204 201 201 120
split_gain=38.6644 13.1057 14.8505 10.6026 18.8082 7.92216 5.94396 5.76205 5.30777 4.89228 7.06533 5.90881 4.22976 4.77465
threshold=-1.5514262318611143 -0.029653412289917466 0.82515385746955883 0.82515385746955883 0.15865291655063632 1.0000000180025095e-35 1.0000000180025095e-35 -0.42301814258098597 -0.68143317103385914 -0.066220602020621286 -0.10902724415063857 1.0000000180025095e-35 0.58094753324985515 -0.26045805215835566
decision_type=2 2 2 2 2 2 2 2 2 2 2 2 2 2
left_child=-1 3 9 4 7 -4 -6 -2 -9 10 -3 -11 13 -12
right_child=1 2 5 -5 6 -7 -8 8 -10 11 12 -13 -14 -15
leaf_value=-0.026491370563588076 -0.024441597226568145 -0.00072399387254569762 0.0028514130965262311 0.012330776500209546 0.0095023588951079711 -0.015443274167741475 -0.005225429628610976 -0.018665605452749423 -0.0028825575851939055 0.0099158071792899705 0.016696950963533283 -0.0029849138544536663 0.020605673890147141 0.0032544795654441574
leaf_weight=514.34751310944557 391.98350006341934 394.72825455665588 497.00577345490456 365.0727441906929 661.17778471112251 451.92560037970543 467.99883261322975 380.42539623379707 484.3628616631031 738.86443817615509 552.63622730970383 683.4385766685009 632.36022272706032 506.31206345558167
leaf_count=881 631 557 688 486 886 695 679 595 700 974 709 979 790 694
internal_value=0 0.00188742 0.00523727 -0.0035401 -0.0059685 -0.00586137 0.00339828 -0.0143843 -0.00982561 0.00823922 0.0113227 0.00371681 0.0141342 0.0102697
internal_weight=0 7208.29 4457.27 2751.02 2385.95 948.931 1129.18 1256.77 864.788 3508.34 2086.04 1422.3 1691.31 1058.95
internal_count=10944 10063 6086 3977 3491 1383 1565 1926 1295 4703 2750 1953 2193 1403
is_linear=0
shrinkage=0.1


Tree=5
num_leaves=17
num_cat=0
split_feature=204 205 123 123 174 204 200 17 201 115 204 124 201 201 24 204
split_gain=32.4209 11.2024 11.492 10.8544 17.1035 6.39604 7.63194 5.23383 4.81108 4.75306 6.10573 8.87471 5.72195 4.414 5.17591 3.90089
threshold=-1.7940384149551389 -0.029653412289917466 0.90836206078529369 0.82515385746955883 0.15865291655063632 0.5515686869621278 -0.5551636517047881 -0.44065441191196436 1.0000000180025095e-35 0.29310660809278494 -0.33924624323844904 -0.61982989311218251 1.0000000180025095e-35 -0.58094747364521016 -0.26330657303333277 0.40081748366355902
decision_type=2 2 2 2 2 2 2 2 2 2 2 2 2 2 2 2
left_child=-1 3 9 4 5 6 7 -2 -6 10 -3 12 -12 -13 -15 -4
right_child=1 2 15 -5 8 -7 -8 -9 -10 -11 11 13 -14 14 -16 -17
leaf_value=-0.028613802221104358 -0.020481899588275086 -0.0063102881549540711 0.001604214934713989 0.012236298509724942 0.0082196347151796152 -0.0016144697965453697 -0.030418756917422341 -0.0026148888788564586 -0.0047566664762642916 0.017435113244824784 0.0072963039870950156 0.0032729895405381733 -0.0072182502420592492 0.020788070888618178 0.0084156146509212788 -0.012536448161498091
leaf_weight=376.72232356667519 329.73690310120583 374.42471885681152 347.52741745114326 383.82504308223724 695.26500982046127 326.53113862872124 320.87629890441895 326.08965003490448 485.05332347750664 386.42449745535851 547.04795300960541 481.76192006468773 539.42287701368332 656.81391134858131 696.86464938521385 444.74092546105385
leaf_count=660 529 545 489 510 938 473 535 474 706 489 726 664 790 814 930 672
internal_value=0 0.00146541 0.00459207 -0.00341426 -0.005833 -0.0137306 -0.0177812 -0.0115981 0.00288701 0.00694251 0.00571248 0.00725312 8.99599e-05 0.0114933 0.0144188 -0.00633367
internal_weight=0 7342.41 4475.03 2867.38 2483.55 1303.23 976.703 655.827 1180.32 3682.76 3296.34 2921.91 1086.47 1835.44 1353.68 792.268
internal_count=10944 10284 6119 4165 3655 2011 1538 1003 1644 4958 4469 3924 1516 2408 1744 1161
is_linear=0
shrinkage=0.1


Tree=6
num_leaves=16
num_cat=0
split_feature=204 205 201 150 180 150 201 58 168 201 45 144 63 108 203
split_gain=26.3154 9.52086 6.52634 53.4588 31.9005 21.7235 24.4843 14.9507 8.53198 6.02125 11.4291 4.65784 4.28189 3.91379 2.81645
threshold=-1.7940384149551389 0.8525797724723817 -0.96824583411216725 0.56583777070045482 -0.11097522918134926 0.56583777070045482 1.0000000180025095e-35 -0.34561620652675623 0.72174614667892467 -0.19364916269106566 -0.62336409091949452 -0.20944890379905698 -0.36892139911651606 -0.25148417055606836 0.45463135838508612
decision_type=2 2 2 2 2 2 2 2 2 2 2 2 2 2 2
left_child=-1 2 3 4 -2 7 -7 -4 9 -9 -11 -10 -12 14 -3
right_child=1 13 5 -5 -6 6 -8 8 11 10 12 -13 -14 -15 -16
leaf_value=-0.025805434476383726 -0.0029881769281553949 0.019404695911235378 -0.013779664202331799 0.025068285160548792 -0.042149843343003493 0.004995254658086699 -0.025099172208898509 0.0021509710190685447 0.0056971818293217076 -0.0014502545515865384 0.011663882427810732 -0.0083143272634986897 0.022984227344367801 0.0020918862525604333 0.0075350816793772774
leaf_weight=375.98975068330765 456.62474855780602 397.21018373966217 384.90271711349487 363.91784197092056 382.03139767050743 503.68658953905106 583.55313351750374 675.00301796197891 496.00556442141533 405.1533337533474 625.36448550224304 454.7997325360775 717.47557160258293 491.48605638742447 402.45467287302017
leaf_count=660 664 488 587 446 675 688 967 934 677 572 827 672 885 673 529
internal_value=0 0.00131931 -0.000344732 -0.00693865 -0.0208274 0.00129162 -0.0111573 0.00489259 0.00702282 0.010173 0.0132708 -0.00100496 0.0177123 0.00911466 0.013431
internal_weight=0 7339.67 6048.52 1202.57 838.656 4845.94 1087.24 3758.7 3373.8 2423 1747.99 950.805 1342.84 1291.15 799.665
internal_count=10944 10284 8594 1785 1339 6809 1655 5154 4567 3218 2284 1349 1712 1690 1017
is_linear=0
shrinkage=0.1


Tree=7
num_leaves=16
num_cat=0
split_feature=204 200 205 161 87 204 203 165 143 202 107 201 120 107 204
split_gain=21.437 7.5528 6.21855 4.56308 3.89141 6.83298 5.36226 6.32476 4.7577 6.70154 17.6313 5.37501 12.7143 4.67522 2.95496
threshold=-1.5514262318611143 -1.010682553052902 0.89846286177635204 -0.56265759468078602 0.31579849123954779 -0.67967405915260304 -0.021525820717215535 1.0000000180025095e-35 -0.38398732244968409 1.0000000180025095e-35 -0.57813808321952809 0.58094753324985515 0.58669206500053417 -0.57813808321952809 0.49747663736343389
decision_type=2 2 2 2 2 2 2 2 2 2 2 2 2 2 2
left_child=-1 -2 4 -4 5 -3 -6 -8 9 13 -11 12 -10 -7 -14
right_child=1 2 3 -5 6 8 7 -9 11 10 -12 -13 14 -15 -16
leaf_value=-0.019778221125440934 -0.0092685776855528888 -0.010069882458241817 0.0020580033749798264 0.014718778807612571 0.006207389566776792 0.021588762059018871 0.00079843949690767361 -0.01348815540339973 0.017359116157657371 -0.014121296458633746 0.015967784355601668 -0.0072885316889454242 -0.010270620805637572 0.0065052348621822131 0.0025599934535867354
leaf_weight=511.77575293183327 607.23132455348969 372.70417994260788 514.59588545560837 637.10546368360519 461.71094962954521 432.88691526651382 613.48427030444145 626.14492297172546 464.88797143101692 375.18295469880104 404.93354994058609 578.35631021857262 359.68250185251236 391.19351401925087 358.30697083473206
leaf_count=881 908 562 699 801 630 536 864 961 595 576 516 849 540 527 499
internal_value=0 0.00140328 0.00238646 0.00906177 0.000973094 0.00277754 -0.00299158 -0.00641781 0.00420032 0.00813997 0.00149698 0.000611944 0.0044748 0.0144286 -0.0038676
internal_weight=0 7198.41 6591.18 1151.7 5439.48 3738.13 1701.34 1239.63 3365.43 1604.2 780.117 1761.23 1182.88 824.08 717.989
internal_count=10944 10063 9155 1500 7655 5200 2455 1825 4638 2155 1092 2483 1634 1063 1039
is_linear=0
shrinkage=0.1


Tree=8
num_leaves=17
num_cat=0
split_feature=204 205 123 175 201 201 2 123 115 204 142 141 11 138 202 204
split_gain=17.8963 6.71091 9.15755 13.5461 11.0388 9.62384 15.5357 7.98201 3.91539 4.54214 12.2301 8.28041 5.1494 3.42504 7.94667 3.32671
threshold=-1.7940384149551389 -0.029653412289917466 0.90836206078529369 0.19867470860481265 1.0000000180025095e-35 -0.58094747364521016 1.0000000180025095e-35 0.90836206078529369 0.29310660809278494 0.16015516221523288 -0.45061941444873804 -0.27102498710155482 0.20563894510269168 -0.15381275117397306 1.0000000180025095e-35 0.40081748366355902
decision_type=2 2 2 2 2 2 2 2 2 2 2 2 2 2 2 2
left_child=-1 2 3 5 -5 -2 -7 8 9 10 -3 13 -13 -11 -15 -9
right_child=1 7 -4 4 -6 6 -8 15 -10 11 -12 12 -14 14 -16 -17
leaf_value=-0.021310516222042039 -0.022698458250726271 -0.01598068767055659 0.012625049528739545 0.01132265176969733 -0.008511410535731706 -0.017313348675144582 0.0095980981756938755 0.0017316477888818138 0.014996530990312671 0.016062438020437411 0.0073375688372554196 -0.010711952338244828 0.0059314440582099465 0.015658037033955196 -0.0032471309887502527 -0.011332277816355532
leaf_weight=374.98161846399307 493.44365015625954 360.87246856093407 343.44188377261162 682.09427714347839 476.72816461324692 476.71522563695908 390.01622503995895 347.28255811333656 386.0337091088295 697.0002875328064 597.06339719891548 353.66718286275864 391.87970396876335 469.55227851867676 422.3223297894001 444.30986151099205
leaf_count=660 806 549 453 904 717 761 524 489 489 876 800 525 534 590 595 672
internal_value=0 0.00108734 -0.00269318 -0.00478168 0.00316311 -0.0115504 -0.0052036 0.00350827 0.00546858 0.00435141 -0.00144686 0.00673075 -0.00196373 0.0108105 0.00670602 -0.00560095
internal_weight=0 7332.42 2862.44 2519 1158.82 1360.18 866.731 4469.98 3678.39 3292.36 957.936 2334.42 745.547 1588.87 891.875 791.592
internal_count=10944 10284 4165 3712 1621 2091 1285 6119 4958 4469 1349 3120 1059 2061 1185 1161
is_linear=0
shrinkage=0.1


Tree=9
num_leaves=18
num_cat=0
split_feature=204 200 33 205 161 204 172 202 201 150 201 169 170 203 201 75 202
split_gain=14.5128 5.69275 11.2919 4.39304 3.91242 3.79167 4.9833 12.5073 8.84054 6.83059 11.4357 9.3374 6.7543 6.40994 4.20186 2.8696 8.45593
threshold=-1.7940384149551389 -1.010682553052902 -0.24935141205787656 0.95383602380752575 -0.56265759468078602 1.1287354826927187 -0.98550972342491139 1.0000000180025095e-35 -1.3555442094802854 0.56583777070045482 -0.96824583411216725 -0.61191734671592701 0.60200932621955883 0.42263767123222357 0.58094753324985515 -0.27603590488433832 1.0000000180025095e-35
decision_type=2 2 2 2 2 2 2 2 2 2 2 2 2 2 2 2 2
left_child=-1 2 -2 5 -5 6 7 -3 -8 10 -10 14 15 -11 -12 -13 -17
right_child=1 3 -4 4 -6 -7 8 -9 9 13 11 12 -14 -15 -16 16 -18
leaf_value=-0.019201344258577654 0.0051674342951175314 0.016163497264678917 -0.020855691647524429 0.0010153224888658793 0.0134588868970184 0.009904864233581976 -0.016240696705143873 -0.0049979778639182432 -0.014722715123067186 0.0011066167281082769 0.0058056610835906649 0.010986866289572425 -0.010349431254606715 -0.01816773013372136 0.018843497778491255 0.010084842017838644 -0.010159019691714474
leaf_weight=374.57716426253319 333.86873358488083 578.60401386022568 333.10714465379715 457.1449958384037 564.90015575289726 420.31348538398743 373.89308512210846 539.93796169757843 362.92859414219856 326.66405352950096 530.55938830971718 370.39431765675545 481.80360192060471 365.70511439442635 462.81820648908615 431.0906155705452 395.76185491681099
leaf_count=660 470 740 533 623 707 551 589 794 569 465 710 487 730 588 572 565 591
internal_value=0 0.00097895 -0.00782927 0.00186073 0.00789307 0.000767678 3.19756e-05 0.00594852 -0.00158151 -0.000111184 0.00193324 0.0041952 -0.000351384 -0.00907397 0.01188 0.00367209 0.000395389
internal_weight=0 7329.5 666.976 6662.52 1022.05 5640.47 5220.16 1118.54 4101.62 3727.73 3035.36 2672.43 1679.05 692.369 993.378 1197.25 826.852
internal_count=10944 10284 1003 9281 1330 7951 7400 1534 5866 5277 4224 3655 2373 1053 1282 1643 1156
is_linear=0
shrinkage=0.1


Tree=10
num_leaves=17
num_cat=0
split_feature=204 200 14 205 86 201 201 30 30 117 130 122 89 24 201 161
split_gain=11.7664 4.614 10.8144 3.5592 3.60294 13.2066 7.05577 52.2067 40.0642 33.247 19.3695 14.0821 8.55088 3.92001 3.29527 3.17156
threshold=-1.7940384149551389 -1.010682553052902 -0.35192960500717158 0.95383602380752575 0.60958105325698864 1.0000000180025095e-35 -0.19364916269106566 -0.54129612445831288 -0.54129612445831288 -0.43272952735424036 -0.35648749768733973 0.97496250271797191 -0.68184533715248097 -0.16044599562883374 0.96824583411216747 -0.56265759468078602
decision_type=2 2 2 2 2 2 2 2 2 2 2 2 2 2 2 2
left_child=-1 2 -2 4 6 -6 7 -3 -8 -9 -11 12 -10 -12 -14 -5
right_child=1 3 -4 15 5 -7 8 9 11 10 13 -13 14 -15 -16 -17
leaf_value=-0.017297212055779748 0.0056941576232249075 0.034237476290022863 -0.019779742589735919 0.00091379256358454218 -0.017919296502206927 0.0073870470306337159 -0.028414833187431172 -0.027146335920995215 -0.002128894519070639 -0.012242939491008313 0.02160218646938581 -0.010197572269843209 0.0087683257603665288 0.0078676235076288719 0.019676307213762855 0.012118506277123639
leaf_weight=374.24916350841522 333.09719321131706 501.92055907845497 333.51339676976204 457.14387673139572 417.34314855933189 407.65423214435577 463.8002071082592 413.33510914444923 520.84617060422897 408.64270901679993 392.56702175736427 533.34198543429375 660.5074454843998 441.53011485934258 476.92524272203445 564.65712639689445
leaf_count=660 469 573 534 623 642 555 780 679 739 621 492 805 871 602 592 707
internal_value=0 0.000881366 -0.00705074 0.00167528 0.000691184 -0.00541473 0.00173771 0.00598475 -0.00171376 -0.00257804 0.00559338 0.00393684 0.0084828 0.0143318 0.013342 0.00710563
internal_weight=0 7326.83 666.611 6660.21 5638.41 824.997 4813.42 2158 2655.42 1656.07 1242.74 2191.62 1658.28 834.097 1137.43 1021.8
internal_count=10944 10284 1003 9281 7951 1197 6754 2967 3787 2394 1715 3007 2202 1094 1463 1330
is_linear=0
shrinkage=0.1


Tree=11
num_leaves=16
num_cat=0
split_feature=205 185 51 177 89 201 102 102 180 107 201 201 204 101 187
split_gain=10.1783 14.5528 11.2418 4.5256 4.3136 4.3625 41.4009 23.2637 13.9933 13.1099 22.4878 8.67206 5.89444 4.83162 2.84006
threshold=-0.99912798404693592 -1.0231719911098478 -0.36837895214557642 1.5336074233055117 0.96225082874298107 1.0000000180025095e-35 -0.16621749848127362 -0.16621749848127362 -0.62464570999145497 1.0000000180025095e-35 -0.96824583411216725 1.3555441498756411 0.018100073561072353 0.28172925114631658 -0.23250809311866757
decision_type=2 2 2 2 2 2 2 2 2 2 2 2 2 2 2
left_child=1 -1 -3 4 5 7 -7 -2 -8 10 -9 12 -10 -12 -14
right_child=3 2 -4 -5 -6 6 8 9 11 -11 13 -13 14 -15 -16
leaf_value=0.0060809358062277503 0.02001130958512376 -0.0055061639550301744 -0.030422209547585746 0.011318471564588067 -0.0084547393764234716 -0.030918496686228689 -0.013369573769476338 -0.020935013177615747 -0.0067960262859151303 0.012200101662007707 -0.004212863620970341 0.019386889751471501 0.0018816107296681134 0.0085459183815848466 0.013129931770788143
leaf_weight=422.252132833004 708.55472844839096 383.77866441011429 342.85982921719551 439.85018354654312 463.77024206519127 402.44655638933182 379.86034852266312 587.68397259712219 386.07003569602966 598.04358741641045 530.41893690824509 472.16262406110764 415.03992739319801 673.90505811572075 488.85521167516708
leaf_count=592 880 592 603 576 675 698 586 947 564 803 754 589 567 895 623
internal_value=0 -0.00868317 -0.0172626 0.0015217 0.000816075 0.00157799 -0.00149032 0.00409755 0.00403879 -0.000620248 -0.00489876 0.00779149 0.00354726 0.00292658 0.00796506
internal_weight=0 1148.89 726.638 6546.66 6106.81 5643.04 2544.43 3098.61 2141.99 2390.05 1792.01 1762.13 1289.97 1204.32 903.895
internal_count=10944 1787 1195 9157 8581 7906 3627 4279 2929 3399 2596 2343 1754 1649 1190
is_linear=0
shrinkage=0.1


Tree=12
num_leaves=17
num_cat=0
split_feature=204 205 175 201 177 202 144 11 144 139 191 202 202 144 135 187
split_gain=8.5487 3.35585 9.18106 10.6104 4.31796 2.91787 41.5938 32.6589 24.6441 16.1333 15.9103 10.2246 9.75489 9.28806 3.93394 2.77989
threshold=-1.7940384149551389 -0.65258026123046864 0.19867470860481265 -0.19364916269106566 1.5336074233055117 1.0000000180025095e-35 -1.0208405554294584 0.20562346279621127 -0.89193534851074208 -0.33718305826187128 -0.75165200233459462 -0.89442722499370564 0.89442722499370586 -0.13922858238220212 -0.2114380672574043 -0.38053269684314722
decision_type=2 2 2 2 2 2 2 2 2 2 2 2 2 2 2 2
left_child=-1 2 15 -4 5 8 -7 9 -3 -8 13 -12 -9 -10 -11 -2
right_child=1 4 3 -5 -6 6 7 12 10 14 11 -13 -14 -15 -16 -17
leaf_value=-0.014763622429832368 -0.0058964550567596795 -0.018460667353946334 0.015565145792335165 -0.0074400318993343116 0.012135029963312838 0.028070232927220884 0.015524286622414353 -0.013829723205245862 0.005141308892166855 -0.013739240621333308 0.021767873465951781 0.0050713589945937925 -0.038259314848097969 -0.01545990254981533 -0.0012542552936970651 -0.019081316757069457
leaf_weight=373.26672679185867 318.84221807122231 438.00823175907135 383.75831520557404 419.79501041769981 379.08383768796921 409.22608408331871 523.04995623230934 345.67245677113533 553.56266087293625 399.87746927142143 767.62934416532516 702.35601776838303 310.06804195046425 361.93407785892487 684.20772102475166 320.80414491891861
leaf_count=660 479 672 495 631 488 487 669 534 749 596 944 946 536 553 981 524
internal_value=0 0.000751076 -0.00356946 0.0035467 0.00181248 0.00110043 -0.00126817 -0.00657383 0.00334204 0.00109997 0.00734532 0.0137903 -0.0253813 -0.00300321 -0.00585949 -0.0125091
internal_weight=0 7317.88 1443.2 803.553 5874.68 5495.59 2672.1 2262.88 2823.49 1607.14 2385.48 1469.99 655.74 915.497 1084.09 639.646
internal_count=10944 10284 2129 1126 8155 7667 3803 3316 3864 2246 3192 1890 1070 1302 1577 1003
is_linear=0
shrinkage=0.1


Tree=13
num_leaves=17
num_cat=0
split_feature=205 185 204 2 201 180 148 150 201 180 202 202 201 191 95 149
split_gain=7.29959 10.7186 9.14199 3.37194 4.11251 72.3478 52.0472 13.1041 14.9202 11.5269 33.6523 19.6957 8.61299 6.61421 6.30595 3.64702
threshold=-0.99912798404693592 -1.0231719911098478 -0.88483056426048268 -0.53351703286170948 -0.96824583411216725 -0.62464570999145497 -0.31811082363128657 0.56583777070045482 1.0000000180025095e-35 -0.62464570999145497 1.0000000180025095e-35 -0.89442722499370564 -0.19364916269106566 0.47790242731571203 -0.077983969822525964 0.081326687708497061
decision_type=2 2 2 2 2 2 2 2 2 2 2 2 2 2 2 2
left_child=1 -1 -3 -2 5 -5 -7 9 -9 10 -6 -11 -13 -10 -14 -16
right_child=3 2 -4 4 7 6 -8 8 13 11 -12 12 14 -15 15 -17
leaf_value=0.0053145499691269497 0.0081969744803298116 -0.024308537580193169 -0.0015734675834673249 0.030331365839292707 0.01227518692790483 0.00070507468238997166 -0.053177764017911459 0.0044605471800451216 -0.028166686571152906 -0.0076115415393466865 -0.02817962190938867 0.001843338362772419 0.023301483593787989 -0.0076427049980685646 0.016714832457055212 0.0037214507138927932
leaf_weight=421.94729474186897 637.71593847870827 419.7977657020092 305.6374232172966 380.82989510893822 468.8381096124649 398.98575693368912 325.52488794922829 570.54010400176048 313.25907674431801 628.94098860025406 366.25973138213158 557.55054798722267 708.7627939581871 314.82434755563736 457.87072983384132 408.96776908636093
leaf_count=592 851 745 450 453 610 571 621 772 543 898 615 767 856 475 570 555
internal_value=0 -0.00735859 -0.0147299 0.00128912 0.000542611 -0.00495619 -0.0235047 0.00180998 -0.00724553 0.00482737 -0.00546761 0.00793998 0.0125252 -0.0178791 0.0163051 0.0105847
internal_weight=0 1147.38 725.435 6538.87 5901.15 1105.34 724.511 4795.81 1198.62 3597.19 835.098 2762.09 2133.15 628.083 1575.6 866.838
internal_count=10944 1787 1195 9157 8306 1645 1192 6661 1790 4871 1225 3646 2748 1018 1981 1125
is_linear=0
shrinkage=0.1


Tree=14
num_leaves=18
num_cat=0
split_feature=205 185 51 177 89 201 102 102 180 201 19 180 201 187 33 124 199
split_gain=5.9436 9.36573 9.24748 2.75807 3.88227 3.74739 30.8617 18.3304 10.5933 14.9161 50.6681 9.11021 6.72363 4.85223 2.86968 2.55254 2.04554
threshold=-1.0424612760543821 -1.0231719911098478 -0.36837895214557642 1.5336074233055117 0.96225082874298107 1.0000000180025095e-35 -0.16621749848127362 -0.16621749848127362 -0.62464570999145497 -0.96824583411216725 -0.20258560031652448 -0.62464570999145497 1.3555441498756411 -0.31503444910049433 1.0000000180025095e-35 -0.13423337042331693 0.14912959933280948
decision_type=2 2 2 2 2 2 2 2 2 2 2 2 2 2 2 2 2
left_child=1 -1 -3 4 5 7 -7 -2 -9 10 -10 -8 13 -13 -15 16 -11
right_child=3 2 -4 -5 -6 6 11 8 9 15 -12 12 -14 14 -16 -17 -18
leaf_value=0.0049600013972741878 0.017693882681712649 -0.0031456222625306412 -0.026615285707770012 0.0087130123271673254 -0.0082070927793928567 -0.026824729489114109 -0.010809275360064576 0.012550970657253952 0.012535507247254966 -0.0060733376401880907 -0.0443254965484252 -0.0054055873524630144 0.016474099862495584 0.012766719547894378 0.0008908182942279554 0.007914929345820533 0.0040876842657364514
leaf_weight=415.92625433206558 713.97763648629189 359.02360546588898 315.34230542182922 447.021967202425 465.01583209633827 406.09780576825142 380.52192810177803 490.87866351008415 306.26455956697464 417.69514048099518 320.93100643157959 483.45914632081985 471.5381917655468 436.58697581291199 381.06397834420204 491.43826094269753 376.88794320821762
leaf_count=583 887 555 563 586 678 710 589 642 417 597 607 695 590 549 527 656 513
internal_value=0 -0.00684155 -0.0141203 0.00112927 0.000577345 0.00129686 -0.00153896 0.00362445 -0.000553949 -0.00391631 -0.0165598 0.00323006 0.00624378 0.00253619 0.00723199 0.00224996 -0.00125375
internal_weight=0 1090.29 674.366 6589.38 6142.36 5677.34 2559.27 3118.07 2404.1 1913.22 627.196 2153.17 1772.65 1301.11 817.651 1286.02 794.583
internal_count=10944 1701 1118 9243 8657 7979 3660 4319 3432 2790 1024 2950 2361 1771 1076 1766 1110
is_linear=0
shrinkage=0.1


Tree=15
num_leaves=17
num_cat=0
split_feature=204 175 200 34 204 205 203 2 6 201 94 202 146 33 202 203
split_gain=5.21059 2.99207 3.14307 2.26294 3.74002 3.55549 2.06092 11.8071 10.3284 13.7095 8.19963 1.55118 18.7307 15.6676 2.82772 0.468167
threshold=-1.7940384149551389 1.7507634162902834 -1.010682553052902 -0.21693363785743711 1.1287354826927187 -0.94132721424102772 0.45463135838508612 -0.49587044119834894 -0.21037452667951581 -0.58094747364521016 -0.45197640359401697 1.0000000180025095e-35 0.73010817170143139 0.10083976387977601 0.89442722499370586 0.56787624955177318
decision_type=2 2 2 2 2 2 2 2 2 2 2 2 2 2 2 2
left_child=-1 2 -2 4 5 -4 8 -8 -7 -10 -11 13 14 -5 -13 -15
right_child=1 -3 3 11 -6 6 7 -9 9 10 -12 12 -14 15 -16 -17
leaf_value=-0.011553900392579083 -0.0066684338442206245 0.0077912715469075598 -0.010927210975868538 -0.010397802512318933 0.0082743806631919697 0.013932639847799855 -0.016569176478832867 0.0050861182625957617 -0.018107123154839831 0.011566785004942489 -0.0056860608879834608 -0.0027962340228912842 0.018558583087773469 0.011412750233728496 -0.015180566581807914 0.016283404772181882
leaf_weight=371.6005976498127 637.12269487977028 534.0492841899395 383.99222791194916 401.13693824410439 407.45231717824936 480.66049706935883 446.77564617991447 576.8577127456665 426.07790046930313 555.78546583652496 546.17508774995804 382.03586462140083 379.67281049489975 390.79762172698975 356.34085005521774 398.66138884425163
leaf_count=660 970 714 596 589 531 618 718 778 675 700 796 561 470 510 560 498
internal_value=0 0.000585066 1.65688e-05 0.000711101 -0.00078153 -0.00186159 -0.000713592 -0.00436557 0.00114745 -0.00287426 0.00301559 0.00318333 0.000508449 0.00569521 -0.00877292 0.0138723
internal_weight=0 7303.59 6769.55 6132.42 3823.78 3416.32 3032.33 1023.63 2008.7 1528.04 1101.96 2308.65 1118.05 1190.6 738.377 789.459
internal_count=10944 10284 9570 8600 5412 4881 4285 1496 2789 2171 1496 3188 1591 1597 1121 1008
is_linear=0
shrinkage=0.1


Tree=16
num_leaves=15
num_cat=0
split_feature=205 199 201 150 203 201 2 149 201 180 180 45 18 203
split_gain=4.42872 1.98999 21.5781 7.29165 5.27915 4.92776 2.1146 1.7165 3.28456 19.0366 12.8076 12.5377 6.89641 3.51034
threshold=-1.7661001086235044 -0.59284454584121693 -0.96824583411216725 0.5165584683418275 -1.1433925032615659 1.0000000180025095e-35 -0.53288608789443959 -0.48622982203960413 -0.19364916269106566 -0.62464570999145497 -0.62464570999145497 -0.62336409091949452 -0.043297538533806794 0.33794094622135168
decision_type=2 2 2 2 2 2 2 2 2 2 2 2 2 2
left_child=-1 2 -2 5 -3 -4 -6 -8 9 -9 -10 -11 13 -12
right_child=1 4 3 -5 6 -7 7 8 10 11 12 -13 -14 -15
leaf_value=-0.010775686096938528 -0.021181221279165344 0.011255809413606127 -0.00035960156126629112 -0.0064854362954117331 0.0076331073589853641 0.011972624007936947 -0.004808952067968001 0.015017166015833028 -0.010288054312062972 0.0049503193478558334 -0.0017022457722588387 -0.019096274470931606 0.017532228979955454 0.010494729194563148
leaf_weight=363.49882334470749 464.41200715303421 515.67139002680779 550.04611667990685 584.13716417551041 385.89146810770035 788.49509945511818 652.96132382750511 410.74013733863831 510.99680650234222 332.60030788183212 590.2489333152771 622.89614912867546 506.95403027534485 393.12157154083252
leaf_count=575 769 757 763 891 511 997 959 523 779 463 828 986 632 511
internal_value=0 0.000533386 -0.00183598 0.00283676 0.00168247 0.00690495 0.000562125 -0.000116552 0.000793293 -0.00298657 0.00337368 -0.0107259 0.00805797 0.00317373
internal_weight=0 7309.17 2387.09 1922.68 4922.08 1338.54 4406.41 4020.52 3367.56 1366.24 2001.32 955.496 1490.32 983.371
internal_count=10944 10369 3420 2651 6949 1760 6192 5681 4722 1972 2750 1449 1971 1339
is_linear=0
shrinkage=0.1


Tree=17
num_leaves=16
num_cat=0
split_feature=204 175 200 104 201 201 165 30 115 47 161 168 168 203 30
split_gain=4.31456 1.99054 2.55757 2.38078 27.4514 16.3478 36.4228 18.1559 11.0012 8.71719 5.61985 7.09562 4.20058 1.9818 1.07637
threshold=-1.7940384149551389 1.7507634162902834 -1.010682553052902 -0.16358701139688489 -0.58094747364521016 1.0000000180025095e-35 0.59989434480667125 -0.54106155037879933 1.0000000180025095e-35 0.25823923945426946 -0.33965291082859034 -0.13161541521549222 -0.67335686087608326 0.096466507762670531 -0.5412805676460265
decision_type=2 2 2 2 2 2 2 2 2 2 2 2 2 2 2
left_child=-1 2 -2 5 -5 7 10 -4 12 14 11 -7 -9 -14 -6
right_child=1 -3 3 4 9 6 -8 8 -10 -11 -12 -13 13 -15 -16
leaf_value=-0.010520473111727685 -0.0059623962756678132 0.006411530433466827 0.019766660104618569 -0.022348131125197356 0.015337598632834121 -0.012052883989285341 -0.033444477459146894 0.014581515675076982 -0.012126474669165929 -0.0043774070517170775 0.0093328633700331103 0.0061498705652073167 0.0075082012498587578 -0.0026284293444736638 0.0080276175418632009
leaf_weight=371.11574101448059 636.9276068508625 533.81496208906174 795.99990928173065 499.9044137597084 406.43458521366119 444.27609914541245 363.98073109984398 407.57824763655663 442.07911160588264 578.16024944186211 600.84221529960632 413.42906188964844 357.8281689286232 418.3891566991806 399.36029678583145
leaf_count=660 970 714 973 821 504 672 672 519 681 838 784 551 490 591 504
internal_value=0 0.000532598 6.87138e-05 0.000695544 -0.00226298 0.00200867 -0.00514551 0.00739239 0.00133417 0.00499207 0.0019165 -0.00327883 0.00636094 0.00204445 0.0117147
internal_weight=0 7299 6765.19 6128.26 1883.86 4244.4 1822.53 2421.87 1625.87 1383.96 1458.55 857.705 1183.8 776.217 805.795
internal_count=10944 10284 9570 8600 2667 5933 2679 3254 2281 1846 2007 1223 1600 1081 1008
is_linear=0
shrinkage=0.1


Tree=18
num_leaves=16
num_cat=0
split_feature=204 205 204 64 204 112 201 201 3 21 70 161 51 204 204
split_gain=3.49572 1.76654 2.08318 2.77208 4.90754 6.01552 5.46574 2.78778 20.6818 24.6796 11.5865 7.35034 3.51937 3.20355 1.50547
threshold=-1.7940384149551389 1.1667197346687319 1.1287354826927187 -0.33065763115882868 -0.063852544873952852 -0.55343016982078541 -0.19364916269106566 -0.58094747364521016 -0.34461605548858637 -0.34137345850467676 -0.32931265234947199 -0.50793460011482228 0.22429826855659488 0.16015516221523288 0.4261853843927384
decision_type=2 2 2 2 2 2 2 2 2 2 2 2 2 2 2
left_child=-1 2 3 4 -2 -6 -7 8 9 -5 -9 13 14 -12 -13
right_child=1 -3 -4 7 5 6 -8 10 -10 -11 11 12 -14 -15 -16
leaf_value=-0.0094710563837402256 -0.011767062234906804 0.0053626560370046913 0.0066490814797130621 0.028857689767727224 0.0085654133376841732 0.0043076972488200055 -0.011473123912600795 -0.016304622127984055 -0.014774360225886849 -0.0031475755467480614 -0.0088439686147071626 0.013857035986154054 -0.00047210655694405573 0.0025122311800800205 0.0058578155350018273
leaf_weight=371.01818692684174 535.54761037230492 672.51142114400864 437.87414911389351 472.58241435885429 479.82011324167252 362.42281025648117 556.46160250902176 413.7160864174366 389.05209252238274 491.51958513259888 657.30333590507507 489.47043487429619 484.91744527220726 399.31909096240997 453.0378959774971
leaf_count=660 820 875 575 554 634 503 861 679 633 721 982 618 696 538 595
internal_value=0 0.000479382 -1.64707e-05 -0.000488353 -0.00362678 -0.000509963 -0.00524891 0.000939694 0.00468723 0.0125407 -0.000810274 0.0017703 0.00645042 -0.00455223 0.010012
internal_weight=0 7295.56 6623.04 6185.17 1934.25 1398.7 918.884 4250.92 1353.15 964.102 2897.76 2484.05 1427.43 1056.62 942.508
internal_count=10944 10284 9409 8834 2818 1998 1364 6016 1908 1275 4108 3429 1909 1520 1213
is_linear=0
shrinkage=0.1


Tree=19
num_leaves=15
num_cat=0
split_feature=43 204 204 16 137 201 83 93 201 201 202 95 201 114
split_gain=3.22251 14.322 2.17281 15.7753 2.20943 5.50522 18.3417 6.2434 18.0072 10.9686 4.8751 3.87018 3.22173 4.44315
threshold=-2.2959506511688228 -1.5514262318611143 -0.78736725449562062 0.11102668568491937 -0.24626749753952024 0.96824583411216747 0.33839248120784765 0.076808372512459769 -0.58094747364521016 -0.58094747364521016 1.0000000180025095e-35 0.3084245771169663 -0.19364916269106566 0.73822548985481273
decision_type=2 2 2 2 2 2 2 2 2 2 2 2 2 2
left_child=-1 -2 3 -3 12 7 -7 8 -6 -9 -10 -11 -4 -14
right_child=1 2 4 -5 5 6 -8 9 10 11 -12 -13 13 -15
leaf_value=0.0069607715036874174 -0.019165940277242808 -0.0197408428728304 -0.0016479433838486619 0.010654791314203752 0.019256176311225247 0.0034347746466047652 -0.025036536924594593 -0.01281375447872185 0.0045000934082079112 0.0080612488325285028 -0.0094589982082656128 -0.0040617895615176064 0.014883693687325995 0.0014820594546548383
leaf_weight=611.68637564778328 392.61036750674248 348.6200492978096 572.63477903604507 334.65737414360046 648.89420011639595 641.38784313201904 349.60093155503273 633.63691478967667 527.50209933519363 717.76534351706505 475.90975457429886 415.93284943699837 466.04863619804382 527.26847025752068
leaf_count=864 727 571 811 455 797 879 593 981 717 944 721 597 570 717
internal_value=0 -0.000605715 0.000488443 -0.00485359 0.00109918 -4.64759e-05 -0.00660933 0.0018554 0.0062745 -0.00227609 -0.00212059 0.00361353 0.00432599 0.00776989
internal_weight=0 7052.47 6659.86 683.277 5976.58 4410.63 990.989 3419.64 1652.31 1767.34 1003.41 1133.7 1565.95 993.317
internal_count=10944 10080 9353 1026 8327 6229 1472 4757 2235 2522 1438 1541 2098 1287
is_linear=0
shrinkage=0.1


Tree=20
num_leaves=18
num_cat=0
split_feature=205 44 201 180 150 197 150 201 0 180 202 201 202 114 122 205 203
split_gain=2.91507 2.20378 4.48337 43.4681 52.0295 54.3608 7.10638 9.51762 16.8623 7.08834 27.9462 4.50558 3.92605 11.2896 6.09117 1.60234 0.0301289
threshold=-1.7661001086235044 2.090849876403809 -0.96824583411216725 -0.62464570999145497 0.76106262207031261 -0.22541286796331403 0.61763119697570812 -0.19364916269106566 -0.045546701177954667 -0.62464570999145497 1.0000000180025095e-35 1.3555441498756411 -0.89442722499370564 0.75156205892562877 -0.36347323656082148 0.43270090222358709 0.20494864881038669
decision_type=2 2 2 2 2 2 2 2 2 2 2 2 2 2 2 2 2
left_child=-1 2 3 -2 5 -5 9 -8 -9 10 -4 12 -11 14 15 -14 -16
right_child=1 -3 6 4 -6 -7 7 8 -10 11 -12 -13 13 -15 16 -17 -18
leaf_value=-0.0087601631516468128 0.023447759171374347 0.0075761973003152325 0.010709809456616995 -0.0078315140293704847 0.018384161852932523 -0.064582642699413925 0.0072904362940547987 0.00089954802300892811 -0.028700551267081528 -0.0028283776669862375 -0.024873437504341858 0.013807311769143352 0.017844263139945596 -0.0080629912516757673 0.0032366223834610743 0.0097215697721815056 0.0019663772477406054
leaf_weight=362.05327719449997 386.04607656598091 407.73888131976128 507.83826276659966 411.50791338086128 305.37402451038361 286.15852129459381 382.52628019452095 443.24109116196632 340.14722543954849 701.03371158242226 390.3798014819622 518.93377205729485 593.95290115475655 466.7677281498909 372.24964845180511 410.85125172138214 374.66759288311005
leaf_count=575 466 576 665 660 381 619 503 640 613 984 657 649 747 683 504 520 502
internal_value=0 0.000432693 1.00551e-05 -0.00506638 -0.0160408 -0.0311089 0.00129156 -0.00563927 -0.0119528 0.00315492 -0.00475523 0.00522126 0.00369513 0.00575653 0.00943891 0.014523 0.00259944
internal_weight=0 7299.41 6891.68 1389.09 1003.04 697.666 5502.59 1165.91 783.388 4336.67 898.218 3438.46 2919.52 2218.49 1751.72 1004.8 746.917
internal_count=10944 10369 9793 2126 1660 1279 7667 1756 1253 5911 1322 4589 3940 2956 2273 1267 1006
is_linear=0
shrinkage=0.1


Tree=21
num_leaves=18
num_cat=0
split_feature=205 105 201 201 180 167 180 201 202 150 202 149 114 202 203 105 87
split_gain=2.36101 2.2785 16.0939 6.12871 53.435 22.882 5.5962 8.93636 6.50154 4.86886 10.7772 18.9766 10.0602 5.46761 2.43646 1.70338 0.390224
threshold=-1.7661001086235044 0.28781413286924368 -0.19364916269106566 -0.96824583411216725 1.0000000180025095e-35 0.33468750119209295 -0.62464570999145497 -0.19364916269106566 1.0000000180025095e-35 0.76106262207031261 -0.89442722499370564 0.41349649429321295 0.75156205892562877 0.89442722499370586 0.46182601153850561 -0.30591283738613123 0.23496880382299426
decision_type=2 2 2 2 2 2 2 2 2 2 2 2 2 2 2 2 2
left_child=-1 3 -3 4 5 -2 7 -5 -9 10 11 -8 13 15 -11 -12 -17
right_child=1 2 -4 6 -6 -7 9 8 -10 14 12 -13 -14 -15 -16 16 -18
leaf_value=-0.0078856652217500177 -0.0063240015394455248 0.020189181199616379 -0.0086723097502335363 0.0077404322869773778 -0.036765809091098021 0.02615135324249139 -0.022550448046706067 -0.0025019809026984689 -0.020645131218934354 -0.010188862561224235 0.011624552513836752 0.0089110801475532023 -0.0056824160905838347 0.017837655418934301 0.0012177294295407511 0.002135050765277475 0.0064437179834126394
leaf_weight=361.98728963732719 520.01401636004448 380.17827990651131 392.85824638605118 385.73256531357765 399.84191009402275 372.29501125216484 356.20439377427101 431.52675095200539 364.21098637580872 356.3427462875843 510.51694962382317 415.16828781366348 449.06478309631348 723.98386225104332 394.65762260556221 418.00995138287544 422.8073658645153
leaf_count=575 813 485 598 501 751 444 552 636 628 553 646 546 650 889 561 558 558
internal_value=0 0.000388441 0.00552173 -0.000220146 -0.00638707 0.00722558 0.001304 -0.00475096 -0.0108061 0.00307178 0.00472756 -0.00561722 0.0078886 0.0108251 -0.00419459 0.00706817 0.00430168
internal_weight=0 7293.41 773.037 6520.38 1292.15 892.309 5228.23 1181.47 795.738 4046.76 3295.76 771.373 2524.38 2075.32 751 1351.33 840.817
internal_count=10944 10369 1083 9286 2008 1257 7278 1765 1264 5513 4399 1098 3301 2651 1114 1762 1116
is_linear=0
shrinkage=0.1


Tree=22
num_leaves=17
num_cat=0
split_feature=47 201 201 99 94 99 2 180 202 202 138 191 1 205 205 205
split_gain=2.35576 21.8601 9.74755 27.2828 26.1811 20.1475 13.7734 9.19467 12.1489 8.79303 8.1915 7.89173 6.02396 3.89258 2.93481 1.7011
threshold=0.24985416978597644 -0.58094747364521016 -0.19364916269106566 -0.041709208860993378 -0.068164955824613557 -0.041709208860993378 -0.46063034236431116 -0.62464570999145497 1.0000000180025095e-35 0.89442722499370586 -0.15381275117397306 -0.68293437361717213 0.18263956159353259 -0.0088187647052109224 1.0000000180025095e-35 -0.32835453748702997
decision_type=2 2 2 2 2 2 2 2 2 2 2 2 2 2 2 2
left_child=1 -1 3 4 11 7 -7 8 -4 10 -9 14 -3 -13 -2 -5
right_child=2 12 5 15 -6 6 -8 9 -10 -11 -12 13 -14 -15 -16 -17
leaf_value=-0.022091714878161806 -0.0091291294024875846 0.0090248055584554888 0.0039091676649676927 0.024955139249487571 -0.021868484987818085 -0.028325309994820053 -0.0014916893176220567 -0.0071216228366124653 -0.020487993267309934 0.017762787332636015 0.0092021080920784547 0.019129309804190333 -0.0062501121414924162 0.0050798769547647392 0.00405922306615335 0.015873675142974081
leaf_weight=450.51199787855148 340.08054420351982 766.16889452934265 454.02585789561272 420.98771953582764 465.76964220404625 445.45475134253502 335.24470004439354 585.14952567219734 370.80284532904625 451.74621361494064 647.68086940050125 396.63262486457825 389.39963120222092 392.21533435583115 334.89017018675804 404.39084732532501
leaf_count=768 559 960 640 532 768 800 480 840 640 560 840 503 576 521 465 492
internal_value=0 -0.00340696 0.000901724 0.00529 -0.0012185 -0.00277279 -0.0168025 0.00159199 -0.00705861 0.00582763 0.00145423 0.00535208 0.00387751 0.0121439 -0.00258566 0.0205057
internal_weight=0 1606.08 6045.07 2754.97 1929.59 3290.1 780.699 2509.41 824.829 1684.58 1232.83 1463.82 1155.57 788.848 674.971 825.379
internal_count=10944 2304 8640 3840 2816 4800 1280 3520 1280 2240 1680 2048 1536 1024 1024 1024
is_linear=0
shrinkage=0.1


Tree=23
num_leaves=17
num_cat=0
split_feature=43 204 175 200 104 201 201 165 94 165 204 127 202 180 43 16
split_gain=2.13649 10.0675 1.75114 2.51162 2.42678 24.7653 10.3677 15.0174 12.8986 11.8596 5.57228 4.28147 3.98554 11.789 9.00932 3.07456
threshold=-2.2959506511688228 -1.5514262318611143 1.7507634162902834 -1.010682553052902 -0.16323031485080716 -0.58094747364521016 -0.58094747364521016 0.59989434480667125 -0.15884511172771451 0.59989434480667125 0.80261138081550609 -0.17416322976350782 1.0000000180025095e-35 -0.25925068557262415 0.3546797782182694 0.46584279835224157
decision_type=2 2 2 2 2 2 2 2 2 2 2 2 2 2 2 2
left_child=-1 -2 3 -3 6 -6 7 8 -5 11 -11 12 14 -14 -8 -7
right_child=1 2 -4 4 5 15 9 -9 -10 10 -12 -13 13 -15 -16 -17
leaf_value=0.005668484509513373 -0.016117141619845586 -0.00647430271099593 0.0060358545416713972 0.011015605535259093 -0.02509419849504781 0.0099451065128113702 -0.0062321183533638677 0.024343387700346285 -0.013387037108663022 -0.023601432277145451 -0.0044419253607464893 0.0097037255085477767 -0.018828992594054461 0.0063155922054602444 0.014781706133102118 -0.00038487271378728733
leaf_weight=611.20956981182098 389.68124195933342 553.39758908748627 512.55839857459068 572.28835433721542 376.04108268022537 541.12868303060532 416.07198530435562 433.97661203145981 348.51536482572556 303.4553504884243 303.734679043293 522.1181725859642 366.57798644900322 379.48719117045403 400.3284820318222 616.25597164034843
leaf_count=864 727 847 683 755 643 672 588 490 565 547 461 672 588 502 504 836
internal_value=0 -0.000495264 0.000420717 -4.8533e-05 0.000588746 -0.00279899 0.00187252 0.00900735 0.00177944 -0.00171847 -0.0140173 0.00186388 -0.000755908 -0.00603916 0.00407218 0.00444485
internal_weight=0 7035.62 6645.94 6133.38 5579.98 1533.43 4046.55 1354.78 920.804 2691.77 607.19 2084.58 1562.47 746.065 816.4 1157.38
internal_count=10944 10080 9353 8670 7823 2151 5672 1810 1320 3862 1008 2854 2182 1090 1092 1508
is_linear=0
shrinkage=0.1


Tree=24
num_leaves=17
num_cat=0
split_feature=47 204 201 99 99 107 201 204 94 142 201 107 202 204 104 204
split_gain=2.06091 25.3901 7.78052 23.0332 19.4861 14.4832 28.4452 5.90827 5.22383 5.58282 3.94975 3.76412 2.90744 3.74217 5.05602 1.54256
threshold=0.25425586104393011 -0.67967405915260304 1.0000000180025095e-35 -0.041709208860993378 -0.041709208860993378 1.0000000180025095e-35 -0.96824583411216725 -0.35278125107288355 -0.068164955824613557 -0.29502408206462855 0.96824583411216747 -0.58070719242095936 -0.89442722499370564 0.16015516221523288 -0.16281256824731824 -0.18865617364645001
decision_type=2 2 2 2 2 2 2 2 2 2 2 2 2 2 2 2
left_child=1 -1 4 8 5 6 -2 -7 9 10 -4 -8 -3 -14 -15 -6
right_child=2 12 3 -5 15 7 11 -9 -10 -11 -12 -13 13 14 -16 -17
leaf_value=-0.027047545625457116 -0.029209289923088872 0.0095189965355506993 -0.0040360603569581585 -0.022344686721016884 0.021100003881421442 0.017366333749179987 -0.0042649852264413923 0.0020398590083035412 0.0094806997833736945 -0.010465433154327393 0.0096588184786454041 0.0091251711695365442 -0.0083759175355197692 -0.0042925735358355773 0.011145010456096813 0.012797991724994654
leaf_weight=354.28342816233635 418.21465054154396 430.55767369270325 405.47398632764816 503.32830449938774 422.45743015408516 410.05499744415283 403.48902130126953 650.57566139101982 594.33000299334526 476.26970186829567 438.18319371342659 437.65290504693985 373.65109342336655 413.22953009605408 435.99379715323448 475.95782175660133
leaf_count=658 768 551 576 896 526 554 576 886 768 768 576 576 554 579 538 594
internal_value=0 -0.00275355 0.000977614 -0.00330934 0.00419787 -0.000644286 -0.00789528 0.00796529 0.00169575 -0.00180961 0.00307686 0.00270202 0.00245196 -3.62535e-05 0.00363313 0.0167018
internal_weight=0 2007.72 5635.99 2417.59 3218.4 2319.99 1259.36 1060.63 1914.26 1319.93 843.657 841.142 1653.43 1222.87 849.223 898.415
internal_count=10944 2880 8064 3584 4480 3360 1920 1440 2688 1920 1152 1152 2222 1671 1117 1120
is_linear=0
shrinkage=0.1


Tree=25
num_leaves=16
num_cat=0
split_feature=205 84 201 87 89 198 180 202 167 168 201 180 204 204 99
split_gain=1.83014 2.27001 2.92672 21.6958 14.8907 13.5431 5.54468 9.72941 6.28071 5.00186 3.9824 4.92669 4.08247 1.21452 0.954064
threshold=-1.7661001086235044 2.1021975278854375 -0.58094747364521016 -0.84000679850578297 0.5592763125896455 0.8158271610736848 -0.62464570999145497 1.0000000180025095e-35 1.0230111479759219 0.46523447334766393 1.3555441498756411 0.23882308602333072 0.035481866449117667 0.55740687251091015 -0.2399712800979614
decision_type=2 2 2 2 2 2 2 2 2 2 2 2 2 2 2
left_child=-1 2 3 -2 5 9 7 -4 10 -5 11 12 -8 -13 -14
right_child=1 -3 6 4 -6 -7 8 -9 -10 -11 -12 13 14 -15 -16
leaf_value=-0.0069587154974608241 -0.017249242298666465 -0.0073255077845427539 0.0016701475853744712 0.012740139026759169 -0.0087387727864583625 -0.0016764509194046589 -0.0093139616724443337 -0.01718893020656553 -0.008333346001634415 0.026835451695427233 0.0109849083536701 0.0095433302705135552 0.0053313720556187353 0.0028607191919253466 -0.0015038404229893484
leaf_weight=360.36553961038589 405.2392290532589 366.67417460680008 603.85993978381157 533.70095694065094 401.56820204854012 437.29247918725014 545.64835381507874 500.11269691586494 574.54009935259819 476.55990397930145 525.6449893116951 578.10314798355103 401.71103683114052 513.57170033454895 415.34970909357071
leaf_count=575 686 535 858 686 643 659 821 850 903 558 661 759 515 672 563
internal_value=0 0.000341948 0.000748645 0.00370648 0.00829897 0.0130254 -0.000682709 -0.00687324 0.00123994 0.0193892 0.00308563 0.00139388 -0.00261618 0.00639954 0.00185672
internal_weight=0 7279.58 6912.9 2254.36 1849.12 1447.55 4658.54 1103.97 3554.57 1010.26 2980.03 2454.38 1362.71 1091.67 817.061
internal_count=10944 10369 9834 3232 2546 1903 6602 1708 4894 1244 3991 3330 1899 1431 1078
is_linear=0
shrinkage=0.1


Tree=26
num_leaves=16
num_cat=0
split_feature=47 201 204 201 101 83 116 201 202 180 201 103 24 202 130
split_gain=1.81036 15.8208 9.02891 6.46185 14.4142 9.43721 10.781 7.41643 7.17138 11.03 7.07562 5.58511 4.54653 3.76829 2.68789
threshold=0.24985416978597644 -0.19364916269106566 0.091072320938110365 0.58094753324985515 0.29350106418132788 0.31294518709182745 1.2881929874420168 -0.96824583411216725 0.89442722499370586 -0.46543318033218378 -0.58094747364521016 -0.16316130757331845 -0.26330657303333277 1.0000000180025095e-35 -0.11074289865791796
decision_type=2 2 2 2 2 2 2 2 2 2 2 2 2 2 2
left_child=1 2 -1 5 11 8 7 -7 9 -2 -11 13 -3 -5 -9
right_child=3 12 -4 4 -6 6 -8 14 -10 10 -12 -13 -14 -15 -16
leaf_value=-0.02705031991308933 0.0056340843656891735 0.011314215050895873 -0.0030291863743690558 -0.0010796076828460033 -0.018620101316264733 0.021765188735944487 -0.0065366451475437895 0.0013917654035050225 0.0081853713013908484 -0.02029017806900596 -0.0035789174624685262 -0.0081405308541517892 -0.0023664767686775055 0.011294205065939792 0.012091695603981899
leaf_weight=322.44249945878983 639.61732539534569 523.54878467321396 304.00493848323822 475.470230281353 498.70218074321747 524.96212777495384 386.24793377518654 453.78312748670578 587.42050510644913 460.98423898220062 562.55425947904587 447.99694591760635 453.19961580634117 510.21363687515259 486.44552955031395
leaf_count=597 864 640 427 672 864 640 576 640 816 792 792 672 640 672 640
internal_value=0 -0.00298903 -0.0153932 0.000791477 -0.00397627 0.00303748 0.00832577 0.0122437 -0.00131294 -0.00466771 -0.0111054 0.00111755 0.00496654 0.00532537 0.00692758
internal_weight=0 1603.2 626.447 6034.4 1932.38 4102.02 1851.44 1465.19 2250.58 1663.16 1023.54 1433.68 976.748 985.684 940.229
internal_count=10944 2304 1024 8640 2880 5760 2496 1920 3264 2448 1584 2016 1280 1344 1280
is_linear=0
shrinkage=0.1


Tree=27
num_leaves=17
num_cat=0
split_feature=202 103 187 111 191 24 201 141 203 202 24 17 201 96 202 0
split_gain=1.80767 22.4614 23.1124 12.1461 7.37506 7.88616 5.49462 18.3593 4.65456 4.16839 7.53228 5.59876 5.77414 4.15054 2.23976 1.29981
threshold=-0.89442722499370564 -0.16341328620910642 -0.28118073940277094 1.0000000180025095e-35 -0.61502385139465321 -0.33163593709468836 0.96824583411216747 -0.39234592020511622 -0.47997926175594324 0.89442722499370586 -0.29930774867534632 -0.41039824485778803 -0.58094747364521016 -0.30593962967395777 0.89442722499370586 0.25482178479433065
decision_type=2 2 2 2 2 2 2 2 2 2 2 2 2 2 2 2
left_child=1 2 -1 -3 5 -2 9 -8 -7 11 -11 12 -6 -10 15 -15
right_child=4 3 -4 -5 6 8 7 -9 13 10 -12 -13 -14 14 -16 -17
leaf_value=0.0092396803327234843 0.012558590142843698 0.026169760417471512 -0.022105464683640136 0.003751510339191274 0.013222059288577372 -0.0098954058541572184 0.0045180401967623452 -0.028962182940334997 0.010761209194825105 0.00073375609988059144 -0.019156443066126256 -0.0069493222149218234 -0.0016183016823767102 0.0059468306830020743 -0.0073033483317978126 -0.0022331917412774928
leaf_weight=419.88802406191826 649.37727046012878 416.60087376832962 534.91563305258751 575.57855385541916 484.08693900704384 392.46916899085045 325.21145990490913 329.97256979346275 421.93814936280251 429.19273194670677 342.188142567873 594.25719699263573 571.93872541189194 422.01945912837982 365.25314748287201 359.92619159817696
leaf_count=576 864 504 864 792 624 634 432 576 536 616 560 896 832 571 542 525
internal_value=0 0.00262802 -0.00832101 0.0131646 -0.000902226 0.00300673 -0.00421932 -0.0123437 -0.000155359 -0.00202126 -0.00808963 0.000815237 0.00518459 0.0022808 -0.000838283 0.0021816
internal_weight=0 1946.98 954.804 992.179 5687.83 2610.98 3076.85 655.184 1961.61 2421.66 771.381 1650.28 1056.03 1569.14 1147.2 781.946
internal_count=10944 2736 1440 1296 8208 3672 4536 1008 2808 3528 1176 2352 1456 2174 1638 1096
is_linear=0
shrinkage=0.1


Tree=28
num_leaves=18
num_cat=0
split_feature=3 201 201 95 34 165 120 85 165 202 103 16 123 120 150 1 204
split_gain=1.72836 13.5459 4.7205 17.0591 16.546 15.6586 7.42262 6.13593 5.63357 3.45256 14.6611 10.3797 3.17123 2.83113 2.82464 2.24586 0.837209
threshold=0.27927671279758221 -0.19364916269106566 -0.19364916269106566 0.41329652070999151 -0.26359312236309046 1.1984984278678896 0.78865358233451854 1.6833427548408511 0.59989434480667125 1.0000000180025095e-35 -0.16341328620910642 -0.41415064036846155 -0.7356281280517577 -0.82347291707992543 1.0000000180025095e-35 -0.31085316836833948 0.10808568820357324
decision_type=2 2 2 2 2 2 2 2 2 2 2 2 2 2 2 2 2
left_child=2 15 3 4 -1 7 13 8 9 11 -11 -4 -5 -6 -3 -2 -15
right_child=1 14 5 12 6 -7 -8 -9 -10 10 -12 -13 -14 16 -16 -17 -18
leaf_value=-0.020435279996962794 -0.0084386489807901956 0.0095158495881883937 -0.0060640282594837417 0.021070900751619128 0.0056655006095911141 -0.021526658931887294 0.014825086012925082 0.012385655894955251 -0.012497088877591336 0.0056714429979239159 -0.01892301343288539 0.013307269885029139 0.0093465092354379341 -0.00875791939055264 -0.0012449432685651121 -0.020433693658051547 -0.0017218005676981046
leaf_weight=377.1751816868782 312.56136137247086 515.38851487636566 499.5939984023571 437.41286820173264 376.14169824123383 358.00224956870079 392.30140134692192 385.50802093744278 373.46114873886108 662.04662516713142 382.36142838001251 619.73693519830704 488.16797012090683 330.31244716048241 463.14084899425507 311.80490651726723 346.51261749863625
leaf_count=640 512 640 720 512 512 640 512 480 640 880 640 800 640 539 640 512 485
internal_value=0 -0.00292043 0.000774111 0.00383153 -0.00178344 -0.00178687 0.00308417 0.00063105 -0.00115497 0.000802677 -0.00333267 0.00466123 0.0148872 -0.00129011 0.00442273 -0.0144289 -0.00515565
internal_weight=0 1602.9 6028.73 2748.02 1822.44 3280.71 1445.27 2922.71 2537.2 2163.74 1044.41 1119.33 925.581 1052.97 978.529 624.366 676.825
internal_count=10944 2304 8640 3840 2688 4800 2048 4160 3680 3040 1520 1520 1152 1536 1280 1024 1024
is_linear=0
shrinkage=0.1


Tree=29
num_leaves=15
num_cat=0
split_feature=205 0 201 122 180 202 16 185 69 24 175 97 203 101
split_gain=1.43426 1.77396 3.23829 17.0356 20.8242 5.54003 16.1678 13.0432 16.3291 6.29512 5.18794 3.18602 2.23276 1.07531
threshold=-1.7661001086235044 0.41600279510021215 -0.58094747364521016 -0.45157739520072931 -0.11097522918134926 -0.89442722499370564 -0.41415064036846155 -0.52948930859565724 -0.58114600181579579 -0.32019865512847895 0.19867470860481265 -0.1106879892759025 0.41112749278545385 0.28172925114631658
decision_type=2 2 2 2 2 2 2 2 2 2 2 2 2 2
left_child=-1 2 3 10 -5 6 -4 -7 -9 12 -2 -11 -10 -13
right_child=1 -3 5 4 -6 7 -8 8 9 11 -12 13 -14 -15
leaf_value=-0.0061694094561987149 0.0064515565294275493 -0.0050840063576038852 -0.0098241886525017967 0.0078026375486442414 -0.0189984551406608 -0.016140173402493848 0.014367105508420212 -0.017661609762638159 0.005232429470215948 -0.0067307250190265164 0.020627316678107778 -0.00053377534132672936 0.015286035805433607 0.0065158389890554256
leaf_weight=359.28183361887932 538.73976045846939 563.85777324438095 446.74731981754303 638.19191452860832 531.23062431812286 605.29448649287224 723.97695434093475 435.50457018613815 459.0728687942028 539.33636659383774 495.72099080681801 424.37039721012115 425.78422427177429 441.45981922745705
leaf_count=575 740 807 659 860 948 977 940 703 615 834 600 574 536 576
internal_value=0 0.00030308 0.000756079 0.00389681 -0.00437223 -0.000781573 0.00513573 -0.0028614 8.7596e-05 0.00346305 0.0132447 -0.000697542 0.0100701 0.0030606
internal_weight=0 7269.29 6705.43 2203.88 1169.42 4501.55 1170.72 3330.82 2725.53 2290.02 1034.46 1405.17 884.857 865.83
internal_count=10944 10369 9562 3148 1808 6414 1599 4815 3838 3135 1340 1984 1151 1150
is_linear=0
shrinkage=0.1


Tree=30
num_leaves=17
num_cat=0
split_feature=201 150 151 147 86 201 33 205 180 202 201 180 204 204 131 110
split_gain=1.54056 23.4652 24.3709 19.4861 3.51511 3.37655 6.8036 4.19095 3.9461 7.69306 3.3746 3.38199 2.76801 1.25594 1.07492 1.06045
threshold=-0.96824583411216725 0.56583777070045482 -0.016715089557692405 -0.24113600701093671 1.8055288195610049 -0.58094747364521016 -0.65363997220993031 0.10387900099158288 -0.62464570999145497 1.0000000180025095e-35 1.3555441498756411 0.23882308602333072 -0.11837174370884894 0.58770465850830089 -0.28996087610721583 -0.30937518179416651
decision_type=2 2 2 2 2 2 2 2 2 2 2 2 2 2 2 2
left_child=1 2 3 -1 5 7 13 -2 9 -8 11 12 -10 -7 -14 -13
right_child=4 -3 -4 -5 -6 6 8 -9 10 -11 -12 15 14 -15 -16 -17
leaf_value=-0.018714445111717794 0.012714903188088987 0.015817068271508118 -0.032196447475342796 0.01370778978037037 0.0085789935603942154 -0.013887309461676576 0.0030261446727268336 -0.0014901642902619325 -0.0088941022650879976 -0.014582388755016388 0.0096094799816466864 0.0014093304231047338 0.0041562434101885858 -0.0053627571623931182 -0.0026736482585363618 0.0077369379252760651
leaf_weight=330.18930724263191 430.22522395849228 475.43848696351051 358.31429752707481 422.64544633030891 520.94620880484581 392.93823662400246 552.28131258487701 401.54296082258224 452.15646350383759 450.50716081261635 529.17267382144928 467.28654098510742 449.81341108679771 308.54492551088333 472.48713472485542 611.38770309090614
leaf_count=576 572 576 704 576 672 672 768 548 693 768 672 640 581 480 646 800
internal_value=0 -0.00277462 -0.0107296 -0.00051243 0.000726916 -1.43411e-05 -0.00105643 0.00585729 0.000542136 -0.00488457 0.00236684 0.000804512 -0.0024848 -0.0101378 0.000657345 0.00499579
internal_weight=0 1586.59 1111.15 752.835 6039.29 5518.34 4686.58 831.768 3985.09 1002.79 2982.3 2453.13 1374.46 701.483 922.301 1078.67
internal_count=10944 2432 1856 1152 8512 7840 6720 1120 5568 1536 4032 3360 1920 1152 1227 1440
is_linear=0
shrinkage=0.1


Tree=31
num_leaves=17
num_cat=0
split_feature=3 201 82 201 23 165 177 84 127 16 202 172 200 186 101 3
split_gain=1.36278 13.4607 10.8275 4.54156 14.7311 11.0886 9.2627 8.10318 4.23501 3.91009 4.50157 5.50216 4.13145 2.95384 1.7286 1.04437
threshold=1.0000000180025095e-35 -0.19364916269106566 -0.34108324348926539 -0.19364916269106566 -0.34635277092456812 1.1984984278678896 -0.23192463070154187 -0.35262192785739893 -0.3812368363142013 -0.10117720440030097 0.89442722499370586 1.0000000180025095e-35 -0.32740421593189234 -0.14510288089513776 0.27109038829803472 -0.36263220012187952
decision_type=2 2 2 2 2 2 2 2 2 2 2 2 2 2 2 2
left_child=3 2 -2 4 7 8 -6 15 -5 10 11 12 -10 -8 -3 -1
right_child=1 14 -4 5 6 -7 13 -9 9 -11 -12 -13 -14 -15 -16 -17
leaf_value=-0.0010259308209307296 -0.00085094327891270223 0.0077996698948031937 -0.025788066350810726 0.007680682025315036 -0.017250843863536203 -0.018417457360783492 -0.0040888104553362149 0.017578973255504695 -0.0053291433467327473 -0.0087458832040011054 0.0096988590999307102 -0.012057590588058123 0.0091785646969101964 0.0081703530550966113 -0.00022302243311478421 0.0065364018410741329
leaf_weight=356.80508947372437 348.96073323488235 644.65449300408363 347.500333070755 607.16039696335793 387.56702703237534 357.29000028967857 421.75032934546471 762.77113741636276 366.29230320453644 586.30257448554039 419.45232212543488 391.27239385247231 422.94635891914368 368.08232432603836 460.35448569059372 374.07166637480259
leaf_count=512 512 800 640 800 640 640 640 896 540 960 560 600 540 512 640 512
internal_value=0 -0.00240519 -0.0132934 0.000742134 0.0037756 -0.00182951 -0.00458889 0.0103691 0.000292148 -0.00175976 0.000800283 -0.00236151 0.00244542 0.00162427 0.00445736 0.00284456
internal_weight=0 1801.47 696.461 5821.76 2671.05 3150.72 1177.4 1493.65 2793.43 2186.27 1599.96 1180.51 789.239 789.833 1105.01 730.877
internal_count=10944 2592 1152 8352 3712 4640 1792 1920 4000 3200 2240 1680 1080 1152 1440 1024
is_linear=0
shrinkage=0.1


Tree=32
num_leaves=18
num_cat=0
split_feature=201 167 109 204 204 145 124 204 144 203 107 204 64 191 12 105 86
split_gain=1.43612 27.2972 2.89516 10.0866 7.20796 2.46037 2.31294 2.34146 5.2553 2.35118 2.65665 2.05593 1.8137 1.88662 1.68822 1.52449 0.496558
threshold=-1.3555442094802854 0.33468750119209295 -0.53140875697135914 -0.90618729591369618 -0.86946487426757801 -0.52966114878654469 1.0970296263694765 0.60097754001617443 -0.16559876501560208 0.16762354224920276 0.50553587079048168 0.18593444675207141 -0.35059940814971918 -0.65021803975105275 -0.41333296895027155 -0.27665290236473078 0.31944511830806738
decision_type=2 2 2 2 2 2 2 2 2 2 2 2 2 2 2 2 2
left_child=1 -1 3 -2 -4 -5 7 9 -9 10 -6 15 -13 -14 -8 -7 -15
right_child=2 -3 4 5 6 11 14 8 -10 -11 -12 12 13 16 -16 -17 -18
leaf_value=-0.022235764771023153 -0.017552259966918764 0.015372296796286773 0.014122476467502205 0.0072548497163579546 0.0071540072958410569 -0.00010309346668546069 0.00036279371433436421 0.0059720351724222437 -0.010522004740100737 0.011834841489034475 -0.0035772266777919603 -0.0047150253206002229 0.0079117945034209314 -0.0026272238471250764 -0.0082237601680158062 -0.0082010496855583516 0.0024826439385795115
leaf_weight=399.94882823526859 355.77988332509995 372.99073937535286 461.56432546675205 430.01568084955215 526.58600753545761 415.40058246254921 515.3909504711628 409.62317103147507 365.56790763139725 373.58936661481857 410.5524275302887 391.9135859310627 491.1261622607708 375.41818791627884 412.03351113200188 527.91694524884224 385.40777093172073
leaf_count=736 620 480 659 568 684 585 729 548 544 493 580 599 649 536 627 797 510
internal_value=0 -0.00408757 0.000459652 -0.00162735 0.00248543 0.000250474 0.000702948 0.0025503 -0.00180629 0.00512687 0.00245274 -0.000913723 0.00122171 0.00308016 -0.00345202 -0.00463502 -3.87439e-05
internal_weight=0 772.94 6847.89 3372.98 3474.91 3017.2 3013.34 2085.92 775.191 1310.73 937.138 2587.18 1643.87 1251.95 927.424 943.318 760.826
internal_count=10944 1216 9728 4864 4864 4244 4205 2849 1092 1757 1264 3676 2294 1695 1356 1382 1046
is_linear=0
shrinkage=0.1


Tree=33
num_leaves=17
num_cat=0
split_feature=201 180 114 161 86 201 116 149 143 205 202 174 150 136 204 168
split_gain=1.28002 21.5301 28.3145 27.307 2.69496 2.75993 12.5259 11.4957 2.84528 5.69235 2.68463 7.84475 2.62566 2.33563 0.862364 2.13232
threshold=-0.96824583411216725 -0.62464570999145497 0.74877741932868969 -0.23635552823543546 1.8055288195610049 0.96824583411216747 1.0000000180025095e-35 0.7264649271965028 -0.38694930076599116 -0.17550911754369733 -0.89442722499370564 -0.08531359955668448 0.051662917248904712 -0.097226101905107484 0.93054535984992992 -0.67335686087608326
decision_type=2 2 2 2 2 2 2 2 2 2 2 2 2 2 2 2
left_child=1 -1 3 -3 5 8 7 -7 10 -10 -2 -12 -8 14 15 -11
right_child=4 2 -4 -5 -6 6 12 -9 9 13 11 -13 -14 -15 -16 -17
leaf_value=0.015506073844020219 0.0049870913884002104 -0.040445099382224479 0.010127740897591785 -0.00036188134556863088 0.0075390878752592512 -0.026217693484357346 0.010674218728744855 -0.0010397043711152978 0.011204779337613031 -0.0085872746547474895 0.0033193930098075705 -0.013219981615119225 -0.00084767244710502873 0.0069973733838669602 0.0025866869295498958 0.00093154137283534455
leaf_weight=466.60741764307022 412.53686746954918 382.41124197840691 427.8750005364418 305.92963451147079 520.7136016190052 347.98639217019081 407.67143842577934 378.66792750358582 691.82811307907104 411.47948715090752 613.32010066509247 538.62228080630302 384.16155192255974 418.04835888743401 361.41773772239685 549.74940487742424
leaf_count=576 560 832 576 448 672 640 512 512 953 605 840 840 576 569 494 739
internal_value=0 -0.00253264 -0.0100733 -0.0226303 0.000662285 1.30512e-05 -0.00361621 -0.0130972 0.00139183 0.00353153 -0.00193506 -0.00441405 0.00508432 0.000481843 -0.00157752 -0.00314324
internal_weight=0 1582.82 1116.22 688.341 6036.2 5515.49 1518.49 726.654 3997 2432.52 1564.48 1151.94 791.833 1740.69 1322.65 961.229
internal_count=10944 2432 1856 1280 8512 7840 2240 1152 5600 3360 2240 1680 1088 2407 1838 1344
is_linear=0
shrinkage=0.1


Tree=34
num_leaves=16
num_cat=0
split_feature=86 201 202 16 114 191 24 201 202 24 204 127 83 203 198
split_gain=1.3265 9.84744 3.16573 20.992 35.2105 5.8007 6.67259 5.59921 5.16317 4.7367 4.29453 4.21384 3.54848 1.44388 0.954371
threshold=0.92850235104560863 -0.19364916269106566 -0.89442722499370564 -0.2498345151543617 0.74615547060966503 -0.61502385139465321 -0.33163593709468836 0.96824583411216747 0.89442722499370586 -0.29930774867534632 -0.59103578329086293 -0.31152075529098505 0.31294518709182745 0.43161664903163915 0.35785228013992315
decision_type=2 2 2 2 2 2 2 2 2 2 2 2 2 2 2
left_child=2 -2 3 4 -1 6 -4 8 12 -10 -8 -5 14 -12 -7
right_child=1 -3 5 11 -6 7 10 -9 9 -11 13 -13 -14 -15 -16
leaf_value=-0.029715170304541821 -0.015772288348314036 0.0046099417650761086 0.011583757075943635 0.0084943560359253458 0.011858147491013618 -0.0060036939495083999 -0.010333012674029959 -0.012600300812728067 -0.00046851635992534082 -0.01705109673700745 0.0052268417714233691 0.022281405697425004 0.0078850244306039839 -0.0020187117524833563 0.00057053877122419463
leaf_weight=378.5825791656971 390.80335345864296 602.45217198133469 649.30767062306404 483.15847507119179 441.07865324616432 371.33633261919022 345.463200122118 574.2922046482563 348.25698852539062 340.84241653978825 699.48253363370895 409.6345696747303 583.12944066524506 453.25428819656372 544.74694189429283
leaf_count=648 640 800 864 648 576 560 565 912 504 560 936 504 784 659 784
internal_value=0 -0.00340959 0.000509345 0.00421155 -0.00734361 -0.000781839 0.00311656 -0.00381226 -0.00150596 -0.00867059 -0.000553051 0.0148202 0.0017872 0.0023779 -0.00209434
internal_weight=0 993.256 6622.57 1712.45 819.661 4910.11 2147.51 2762.6 2188.31 689.099 1498.2 892.793 1499.21 1152.74 916.083
internal_count=10944 1440 9504 2376 1224 7128 3024 4104 3192 1064 2160 1152 2128 1595 1344
is_linear=0
shrinkage=0.1


Tree=35
num_leaves=16
num_cat=0
split_feature=205 84 203 200 34 202 133 201 168 191 201 100 204 120 201
split_gain=1.11285 1.58684 2.58098 2.45935 3.25213 10.5572 1.67475 2.39693 3.53059 2.1799 3.50294 1.79085 1.27523 1.25895 3.04874
threshold=-1.7661001086235044 2.1021975278854375 -1.4281375408172605 -1.010682553052902 -0.074783984571695314 1.0000000180025095e-35 -0.32890605926513666 -0.96824583411216725 -0.23246414214372632 0.62135207653045665 1.0000000180025095e-35 -0.28228752315044398 0.87549838423728954 -0.33476424217224116 -0.58094747364521016
decision_type=2 2 2 2 2 2 2 2 2 2 2 2 2 2 2
left_child=-1 2 -2 -4 6 -6 12 -8 11 10 -10 -9 13 14 -5
right_child=1 -3 3 4 5 -7 7 8 9 -11 -12 -13 -14 -15 -16
leaf_value=-0.0054459359401700762 0.0082053592174844269 -0.006161244327843457 -0.0065814701005195335 0.0094731236919559057 0.013930844206005061 -0.0049347275388212011 -0.0080082235254737618 0.0073537466579221547 -0.00017842311055378345 0.0010156236917910914 -0.012716415451505637 -0.0011090069673064527 0.0072515255842993624 -0.0042550202211898763 -0.0019664164795744699
leaf_weight=357.81305447220802 419.80623668432236 364.73450070619583 505.7167757153511 382.06913417577744 651.69747984409332 544.42606872320175 530.43377578258514 608.36053854227066 419.11249825358391 582.4873309135437 475.80646309256554 424.5631086230278 364.58890932798386 384.52148979902267 597.00137436389923
leaf_count=575 672 535 784 481 808 822 856 783 573 784 764 573 493 544 897
internal_value=0 0.000266784 0.000607034 0.000114077 0.000681723 0.00534401 -0.00048765 -0.00190041 -0.000609824 -0.00374558 -0.00684457 0.0038753 0.00199812 0.000593497 0.00249771
internal_weight=0 7255.33 6890.59 6470.78 5965.07 1196.12 4768.94 3040.76 2510.33 1477.41 894.919 1032.92 1728.18 1363.59 979.071
internal_count=10944 10369 9834 9162 8378 1630 6748 4333 3477 2121 1337 1356 2415 1922 1378
is_linear=0
shrinkage=0.1


Tree=36
num_leaves=14
num_cat=0
split_feature=201 167 109 204 204 145 139 201 2 201 205 199 205
split_gain=1.05014 20.9926 2.51442 7.62993 5.95707 1.91969 1.84014 1.5959 3.44348 5.08843 1.49206 2.1561 1.34279
threshold=-1.3555442094802854 0.42836888134479528 -0.53140875697135914 -0.90618729591369618 -0.86946487426757801 -0.52597153186798085 -0.35266508162021631 0.96824583411216747 -0.46063034236431116 -0.19364916269106566 0.24843391776084903 -0.60196399688720692 0.58062139153480541
decision_type=2 2 2 2 2 2 2 2 2 2 2 2 2
left_child=1 -1 3 -2 -4 -5 -6 8 -7 -10 11 -8 -12
right_child=2 -3 4 5 6 7 10 -9 9 -11 12 -13 -14
leaf_value=-0.018422344479491839 -0.015421419665612369 0.01476010500097347 0.012867910979725125 0.0050654386576165777 -0.004191676510324106 0.0061180519682832455 -0.0010328664605141543 -0.0058272586128569163 -0.0099700012844385292 0.0031574477159748517 -0.003298224889988194 0.0085631595806753853 0.0028970441704267514
leaf_weight=424.0030118227005 354.93350802361965 346.42939582467079 460.95107385516167 614.73479807376862 620.49701595306396 645.25833010673523 379.41230344772339 568.28853130340576 552.83724892139435 633.77256029844284 695.58976048231125 611.54636982083321 703.88238459825516
leaf_count=768 620 448 659 820 916 879 533 865 825 855 990 820 946
internal_value=0 -0.00350166 0.000392622 -0.00155326 0.0022813 7.93982e-05 0.000660571 -0.00119764 0.000238576 -0.00295858 0.00192009 0.00488909 -0.000182235
internal_weight=0 770.432 6841.7 3369.82 3471.88 3014.89 3010.93 2400.16 1831.87 1186.61 2390.43 990.959 1399.47
internal_count=10944 1216 9728 4864 4864 4244 4205 3424 2559 1680 3289 1353 1936
is_linear=0
shrinkage=0.1


Tree=37
num_leaves=16
num_cat=0
split_feature=51 201 202 4 4 203 202 82 120 24 51 84 53 201 95
split_gain=0.944229 14.0712 10.9086 8.90391 7.53636 2.46742 1.89854 13.4398 13.3901 11.8941 8.13683 5.8969 4.15516 2.43857 2.07889
threshold=0.22429826855659488 -1.3555442094802854 1.0000000180025095e-35 -0.1556742116808891 -0.1556742116808891 -0.69572848081588734 1.0000000180025095e-35 -0.3837094753980636 -0.33476424217224116 -0.32892198860645289 -0.60201546549797047 -0.36648356914520258 -0.22850785404443738 1.0000000180025095e-35 0.77241647243499767
decision_type=2 2 2 2 2 2 2 2 2 2 2 2 2 2 2
left_child=1 -1 3 -2 -4 -3 8 -8 11 -10 -9 -7 13 -12 -11
right_child=2 5 4 -5 -6 6 7 10 9 14 12 -13 -14 -15 -16
leaf_value=-0.016285825577532824 0.00090033763784231734 0.007620844883897528 0.00087555894130786219 0.019307335589124276 -0.017675512921853286 0.014450761161197638 -0.011536772627154735 0.019068896020630319 -0.021910709671043749 -0.0067534188599911345 0.0041694223322624501 -0.00087822494248886249 0.010718090038376793 -0.0061618845876067856 0.0032430114652388384
leaf_weight=523.06650871038437 617.75437353551388 498.55085764825344 588.3275463283062 457.35200715065002 348.83406847715378 503.10219976305962 541.35165154933929 397.52517110109329 441.33528071641922 403.96497318148613 451.69121408462524 500.72636535763741 445.96312722563744 462.30381792783737 428.93283078074455
leaf_count=896 864 744 864 576 576 627 866 502 710 588 624 710 563 663 571
internal_value=0 -0.000669177 0.00185648 0.0087307 -0.0060296 0.000940247 0.000212545 0.00224001 -0.00183341 -0.0086382 0.00648363 0.00680441 0.00280487 -0.00105621 -0.00160537
internal_weight=0 5598.51 2012.27 1075.11 937.162 5075.45 4576.9 2298.83 2278.06 1274.23 1757.48 1003.83 1359.96 913.995 832.898
internal_count=10944 8064 2880 1440 1440 7168 6424 3218 3206 1869 2352 1337 1850 1287 1159
is_linear=0
shrinkage=0.1


Tree=38
num_leaves=14
num_cat=0
split_feature=15 201 170 87 205 168 93 201 202 201 181 201 116
split_gain=0.900366 1.08106 10.3784 4.25541 3.55874 4.11253 5.73551 8.3068 7.02571 5.64059 2.97448 1.993 8.18086
threshold=0.49759159982204443 0.96824583411216747 0.21825148910284045 -1.0501753091812132 -1.3962035775184629 0.80285105109214794 0.18956916034221652 -0.58094747364521016 -0.89442722499370564 -0.58094747364521016 -0.48667283356189722 -0.96824583411216725 -0.1628204211592674
decision_type=2 2 2 2 2 2 2 2 2 2 2 2 2
left_child=1 3 10 -1 -5 6 8 -8 -6 -7 -3 -10 -13
right_child=-2 2 -4 4 5 9 7 -9 11 -11 -12 12 -14
leaf_value=-0.0071803800626383868 -0.0046363447492563797 0.0091817245618205142 -0.012520560972616453 0.0099716000503144459 0.010423410926300579 0.014295699340587976 -0.019510366149098315 -0.00030159182993641807 0.0038832616763737715 -0.00034721236908179866 -0.0019369738089655938 0.0041472741673205926 -0.011559503489901913
leaf_weight=584.37696771323681 397.21126700937748 544.36578488349915 591.5306096971035 485.63438904285431 692.28505027294159 490.00434789061546 350.57584065198898 629.16066032648087 515.91137956082821 568.02573582530022 431.18212184309959 686.42444950342178 641.52453720569611
leaf_count=896 576 704 960 708 886 616 634 849 715 825 640 938 997
internal_value=0 0.000254032 -0.00206963 0.000899214 0.00183241 0.000968229 -0.000676683 -0.007175 0.00183368 0.00643434 0.00426737 -0.00139137 -0.00344058
internal_weight=0 7211 1567.08 5643.92 5059.55 4573.91 3515.88 979.737 2536.15 1058.03 975.548 1843.86 1327.95
internal_count=10944 10368 2304 8064 7168 6460 5019 1483 3536 1441 1344 2650 1935
is_linear=0
shrinkage=0.1


Tree=39
num_leaves=16
num_cat=0
split_feature=205 199 201 204 142 201 204 142 202 180 202 201 122 203 98
split_gain=0.857258 1.72624 11.6603 3.83903 1.33439 3.31756 2.66638 1.00427 3.91806 6.10672 4.87973 3.44496 2.9289 2.86733 1.32202
threshold=-1.7661001086235044 -0.59284454584121693 -0.96824583411216725 -1.4163808226585386 -0.29874785244464869 0.58094753324985515 0.72859182953834545 -0.45517112314701075 -0.89442722499370564 -0.58701941370964039 0.89442722499370586 -0.58094747364521016 -0.59408015012741078 0.19102813303470614 0.70917251706123363
decision_type=2 2 2 2 2 2 2 2 2 2 2 2 2 2 2
left_child=-1 2 -2 -3 5 -4 -6 11 -9 -10 14 -5 -13 -14 -11
right_child=1 3 4 7 6 -7 -8 8 9 10 -12 12 13 -15 -16
leaf_value=-0.0047827575640336621 -0.016419265569393434 0.010911502852525111 -0.0013147938427619616 0.0086459952520252532 -0.0079667818976595431 0.0093612861440200059 0.004065250108890371 -0.0074633450521766273 -0.0068152032524900824 -0.0031841556110340664 0.012964585996745246 0.0066675197993878209 -0.0095473063686998798 0.0021248296734965879 0.0043988800073488958
leaf_weight=357.33377765119076 452.46246993541718 383.56533814966679 641.91232681274414 582.28847786784172 365.44388338923454 532.54671069979668 371.32469269633293 654.6642432808876 625.10431745648384 447.20358067750931 502.80459752678871 373.35854837298393 440.50470122694969 403.01668518781662 473.15536838769913
leaf_count=575 769 588 884 778 588 652 527 966 956 640 649 496 674 561 641
internal_value=0 0.000234506 -0.00198404 0.00130784 0.00143335 0.00352617 -0.00190275 0.000489636 -0.000728896 0.00142356 0.00504232 0.00232026 -0.000706656 -0.00397061 0.000714273
internal_weight=0 7249.36 2363.69 4885.67 1911.23 1174.46 736.769 4502.1 2702.93 2048.27 1423.16 1799.17 1216.88 843.521 920.359
internal_count=10944 10369 3420 6949 2651 1536 1115 6361 3852 2886 1930 2509 1731 1235 1281
is_linear=0
shrinkage=0.1


Tree=40
num_leaves=17
num_cat=0
split_feature=3 201 169 201 23 165 177 84 127 186 101 204 202 115 150 205
split_gain=0.897418 9.12807 6.92706 3.55879 9.19783 8.23639 6.26799 5.34336 2.72277 2.51153 1.95666 3.68761 1.99802 1.95407 1.37663 0.819832
threshold=1.0000000180025095e-35 -0.19364916269106566 0.1540380343794823 -0.19364916269106566 -0.34635277092456812 1.1984984278678896 -0.23192463070154187 -0.35262192785739893 -0.3812368363142013 -0.14510288089513776 0.29350106418132788 0.29118332266807562 1.0000000180025095e-35 -0.20129559934139249 0.17230613529682162 0.020322541706264022
decision_type=2 2 2 2 2 2 2 2 2 2 2 2 2 2 2 2
left_child=3 2 -2 4 7 8 -6 15 -5 -8 11 13 -13 -10 -3 -1
right_child=1 14 -4 5 6 -7 9 -9 10 -11 -12 12 -14 -15 -16 -17
leaf_value=-0.0010457373179006816 -0.020726786214606642 0.0067064679388072652 -0.00072996488518342357 0.0060794091831769849 -0.0137780885486258 -0.015995076217368721 -0.0034974039390236905 0.014366767661158403 -0.0085521506036423962 0.0078202544182108796 -0.0079878044333186547 -0.00035214052013991169 0.0094395205605014593 0.00047009868363422162 -0.00044649634343421515 0.0056621990215967605
leaf_weight=355.84797561168671 354.20682911574841 638.96591451764107 339.05111676454544 606.74559763073921 385.53434227406979 356.16018986701965 420.27896133065224 761.20699936151505 512.53106784820557 367.55605360865593 382.61358880996704 399.81581836938858 435.26802459359169 451.54449957609177 464.75965708494186 373.37109437584877
leaf_count=533 640 800 512 800 640 640 640 896 784 512 640 553 573 650 640 491
internal_value=0 -0.00195404 -0.010947 0.000603118 0.00329253 -0.00167503 -0.00333009 0.00850633 0.000153978 0.00178273 -0.00149387 -0.000112854 0.00475154 -0.0043264 0.00369448 0.00238883
internal_weight=0 1796.98 693.258 5808.47 2663.8 3144.68 1173.37 1490.43 2788.52 787.835 2181.77 1799.16 835.084 964.076 1103.73 729.219
internal_count=10944 2592 1152 8352 3712 4640 1792 1920 4000 1152 3200 2560 1126 1434 1440 1024
is_linear=0
shrinkage=0.1


Tree=41
num_leaves=17
num_cat=0
split_feature=180 201 116 96 197 143 201 150 109 200 51 205 203 185 202 205
split_gain=0.805775 1.05191 8.36851 8.25769 4.02573 4.57931 6.6799 1.91324 1.8707 5.78371 4.67269 3.27113 2.45601 1.58374 1.88908 1.27207
threshold=2.3291618824005131 0.96824583411216747 1.0000000180025095e-35 -0.25584895908832544 0.94107124209404003 0.49269950389862066 -1.3555442094802854 0.051662917248904712 -0.4760791659355163 -0.32740421593189234 -0.096415638923645006 -0.2121118679642677 -0.53773903846740712 -0.61578288674354542 1.0000000180025095e-35 -0.2121118679642677
decision_type=2 2 2 2 2 2 2 2 2 2 2 2 2 2 2 2
left_child=1 4 3 -3 5 6 -1 -4 12 11 -11 -10 -8 -14 -15 -6
right_child=-2 2 7 -5 15 -7 8 -9 9 10 -12 -13 13 14 -16 -17
leaf_value=-0.012300385838527488 -0.0043789659576297458 0.0026690326426908246 0.009984798691130066 -0.018220265922807091 0.011184420073891707 0.0075223736000066379 -0.0096318210301421531 0.00013428685858486513 0.01540564862607703 0.0037002549481117927 -0.011461987032306007 0.0027791305093466667 -0.0053446501928921071 0.0053732907553410069 -0.0026260262939101545 0.0033796486103614696
leaf_weight=500.31358109414577 398.38294987380505 326.87956571578979 405.78035748004913 449.42049404978752 417.99024721980095 656.72775506973267 350.76567010581493 383.54474931955338 369.22889778017998 430.10009399056435 385.370914041996 461.79449245333672 467.55956941843033 614.49327391386032 568.19726651906967 417.32646289467812
leaf_count=864 576 448 512 768 569 896 565 576 510 576 576 642 674 815 826 551
internal_value=0 0.000241036 -0.0020522 -0.00942433 0.000877636 -0.000236368 -0.00146481 0.00519829 2.14549e-05 0.00251805 -0.00346504 0.00838917 -0.00203282 -0.000417629 0.0015302 0.00728514
internal_weight=0 7205.49 1565.63 776.3 5639.87 4804.55 4147.82 789.325 3647.51 1646.49 815.471 831.023 2001.02 1650.25 1182.69 835.317
internal_count=10944 10368 2304 1216 8064 6944 6048 1088 5184 2304 1152 1152 2880 2315 1641 1120
is_linear=0
shrinkage=0.1


Tree=42
num_leaves=17
num_cat=0
split_feature=204 172 164 200 123 176 183 203 120 151 203 135 202 95 201 133
split_gain=0.769897 9.40064 5.41655 5.90391 4.63713 4.17262 2.56017 2.39942 2.27858 2.26338 2.07299 2.18047 5.71804 2.05654 1.74711 0.889752
threshold=0.12473492696881296 0.98854178190231334 -0.34749810397624964 -0.32740421593189234 0.04213637579232455 0.46525266766548162 -0.54951608180999745 0.69678395986557018 1.0000000180025095e-35 1.0000000180025095e-35 0.66619378328323375 -0.20609492808580396 1.0000000180025095e-35 0.53198528289794933 1.0000000180025095e-35 -0.27606418728828425
decision_type=2 2 2 2 2 2 2 2 2 2 2 2 2 2 2 2
left_child=1 2 6 4 9 10 14 8 -7 -4 13 -12 -13 15 -1 -2
right_child=5 -3 3 -5 -6 7 -8 -9 -10 -11 11 12 -14 -15 -16 -17
leaf_value=0.0033889810022971704 0.0010099105457322427 -0.01523034797354011 -0.0019366362973791624 -0.0046890723822932438 0.017256910900900365 -0.00042136923634612317 -0.009530940305780897 0.0031682093265639772 -0.0096251842031973948 0.0094975517649726702 -0.0060223780736581682 -0.0057613106901472384 0.011016380307311129 0.01159785203039344 -0.0055747578223279007 0.0067570598600917454
leaf_weight=499.52748566865921 647.18227070569992 414.58703288435936 342.09632737934589 455.4061419069767 411.09724667668343 464.57855471968651 488.73765696585178 415.16164007782936 638.89874495565891 350.48573592305183 390.48680627346039 386.08017393946648 428.68341305851936 422.97635817527771 385.05103203654289 461.45078331232071
leaf_count=735 899 687 521 659 544 618 784 576 981 494 581 556 577 548 570 614
internal_value=0 -0.00113566 0.000857069 0.00489074 0.00884361 0.000891519 -0.00372224 -0.00331215 -0.00575026 0.00384971 0.00322407 0.000121595 0.00306618 0.00566545 -0.000512874 0.00340207
internal_weight=0 3346.99 2932.4 1559.09 1103.68 4255.5 1373.32 1518.64 1103.48 692.582 2736.86 1205.25 814.764 1531.61 884.579 1108.63
internal_count=10944 4994 4307 2218 1559 5950 2089 2175 1599 1015 3775 1714 1133 2061 1305 1513
is_linear=0
shrinkage=0.1


Tree=43
num_leaves=16
num_cat=0
split_feature=204 175 204 120 167 176 176 203 167 120 185 203 203 202 205
split_gain=0.818903 1.5083 0.941722 5.25774 4.14164 3.26792 2.99683 2.03686 2.53759 1.59323 1.55514 1.42629 1.227 1.85458 1.44032
threshold=-1.7940384149551389 1.7507634162902834 0.12473492696881296 -1.0967168211936948 1.0000000180025095e-35 0.46525266766548162 0.46525266766548162 0.65957009792327892 0.42836888134479528 -1.2436295151710508 -0.28619092702865595 -0.36797216534614557 0.65957009792327892 1.0000000180025095e-35 0.19459959119558337
decision_type=2 2 2 2 2 2 2 2 2 2 2 2 2 2 2
left_child=-1 2 3 4 -2 10 9 8 -8 -4 -5 -7 14 -14 -11
right_child=1 -3 6 5 -6 11 7 -9 -10 12 -12 -13 13 -15 -16
leaf_value=-0.0046448134808592173 -0.001575995611782512 0.005368709797555017 0.0074051706089125497 0.00069597147997911373 -0.01752136313552138 0.010211838660946545 -0.0013942341544408649 0.0023745586448977265 -0.012051724808012905 0.0086176383244039347 -0.0067704858742603643 0.0019514340824079456 -0.0054042041414988258 0.0030908368687022291 0.0010304877760695982
leaf_weight=361.64395341277122 330.28587079048157 529.63757970929146 574.29731726646423 631.86866146326065 321.40847232937813 375.49992905557156 554.14186689257622 472.41205686330795 374.33616742491722 396.0892134308815 499.46608880162239 471.49277481436729 496.28947761654854 532.9771614074707 679.34720462560654
leaf_count=660 478 714 762 895 540 527 738 660 611 536 765 653 726 747 932
internal_value=0 0.000231153 -0.000174373 -0.0016499 -0.00944008 0.000916313 0.000776797 -0.00297113 -0.00569103 0.00273665 -0.00260035 0.00561355 0.00146278 -0.00100528 0.00382488
internal_weight=0 7239.55 6709.91 2630.02 651.694 1978.33 4079.89 1400.89 928.478 2679 1131.33 846.993 2104.7 1029.27 1075.44
internal_count=10944 10284 9570 3858 1018 2840 5712 2009 1349 3703 1660 1180 2941 1473 1468
is_linear=0
shrinkage=0.1


Tree=44
num_leaves=18
num_cat=0
split_feature=204 34 30 34 202 201 89 85 33 201 111 141 202 16 16 201 202
split_gain=0.753 13.1716 7.36014 1.67968 6.06114 1.6721 8.20766 2.02635 1.74321 6.45373 0.988922 0.989155 3.72678 16.7075 10.9929 1.8624 0.866273
threshold=-0.97737541794776905 -0.24783421307802198 -0.51384791731834401 -0.041438519023358815 1.0000000180025095e-35 -0.96824583411216725 -0.02474921569228172 1.6833427548408511 -0.65363997220993031 1.0000000180025095e-35 -1.3692815899848936 -0.39405117928981775 1.0000000180025095e-35 -0.2498345151543617 -0.10117720440030097 0.58094753324985515 1.0000000180025095e-35
decision_type=2 2 2 2 2 2 2 2 2 2 2 2 2 2 2 2 2
left_child=1 -1 -3 5 -5 6 -2 8 9 -7 -10 15 14 -14 -13 16 -12
right_child=3 2 -4 4 -6 7 -8 -9 10 -11 11 12 13 -15 -16 -17 -18
leaf_value=0.0099822953047224525 0.0060536066795980475 -0.024268307907480996 -0.0013482690937919738 0.011315481989151641 -0.0043283308982962967 0.0042524761132390326 -0.01357428200507615 0.0064477406015348154 0.0048250140826285974 -0.013658121013143378 -0.0048022002013724625 -0.0089025715794228324 0.0081990959781750826 -0.022246889080743619 0.014699791840787386 0.0059360522610993859 0.0019121039915224087
leaf_weight=461.62260340154171 401.83101069927216 280.72186923027039 279.70188330113888 542.20890709757805 455.92055711150169 414.14289078116417 453.46800553798676 503.63353100419044 501.58003833889961 391.23932299017906 377.17025578022003 391.67264801263809 362.09211212396622 358.88355332612991 397.70647412538528 635.09676989912987 391.72701391577721
leaf_count=672 550 557 447 677 688 539 748 652 653 724 524 575 481 622 505 799 531
internal_value=0 -0.00252602 -0.0128291 0.000391557 0.00416978 -0.000284248 -0.00435284 0.000452239 -0.000263068 -0.00444815 0.000723659 1.77869e-05 -0.00175846 -0.00695615 0.00298882 0.0019286 -0.00138149
internal_weight=0 1022.05 560.424 6578.37 998.129 5580.24 855.299 4724.94 4221.31 805.382 3415.93 2914.35 1510.35 720.976 789.379 1403.99 768.897
internal_count=10944 1676 1004 9268 1365 7903 1298 6605 5953 1263 4690 4037 2183 1103 1080 1854 1055
is_linear=0
shrinkage=0.1


Tree=45
num_leaves=15
num_cat=0
split_feature=180 204 175 204 194 125 202 22 201 149 104 205 175 1
split_gain=0.668142 3.54669 1.10839 1.03089 1.70259 2.18942 6.83935 1.37228 1.32761 6.0266 3.21583 2.76468 2.16341 0.995168
threshold=-1.2217075228691099 -1.5514262318611143 1.7507634162902834 0.93054535984992992 -0.11702087149024008 -0.2650334164500236 1.0000000180025095e-35 -0.39957828819751734 -0.58094747364521016 0.36805851757526403 -0.16323031485080716 -0.51571685075759877 0.012900283094495537 -0.26725140213966364
decision_type=2 2 2 2 2 2 2 2 2 2 2 2 2 2
left_child=-1 -2 3 4 8 6 -6 -5 9 -3 11 -10 13 -13
right_child=1 2 -4 7 5 -7 -8 -9 10 -11 -12 12 -14 -15
leaf_value=0.0031953088380919227 -0.0091513779740796455 0.010501317655097169 0.0047742687563870874 0.007624218858966008 0.0070239544314083984 -0.009079965909633482 -0.009350982181568393 -0.00062708874828995966 -0.01058748136479259 -0.0039830509901334771 0.0058742131173365837 -0.00094702584585584565 -0.0053627209122930029 0.0053062120945946778
leaf_weight=602.227126121521 423.01635602116585 583.75650918483734 509.65459859371185 379.41674742102623 530.69055765867233 472.21657872200012 491.11364051699638 429.96568083763123 355.50625619292259 565.56696510314941 578.34657648205757 540.32698825001717 655.48579113185406 481.10406443476677
leaf_count=864 794 753 683 508 719 723 757 584 579 866 724 783 983 624
