tree
version=v3
num_class=1
num_tree_per_iteration=1
label_index=0
max_feature_idx=205
objective=tweedie
feature_names=Column_0 Column_1 Column_2 Column_3 Column_4 Column_5 Column_6 Column_7 Column_8 Column_9 Column_10 Column_11 Column_12 Column_13 Column_14 Column_15 Column_16 Column_17 Column_18 Column_19 Column_20 Column_21 Column_22 Column_23 Column_24 Column_25 Column_26 Column_27 Column_28 Column_29 Column_30 Column_31 Column_32 Column_33 Column_34 Column_35 Column_36 Column_37 Column_38 Column_39 Column_40 Column_41 Column_42 Column_43 Column_44 Column_45 Column_46 Column_47 Column_48 Column_49 Column_50 Column_51 Column_52 Column_53 Column_54 Column_55 Column_56 Column_57 Column_58 Column_59 Column_60 Column_61 Column_62 Column_63 Column_64 Column_65 Column_66 Column_67 Column_68 Column_69 Column_70 Column_71 Column_72 Column_73 Column_74 Column_75 Column_76 Column_77 Column_78 Column_79 Column_80 Column_81 Column_82 Column_83 Column_84 Column_85 Column_86 Column_87 Column_88 Column_89 Column_90 Column_91 Column_92 Column_93 Column_94 Column_95 Column_96 Column_97 Column_98 Column_99 Column_100 Column_101 Column_102 Column_103 Column_104 Column_105 Column_106 Column_107 Column_108 Column_109 Column_110 Column_111 Column_112 Column_113 Column_114 Column_115 Column_116 Column_117 Column_118 Column_119 Column_120 Column_121 Column_122 Column_123 Column_124 Column_125 Column_126 Column_127 Column_128 Column_129 Column_130 Column_131 Column_132 Column_133 Column_134 Column_135 Column_136 Column_137 Column_138 Column_139 Column_140 Column_141 Column_142 Column_143 Column_144 Column_145 Column_146 Column_147 Column_148 Column_149 Column_150 Column_151 Column_152 Column_153 Column_154 Column_155 Column_156 Column_157 Column_158 Column_159 Column_160 Column_161 Column_162 Column_163 Column_164 Column_165 Column_166 Column_167 Column_168 Column_169 Column_170 Column_171 Column_172 Column_173 Column_174 Column_175 Column_176 Column_177 Column_178 Column_179 Column_180 Column_181 Column_182 Column_183 Column_184 Column_185 Column_186 Column_187 Column_188 Column_189 Column_190 Column_191 Column_192 Column_193 Column_194 Column_195 Column_196 Column_197 Column_198 Column_199 Column_200 Column_201 Column_202 Column_203 Column_204 Column_205
feature_infos=[-0.49798458814620972:5.711097240447998] [-0.32472646236419678:5.8191585540771484] [-1.1934499740600586:4.1432161331176758] [-1.8209398984909058:3.976776123046875] [-0.17217130959033966:6.1632852554321289] [-5.8467512130737305:0.366982102394104] [-0.21052423119544983:6.0957074165344238] [-0.30421936511993408:6.0366249084472656] [-4.088038444519043:0.67791956663131714] [-5.3985605239868164:0.94927918910980225] [-5.3085031509399414:1.1814702749252319] [-5.2710161209106445:1.2621390819549561] [-0.41360923647880554:4.4330081939697266] [-1.6340041160583496:2.1070466041564941] [-1.4804518222808838:2.2618250846862793] [-0.21308623254299164:6.08929443359375] [-1.5913738012313843:1.8369125127792358] [-0.50321805477142334:3.9489510059356689] [-0.50468844175338745:5.2492384910583496] [-3.2233238220214844:2.9665782451629639] none [-0.47360694408416748:4.2489871978759766] [-0.44263172149658203:5.448946475982666] [-0.47235724329948425:4.2337689399719238] [-0.33539626002311707:5.6069235801696777] none none none [-1.8257418870925903:0.54772257804870605] [-0.16222143173217773:6.1644139289855957] [-0.54129999876022339:2.5558755397796631] [-0.39691537618637085:4.6916961669921875] [-0.47618791460990906:3.5030829906463623] [-0.76876586675643921:5.069185733795166] [-0.29427358508110046:6.0196504592895508] [-1.7029386758804321:0.58722025156021118] none [-4.0477099418640137:0.40741366147994995] [-0.53288727998733521:2.7038681507110596] [-3.8453667163848877:0.41239362955093384] [-0.31348082423210144:4.335669994354248] [-1.2649110555648804:0.79056942462921143] none [-3.6247878074645996:0.49054235219955444] [-0.70912033319473267:2.111309289932251] [-2.8777339458465576:0.93719702959060669] [-0.46100911498069763:3.4947834014892578] [-4.7011842727661133:0.25829082727432251] [-0.16222643852233887:6.1644139289855957] [-0.16222576797008514:6.1644139289855957] [-0.1622258722782135:6.1644139289855957] [-1.7495623826980591:3.6877543926239014] [-0.35196638107299805:4.360407829284668] [-0.22850809991359711:5.3894329071044922] [-0.16222198307514191:6.1644139289855957] [-0.16222190856933594:6.1644139289855957] [-0.16222190856933594:6.1644139289855957] [-0.83910608291625977:3.9030570983886719] [-0.35589531064033508:4.3584866523742676] [-5.3408932685852051:0.25013521313667297] [-0.16222147643566132:6.1644139289855957] [-0.16222146153450012:6.1644139289855957] [-0.16222147643566132:6.1644139289855957] [-1.8103036880493164:3.6377899646759033] [-0.36687842011451721:4.3296833038330078] [-0.17569348216056824:6.1433134078979492] [-0.16222143173217773:6.1644139289855957] [-0.16222141683101654:6.1644139289855957] [-0.16222141683101654:6.1644139289855957] [-0.9570080041885376:3.8165662288665771] [-0.38384771347045898:4.2961215972900391] [-5.9146871566772461:0.22816237807273865] [-0.16224811971187592:6.1644139289855957] [-0.16222378611564636:6.1644139289855957] [-0.16222864389419556:6.1644139289855957] [-1.8284940719604492:3.5407266616821289] [-0.38618168234825134:4.2691287994384766] [-0.16421833634376526:6.1639704704284668] [-0.28110021352767944:3.9534168243408203] [-0.19425587356090546:6.037147045135498] [-0.23533974587917328:5.3001923561096191] [-0.93446260690689087:3.7580392360687256] [-0.40093600749969482:4.2502155303955078] [-4.2073192596435547:0.71892935037612915] [-0.59850776195526123:4.4260468482971191] [-0.84322267770767212:3.4400670528411865] [-0.68913215398788452:3.7757322788238525] [-1.5674479007720947:3.0357544422149658] [-0.69213414192199707:5.0263862609863281] [-1.6380274295806885:4.2883405685424805] [-0.3038860559463501:5.7726292610168457] [-0.40959200263023376:5.1103935241699219] [-0.33640041947364807:5.4994993209838867] [-1.5492256879806519:4.1091656684875488] [-0.56496971845626831:5.5912642478942871] [-1.7147738933563232:2.4475991725921631] [-3.4648356437683105:0.96587187051773071] [-1.2010223865509033:3.0677134990692139] [-2.0926582813262939:1.5923916101455688] [-0.77985715866088867:5.3460507392883301] [-0.33853012323379517:5.939455509185791] [-5.5759286880493164:0.30547294020652771] [-0.16621752083301544:6.1640505790710449] [-0.16385112702846527:6.1643867492675781] [-0.16431123018264771:6.1643385887145996] [-1.0004993677139282:4.589813232421875] [-0.22660644352436066:5.9636435508728027] [-0.61789059638977051:2.3694591522216797] [-1.2013803720474243:1.1634595394134521] [-0.88477790355682373:1.7389055490493774] [-0.92536008358001709:2.7018256187438965] [-2.5098366737365723:2.5721714496612549] [-0.96779388189315796:3.6576645374298096] [-0.23249527812004089:4.3011627197265625] [-1.6911346912384033:0.75480550527572632] [-0.4183935821056366:4.1706981658935547] [-1.1786890029907227:2.1018764972686768] [-1.6759227514266968:2.5601987838745117] [-0.87003487348556519:3.164663553237915] [-0.44500601291656494:4.6425247192382812] [-1.2813718318939209:1.5516257286071777] none [-0.59475284814834595:3.2355518341064453] [-0.8481680154800415:2.9996027946472168] [-0.76135700941085815:3.0700969696044922] [-0.69583415985107422:3.0540521144866943] [-2.5969908237457275:4.0505785942077637] [-0.44719472527503967:5.3074917793273926] [-0.67360365390777588:2.9562487602233887] [-0.28178673982620239:5.6671695709228516] [-0.40216255187988281:5.3836092948913574] [-0.29402995109558105:5.3812618255615234] [-1.028529167175293:4.2001709938049316] [-0.46790584921836853:5.7352614402770996] [-0.55361455678939819:3.7456438541412354] [-0.23739612102508545:6.0341153144836426] [-0.30781251192092896:5.957242488861084] [-0.24997609853744507:5.953345775604248] [-5.0576086044311523:1.6670112609863281] [-0.38931509852409363:5.848052978515625] [-0.18964020907878876:6.1241164207458496] [-0.41141954064369202:4.6674208641052246] [-0.46203631162643433:4.2287883758544922] [-0.39938867092132568:5.0567736625671387] [-1.3051173686981201:3.1778037548065186] [-0.67794948816299438:4.1430635452270508] [-1.3068603277206421:2.5937175750732422] [-3.0333881378173828:1.7916234731674194] [-2.2466833591461182:2.1240601539611816] [-3.6245248317718506:1.5407088994979858] [-2.6919522285461426:2.5764985084533691] [-1.7785650491714478:2.8553934097290039] none none none none none none [-1.2736631631851196:2.312227725982666] [-1.2736631631851196:2.312227725982666] [-1.2736631631851196:2.312227725982666] [-0.87940531969070435:2.3580951690673828] none none [-1.5683722496032715:2.232083797454834] [-1.594538688659668:2.1474373340606689] [-1.7296202182769775:1.9272209405899048] [-1.4873154163360596:2.3013575077056885] [-1.5348687171936035:2.526777982711792] [-1.3473966121673584:2.949000358581543] [-1.8325022459030151:2.3024506568908691] [-1.9705021381378174:3.1290242671966553] [-1.9731091260910034:1.8163529634475708] [-1.0003833770751953:2.8504974842071533] [-0.99713611602783203:3.2113182544708252] [-0.97577494382858276:3.4140317440032959] [-1.4179590940475464:2.1917312145233154] [-1.0101330280303955:4.0306720733642578] none [-1.495785117149353:3.2399320602416992] [-2.0455899238586426:2.536179780960083] [-0.82523566484451294:3.6629674434661865] [-1.1970256567001343:2.1581239700317383] [-1.8004187345504761:1.2837255001068115] [-1.6294167041778564:1.8039644956588745] [-1.287097692489624:3.8121387958526611] [-1.8720088005065918:3.3350400924682617] [-1.2321150302886963:3.1830134391784668] none none none [-0.98460203409194946:1.9164931774139404] none none [-1.2296067476272583:2.9322855472564697] [-1.8004187345504761:1.2837255001068115] [-1.0266776084899902:2.5123424530029297] [-1.5975618362426758:2.1736018657684326] [-3.030825138092041:1.6222782135009766] [-1.0672866106033325:2.8997712135314941] [-1.1245622634887695:2.0640699863433838] [-1.5491933822631836:1.549193263053894] [-1.341640830039978:1.341640830039978] [-8.945256233215332:1.3575258255004883] [-6.3554749488830566:2.1208145618438721] [-2.2815539836883545:12.36998462677002]
tree_sizes=1848 1771 2110 1982 1773 1769 1981 1773 1869 1888 1771 1992 1981 1981 1994 1881 1875 1997 1888 1877 1889 1765 1997 1660 1771 2102 1991 1993 1883 1881 1780 1997 1996 1894 2005 1997 2001 1885 1895 2116 1897 1887 1783 1786 1996 1772 1891 1997 1886 2110 2006 2007 1789 1777 1905 2015 2007 1903 1895 1999 2009 2121 1894 2114 1907 2015 2010 1993 2002 1894 2013 2005 2005 1905 1896 1902 2130 1899 2009 2030 2126 2011 1790 1893 2020 2133 1785 2126 2024 2008 1901 2019 1898 2020 1906 2126 2015 1907 1902 1798 2024 2013 2132 2017 2023 2020 1903 2141 2023 2019 1903 2022 1906 1909 2023 2021 1805 2135 1909 2020 1913 1913 2146 1925 2156 2017 2019 1791 1904 2130 1916 1908 2134 2127 1911 1909 2145 2013 1894 2028 2020 1909 1908 2017 1913 1898 1912 2026 2136 1798 2024 2025 2031 1903 2142 1905 2028 2146 2134 2023 2140 1802 1915 2143 2032 2132 2022 1914 2017 2028 2020 2013 2018 2019 2023 2018 1803 1915 2018 1922 2127 2020 2035 2133 2138 1913 2137 1912 1905 2135 1809 2035 2034 1797 1918 1912 2024 1912 2257 1801

Tree=0
num_leaves=16
num_cat=0
split_feature=204 205 204 200 141 204 202 191 191 108 165 149 0 109 0
split_gain=92.3293 22.2641 11.6421 8.36674 7.1812 9.25041 6.95591 31.9512 26.656 19.4784 11.3022 10.9201 10.6563 6.80635 5.57959
threshold=-1.5425965785980222 0.7068566381931306 1.1228743195533755 -1.010682553052902 -0.40888839960098261 0.018362517468631271 -1.0000000180025095e-35 -0.57170376181602467 -0.61052757501602162 0.78548642992973339 -0.41031272709369654 0.53710642457008373 -0.42301814258098597 1.0000000180025095e-35 1.0000000180025095e-35
decision_type=2 2 2 2 2 2 2 2 2 2 2 2 2 2 2
left_child=-1 2 3 -2 5 -5 8 11 10 -10 -6 -8 -9 14 -3
right_child=1 13 -4 4 6 -7 7 12 9 -11 -12 -13 -14 -15 -16
leaf_value=-0.73042161735388411 -0.70232295170481152 -0.66673941688257676 -0.67358708407691226 -0.6933095843320819 -0.68908806990895943 -0.67264848475288708 -0.6723407769884131 -0.71927722584052378 -0.69448757442497944 -0.66676334888312494 -0.7126516403765889 -0.69437039191587924 -0.6971617946936689 -0.68725984798610906 -0.68032159524471958
leaf_weight=519.02328479290009 586.94117644429207 680.09558826684952 410.58088207244873 380.55392184853554 401.39828458428383 503.27695843577385 473.10171526670456 496.0882360637188 403.95833173394203 680.0036768913269 412.98406851291656 429.1053911447525 388.50980296730995 441.68014737963676 544.69852927327156
leaf_count=882 881 850 533 547 565 650 610 804 584 850 650 620 569 616 733
internal_value=-0.689681 -0.686758 -0.689793 -0.691084 -0.68964 -0.681545 -0.691581 -0.69606 -0.687366 -0.677095 -0.701037 -0.682818 -0.709564 -0.676618 -0.67278
internal_weight=0 7232.98 5566.5 5155.92 4568.98 883.831 3685.15 1786.81 1898.34 1083.96 814.382 902.207 884.598 1666.47 1224.79
internal_count=10944 10062 7863 7330 6449 1197 5252 2603 2649 1434 1215 1230 1373 2199 1583
is_linear=0
shrinkage=1


Tree=1
num_leaves=15
num_cat=0
split_feature=204 205 123 174 172 205 164 204 201 205 12 180 202 201
split_gain=75.0976 18.5287 16.5935 12.5457 17.4567 15.0391 6.52762 7.48588 6.42937 5.20298 7.31228 5.00435 6.732 4.5974
threshold=-1.5425965785980222 -0.031051497906446453 0.82515385746955883 0.11369397584348918 -0.12658971548080442 -0.70342209935188282 -0.27526785433292383 0.16015516221523288 1.0000000180025095e-35 0.66607394814491283 -0.41360746324062342 -0.58701941370964039 1.0000000180025095e-35 0.58094753324985515
decision_type=2 2 2 2 2 2 2 2 2 2 2 2 2 2
left_child=-1 3 6 4 -2 -6 7 -3 -5 10 -8 -9 -13 -4
right_child=1 2 13 8 5 -7 9 11 -10 -11 -12 12 -14 -15
leaf_value=-0.036819906712912305 -0.025030932633994904 -0.0026725580881397822 0.00095506440120708799 0.010544126761321845 -0.018807074477705011 0.0059165222666047526 0.018979059025291942 0.0009865425560297088 -0.0047618013487450012 0.021207814138906336 -0.00058073867275376841 0.0056524065762419721 0.022853192642941413 -0.012384697630636422
leaf_weight=516.97713619470596 501.44999745488167 637.86820596456528 676.90499073266983 661.11366635560989 373.10892948508263 722.40666329860687 386.70636704564095 384.06299629807472 469.22564035654068 708.17602357268333 377.90689581632614 437.64175099134445 473.94189250469208 417.82677718997002
leaf_count=882 799 911 951 884 578 991 494 538 679 887 535 597 591 627
internal_value=0 0.00263287 0.00657394 -0.0038713 -0.00957736 -0.0025038 0.010016 0.00619544 0.00419034 0.0150318 0.00931171 0.0105613 0.0145953 -0.00413633
internal_weight=0 7228.34 4501.04 2727.3 1596.97 1095.52 3406.3 1933.51 1130.34 1472.79 764.613 1295.65 911.584 1094.73
internal_count=10944 10062 6131 3931 2368 1569 4553 2637 1563 1916 1029 1726 1188 1578
is_linear=0
shrinkage=0.1


Tree=2
num_leaves=18
num_cat=0
split_feature=204 205 123 185 149 204 180 204 0 18 95 201 172 131 21 204 203
split_gain=61.0352 15.0171 13.4497 10.3046 15.4195 10.8377 6.75557 5.69782 7.38166 4.96824 4.57744 4.43301 4.32354 1.9951 1.77472 0.89438 0.673944
threshold=-1.5425965785980222 -0.031051497906446453 0.82515385746955883 -0.76273974776267994 0.081326687708497061 0.12455447763204576 -0.49288147687911982 -0.36814655363559717 -0.066220602020621286 -0.043297538533806794 -0.44291707873344416 0.58094753324985515 -0.46447235345840449 -0.29127362370491022 -0.34137345850467676 0.68361905217170726 0.56941768527030956
decision_type=2 2 2 2 2 2 2 2 2 2 2 2 2 2 2 2 2
left_child=-1 3 7 -2 5 -5 -6 -3 11 14 -4 12 -9 -8 -10 -14 -12
right_child=1 2 10 4 6 -7 13 8 9 -11 16 -13 15 -15 -16 -17 -18
leaf_value=-0.033251015806115579 0.0077925801433559663 -0.0024994210803193227 -0.012691876048218659 -0.030254529949865484 0.010955804038487081 -0.0066848892378078189 0.0011465186169530889 0.018839096615848656 -0.0057921103118056434 0.012836848392686437 -0.0021101410164955751 0.020699077661654571 0.0026265215292302266 -0.0083855011979772406 0.0039984079712034352 0.0095504926700223456 0.0040081441109766349
leaf_weight=515.31247586011887 624.46769392490387 381.32430392503738 374.41877636313438 374.22042527794838 382.43062722682953 407.55295306444168 351.08761009573936 410.98429107666016 355.82045724987984 427.52181822061539 361.19184631109238 696.67520636320114 375.48708638548851 586.22605341672897 385.9999258518219 370.77061960101128 358.96747249364853
leaf_count=882 846 544 564 614 509 600 494 519 514 560 517 873 519 868 531 493 497
internal_value=0 0.00237072 0.00591939 -0.00348627 -0.00683779 -0.0179672 -0.000245075 0.00901953 0.0104724 0.00425065 -0.00372331 0.0143967 0.0106027 -0.00481511 -0.000697697 0.00606663 0.000939553
internal_weight=0 7225.15 4499.16 2725.99 2101.52 781.773 1319.74 3404.58 3023.26 1169.34 1094.58 1853.92 1157.24 937.314 741.82 746.258 720.159
internal_count=10944 10062 6131 3931 3085 1214 1871 4553 4009 1605 1578 2404 1531 1362 1045 1012 1014
is_linear=0
shrinkage=0.1


Tree=3
num_leaves=17
num_cat=0
split_feature=204 205 201 165 82 150 201 58 168 201 137 144 180 81 99 201
split_gain=49.575 12.8318 10.0997 55.5685 33.8054 20.7546 24.088 17.9512 9.77371 5.12473 10.3115 4.86297 4.39574 2.82873 2.47515 1.9259
threshold=-1.5425965785980222 0.7068566381931306 -0.96824583411216725 0.60186275839805614 -0.27964705228805536 0.56583777070045482 1.0000000180025095e-35 -0.34561620652675623 0.65523159503936779 0.58094753324985515 -0.22586687654256818 -0.27016203105449671 -0.39533819258213038 -0.19334530085325238 -0.4138097465038299 -0.19364916269106566
decision_type=2 2 2 2 2 2 2 2 2 2 2 2 2 2 2 2
left_child=-1 2 3 4 -2 7 -7 -4 9 14 -11 -10 -3 -14 -9 -16
right_child=1 12 5 -5 -6 6 -8 8 11 10 -12 -13 13 -15 15 -17
leaf_value=-0.030009160279039035 -0.0447332847598454 0.0034553445336580435 -0.014866626403137623 0.023500942354273718 -0.0016201023565156755 0.0059836773898549163 -0.025054615146491079 0.00072708703906870136 0.0065750076533579033 0.026269710487910311 0.0051305516808077805 -0.0078976081495432653 0.018512473823487047 0.0077975015970548961 0.0056732009941566882 0.015272812657087069
leaf_weight=513.95926713943481 389.75811973214149 654.40998533368111 381.28292641043663 357.41061693429947 340.98487854003906 464.792111992836 541.15373021364212 371.73951536417007 479.2768836915493 546.56052541732788 399.3592677116394 450.30894410610199 582.17499822378159 427.16188248991966 412.68817684054375 423.41113412380219
leaf_count=882 677 899 578 446 486 640 866 520 655 667 549 664 730 570 564 551
internal_value=0 0.00213442 -0.000171567 -0.00881135 -0.0246155 0.00193139 -0.0107135 0.00560281 0.00813404 0.0118329 0.0173449 -0.000435801 0.00983894 0.0139778 0.00751609 0.0105346
internal_weight=0 7222.47 5558.73 1088.15 730.743 4470.57 1005.95 3464.63 3083.34 2153.76 945.92 929.586 1663.75 1009.34 1207.84 836.099
internal_count=10944 10062 7863 1609 1163 6254 1506 4748 4170 2851 1216 1319 2199 1300 1635 1115
is_linear=0
shrinkage=0.1


Tree=4
num_leaves=15
num_cat=0
split_feature=204 205 123 175 201 173 201 201 204 0 75 201 201 120
split_gain=40.8016 11.4474 9.54557 9.25604 17.246 13.9129 9.20318 7.69719 6.03027 5.93903 4.45033 3.63764 2.95318 3.53118
threshold=-1.7822378277778623 -0.031051497906446453 0.82515385746955883 0.19867470860481265 -0.96824583411216725 -0.61096489429473866 1.0000000180025095e-35 1.0000000180025095e-35 -0.38272811472415919 -0.066220602020621286 -0.27603590488433832 0.58094753324985515 0.58094753324985515 -0.26045805215835566
decision_type=2 2 2 2 2 2 2 2 2 2 2 2 2 2
left_child=-1 3 8 4 -2 -6 -7 -5 -3 12 -11 -4 13 -10
right_child=1 2 11 7 5 6 -8 -9 9 10 -12 -13 -14 -15
leaf_value=-0.032105810061719066 -0.023842871384091288 -0.0045199267377866829 0.0011799215412722226 0.011049490220221309 0.011420414573248883 0.0011833360670433701 -0.020465976830426984 -0.0061442054234286904 0.014688363718220158 0.0081738889256868542 -0.0044626760076778389 -0.010669143798950268 0.017538107084535178 0.003648803684805706
leaf_weight=376.58309498429298 484.97455990314484 378.32317891716957 680.4796207845211 633.71783801913261 495.50520670413971 380.98412090539932 405.19549760222435 441.95456326007843 593.75485068559647 724.65482321381569 452.86884093284607 418.39199885725975 696.82283759117126 565.89531350135803
leaf_count=662 784 547 956 844 662 542 644 647 764 969 648 629 875 771
internal_value=0 0.00164261 0.00477443 -0.00332804 -0.0077809 -0.00170324 -0.00997468 0.00398523 0.00738481 0.00886927 0.00331394 -0.00333157 0.0123929 0.00930119
internal_weight=0 7353.52 4511.19 2842.33 1766.66 1281.68 786.18 1075.67 3412.32 3034 1177.52 1098.87 1856.47 1159.65
internal_count=10944 10282 6159 4123 2632 1848 1186 1491 4574 4027 1617 1585 2410 1535
is_linear=0
shrinkage=0.1


Tree=5
num_leaves=15
num_cat=0
split_feature=204 200 205 204 172 201 94 161 180 181 138 133 202 202
split_gain=33.2026 9.89573 7.34635 7.0095 4.83102 11.0281 56.4064 21.3438 14.2948 7.57641 4.31782 4.01443 8.1044 6.16897
threshold=-1.5425965785980222 -1.010682553052902 0.90759944915771495 1.1925035119056704 -1.1774743199348447 -0.96824583411216725 -0.16342145204544065 2.1704950332641606 -0.7384032905101775 -0.037550412118434899 -0.11763440072536467 -0.26597101986408228 1.0000000180025095e-35 1.0000000180025095e-35
decision_type=2 2 2 2 2 2 2 2 2 2 2 2 2 2
left_child=-1 -2 3 4 -3 6 -6 8 -7 11 -4 13 -13 -10
right_child=1 2 10 -5 5 7 -8 -9 9 -11 -12 12 -14 -15
leaf_value=-0.024613277634149774 -0.010533277311009177 0.0089065922944124697 0.01644936586829766 0.014613479274311288 0.0079252948879063988 -0.010560248645761152 -0.043323605613160898 -0.020124219143160798 0.00066651489336004566 0.016236639310708716 0.0038016344144500762 0.0083691922622237541 -0.010332232610651098 0.015948220753738321
leaf_weight=511.82706075906754 601.72142568230629 594.74884828925133 564.20004916191101 373.64936205744743 602.15383353829384 527.21143889427185 333.82362613081932 394.90480998158455 517.31396791338921 718.81363546848297 517.50549781322479 486.38725385069847 442.57601493597031 539.81022074818611
leaf_count=882 906 800 712 483 823 791 582 621 721 915 702 654 658 694
internal_value=0 0.00174439 0.00286153 0.00138762 0.000429481 -0.000675441 -0.010353 0.00182193 0.00450334 0.00743938 0.0103985 0.00425544 -0.000540527 0.00846997
internal_weight=0 7214.82 6613.1 5531.39 5157.74 4562.99 935.977 3627.02 3232.11 2704.9 1081.71 1986.09 928.963 1057.12
internal_count=10944 10062 9156 7742 7259 6459 1405 5054 4433 3642 1414 2727 1312 1415
is_linear=0
shrinkage=0.1


Tree=6
num_leaves=17
num_cat=0
split_feature=204 47 180 205 204 21 201 201 86 202 146 103 17 99 31 164
split_gain=27.8587 42.7584 19.7856 6.36414 6.75302 5.6505 41.9724 10.5387 7.99149 10.92 29.5388 13.675 14.1807 12.7544 3.92756 3.31066
threshold=-0.99049797654151905 0.257612094283104 1.0000000180025095e-35 0.7068566381931306 1.1228743195533755 -0.44038996100425715 -0.19364916269106566 -0.96824583411216725 0.92850235104560863 1.0000000180025095e-35 0.64342868328094494 -0.16331899166107175 -0.48412929475307459 -0.19567442685365674 -0.31923265755176539 -0.27526785433292383
decision_type=2 2 2 2 2 2 2 2 2 2 2 2 2 2 2 2
left_child=1 -1 -3 4 5 6 -2 -7 9 11 13 12 -9 -11 15 -5
right_child=3 2 -4 14 -6 7 -8 8 -10 10 -12 -13 -14 -15 -16 -17
leaf_value=-0.045224848615857488 0.016015054400812894 0.016036785247313487 -0.018087305083522822 0.0046045630756481829 0.012876923602448274 -0.010203693802069319 -0.024533308331785252 0.013187690117284732 0.015613830742272634 -0.026051062599794818 0.01867117612923393 0.021217921546623247 -0.013874265650964236 -0.0014732992576344793 -0.0011530458416001746 0.014921200792963009
leaf_weight=327.0432323217392 449.58473926782608 335.99933463335037 343.74186357855797 552.65188077092171 409.75225350260735 647.73038527369499 590.66992053389549 392.76108005642891 485.13091173768044 482.29708978533745 365.07584026455879 487.97857892513275 381.9250371158123 375.55641502141953 382.56393748521805 711.54030385613441
leaf_count=599 588 463 561 744 533 982 950 514 622 778 460 608 576 534 535 897
internal_value=0 -0.0155142 -0.0012196 0.0023238 0.000569049 -0.000513478 -0.00700883 0.00135384 0.00387382 0.00158244 -0.0051526 0.00810554 -0.000154021 -0.0152913 0.00772467 0.0104112
internal_weight=0 1006.78 679.741 6715.22 5068.46 4658.71 1040.25 3618.46 2970.72 2485.59 1222.93 1262.66 774.686 857.854 1646.76 1264.19
internal_count=10944 1623 1024 9321 7145 6612 1538 5074 4092 3470 1772 1698 1090 1312 2176 1641
is_linear=0
shrinkage=0.1


Tree=7
num_leaves=15
num_cat=0
split_feature=204 205 95 180 201 150 202 123 204 0 161 201 201 180
split_gain=25.3184 6.81338 7.16658 8.99697 8.45163 9.81667 8.49358 6.05877 3.91499 5.1382 3.57533 2.86071 2.37738 3.71504
threshold=-1.7822378277778623 -0.031051497906446453 0.97120994329452526 -0.58701941370964039 -0.96824583411216725 0.71425718069076549 1.0000000180025095e-35 0.82515385746955883 -0.38272811472415919 -0.066220602020621286 -0.56265759468078602 0.58094753324985515 0.58094753324985515 0.23882308602333072
decision_type=2 2 2 2 2 2 2 2 2 2 2 2 2 2
left_child=-1 2 3 -2 -5 6 -6 8 -3 12 -11 -9 13 -10
right_child=1 7 -4 4 5 -7 -8 11 9 10 -12 -13 -14 -15
leaf_value=-0.025382019889170843 0.012478396981782103 -0.0038124082525874945 -0.011867595936755834 -0.015448299539860223 -0.0037058253415752709 -0.01226329761328609 0.015671348987992644 0.0012472633028502162 0.011785737615875418 -0.0035025754716028496 0.0075300478617186285 -0.0092684967195127681 0.014885498204690199 2.4882965864614901e-05
leaf_weight=374.00868871808052 467.05698409676552 377.67003989219666 639.27473703026772 423.01409262418747 427.06026396155357 398.83331528306007 480.97768619656563 679.72703647613525 735.3102890253067 609.35906466841698 567.105996966362 417.65165528655052 695.67361980676651 423.15208795666695
leaf_count=662 619 547 976 667 617 618 626 956 955 863 754 629 875 580
internal_value=0 0.00129064 -0.00254897 0.000162599 -0.00316258 0.000814118 0.00655805 0.00370759 0.00578837 0.00698481 0.00181562 -0.00275493 0.0102647 0.00748984
internal_weight=0 7341.87 2836.22 2196.94 1729.89 1306.87 908.038 4505.65 3408.27 3030.6 1176.47 1097.38 1854.14 1158.46
internal_count=10944 10282 4123 3147 2528 1861 1243 6159 4574 4027 1617 1585 2410 1535
is_linear=0
shrinkage=0.1


Tree=8
num_leaves=16
num_cat=0
split_feature=204 200 106 205 204 172 201 136 161 180 201 182 89 138 112
split_gain=20.5415 6.22744 9.63273 4.68576 4.51628 5.45199 8.98608 51.3306 13.3828 11.5394 6.79069 9.8408 5.98722 3.29897 2.08734
threshold=-1.7822378277778623 -1.010682553052902 -0.22286775708198545 0.95051124691963207 1.1228743195533755 -1.1774743199348447 -0.96824583411216725 -0.2200316786766052 2.1704950332641606 -0.7384032905101775 -0.19364916269106566 0.18943404406309131 -0.68184533715248097 -0.11763440072536467 -0.28113436698913569
decision_type=2 2 2 2 2 2 2 2 2 2 2 2 2 2 2
left_child=-1 2 -2 4 5 -3 7 -7 9 -8 -11 12 -12 -5 -14
right_child=1 3 -4 13 -6 6 8 -9 -10 10 11 -13 14 -15 -16
leaf_value=-0.022880804581501567 -0.020017665019785365 0.0088186085111619534 0.0040867532453211551 0.01397220748980465 0.0101314299184187 -0.032472053394579613 -0.010562513384158133 0.013481919747492882 -0.016057993381635795 -0.0024877345852362402 -0.0031650572053449457 0.020334313257628342 0.0044956782775023999 0.0023764411403711916 0.014420090839653101
leaf_weight=373.43640694022179 334.76026237010956 631.83900913596153 328.45601981878281 515.48287883400917 492.48362216353416 488.82860001921654 501.37698403000832 483.47823616862297 398.85562112927437 703.48688170313835 587.73799675703049 549.15029361844063 386.10260733962059 468.17763018608093 469.78340864181519
leaf_count=662 533 853 471 649 645 833 759 643 627 990 835 677 522 636 609
internal_value=0 0.00116191 -0.00808002 0.00207993 0.000978764 0.000112036 -0.00109203 -0.0096215 0.0012139 0.0033683 0.00595877 0.00894054 0.00460639 0.00845315 0.00994304
internal_weight=0 7340 663.216 6676.78 5693.12 5200.64 4568.8 972.307 3596.49 3197.64 2696.26 1992.77 1443.62 983.661 855.886
internal_count=10944 10282 1004 9278 7993 7348 6495 1476 5019 4392 3633 2643 1966 1285 1131
is_linear=0
shrinkage=0.1


Tree=9
num_leaves=16
num_cat=0
split_feature=204 200 106 205 204 172 201 180 161 180 202 191 97 108 201
split_gain=16.6606 5.04704 7.81183 3.90723 3.89404 4.61982 8.09787 44.367 11.0233 7.77292 6.16262 20.8542 14.9636 3.3812 2.14708
threshold=-1.7822378277778623 -1.010682553052902 -0.22286775708198545 0.84792673587799083 1.1925035119056704 -1.1774743199348447 -0.96824583411216725 1.0000000180025095e-35 2.1704950332641606 1.0000000180025095e-35 1.0000000180025095e-35 -0.61052757501602162 -0.39790518581867212 1.0000000180025095e-35 1.0000000180025095e-35
decision_type=2 2 2 2 2 2 2 2 2 2 2 2 2 2 2
left_child=-1 2 -2 4 5 -3 7 -7 9 10 12 -12 -8 -5 -11
right_child=1 3 -4 13 -6 6 8 -9 -10 14 11 -13 -14 -15 -16
leaf_value=-0.02061981051819229 -0.018034030513595603 0.0081794590071706443 0.0036782320153245156 0.011151660220456784 0.010769395291058165 0.006783282645932056 -0.0053870400873777258 -0.03837825443913883 -0.014981025769486506 0.0041149889446976109 0.0090884546411091911 -0.021265745499685847 0.019842047254607597 0.00045978346746264012 0.012595406134479138
leaf_weight=372.97207218408585 334.44167247414589 608.4145947098732 328.44299146533012 750.94705119729042 359.86509013175964 610.45362490415573 600.51021984219551 337.96271121501923 380.12427306175232 498.36111581325531 429.01502007246017 479.09703066945076 386.32948189973831 487.97610634565353 744.62120214104652
leaf_count=662 533 821 471 960 466 854 869 594 600 675 570 760 485 667 957
internal_value=0 0.00104601 -0.00727614 0.00187264 0.000717368 4.56984e-06 -0.001109 -0.00930977 0.00110181 0.00305006 -0.000980857 -0.00692566 0.00448968 0.00694044 0.00919527
internal_weight=0 7336.56 662.885 6673.68 5434.75 5074.89 4466.47 948.416 3518.06 3137.93 1894.95 908.112 986.84 1238.92 1242.98
internal_count=10944 10282 1004 9278 7651 7185 6364 1448 4916 4316 2684 1330 1354 1627 1632
is_linear=0
shrinkage=0.1


Tree=10
num_leaves=15
num_cat=0
split_feature=204 200 116 205 86 201 30 30 117 130 117 141 201 108
split_gain=13.5094 4.08988 7.36713 3.16554 3.37876 12.0705 44.3082 43.4375 26.4969 12.53 11.9881 6.30763 3.36852 2.74024
threshold=-1.7822378277778623 -1.010682553052902 -0.1628204211592674 0.84792673587799083 0.60958105325698864 1.0000000180025095e-35 -0.54129788279533375 -0.54129788279533375 -0.43272952735424036 -0.35648749768733973 -0.43272952735424036 -0.39108689129352564 -0.58094747364521016 1.0000000180025095e-35
decision_type=2 2 2 2 2 2 2 2 2 2 2 2 2 2
left_child=-1 2 -2 4 5 7 -7 -3 -9 -10 -8 -12 -11 -5
right_child=1 3 -4 13 -6 6 10 8 9 12 11 -13 -14 -15
leaf_value=-0.018577648465290059 0.0038759565244179464 0.030250278193894545 -0.017213973070780438 0.010039627044532538 -0.0060038949285753348 -0.036109160111974459 0.0156792298301482 -0.020034029210585176 -0.0077696517829298041 0.016121924956438546 0.0044237092426725943 -0.010020154084124282 0.0049159872144401082 0.00041380521808023313
leaf_weight=372.59544017910957 334.99862888455391 579.2568387389183 327.61715087294579 750.72525322437286 669.91731402277946 358.95830476284027 493.80194824934006 529.13489669561386 476.78262650966644 664.91217941045761 603.59621125459671 605.77944725751877 449.66517615318298 487.97585970163345
leaf_count=662 481 692 523 960 963 620 620 829 713 865 828 907 614 667
internal_value=0 0.000941522 -0.00655154 0.00168585 0.000645554 0.00158102 -0.0041797 0.0059812 -0.000648399 0.00579742 0.00254968 -0.00281126 0.011601 0.00624762
internal_weight=0 7333.12 662.616 6670.51 5431.8 4761.89 2062.14 2699.75 2120.49 1591.36 1703.18 1209.38 1114.58 1238.7
internal_count=10944 10282 1004 9278 7651 6688 2975 3713 3021 2192 2355 1735 1479 1627
is_linear=0
shrinkage=0.1


Tree=11
num_leaves=17
num_cat=0
split_feature=204 107 88 17 201 201 1 164 180 180 201 203 205 201 180 144
split_gain=11.5166 34.8297 27.9194 3.17598 16.8867 9.82157 35.1436 27.454 19.2643 13.2238 25.5602 8.53623 3.82939 3.53169 5.12981 2.70958
threshold=-0.99049797654151905 1.0000000180025095e-35 -0.21529179066419599 0.81687411665916454 1.0000000180025095e-35 1.0000000180025095e-35 -0.31085316836833948 1.6530972123146059 -0.62464570999145497 -0.62464570999145497 -0.96824583411216725 0.14070533215999606 0.21525902301073077 -0.19364916269106566 1.0000000180025095e-35 0.48763218522071844
decision_type=2 2 2 2 2 2 2 2 2 2 2 2 2 2 2 2
left_child=1 2 -1 5 -5 7 -7 9 -8 12 -11 -10 -2 14 -12 -13
right_child=3 -3 -4 4 -6 6 8 -9 11 10 13 15 -14 -15 -16 -17
leaf_value=-0.045084637515918742 0.018343534045676544 0.015158125845460897 -0.0035002236896584608 -0.008217001273701818 0.017772450101016 -0.032731796564932358 -0.015573778758692473 0.029582487441611578 -0.0042092575175387533 -0.020433737484262204 -0.0078849393473838948 0.014660241840755959 0.0045040787708414045 0.011352061810509809 0.0076677909029402571 0.0043381167751059303
leaf_weight=315.90616503357887 413.56231382489204 354.98598036170006 330.22237521409988 437.68161663413048 583.04429244995117 365.26298958063126 544.44096648693085 378.77186113595963 541.8916300535202 616.24018916487694 395.25237268209457 732.2262786924839 387.05913203954697 457.30690109729767 457.60254514217377 389.6340249478817
leaf_count=605 521 502 516 633 718 633 845 450 770 990 574 922 528 596 606 535
internal_value=0 -0.0100063 -0.0238317 0.00149269 0.00662832 0.000569672 -0.00399882 0.00435512 0.000753977 0.000851142 -0.00363811 0.00609702 0.0116529 0.00426179 0.000459937 0.0110753
internal_weight=0 1001.11 646.129 6699.98 1020.73 5679.25 2573.46 3105.8 2208.19 2727.02 1926.4 1663.75 800.621 1310.16 852.855 1121.86
internal_count=10944 1623 1121 9321 1351 7970 3705 4265 3072 3815 2766 2227 1049 1776 1180 1457
is_linear=0
shrinkage=0.1


Tree=12
num_leaves=17
num_cat=0
split_feature=204 201 150 138 150 201 58 45 201 1 201 201 114 2 101 110
split_gain=10.2517 3.04058 36.7315 36.4747 10.3938 12.8913 11.7933 6.11142 9.02585 4.94143 4.91954 2.95253 7.24527 5.72881 4.18523 1.72453
threshold=-1.7822378277778623 -0.96824583411216725 0.56583777070045482 0.082959376275539412 0.56583777070045482 0.58094753324985515 -0.34561620652675623 -0.62336409091949452 1.3555441498756411 -0.29499797523021692 0.58094753324985515 -0.19364916269106566 0.75156205892562877 -0.31762504577636713 0.26557630300521856 0.31884654238820082
decision_type=2 2 2 2 2 2 2 2 2 2 2 2 2 2 2 2
left_child=-1 2 3 -2 6 9 -3 10 11 -6 -8 13 14 -9 -13 -16
right_child=1 4 -4 -5 5 -7 7 8 -10 -11 -12 12 -14 -15 15 -17
leaf_value=-0.016209647719216166 -0.00020338654841827163 -0.011498178077280721 0.021079346871940987 -0.041429797574666798 0.010232732326836868 -0.01812549070933234 0.0045813112882130292 0.0079158436323891364 0.020143875760917088 -0.0054451214315336359 -0.010143144922838118 0.01821114962234208 -0.0043067844637251973 -0.0083845867464759378 0.0025287284747498818 0.011076837802121037
leaf_weight=371.44197648763657 627.66303673386574 441.22487661242485 423.89694026112556 326.10391873121262 381.84040412306786 527.66652658581734 558.66109195351601 487.7799260020256 497.80224618315697 424.57929894328117 382.09952446818352 518.5999813079834 392.57985034584999 386.41014212369919 447.68876737356186 499.15023678541183
leaf_count=662 908 671 534 593 510 842 762 651 613 615 569 640 555 562 619 638
internal_value=0 0.000819607 -0.00341346 -0.0142992 0.00180038 -0.00597325 0.00404901 0.00569375 0.0077596 0.00197836 -0.00139918 0.00550322 0.00775807 0.000710715 0.0109901 0.00703508
internal_weight=0 7323.75 1377.66 953.767 5946.08 1334.09 4612 4170.77 3230.01 806.42 940.761 2732.21 1858.02 874.19 1465.44 946.839
internal_count=10944 10282 2035 1501 8247 1967 6280 5609 4278 1125 1331 3665 2452 1213 1897 1257
is_linear=0
shrinkage=0.1


Tree=13
num_leaves=17
num_cat=0
split_feature=204 204 202 103 144 112 111 3 201 21 182 201 1 202 103 117
split_gain=8.30931 2.77848 3.48229 24.853 23.9313 25.5248 18.8666 18.7851 15.8123 26.0388 13.7741 8.25722 14.8428 6.56768 7.83813 3.13815
threshold=-1.7822378277778623 1.2325536012649538 1.0000000180025095e-35 -0.16342271119356153 -1.0208405554294584 -0.61342951655387867 -0.099207822233438478 -0.37065346539020533 -0.19364916269106566 -0.34137345850467676 0.53790823370218288 -0.19364916269106566 -0.29499797523021692 -0.89442722499370564 -0.16335212439298627 0.21746269613504413
decision_type=2 2 2 2 2 2 2 2 2 2 2 2 2 2 2 2
left_child=-1 2 4 7 -2 -6 -5 8 -4 -10 13 -8 -13 14 -7 -15
right_child=1 -3 3 6 5 10 11 -9 9 -11 -12 12 -14 15 -16 -17
leaf_value=-0.01459830754764864 -0.018985044865932166 0.009329831230399795 0.01256167897920236 -0.027847788089571349 -0.016769473142722629 0.010762858248819028 -0.01453606177135822 0.024770886193916316 -0.028556185312044631 0.0092542040981857879 -0.0031655246334683627 0.016123839331533243 -0.012099248185407733 0.0026776256801285692 0.02818528908537379 0.014343237828875702
leaf_weight=371.21017879247665 452.23976218700409 357.96367982029915 599.27269941568375 463.0592035651207 436.0958865582943 545.58481866121292 467.97284626960754 420.98145785927773 358.87562823295593 369.83875444531441 660.91029307246208 383.4645169377327 362.48609787225723 557.90487548708916 490.26153200864792 393.06661280989647
leaf_count=662 698 461 791 757 679 725 726 510 599 489 948 478 550 769 588 514
internal_value=0 0.000737775 0.000296 -0.00197614 0.00249738 0.00564776 -0.0106743 0.00636398 0.000528857 -0.00936657 0.00934001 -0.0041233 0.00240916 0.0134999 0.0190088 0.00749939
internal_weight=0 7319.98 6962.01 3425.95 3536.06 3083.82 1676.98 1748.97 1327.99 728.714 2647.73 1213.92 745.951 1986.82 1035.85 950.971
internal_count=10944 10282 9821 4900 4921 4223 2511 2389 1879 1088 3544 1754 1028 2596 1313 1283
is_linear=0
shrinkage=0.1


Tree=14
num_leaves=17
num_cat=0
split_feature=204 47 180 200 126 112 165 203 200 2 3 201 2 194 202 30
split_gain=7.06954 28.604 15.7398 3.03477 6.21994 4.14864 3.87547 2.76751 2.51613 8.5008 3.29513 3.63653 7.13935 3.0601 2.02088 1.51491
threshold=-0.99049797654151905 0.257612094283104 1.0000000180025095e-35 -0.7829231023788451 0.18764387816190722 0.39727734029293066 1.0000000180025095e-35 0.46930499374866491 1.0000000180025095e-35 0.42803016304969793 0.68130388855934154 -0.58094747364521016 -0.51371127367019642 0.22193046659231189 1.0000000180025095e-35 -0.50878968834877003
decision_type=2 2 2 2 2 2 2 2 2 2 2 2 2 2 2 2
left_child=1 -1 -3 4 6 8 -2 -7 10 13 11 -5 -13 14 -10 -14
right_child=3 2 -4 5 -6 7 -8 -9 9 -11 -12 12 15 -15 -16 -17
leaf_value=-0.032446288580094781 -0.0018718689870527308 0.019162737916198672 -0.011329625901160267 0.0061589656436800387 0.0074910853996649545 0.00121681574804108 -0.015946626912943501 -0.0087323775257244409 0.010722476560451787 -0.0047458964797452742 0.0096045035013014382 -0.015226459492566752 0.0054346729228222619 0.016788893123423378 0.0029360465534702491 -0.0031146602179824828
leaf_weight=320.87922844290733 416.04946330189705 336.00961354374886 341.16637641191483 521.38461318612099 353.01673623919487 619.08490017056465 369.26943442225456 509.82701110839844 684.66739094257355 576.51975506544113 367.52592465281487 377.97600194811821 433.95706352591515 412.25812005996704 649.54509782791138 396.76049196720123
leaf_count=599 599 463 561 722 481 851 578 744 892 823 486 587 576 525 890 567
internal_value=0 -0.00785304 0.00380045 0.00116937 -0.00353403 0.00213415 -0.00849004 -0.00327633 0.00351586 0.00578293 0.00100519 -0.000821585 -0.00383273 0.00925855 0.00693175 0.00135141
internal_weight=0 998.055 677.176 6687.84 1138.34 5549.51 785.319 1128.91 4420.59 2322.99 2097.6 1730.08 1208.69 1746.47 1334.21 830.718
internal_count=10944 1623 1024 9321 1658 7663 1177 1595 6068 3130 2938 2452 1730 2307 1782 1143
is_linear=0
shrinkage=0.1


Tree=15
num_leaves=16
num_cat=0
split_feature=204 175 201 150 139 167 201 180 202 201 136 201 101 101 203
split_gain=6.21888 2.88469 3.99346 35.4336 36.3354 7.38159 39.8239 10.6484 25.3766 9.66259 7.18338 7.3754 5.87574 4.96476 2.79489
threshold=-1.7822378277778623 1.7507634162902834 -0.96824583411216725 0.56583777070045482 -0.32206897437572474 1.0230111479759219 1.0000000180025095e-35 -0.62464570999145497 1.0000000180025095e-35 -0.19364916269106566 -0.19349025189876554 1.3555441498756411 0.27723120152950292 0.26557630300521856 0.33493074774742132
decision_type=2 2 2 2 2 2 2 2 2 2 2 2 2 2 2
left_child=-1 2 3 4 -2 7 -7 8 -4 12 11 13 -9 -11 -15
right_child=1 -3 5 -5 -6 6 -8 9 -10 10 -12 -13 -14 14 -16
leaf_value=-0.012643118359037635 0.0014587664671769072 0.0077245018572707855 0.0078102525982531677 0.018695882947551354 -0.040172107809272169 0.015075275703051727 -0.032093707742535012 -0.012852791713078619 -0.021424562847026297 0.015245310715433825 -0.0014793527568253335 0.022748350047314712 0.003093860413674261 -0.00022911869601138988 0.01068216005278361
leaf_weight=370.41854551434517 480.58813896775246 532.61180609464645 652.06723517179489 423.15130561590195 371.8821730017662 362.42649707198143 353.64416939020157 379.13158246874809 545.14240694046021 613.46262860298157 561.64131072163582 440.7028771340847 591.61571142077446 631.19792079925537 373.76320537924767
leaf_count=662 688 711 882 534 683 468 623 567 884 768 798 525 807 866 478
internal_value=0 0.000638136 8.14911e-05 -0.00495996 -0.0167023 0.00124974 -0.00821996 0.00266577 -0.00550165 0.00538833 0.00854513 0.0112794 -0.00313421 0.00815634 0.00382898
internal_weight=0 7313.03 6780.42 1275.62 852.47 5504.8 716.071 4788.72 1197.21 3591.52 2620.77 2059.13 970.747 1618.42 1004.96
internal_count=10944 10282 9571 1905 1371 7666 1091 6575 1766 4809 3435 2637 1374 2112 1344
is_linear=0
shrinkage=0.1


Tree=16
num_leaves=16
num_cat=0
split_feature=205 185 51 2 161 201 13 201 17 204 2 180 202 1 201
split_gain=5.23207 12.5301 11.4224 4.3294 4.58781 28.621 25.0836 15.0722 21.7722 8.77667 9.8424 6.88293 6.89631 16.3096 3.81642
threshold=-1.0450506806373594 -1.0231719911098478 -0.36837895214557642 -0.53351703286170948 -0.2457517012953758 -0.96824583411216725 0.51566061377525341 0.58094753324985515 -0.41039824485778803 -0.28582194447517389 0.29877188801765447 -0.62464570999145497 -0.89442722499370564 -0.20779442787170407 0.58094753324985515
decision_type=2 2 2 2 2 2 2 2 2 2 2 2 2 2 2
left_child=1 -1 -3 -2 5 6 -5 9 -9 -6 -11 -7 -13 14 -14
right_child=3 2 -4 4 7 11 -8 8 -10 10 -12 12 13 -15 -16
leaf_value=0.0078305760170425467 0.0087993459179778171 -0.0024737266095798344 -0.028588711574020088 -0.040759933655371151 0.022720045136750251 -0.0084179872690650377 -0.00087927018966079101 -0.024370741097780632 0.010293979642134764 0.012193477239853603 -0.0069879339685674129 -0.0051409139572597511 0.0082583690040823037 -0.0068545608503056748 0.018883912948589161
leaf_weight=385.88924792408943 648.7992742061615 355.49606522917747 316.68568515777588 324.19482508301735 374.37938204407692 525.71611219644547 307.11627799272537 385.44000133872032 341.91260203719139 721.95871493220329 424.97869175672531 610.05048245191574 751.21511745452881 590.15311661362648 614.57035484910011
leaf_count=540 866 551 574 599 484 788 445 647 454 947 618 858 980 856 737
internal_value=0 -0.00653198 -0.0147773 0.00104112 0.000198226 -0.00195589 -0.021359 0.0037647 -0.00807561 0.00942564 0.00508612 0.00200613 0.00414181 0.00703706 0.0130396
internal_weight=0 1058.07 672.182 6620.48 5971.69 3723.02 631.311 2248.67 727.353 1521.32 1146.94 3091.71 2565.99 1955.94 1365.79
internal_count=10944 1665 1125 9279 8413 5263 1044 3150 1101 2049 1565 4219 3431 2573 1717
is_linear=0
shrinkage=0.1


Tree=17
num_leaves=17
num_cat=0
split_feature=204 204 168 204 202 75 69 120 11 134 120 201 202 202 89 83
split_gain=4.49902 2.11816 3.21465 12.7363 9.30198 15.3822 14.3786 14.4198 13.845 10.9749 11.0024 13.8515 6.16479 2.57876 8.50036 6.38625
threshold=-1.7822378277778623 1.1228743195533755 -0.84462532401084889 -0.18846569955348966 1.0000000180025095e-35 -0.14644519984722135 -0.58114600181579579 0.049489094177261002 0.20563894510269168 -0.54766130447387684 0.68327331542968761 1.0000000180025095e-35 -0.89442722499370564 1.0000000180025095e-35 0.23259556293487552 0.25687961280345922
decision_type=2 2 2 2 2 2 2 2 2 2 2 2 2 2 2 2
left_child=-1 2 3 -2 5 6 -4 -8 9 -6 11 -11 -7 14 -5 -15
right_child=1 -3 4 13 8 12 7 -9 -10 10 -12 -13 -14 15 -16 -17
leaf_value=-0.010768859803554796 -0.019449710044427172 0.006544125767411685 0.014520043446917314 0.0074184359436184413 -0.011554879842887902 0.021654854854939194 0.0033951728810382611 -0.020532989989169647 -0.017604026183608412 0.0099732885731558234 0.018620126377214965 -0.014724018637299961 0.0065940066456677219 0.014139426157391286 -0.01448541246483632 -0.0043914528330489646
leaf_weight=369.45170110464096 393.80326536297798 544.15471935272217 413.61722415685654 355.72366800904274 513.54455944895744 578.37646776437759 547.93511199951172 466.07208952307701 514.38033193349838 531.23949733376503 439.69669708609581 396.64415058493614 512.70142832398415 374.54209968447685 352.97760203480721 369.39228239655495
leaf_count=662 638 714 540 475 777 716 764 736 813 710 545 620 691 483 531 529
internal_value=0 0.000541963 5.88571e-05 -0.00349853 0.00139549 0.00563847 -0.00119344 -0.00760302 -0.0030657 0.000909706 0.00559032 -0.000584115 0.0145777 0.00082576 -0.00349105 0.00493813
internal_weight=0 7304.8 6760.65 1846.44 4914.21 2518.7 1427.62 1014.01 2395.51 1881.12 1367.58 927.884 1091.08 1452.64 708.701 743.934
internal_count=10944 10282 9568 2656 6912 3447 2040 1500 3465 2652 1875 1330 1407 2018 1006 1012
is_linear=0
shrinkage=0.1


Tree=18
num_leaves=16
num_cat=0
split_feature=205 185 51 165 204 199 1 47 112 201 144 201 97 201 130
split_gain=4.17354 9.47461 9.38257 3.42744 4.64174 20.9894 17.1286 5.13673 5.39584 3.42351 2.99261 2.90356 2.72474 2.31692 6.45138
threshold=-1.0450506806373594 -1.0231719911098478 -0.36837895214557642 1.5657675266265871 0.16015516221523288 -0.61274278163909901 -0.28707037866115565 0.25405853986740118 1.0000000180025095e-35 0.58094753324985515 -0.44010779261589045 1.0000000180025095e-35 1.0000000180025095e-35 0.58094753324985515 -0.19546256214380262
decision_type=2 2 2 2 2 2 2 2 2 2 2 2 2 2 2
left_child=1 -1 -3 4 5 -2 -7 9 13 -6 -8 -12 -10 14 -9
right_child=3 2 -4 -5 7 6 10 8 12 -11 11 -13 -14 -15 -16
leaf_value=0.0066553168996230068 -0.023693508043246922 -0.0018686457717968759 -0.02555580658394694 0.0087429571127895286 0.0037755583990025567 0.015568545395417117 -0.012108581854062507 -0.0021345304004987851 -0.013270569795072192 0.015864014570370632 0.0031073818495369904 -0.0082683851580876381 -0.0017300431530713704 -0.0015340072239695269 0.012165558371258036
leaf_weight=385.57048520445824 412.99532595276833 355.39657166600227 315.82760635018349 517.55706778168678 575.18115052580833 576.47225838899612 415.57519343495369 577.89806348085403 343.47995728254318 395.27850359678268 512.83188816905022 398.89523777365685 505.92857107520103 687.05426517128944 694.76352947950363
leaf_count=540 681 551 574 708 770 765 637 812 520 479 727 594 715 971 900
internal_value=0 -0.0058377 -0.013014 0.000930071 0.000266787 -0.00325762 0.00117564 0.00242714 0.000260311 0.00869931 -0.00507547 -0.0018697 -0.00639675 0.00314571 0.00567209
internal_weight=0 1056.79 671.224 6613.91 6096.35 2316.77 1903.77 3779.58 2809.12 970.46 1327.3 911.727 849.409 1959.72 1272.66
internal_count=10944 1665 1125 9279 8571 3404 2723 5167 3918 1249 1958 1321 1235 2683 1712
is_linear=0
shrinkage=0.1


Tree=19
num_leaves=16
num_cat=0
split_feature=205 183 2 161 201 127 201 89 180 201 51 202 31 95 120
split_gain=3.38279 8.11849 3.0333 3.27153 20.2526 21.7055 14.8495 6.57857 5.52174 7.34071 8.25265 14.5963 4.70748 3.92016 1.5862
threshold=-1.0450506806373594 0.83062416315078746 -0.53351703286170948 -0.03157498221844434 -0.96824583411216725 -0.34166346490383143 -0.58094747364521016 0.54379022121429454 -0.62464570999145497 -0.19364916269106566 0.68005016446113598 -0.89442722499370564 -0.38341224193572992 0.3084245771169663 0.43451149761676794
decision_type=2 2 2 2 2 2 2 2 2 2 2 2 2 2 2
left_child=1 -1 -2 4 5 -4 -5 -8 -6 12 11 -11 -10 14 -13
right_child=2 -3 3 6 8 -7 7 -9 9 10 -12 13 -14 -15 -16
leaf_value=-0.013676642630592649 0.0073334179006262993 0.0038717393853320518 -0.036694943471630187 0.017239972391809775 -0.0076609982206279782 -0.0019558023839586908 -0.01008136708320961 0.0053444392769197383 -0.011440853777493544 -0.0075122423706863494 -0.0067572412743917461 0.013906645976227747 0.0038512128670309593 0.0061363461042481769 0.021977844056857123
leaf_weight=549.48159736394882 648.31314754486084 506.77965959906578 307.3741320669651 555.55195006728172 525.19732284545898 433.54729595780373 584.83723506331444 524.31377759575844 454.34393152594566 404.36762499809265 390.92614126205444 544.32202422618866 361.45521256327629 436.93659389019012 440.56961941719055
leaf_count=926 866 739 564 712 788 646 909 711 667 575 578 691 489 562 521
internal_value=0 -0.00525717 0.000837264 0.000131073 -0.00132639 -0.0163675 0.00389493 -0.00278934 0.00180567 0.00344497 0.00642922 0.00925199 -0.00466541 0.0140197 0.0175171
internal_weight=0 1056.26 6612.06 5963.74 4299.04 740.921 1664.7 1109.15 3558.12 3032.92 2217.12 1826.2 815.799 1421.83 984.892
internal_count=10944 1665 9279 8413 6081 1210 2332 1620 4871 4083 2927 2349 1156 1774 1212
is_linear=0
shrinkage=0.1


Tree=20
num_leaves=16
num_cat=0
split_feature=204 89 201 199 201 169 127 201 165 90 201 180 202 0 203
split_gain=2.84411 1.88638 7.17377 11.1492 5.60826 30.8537 5.38713 10.1467 28.1365 9.48179 7.91465 7.16132 4.81288 2.04028 1.00562
threshold=-1.7822378277778623 -0.37216870486736292 -0.58094747364521016 -0.060429539531469338 -0.96824583411216725 -0.40951819717884058 -0.35034571588039393 -0.19364916269106566 0.69508767127990734 -0.2931839376688003 -0.19364916269106566 -0.54691457748413075 1.0000000180025095e-35 0.11638835445046426 0.34237056970596319
decision_type=2 2 2 2 2 2 2 2 2 2 2 2 2 2 2
left_child=-1 2 -2 -4 5 -3 10 9 11 -8 -6 -9 -13 -5 -12
right_child=1 4 3 13 6 -7 7 8 -10 -11 14 12 -14 -15 -16
leaf_value=-0.0085774829324546265 0.011616888945543464 -0.029812835130655625 -0.011164218176540073 0.0012557182973344288 -0.0065597318256191348 0.0067661543196742523 -0.0039795368425532352 -0.0096467239707745955 -0.031150016045980774 0.017280423729908092 0.0078588267343763941 -0.0022942156648463291 0.011315807940848362 0.011276097850357686 0.01414404478967222
leaf_weight=368.18307259678841 657.42289432883263 377.08695676922798 615.59890389442444 377.23263958096504 383.38683781027794 593.55733916163445 389.25052663683891 505.64478623867035 353.51548102498055 454.99142944812775 710.17420893907547 494.51123923063278 547.49919253587723 440.44911998510361 396.79351222515106
leaf_count=662 884 656 937 519 558 832 550 783 621 571 926 687 699 566 493
internal_value=0 0.000430552 0.00296779 -0.00099941 -0.00058831 -0.00744447 0.000982808 -0.00164476 -0.00569594 0.0074782 0.0058231 0.000118285 0.00485684 0.00665326 0.0101118
internal_weight=0 7297.12 2090.7 1433.28 5206.41 970.644 4235.77 2745.41 1901.17 844.242 1490.35 1547.66 1042.01 817.682 1106.97
internal_count=10944 10282 2906 2022 7376 1488 5888 3911 2790 1121 1977 2169 1386 1085 1419
is_linear=0
shrinkage=0.1


Tree=21
num_leaves=15
num_cat=0
split_feature=43 204 200 34 202 201 165 167 202 16 97 147 202 201
split_gain=2.83054 12.153 2.26881 3.97719 23.9424 7.01538 32.5747 5.819 4.23523 13.7147 9.15716 8.7527 19.646 2.48564
threshold=-2.2959506511688228 -1.5425965785980222 -1.010682553052902 -0.074783984571695314 1.0000000180025095e-35 -0.96824583411216725 0.60186275839805614 1.3738402724266054 0.89442722499370586 -0.29368852078914637 0.26412451267242437 0.60770857334136974 1.0000000180025095e-35 0.58094753324985515
decision_type=2 2 2 2 2 2 2 2 2 2 2 2 2 2
left_child=-1 -2 -3 5 -5 6 -4 8 10 -10 11 12 -7 -13
right_child=1 2 3 4 -6 7 -8 -9 9 -11 -12 13 -14 -15
leaf_value=0.0065277298953348786 -0.01774969207427271 -0.0055741254535114672 -0.024212249503354641 0.018721959377627793 -0.0091742879961510277 -0.019983661410994401 0.01591027798677512 -0.010354524699304531 0.022044658471068505 -0.0023411206673081011 0.010705681574593479 -0.0005366869795063484 0.0088436934805185708 0.0095285759134098244
leaf_weight=610.90279975533485 388.96046435832977 574.12489923834801 518.05933302640915 677.45345947146416 563.63669952750206 635.91967308521271 332.04465511441231 377.32895728945732 415.07282665371895 519.0044949054718 680.02434903383255 550.83391857147217 376.30474257469177 442.40624344348907
leaf_count=864 728 877 896 839 847 980 416 584 489 734 878 756 490 566
internal_value=0 -0.000567905 0.000435221 0.00100192 0.00605298 -0.00029142 -0.00854067 0.00146312 0.00269508 0.00849511 0.000677687 -0.00272266 -0.0092668 0.00394655
internal_weight=0 7051.17 6662.21 6088.09 1241.09 4847 850.104 3996.9 3619.57 934.077 2685.49 2005.46 1012.22 993.24
internal_count=10944 10080 9352 8475 1686 6789 1312 5477 4893 1223 3670 2792 1470 1322
is_linear=0
shrinkage=0.1


Tree=22
num_leaves=17
num_cat=0
split_feature=180 201 202 201 114 161 167 201 201 176 202 112 203 182 204 201
split_gain=2.66745 19.9947 14.7914 10.3838 45.1146 46.2231 3.69512 20.3274 4.04179 3.89015 4.75075 5.13252 4.28379 2.94483 1.25943 0.1426
threshold=-0.68878358602523793 -0.58094747364521016 1.0000000180025095e-35 -0.96824583411216725 0.74615547060966503 -0.2457517012953758 1.3738402724266054 1.0000000180025095e-35 1.3555441498756411 -0.89960950613021839 -0.89442722499370564 -0.085610061883926378 -0.16316565871238706 0.16886951029300692 0.64865675568580639 1.0000000180025095e-35
decision_type=2 2 2 2 2 2 2 2 2 2 2 2 2 2 2 2
left_child=1 -1 -3 4 5 -2 8 -8 9 12 -11 13 -5 -12 -15 -14
right_child=3 2 -4 6 -6 -7 7 -9 -10 10 11 -13 15 14 -16 -17
leaf_value=0.020855942301573074 -0.04745343028968288 0.0069808779274098138 -0.02109776863934246 -0.011398926495499709 0.01381711942965418 0.002096233109123373 0.011475215721735932 -0.021724771983228933 0.0094598198897971192 -0.0045044616713666372 -0.0028846613095540406 0.013478984960099683 0.002289478422526478 0.0023468673515163177 0.01048021021219139 -0.00047113751721991349
leaf_weight=455.57071894407272 405.71492365002632 417.00416213274002 341.04960209131241 450.76289704442024 519.04241266846657 351.27388247847557 363.47472977638245 374.36275967955589 665.1587615609169 609.88351404666901 613.29115670919418 581.58036661148071 382.68883076310158 379.6261074244976 381.92920568585396 366.13483312726021
leaf_count=576 832 576 576 702 704 512 480 640 864 864 864 720 520 526 482 506
internal_value=0 0.00429872 -0.00565175 -0.000811864 -0.00889049 -0.0244604 0.00118249 -0.00536974 0.00227353 0.00100424 0.00320164 0.00560389 -0.00369674 0.00227261 0.00642584 0.000939684
internal_weight=0 1213.62 758.054 6444.92 1276.03 756.989 5168.89 737.837 4431.06 3765.9 2566.31 1956.43 1199.59 1374.85 761.555 748.824
internal_count=10944 1728 1152 9216 2048 1344 7168 1120 6048 5184 3456 2592 1728 1872 1008 1026
is_linear=0
shrinkage=0.1


Tree=23
num_leaves=14
num_cat=0
split_feature=43 204 200 86 201 30 167 117 3 180 106 165 96
split_gain=2.36762 8.60619 1.82249 3.12822 8.12414 31.1215 21.1862 19.0266 9.45454 5.81797 4.05548 2.30084 0.96888
threshold=-2.2959506511688228 -1.5425965785980222 -1.010682553052902 0.92850235104560863 -0.19364916269106566 -0.54129788279533375 1.0230111479759219 -0.33110816776752466 -0.37931382656097407 -0.62464570999145497 -0.22286775708198545 -0.24296024441719052 0.31929896771907812
decision_type=2 2 2 2 2 2 2 2 2 2 2 2 2
left_child=-1 -2 -3 4 5 -4 9 -7 -9 -6 12 -12 -11
right_child=1 2 3 -5 6 7 -8 8 -10 10 11 -13 -14
leaf_value=0.0059711131254242909 -0.015006672496624858 -0.0050640300502149491 0.023391277475575286 -0.0055328028554969683 -0.0068575486457169519 -0.01949260991949063 -0.023546574268605937 0.012978709947732049 -0.0049000941657768851 0.0057491835244010431 -0.004189585142173307 0.0048575529793261508 0.012358523856346178
leaf_weight=610.57075315713882 387.53812074661255 573.83218625187874 718.9175700545311 685.31183290481567 642.96275582909584 434.98809146881104 389.53763404488564 657.26987335085869 537.78284019231796 434.38024118542671 594.56500431895256 533.18436521291733 453.20332208275795
leaf_count=864 728 877 854 974 980 703 664 850 794 558 838 700 560
internal_value=0 -0.000520306 0.000323155 0.000831423 0.00163958 0.00605914 -0.00176656 -0.00158507 0.00493311 0.00142501 0.00406744 8.77771e-05 0.00912394
internal_weight=0 7043.47 6655.94 6082.1 5396.79 2348.96 3047.83 1630.04 1195.05 2658.3 2015.33 1127.75 887.584
internal_count=10944 10080 9352 8475 7501 3201 4300 2347 1644 3636 2656 1538 1118
is_linear=0
shrinkage=0.1


Tree=24
num_leaves=15
num_cat=0
split_feature=202 144 191 103 111 111 24 203 141 202 202 103 201 150
split_gain=2.28816 28.123 21.7494 18.1098 14.4778 13.6724 11.4704 10.5576 8.0799 6.15076 5.86024 4.90088 4.33479 7.56209
threshold=1.0000000180025095e-35 -1.0208405554294584 -0.87619557976722706 -0.16342271119356153 -0.12872899696230886 -0.099207822233438478 -0.32932066917419428 0.88908597826957714 -0.26936745643615717 -0.89442722499370564 0.89442722499370586 -0.16335212439298627 -0.19364916269106566 0.27033345401287084
decision_type=2 2 2 2 2 2 2 2 2 2 2 2 2 2
left_child=1 -1 -3 7 11 -5 -6 8 10 -8 -2 -4 -7 -14
right_child=3 2 4 5 6 12 9 -9 -10 -11 -12 -13 13 -15
leaf_value=-0.019370765574067052 -0.001631212399115802 -0.017860239704022018 0.010281296458334194 -0.022584246851501167 -0.013411974793010678 -0.010399656088668377 0.012838405662972424 0.020305162149950654 -0.0099951622120047143 -0.00059601778280501179 0.012557899221493508 0.022940559475706793 0.011516957254352011 -0.008558190050024627
leaf_weight=544.1900392472744 556.86856314539909 365.68792188167572 642.23044002056122 525.51936131715775 373.39771956205368 523.36710852384567 707.51373100280762 361.3186984360218 449.4489694237709 657.49240303039551 609.83734911680222 583.80824172496796 374.44208237528801 376.11987459659576
leaf_count=864 790 576 864 864 576 832 936 450 693 936 803 720 480 560
internal_value=0 0.00170525 0.00514936 -0.00175369 0.00798778 -0.00901263 0.00211888 0.00485176 0.00139689 0.00636735 0.00578544 0.0163093 -0.00341409 0.00145695
internal_weight=0 3874.32 3330.13 3776.92 2964.44 1799.45 1738.4 1977.47 1616.15 1365.01 1166.71 1226.04 1273.93 750.562
internal_count=10944 5472 4608 5472 4032 2736 2448 2736 2286 1872 1593 1584 1872 1040
is_linear=0
shrinkage=0.1


Tree=25
num_leaves=18
num_cat=0
split_feature=44 204 168 203 200 85 201 201 141 170 112 104 201 202 172 88 196
split_gain=1.87035 4.71228 17.0906 1.83154 3.68876 2.58093 13.1357 4.9679 14.3101 15.6753 10.0487 6.70992 8.86354 7.05736 9.63729 5.54983 1.86389
threshold=2.090849876403809 -1.2708394527435301 0.46523447334766393 -0.68622735142707814 -1.010682553052902 0.56826230883598339 1.0000000180025095e-35 0.58094753324985515 -0.39108689129352564 0.3946067094802857 0.48913016915321356 -0.16430988162755963 -0.58094747364521016 1.0000000180025095e-35 -0.38307085633277888 -0.24771506339311597 -0.70271378755569447
decision_type=2 2 2 2 2 2 2 2 2 2 2 2 2 2 2 2 2
left_child=1 2 -1 -3 -5 7 -7 10 16 -10 11 12 -6 14 -13 -15 -9
right_child=-2 3 -4 4 5 6 -8 8 9 -11 -12 13 -14 15 -16 -17 -18
leaf_value=-0.026553130246727469 0.006600447582661666 0.0064755417916663328 0.0069005846417481993 -0.0097857540152028345 0.020551947224564222 -0.017731339321979435 0.0075931973225494519 0.0013883887232452965 -0.0014141583555527788 -0.029278155290731651 -0.011819082782174341 0.017504681827997037 0.0026672389938035015 0.0021082384098222019 -0.0026657284667923799 -0.01425832071420902 0.01079247772798465
leaf_weight=287.08969470858574 406.26393082737923 462.13849574327469 326.25280997157097 366.17226561903954 565.39405393600464 396.04515472054482 424.19370010495186 406.6931294798851 526.55518758296967 327.4505929350853 370.51552534103394 493.94636455178261 543.45744031667709 497.83913201093674 455.15273299813271 354.8802048265934 437.46527177095413
leaf_count=557 576 639 524 573 677 623 546 549 738 588 554 610 753 697 646 552 542
internal_value=0 -0.000372414 -0.00875823 0.000403605 -5.15008e-05 0.000563097 -0.00463453 0.00141929 -0.00297133 -0.012098 0.00369164 0.00566609 0.0117865 0.00189954 0.0078317 -0.00470311 0.00626184
internal_weight=0 7241.24 613.343 6627.9 6165.76 5799.59 820.239 4979.35 1698.16 854.006 3281.19 2910.67 1108.85 1801.82 949.099 852.719 844.158
internal_count=10944 10368 1081 9287 8648 8075 1169 6906 2417 1326 4489 3935 1430 2505 1256 1249 1091
is_linear=0
shrinkage=0.1


Tree=26
num_leaves=17
num_cat=0
split_feature=187 201 112 202 136 201 17 17 139 201 95 204 19 107 200 205
split_gain=1.68455 10.6869 49.1871 8.50508 11.6254 7.52285 35.1611 16.65 5.19203 5.34937 3.83574 4.24431 3.53038 2.00211 3.44819 1.4181
threshold=-0.31503444910049433 -0.96824583411216725 -0.4348690509796142 -0.89442722499370564 -0.27024990320205683 -0.19364916269106566 -0.47511033713817591 -0.46870285272598261 -0.32206897437572474 1.0000000180025095e-35 -0.21708470582962033 0.39219731092453008 -0.4116107821464538 -0.58596780896186818 -0.32740421593189234 0.36968328058719641
decision_type=2 2 2 2 2 2 2 2 2 2 2 2 2 2 2 2
left_child=3 2 -2 4 -1 7 -7 -5 9 -3 13 -12 -8 -10 -15 -13
right_child=1 8 -4 5 -6 6 12 -9 10 -11 11 15 -14 14 -16 -17
leaf_value=-0.00072468112192546671 0.010941275239073444 0.0027417947314793 -0.037157812488056427 0.015915900358745561 0.022636564550457969 -0.027992323735723031 0.013277145667689495 -0.0089984590569880916 0.0039699554621369431 -0.014084259245062073 0.012455346987667879 0.0062514371386058025 1.9144856185544691e-05 -0.011291042506018287 0.0021742095382106283 -0.0018262406942630713
leaf_weight=451.92867231369019 459.59875839948654 355.55617982149124 395.6155589222908 600.29166558384895 402.9459867477417 478.76119539141655 377.11749574542046 484.91190224885941 496.69336554408073 403.22371059656143 669.73492786288261 401.49836051464081 429.69822371006012 360.50902280211449 402.51936411857605 473.82338404655457
leaf_count=648 640 480 768 768 504 840 480 768 672 640 855 527 600 560 560 634
internal_value=0 -0.00127025 -0.011309 0.00173551 0.0102867 -0.00134793 -0.00652343 0.00478318 0.00113893 -0.00619975 0.00312427 0.00646346 0.00621613 -0.000971255 -0.00418774 0.00187888
internal_weight=0 4418.77 855.214 3225.66 854.875 2370.78 1285.58 1085.2 3563.56 758.78 2804.78 1545.06 806.816 1259.72 763.028 875.322
internal_count=10944 6336 1408 4608 1152 3456 1920 1536 4928 1120 3808 2016 1080 1792 1120 1161
is_linear=0
shrinkage=0.1


Tree=27
num_leaves=17
num_cat=0
split_feature=180 201 202 201 174 118 150 201 98 202 191 187 43 201 205 168
split_gain=1.72215 13.8097 10.257 8.35247 32.9421 28.713 3.13862 4.93818 4.00035 3.40111 13.1998 7.35307 5.94315 3.09933 2.99591 2.10999
threshold=-0.68878358602523793 -0.58094747364521016 1.0000000180025095e-35 -0.96824583411216725 -0.31823489069938654 -0.33148773014545435 0.71425718069076549 0.58094753324985515 1.2778623104095461 -0.89442722499370564 -0.75165200233459462 -0.23250809311866757 0.070196553133428111 1.0000000180025095e-35 -0.050227450206875794 -0.076831374317407594
decision_type=2 2 2 2 2 2 2 2 2 2 2 2 2 2 2 2
left_child=1 -1 -3 4 -2 -6 8 -8 9 10 -5 12 -11 -14 -13 -16
right_child=3 2 -4 6 5 -7 7 -9 -10 11 -12 14 13 -15 15 -17
leaf_value=0.017234984233930502 -0.03177596440562943 0.0056980874888095598 -0.017717544820216109 -0.016528995345414688 0.019742781027617264 -0.016691647959173748 0.001771313390595974 -0.012220350864512806 -0.0063168404808311004 0.0075160769424090293 0.0084256917300429262 0.017609578604279572 0.0014454029292954237 -0.011054742093146002 0.0030383807923595775 0.012699599494457918
leaf_weight=454.43572330474854 397.54600638151169 416.3601076900959 339.70066201686859 362.47847509384155 469.73991024494171 400.89983022212982 642.18139490485191 415.42820233106613 468.06978189945221 630.81870704889297 510.47239944338799 416.32408705353737 359.208340883255 442.94358026981354 503.61535140872002 410.16656032204628
leaf_count=576 768 576 576 560 576 704 896 672 672 840 672 521 504 672 657 502
internal_value=0 0.00345807 -0.00482264 -0.000653519 -0.0079248 0.00296597 0.00113297 -0.0037246 0.00238475 0.00350491 -0.00193633 0.00522399 0.000253917 -0.0054571 0.0105784 0.00737498
internal_weight=0 1210.5 756.061 6429.89 1268.19 870.64 5161.71 1057.61 4104.1 3636.03 872.951 2763.08 1432.97 802.152 1330.11 913.782
internal_count=10944 1728 1152 9216 2048 1280 7168 1568 5600 4928 1232 3696 2016 1176 1680 1159
is_linear=0
shrinkage=0.1


Tree=28
num_leaves=16
num_cat=0
split_feature=86 201 201 30 30 202 180 9 201 180 201 205 203 124 94
split_gain=1.8211 24.4452 5.40707 26.2945 20.788 18.8671 16.4988 14.1415 20.734 4.11486 4.57754 3.32787 2.89948 3.17522 2.38631
threshold=0.92850235104560863 1.0000000180025095e-35 -0.19364916269106566 -0.54129788279533375 -0.54129788279533375 1.0000000180025095e-35 -0.62464570999145497 0.19244175404310229 -0.96824583411216725 -0.62464570999145497 1.3555441498756411 -0.26472589373588556 -0.10923105105757712 -0.25534223020076746 -0.15884511172771451
decision_type=2 2 2 2 2 2 2 2 2 2 2 2 2 2 2
left_child=2 -2 3 11 5 -4 -5 -8 -9 -6 12 -1 -11 -14 -15
right_child=1 -3 4 6 9 -7 7 8 -10 10 -12 -13 13 14 -16
leaf_value=0.024942998421199552 -0.022898214607020451 0.01215368275115726 -0.0024076990091386943 0.012371822060948537 -0.0054783621154368689 -0.033884699791786051 0.0059580858300706538 -0.029732200246286051 -0.0019220055684869342 -0.0053116481891603796 0.012110128517240498 0.012322980655696423 0.0095816336603529954 -0.0057493689356844617 0.004922208397332371
leaf_weight=426.99070021510124 379.54530167579651 418.17467871308327 419.68429759144783 587.04899999499321 624.49870848655701 348.58585608005524 548.50725317001343 465.16737928986549 632.76426655054092 482.42990803718567 503.31394395232201 409.19642212986946 551.32306948304176 401.93992033600807 437.75141957402229
leaf_count=520 640 512 640 768 960 640 768 896 896 720 640 504 701 566 573
internal_value=0 -0.00452358 0.000525337 0.00364118 -0.00201202 -0.0166897 -0.00202182 -0.00715397 -0.0137045 0.00174522 0.00364323 0.0187673 0.00136854 0.00368535 -0.000186017
internal_weight=0 797.72 6839.2 3069.68 3769.53 768.27 2233.49 1646.44 1097.93 3001.26 2376.76 836.187 1873.44 1391.01 839.691
internal_count=10944 1152 9792 4352 5440 1280 3328 2560 1792 4160 3200 1024 2560 1840 1139
is_linear=0
shrinkage=0.1


Tree=29
num_leaves=16
num_cat=0
split_feature=111 202 191 16 173 0 108 201 127 2 202 204 201 170 204
split_gain=1.54018 3.43923 27.3884 33.1766 7.08689 6.3871 5.88357 5.58455 24.7823 5.2991 4.77956 4.01143 3.01644 6.05085 2.20672
threshold=-1.3692815899848936 -0.89442722499370564 -0.61052757501602162 -0.65280410647392262 -0.93182051181793202 -0.42301814258098597 -1.1743443012237547 0.96824583411216747 -0.34166346490383143 -0.49587044119834894 0.89442722499370586 0.22634254395961764 -0.19364916269106566 0.51288551092147838 0.59140533208847057
decision_type=2 2 2 2 2 2 2 2 2 2 2 2 2 2 2
left_child=-1 2 3 -2 14 -4 -6 9 -9 12 11 -11 13 -8 -3
right_child=1 4 5 -5 6 -7 7 8 -10 10 -12 -13 -14 -15 -16
leaf_value=-0.004873239860797087 0.010657436375253144 0.0030951883564552625 0.023077715474307245 -0.031316402934152242 0.0079266905450790983 0.0074715141477885898 -0.0019594646117097212 0.0062701129844000393 -0.028399310032362613 -0.0091686161283283923 -0.013447524853242696 0.0028743170071720025 -0.0029605547853447448 0.015648603670435263 0.013046745307295785
leaf_weight=598.23715561628342 375.21250745654106 567.79549607634544 479.31980109214783 378.03970780968666 471.68570730090141 579.06583350896835 391.58121621608734 409.22893196344376 415.54347079992294 463.88783353567123 532.73578801751137 685.03384181857109 529.70298174023628 389.0706647336483 366.75595271587372
leaf_count=864 504 819 576 648 648 792 576 528 720 746 840 934 792 480 477
internal_value=0 0.000412083 0.00416643 -0.0104083 -0.000890136 0.0145392 -0.0026097 -0.0039118 -0.0111973 -0.00190349 -0.00561838 -0.00198813 0.00286404 0.00681626 0.00700058
internal_weight=0 7034.66 1811.64 753.252 5223.02 1058.39 4288.47 3816.78 824.772 2992.01 1681.66 1148.92 1310.35 780.652 934.551
internal_count=10944 10080 2520 1152 7560 1368 6264 5616 1248 4368 2520 1680 1848 1056 1296
is_linear=0
shrinkage=0.1


Tree=30
num_leaves=15
num_cat=0
split_feature=205 165 204 172 137 53 204 120 97 204 108 205 202 126
split_gain=1.41835 2.06362 1.92722 9.58898 8.97778 6.25003 7.669 2.99899 3.20376 2.9362 2.56524 2.32774 2.00172 1.96927
threshold=-1.7610768079757688 1.7526674270629885 0.16015516221523288 0.98854178190231334 -0.19201635569334027 -0.22850809246301648 -0.58047536015510548 -1.2264177203178404 -0.57797592878341664 -0.58047536015510548 1.1500960588455202 -0.031051497906446453 1.0000000180025095e-35 -0.12071894481778143
decision_type=2 2 2 2 2 2 2 2 2 2 2 2 2 2
left_child=-1 2 3 4 5 6 -2 -4 12 -7 11 -10 -9 -13
right_child=1 -3 7 -5 -6 9 -8 8 10 -11 -12 13 -14 -15
leaf_value=-0.0061433894736686104 0.018060369043782599 0.0074293335686879021 0.0070504257335247721 -0.016801271414744336 -0.01229529412199875 -0.0077833265577496469 5.2567619216455292e-05 3.3473679277750554e-05 -0.0063363541242563645 0.0024661869542045474 -0.0091537087240717626 -0.0021648630518443669 0.0091211497174507015 0.005545772074451269
leaf_weight=358.40712010860443 469.95692101120949 384.59045937657356 746.99054259061813 382.622055798769 470.91095152497292 495.70814433693886 476.05239263176918 461.54633429646492 490.27814078330994 640.80866482853889 416.21511906385422 655.9431459903717 510.43225538730621 669.0945235490799
leaf_count=575 627 533 998 627 755 816 682 631 747 880 618 932 658 865
internal_value=0 0.000300551 -9.75667e-05 -0.00203804 0.000174168 0.00299382 0.00899845 0.00134462 1.41437e-05 -0.00200429 -0.00207296 -0.000449485 0.00480585 0.00172872
internal_weight=0 7271.15 6886.56 2936.06 2553.44 2082.53 946.009 3950.5 3203.51 1136.52 2231.53 1815.32 971.979 1325.04
internal_count=10944 10369 9836 4387 3760 3005 1309 5449 4451 1696 3162 2544 1289 1797
is_linear=0
shrinkage=0.1


Tree=31
num_leaves=17
num_cat=0
split_feature=87 201 170 170 86 201 93 93 0 4 83 142 24 185 203 200
split_gain=1.20997 2.06617 15.2793 14.8061 6.29244 5.88595 18.9005 13.6416 12.9855 5.68179 3.41185 3.16648 2.53777 2.08969 1.44416 0.516342
threshold=-1.1582357883453367 0.96824583411216747 0.21825148910284045 0.68630346655845653 0.92850235104560863 -0.58094747364521016 -0.96316042542457569 -0.11145450174808501 -0.44287513196468348 -0.13820421695709226 0.14076002687215808 -0.45517112314701075 -0.33163593709468836 -0.23152466863393781 0.11111346259713174 -0.32740421593189234
decision_type=2 2 2 2 2 2 2 2 2 2 2 2 2 2 2 2
left_child=-1 4 10 -4 5 6 -2 -8 -9 11 -3 14 15 -14 -7 -13
right_child=1 2 3 -5 -6 9 7 8 -10 -11 -12 12 13 -15 -16 -17
leaf_value=-0.0043198203610594205 -0.013322459514912635 -0.0011195780460355775 -0.029823230772422438 0.00047908562123002415 -0.0085056426062262661 -0.012697783401772004 0.020596817413380999 -0.0082479787363448267 0.015355871412873215 0.010616213663111579 0.011295658693554797 -0.0020079889301274842 -0.0012171722092373023 0.0078836826356851741 -0.0035046031437992531 -0.0074465528315460165
leaf_weight=598.09822064638138 395.03150525689125 408.64693596959114 320.96827739477158 324.03081133961678 587.75783468782902 345.91146603226662 790.59582355618477 499.83706390857697 436.71278125047684 389.73475763201714 482.94465976953506 347.30561092495918 532.42401945590973 479.53904089331627 337.69696468114853 350.99341234564781
leaf_count=864 672 576 576 448 896 546 960 768 576 512 640 512 768 640 478 512
internal_value=0 0.000365409 -0.00287611 -0.0146001 0.00127209 0.00244355 0.0064106 0.0109239 0.00275849 -0.000580862 0.00560533 -0.0024038 -0.000104425 0.00309545 -0.00815643 -0.00474163
internal_weight=0 7030.13 1536.59 644.999 5493.54 4905.78 2122.18 1727.15 936.55 2783.61 891.592 2393.87 1710.26 1011.96 683.608 698.299
internal_count=10944 10080 2240 1024 7840 6944 2976 2304 1344 3968 1216 3456 2432 1408 1024 1024
is_linear=0
shrinkage=0.1


Tree=32
num_leaves=17
num_cat=0
split_feature=201 167 150 204 168 98 204 110 110 202 100 122 138 202 100 202
split_gain=1.51408 24.5595 2.9686 3.30571 2.52329 2.33102 3.14412 5.54314 5.27242 3.56561 5.81701 2.91775 2.07712 1.95888 1.01426 1.57497
threshold=-1.3555442094802854 0.33468750119209295 0.56583777070045482 0.22634254395961764 0.45114451646804815 1.2778623104095461 0.39962737262248998 0.65518364310264599 1.0000000180025095e-35 0.89442722499370586 -0.26742117106914515 -0.46020995080471033 0.38709709048271185 1.0000000180025095e-35 -0.25501967966556544 1.0000000180025095e-35
decision_type=2 2 2 2 2 2 2 2 2 2 2 2 2 2 2 2
left_child=1 -1 5 4 -4 6 8 14 9 10 -2 -12 -10 -5 15 -8
right_child=2 -3 3 13 -6 -7 7 -9 12 -11 11 -13 -14 -15 -16 -17
leaf_value=-0.020375405567727611 0.0063710985667808709 0.015699356966105495 -0.014932815957794658 -0.0040777387280896051 -0.0027942829525600906 -0.0046991071213841294 0.0045419629847071952 -0.009028718388006696 0.01626171772745089 0.0089992739903729923 -0.0011084078091049996 -0.013792742217751433 0.0064333497260729072 0.0053692552983334169 0.0070918899260359672 -0.0026795599440971431
leaf_weight=421.58444727957249 567.24889895319939 341.65659749507904 325.96826633810997 433.45396214723587 360.80430841445923 529.04046875238419 634.21693521738052 566.38942110538483 402.939104616642 463.8877532184124 381.38050132989883 345.75779575109482 461.09415324032307 444.65882870554924 368.98568829894066 576.55151319503784
leaf_count=768 786 448 521 626 537 768 850 853 518 631 555 544 626 620 469 824
internal_value=0 -0.00422693 0.000468162 -0.00335861 -0.00855569 0.00159859 0.0022973 -0.0005411 0.0046203 0.001477 -0.00121886 -0.00713987 0.0110168 0.000706031 0.00250197 0.00110317
internal_weight=0 763.241 6862.38 1564.89 686.773 5297.49 4768.45 2146.14 2622.31 1758.27 1294.39 727.138 864.033 878.113 1579.75 1210.77
internal_count=10944 1216 9728 2304 1058 7424 6656 2996 3660 2516 1885 1099 1144 1246 2143 1674
is_linear=0
shrinkage=0.1


Tree=33
num_leaves=16
num_cat=0
split_feature=201 150 150 201 12 109 204 142 110 204 9 100 202 202 205
split_gain=1.22752 20.385 2.40504 2.92633 5.36827 2.07079 2.41069 6.51076 5.6118 4.33815 2.56439 2.12235 2.60599 1.95395 1.8839
threshold=-1.3555442094802854 0.27033345401287084 0.56583777070045482 0.58094753324985515 -0.40824945271015162 -0.85463315248489369 0.44386363029479986 -0.45759953558444971 0.65518364310264599 -0.8636130392551421 0.19244175404310229 -0.25995498895645136 1.0000000180025095e-35 1.0000000180025095e-35 -0.15306936204433438
decision_type=2 2 2 2 2 2 2 2 2 2 2 2 2 2 2
left_child=1 -1 5 4 -4 14 7 -7 11 -9 -11 12 -8 -12 -2
right_child=2 -3 3 -5 -6 6 8 9 -10 10 13 -13 -14 -15 -16
leaf_value=-0.019747895739077963 -0.0085501907187552264 0.012961251300349586 0.0062103093626984128 -0.0090409224500648689 -0.0084090792491546031 -0.0067333921150141834 0.0053035515820953364 0.015785686891513162 -0.0091690920418763932 -0.0028278436364644068 0.010387762829334853 0.0092530022261155687 -0.0046524701461574444 0.0023364798069321043 0.00082555160077251257
leaf_weight=390.97316689789295 359.44501036405563 371.65219281613827 599.45428693294525 532.88567996025085 432.31851032376289 430.60114833712578 557.26394981145859 425.17066548764706 521.61817693710327 373.99211493134499 648.39251166582108 388.39165067672729 497.72032845020294 563.29706317186356 530.77759096026421
leaf_count=704 560 512 800 864 640 655 745 604 792 528 828 485 728 779 720
internal_value=0 -0.00380766 0.000421412 -0.00302327 8.47047e-05 0.00143898 0.00232772 0.00442609 -0.000279455 0.00681577 0.00441065 0.00293315 0.000606501 0.00664484 -0.00296009
internal_weight=0 762.625 6861.33 1564.66 1031.77 5296.67 4406.45 2441.45 1964.99 2010.85 1585.68 1443.38 1054.98 1211.69 890.223
internal_count=10944 1216 9728 2304 1440 7424 6144 3394 2750 2739 2135 1958 1473 1607 1280
is_linear=0
shrinkage=0.1


Tree=34
num_leaves=17
num_cat=0
split_feature=30 201 171 171 202 202 114 84 172 204 204 33 201 175 203 182
split_gain=1.29941 9.05206 24.3108 4.53795 6.16477 4.87784 10.2371 8.49841 3.43851 3.24433 1.87041 1.47662 2.1423 2.64334 1.26307 0.656062
threshold=-0.51817274093627919 -0.96824583411216725 0.59711453318595897 0.87167844176292431 1.0000000180025095e-35 1.0000000180025095e-35 0.47407731413841253 0.39324393868446356 -0.80851063132286061 -1.2326862812042234 0.56573167443275463 -0.24109137803316114 -0.58094747364521016 0.012900283094495537 0.078940443694591536 -0.084149535745382295
decision_type=2 2 2 2 2 2 2 2 2 2 2 2 2 2 2 2
left_child=1 2 -1 5 -5 8 -7 -8 -3 -2 -10 14 -13 15 -11 -14
right_child=9 3 -4 4 -6 6 7 -9 10 11 -12 12 13 -15 -16 -17
leaf_value=-0.026538193391649586 0.0095452707907072824 0.014633447622632568 0.0077105926420832005 -0.015412550956701172 0.0029204996119464731 0.0079024048054905129 -0.021394070471151522 0.0013056302109219781 0.0075135883672536735 0.00041982784827733401 -0.001660658911221457 0.0068215395223502409 0.0050682843173917745 -0.0064220454961507537 -0.0067597095283226704 -0.00028442124014671044
leaf_weight=443.06694447994232 431.97679688036442 430.44589075446129 389.41919437050819 350.39455211162567 384.90617218613625 616.24666634202003 329.22089409828186 330.49859443306923 550.62053769826889 530.82320532202721 372.6080664396286 602.19754263758659 533.22106456756592 470.32248193025589 455.13849774003029 401.31779131293297
leaf_count=832 668 560 512 560 560 784 560 448 720 741 512 843 708 689 683 564
internal_value=0 -0.00118088 -0.0105173 0.00112896 -0.00581579 0.00307085 -0.00136527 -0.0100222 0.00725231 0.00144393 0.00381093 0.000274674 0.00183146 -0.000307546 -0.00289438 0.00276968
internal_weight=0 4197.43 832.486 3364.94 735.301 2629.64 1275.97 659.719 1353.67 3425 923.229 2993.02 2007.06 1404.86 985.962 934.539
internal_count=10944 6048 1344 4704 1120 3584 1792 1008 1792 4896 1232 4228 2804 1961 1424 1272
is_linear=0
shrinkage=0.1


Tree=35
num_leaves=17
num_cat=0
split_feature=3 201 82 201 95 105 16 202 0 202 202 143 202 24 95 205
split_gain=1.12444 12.7364 10.8379 3.57962 8.31254 8.10397 9.53991 7.35817 5.43487 4.90088 4.22087 3.38852 3.0974 6.02499 2.11533 1.62651
threshold=1.0000000180025095e-35 -0.19364916269106566 -0.34108324348926539 1.0000000180025095e-35 0.3084245771169663 -0.37878875434398646 -0.29368852078914637 1.0000000180025095e-35 -0.045546701177954667 1.0000000180025095e-35 1.0000000180025095e-35 0.49269950389862066 0.89442722499370586 -0.32494318485260004 0.46127107739448553 -0.0085424892604351026
decision_type=2 2 2 2 2 2 2 2 2 2 2 2 2 2 2 2
left_child=3 2 -2 5 11 -1 10 15 -9 -6 -7 12 13 -5 -3 -8
right_child=1 14 -4 4 9 6 7 8 -10 -11 -12 -13 -14 -15 -16 -17
leaf_value=-0.0087092819947166607 -0.0003626030838574065 0.01039482781253185 -0.025339083326504738 -0.0088121513988233119 -0.0034650303685591641 -0.0079334783944730643 0.020928306873483397 -0.0057634081675557456 0.01128921766589396 -0.020164087698193667 0.0039394934260214391 -0.0065616749643152041 0.011686780905593414 0.0069239540816456481 0.0012444587903719898 0.012154786395626156
leaf_weight=513.50637724995613 349.12055590748787 391.51242455840111 345.82890470325947 391.42621478438377 370.68493545055389 577.485729560256 411.05192333459854 372.10590007901192 375.50433468818665 334.19506028294563 621.84230187535286 411.28938388824463 364.74948832392693 643.00189658999443 712.24672591686249 434.8370167016983
leaf_count=800 512 480 640 576 576 880 509 560 480 576 880 640 480 864 960 531
internal_value=0 -0.00218685 -0.0127917 0.000673716 -0.00216923 0.00283653 0.00495942 0.0100298 0.00280166 -0.0113823 -0.00177743 0.00141776 0.00376332 0.000969433 0.00449017 0.0164182
internal_weight=0 1798.71 694.949 5821.68 2515.35 3306.33 2792.83 1593.5 747.61 704.88 1199.33 1810.47 1399.18 1034.43 1103.76 845.889
internal_count=10944 2592 1152 8352 3712 4640 3840 2080 1040 1152 1760 2560 1920 1440 1440 1040
is_linear=0
shrinkage=0.1


Tree=36
num_leaves=17
num_cat=0
split_feature=204 172 123 108 0 103 201 95 30 167 200 13 118 202 194 186
split_gain=1.14128 8.32197 6.00555 4.43434 3.57033 2.16788 5.09505 5.16037 2.84051 2.16057 1.67475 3.99616 1.60991 1.45421 1.20067 1.16259
threshold=0.16015516221523288 0.95683914422988903 0.90836206078529369 1.1602078080177309 -0.44287513196468348 -0.16167153418064115 -0.19364916269106566 0.41329652070999151 -0.51384791731834401 1.2342572808265688 1.0000000180025095e-35 0.37066989392042166 0.019948420114815239 1.0000000180025095e-35 -0.072430431842803941 -0.24431161582469937
decision_type=2 2 2 2 2 2 2 2 2 2 2 2 2 2 2 2
left_child=1 2 4 9 -1 6 7 -6 -8 10 12 15 14 -13 -2 -12
right_child=3 -3 -4 -5 5 -7 8 -9 -10 -11 11 13 -14 -15 -16 -17
leaf_value=-0.010237778946641872 0.0055082383296874877 -0.013266137185471871 0.010066190581476765 -0.0093005493282126966 -0.00012092356285473712 -0.0060065219633777672 -0.0096195053806667364 0.01647194285267815 0.0024462632758098014 -0.0045029292081077109 0.0043282565507731284 -0.0050719546507807366 -0.0048943969852933977 0.0035385188749210358 -0.0013883588254663814 0.010909572357693183
leaf_weight=391.11337120831013 578.46443518996239 500.9105458855629 553.11662015318871 373.48477190732956 388.92670919001102 434.94692771136761 395.25316432118416 361.77386924624443 385.32578971982002 437.16174238920212 416.43401530385017 381.90311190485954 413.10702818632126 403.24877381324768 447.89904949069023 755.1246657371521
leaf_count=630 777 827 748 566 609 680 622 447 542 656 560 541 597 543 633 966
internal_value=0 -0.00136059 0.000688443 0.0011008 -0.00151191 0.000223798 0.00199347 0.00787543 -0.00366335 0.00211421 0.00296598 0.00487064 0.00037692 -0.000649673 0.0024986 0.00857022
internal_weight=0 3411.37 2910.46 4206.83 2357.34 1966.23 1531.28 750.701 780.579 3833.34 3396.18 1956.71 1439.47 785.152 1026.36 1171.56
internal_count=10944 5105 4278 5839 3530 2900 2220 1056 1164 5273 4617 2610 2007 1084 1410 1526
is_linear=0
shrinkage=0.1


Tree=37
num_leaves=16
num_cat=0
split_feature=201 180 114 161 180 202 150 201 202 119 114 186 202 105 203
split_gain=1.02369 19.4276 23.7774 28.9746 2.96972 8.03028 2.44752 2.43563 1.82833 15.2327 8.5352 4.05005 3.24584 1.93702 1.52159
threshold=-0.96824583411216725 -0.62464570999145497 0.74877741932868969 -0.2457517012953758 -0.66928535699844349 1.0000000180025095e-35 0.71425718069076549 0.58094753324985515 -0.89442722499370564 -0.27682448923587794 0.75156205892562877 1.1031379997730257 0.89442722499370586 -0.30591283738613123 -0.20654238760471341
decision_type=2 2 2 2 2 2 2 2 2 2 2 2 2 2 2
left_child=1 -1 3 -3 5 -2 8 -8 9 -6 11 12 13 -10 -12
right_child=4 2 -4 -5 6 -7 7 -9 10 -11 14 -13 -14 -15 -16
leaf_value=0.016546205891179888 0.0036977624115620313 -0.038941526574114683 0.0098375078625510919 0.00095921762788011037 -0.010983771592133812 -0.013912208986885451 0.0011790311916722162 -0.0086630900966180053 0.010504007130377462 0.014992991304743115 -0.010732233580813554 -0.000109559224577646 0.015300752630529749 0.0021475795963271211 -0.0012238366350364488
leaf_weight=405.69840949773788 573.03560021519661 380.60729289054871 427.58774763345718 348.75636070966721 591.23395532369614 472.4378522336483 641.26531010866165 413.62106272578239 532.23481607437134 365.16042345762253 335.26735404133797 617.85085842013359 594.93779423832893 579.32474476099014 337.9400869011879
leaf_count=512 784 832 576 512 896 784 896 672 672 448 522 840 728 784 486
internal_value=0 -0.00228313 -0.00888585 -0.0198624 0.00058773 -0.00425999 0.00159957 -0.00268007 0.00274135 -0.0010656 0.00395599 0.00682774 0.00933945 0.00614879 -0.00595916
internal_weight=0 1562.65 1156.95 729.364 6054.31 1045.47 5008.84 1054.89 3953.95 956.394 2997.56 2324.35 1706.5 1111.56 673.207
internal_count=10944 2432 1920 1344 8512 1568 6944 1568 5376 1344 4032 3024 2184 1456 1008
is_linear=0
shrinkage=0.1


Tree=38
num_leaves=16
num_cat=0
split_feature=86 201 201 101 111 33 142 204 199 103 205 120 202 201 204
split_gain=1.00822 13.8872 2.19533 13.4609 7.40192 5.13484 4.53571 4.60986 4.82926 4.25774 2.75697 2.50103 2.49228 2.05232 0.437845
threshold=0.92850235104560863 1.0000000180025095e-35 0.58094753324985515 0.29350113868713384 -1.3692815899848936 -0.51182882487773884 -0.31101389229297632 -0.67291247844696034 -0.089764982461929307 -0.16316130757331845 -0.18619098514318463 -0.25218784064054484 1.0000000180025095e-35 -0.58094747364521016 0.38326026499271398
decision_type=2 2 2 2 2 2 2 2 2 2 2 2 2 2 2
left_child=2 -2 4 9 -1 -6 7 -7 14 11 -8 -4 -12 -10 -9
right_child=1 -3 3 -5 5 6 10 8 13 -11 12 -13 -14 -15 -16
leaf_value=-0.012078571614258037 -0.017291616868782823 0.0091860664747512467 0.00036411164522382741 -0.019453334736777392 0.010341651126741871 -0.0091807894862897914 0.013239844662251166 -0.0075006120436487524 0.010856833584069032 -0.0056955187084477138 0.0078676915686572597 0.0092866366227195834 -0.0026752250859656359 0.0014454260330988081 -0.0025149101568482006
leaf_weight=362.2946330010891 376.82162211835384 417.6217537522316 661.79929867386818 375.34413942694664 746.40251335501671 580.99555091559887 369.41928243637085 358.57667925953865 442.25878781080246 589.76350697875023 483.94338008761406 598.04644823074341 417.79096651077271 486.68523523211479 346.21663823723793
leaf_count=576 640 512 960 672 960 997 492 534 584 864 624 768 612 662 487
internal_value=0 -0.00337287 0.000391343 -0.00218697 0.0016399 0.00281424 0.00120246 -0.00153032 0.00119037 0.00131693 0.00596378 0.00459962 0.00298295 0.00592608 -0.00505148
internal_weight=0 794.443 6819.54 2224.95 4594.58 4232.29 3485.89 2214.73 1633.74 1849.61 1271.15 1259.85 901.734 928.944 704.793
internal_count=10944 1152 9792 3264 6528 5952 4992 3264 2267 2592 1728 1728 1236 1246 1021
is_linear=0
shrinkage=0.1


Tree=39
num_leaves=18
num_cat=0
split_feature=201 96 150 204 202 202 109 204 142 204 110 5 205 203 100 202 202
split_gain=1.01916 17.4032 2.12091 2.78172 4.97674 1.65366 1.64892 1.83624 4.43359 3.70498 3.70127 1.92864 1.44372 1.23456 1.20654 1.63359 0.666148
threshold=-1.3555442094802854 0.41685429215431219 0.56583777070045482 0.27154660224914556 1.0000000180025095e-35 1.0000000180025095e-35 -0.85463315248489369 0.44386363029479986 -0.45759953558444971 -0.8636130392551421 0.65518364310264599 0.23904091119766238 -0.15306936204433438 0.31487120687961584 -0.25995498895645136 1.0000000180025095e-35 1.0000000180025095e-35
decision_type=2 2 2 2 2 2 2 2 2 2 2 2 2 2 2 2 2
left_child=1 -1 6 4 -4 -5 12 8 -8 -10 14 -11 -2 16 15 -9 -13
right_child=2 -3 3 5 -6 -7 7 10 9 11 -12 13 -14 -15 -16 -17 -18
leaf_value=-0.018469944423885349 -0.0074868775199170047 0.011813844608456015 0.00047318198541842008 -0.0033883551558543156 -0.016114346313126939 0.0054988587717965699 -0.0052493839001325994 0.0044320339528152435 0.014240093952996176 -0.0023573064486321058 -0.0073686346835199843 0.0061645376549070707 0.0007265124178247903 0.010287748334835693 0.0072339701122693147 -0.003455108912402772 0.00036583802385368498
leaf_weight=383.31612168252468 358.79899007081985 375.80318479239941 381.79017394781113 416.99697479605675 343.71350157260895 420.49639025330544 429.99397565424442 556.68775349855423 424.13903118669987 393.04800227284431 520.82501432299614 423.43930464982986 530.34958663582802 395.45342642068863 388.03262028098106 497.10323342680931 372.2935563325882
leaf_count=672 560 544 550 602 567 585 655 745 604 549 792 550 720 514 485 728 522
internal_value=0 -0.00347791 0.00038378 -0.00285269 -0.0073853 0.00107382 0.00134001 0.00213356 0.00396613 0.00593917 -0.000143194 0.00371681 -0.00258784 0.00572105 0.00246683 0.000711444 0.00345154
internal_weight=0 759.119 6853.16 1563 725.504 837.493 5290.16 4401.02 2438.37 2008.37 1962.65 1584.23 889.149 1191.19 1441.82 1053.79 795.733
internal_count=10944 1216 9728 2304 1117 1187 7424 6144 3394 2739 2750 2135 1280 1586 1958 1473 1072
is_linear=0
shrinkage=0.1


Tree=40
num_leaves=16
num_cat=0
split_feature=86 201 201 30 87 33 115 3 142 125 201 202 205 191 149
split_gain=0.936232 11.1613 1.85129 11.2244 6.05906 4.50843 3.45719 3.78667 2.80944 2.9155 2.74179 2.81348 2.12802 1.87164 1.85778
threshold=0.92850235104560863 1.0000000180025095e-35 0.58094753324985515 -0.54129400849342335 -1.0501753091812132 -0.75316190719604481 -0.20129559934139249 -0.37931382656097407 0.58797244727611553 -0.3421268612146377 -0.96824583411216725 1.0000000180025095e-35 -0.14197159558534619 1.0000000180025095e-35 -0.16054486483335492
decision_type=2 2 2 2 2 2 2 2 2 2 2 2 2 2 2
left_child=2 -2 4 -4 -1 -6 7 -5 9 10 -7 -12 -11 -9 -14
right_child=1 -3 3 6 5 8 -8 13 -10 12 11 -13 14 -15 -16
leaf_value=-0.0090423370654146868 -0.015737343584088733 0.0080076734506516235 -0.01525998195987485 -0.0088207455745473173 0.010728584827133089 0.0085708241514002564 0.0086196983861750644 -0.0017670847024019302 0.0070202453215586925 -0.010375045431160626 0.0047300675646809089 -0.0054318801289240225 0.0038121238959095993 0.0079759463373682265 -0.0057256825370430101
leaf_weight=485.34211979806423 376.45512863993645 417.49530553817749 495.47618764638901 418.06545820832253 606.99881285429001 534.64404398202896 521.14743965864182 407.28013899922371 707.81614562869072 349.70849412679672 564.97253188490868 526.21156471967697 400.31967017054558 382.18728032708168 416.89241319894791
leaf_count=768 640 512 864 672 768 768 672 576 960 587 768 768 539 480 602
internal_value=0 -0.00325113 0.000377289 -0.00199081 0.00152406 0.00277257 0.00181242 -0.00112547 0.00139299 -3.32242e-05 0.00270409 -0.00017042 -0.00384702 0.00294959 -0.00105349
internal_weight=0 793.95 6817.06 2224.16 4592.91 4107.56 1728.68 1207.53 3500.56 2792.75 1625.83 1091.18 1166.92 789.467 817.212
internal_count=10944 1152 9792 3264 6528 5760 2400 1728 4992 4032 2304 1536 1728 1056 1141
is_linear=0
shrinkage=0.1


Tree=41
num_leaves=16
num_cat=0
split_feature=201 51 138 18 86 202 103 30 201 14 102 185 202 99 205
split_gain=1.13594 14.9748 22.4924 7.83393 2.12416 2.11227 14.9505 9.96029 13.0345 10.2418 4.60036 4.32082 3.5812 2.13711 1.94416
threshold=-0.96824583411216725 0.22429826855659488 0.082959376275539412 -0.49297177791595453 0.92850235104560863 -0.89442722499370564 -0.16342271119356153 -0.54129788279533375 1.0000000180025095e-35 -0.69288361072540272 -0.16521972417831418 0.50676105916500103 0.89442722499370586 -0.2894385010004043 0.38103380799293524
decision_type=2 2 2 2 2 2 2 2 2 2 2 2 2 2 2
left_child=1 2 3 -1 5 6 13 8 -7 10 -9 12 14 -2 -11
right_child=4 -3 -4 -5 -6 7 -8 9 -10 11 -12 -13 -14 -15 -16
leaf_value=0.010774223522870569 -0.013123276752802591 0.012541596593432722 -0.031642918971410215 -0.0092894559931245759 0.0058286467169109818 0.0014147684680821235 0.013400634232800995 -0.0009434652243916512 -0.023498305635585789 0.0079862365209650826 -0.015387262172429925 -0.0037319335589200242 0.013269849875414914 -0.0018115673983528176 -0.00016413277284688086
leaf_weight=369.64347556233406 331.69419479370117 468.59810784459114 309.57739013433456 410.97281211614609 693.01681739091873 425.04371452331543 711.80293917655945 467.90677678585052 415.11349260807037 582.84683528542519 417.05581283569336 457.30229210853577 624.73608496785164 336.42158171534538 587.8524928689003
leaf_count=448 504 640 640 704 896 576 896 672 768 776 672 672 784 504 792
internal_value=0 -0.00240831 -0.00883423 0.000211253 0.000619005 -5.48514e-05 0.00331632 -0.00122431 -0.0108945 0.00136501 -0.00775039 0.00494589 0.00715616 -0.0074274 0.00389363
internal_weight=0 1558.79 1090.19 780.616 6050.79 5357.78 1379.92 3977.86 840.157 3137.7 884.963 2252.74 1795.44 668.116 1170.7
internal_count=10944 2432 1792 1152 8512 7616 1904 5712 1344 4368 1344 3024 2352 1008 1568
is_linear=0
shrinkage=0.1


Tree=42
num_leaves=15
num_cat=0
split_feature=184 202 201 150 24 88 201 83 2 101 200 16 197 204
split_gain=1.07483 5.55531 3.11653 13.5616 13.133 1.83716 3.2974 10.2443 2.89072 2.54805 1.81993 4.97427 2.49428 1.62801
threshold=-1.0460550189018247 1.0000000180025095e-35 -0.96824583411216725 -0.35891862213611597 -0.31507845222949976 -0.051441899035125964 0.58094753324985515 0.33904802799224859 -0.52780905365943898 0.27221494913101202 -0.32740421593189234 1.0000000180025095e-35 1.0000000180025095e-35 0.34827575087547308
decision_type=2 2 2 2 2 2 2 2 2 2 2 2 2 2
left_child=1 -1 3 -2 -5 6 8 9 -4 -8 11 -10 -12 -7
right_child=2 -3 5 4 -6 13 7 -9 10 -11 12 -13 -14 -15
leaf_value=0.0091701486779377939 -0.022349567823226266 -0.0043857829478201136 0.0087553478136061357 0.013521732342130017 -0.0098817813774168557 0.0076123025340529967 0.0057308758144864365 -0.018576890834494771 -0.0035018396111260474 -0.0036420294085133076 0.0016788170434869816 0.01173914472218348 -0.0090371274098545486 0.00057493804998201721
leaf_weight=636.22305873036385 331.39460055530071 575.99950268864632 485.54050543904305 451.92113324999809 510.77015872299671 606.51854845881462 518.60799345374107 370.57270550727844 481.32056197524071 658.09123113751411 478.76894700527191 385.77781185507774 397.5971911251545 717.73901617527008
leaf_count=864 640 864 640 576 832 812 672 672 704 960 640 512 576 980
internal_value=0 0.00272891 -0.000518769 -0.0049016 0.00110465 0.000593224 -0.000530655 -0.00407737 0.00193131 0.000488902 3.08714e-05 0.00327898 -0.00318288 0.0037981
internal_weight=0 1212.22 6394.62 1294.09 962.691 5100.53 3776.28 1547.27 2229.01 1176.7 1743.46 867.098 876.366 1324.26
internal_count=10944 1728 9216 2048 1408 7168 5376 2304 3072 1632 2432 1216 1216 1792
is_linear=0
shrinkage=0.1


Tree=43
num_leaves=15
num_cat=0
split_feature=161 202 201 167 203 167 204 171 144 201 87 205 202 150
split_gain=0.891297 6.66033 6.21059 12.6129 2.07925 1.68796 1.01435 4.53007 2.08405 1.72213 2.995 1.60257 1.92019 1.32723
threshold=-0.78566792607307423 1.0000000180025095e-35 -1.3555442094802854 0.19725510478019717 -0.76866361498832692 1.4853681325912478 -0.085829790681600557 1.0000000180025095e-35 -0.13922858238220212 -0.19364916269106566 -0.56803929805755604 0.2485320866107941 1.0000000180025095e-35 0.27033345401287084
decision_type=2 2 2 2 2 2 2 2 2 2 2 2 2 2
left_child=1 -1 3 -2 -4 6 7 -6 11 -10 -11 13 -13 -8
right_child=2 -3 4 -5 5 -7 8 -9 9 10 -12 12 -14 -15
leaf_value=0.0094554775712521431 -0.024732241800652335 -0.0054093980664997 0.0068855103516653601 0.0041653829568002133 0.0052798129364585071 -0.0059121544075718679 0.010125228791264632 -0.0092113469876053539 -0.0057091027835300409 -0.0050711410391473507 0.0048053724569205912 -0.0028582943148042768 0.0049417748875585392 0.0022707274044221474
leaf_weight=642.99235299229622 298.69071161746979 567.41059243679047 473.35698974132538 305.54382154345512 397.36711686849594 446.97142153978348 481.85061088204384 471.92427679896355 593.04263383150101 515.30471941828728 759.67732977867126 631.28426748514175 631.14786252379417 388.65907555818558
leaf_count=864 576 864 716 448 545 675 629 726 868 761 996 871 832 573
internal_value=0 0.00248715 -0.000472146 -0.0101196 0.000534539 -3.08448e-05 0.000508917 -0.0025872 0.00118161 -0.00125715 0.000813619 0.00331747 0.00104132 0.00661841
internal_weight=0 1210.4 6394.82 604.235 5790.59 5317.23 4870.26 869.291 4000.97 1868.02 1274.98 2132.94 1262.43 870.51
internal_count=10944 1728 9216 1024 8192 7476 6801 1271 5530 2625 1757 2905 1703 1202
is_linear=0
shrinkage=0.1


Tree=44
num_leaves=17
num_cat=0
split_feature=86 201 201 30 30 202 57 99 205 205 180 201 168 204 203 205
split_gain=0.931565 7.2631 1.58267 11.6018 7.51308 11.0319 6.81068 5.23844 2.8139 2.77354 1.86279 3.41443 2.84809 1.76928 0.904503 0.798547
threshold=0.92850235104560863 1.0000000180025095e-35 -0.19364916269106566 -0.54129788279533375 -0.54129788279533375 1.0000000180025095e-35 -0.51282030344009388 -0.2399712800979614 -0.30423013865947718 -0.24962048232555387 -0.62464570999145497 1.3555441498756411 -0.38844263553619379 0.21921252459287646 0.40980513393878942 0.14919538795948031
decision_type=2 2 2 2 2 2 2 2 2 2 2 2 2 2 2 2
left_child=2 -2 3 9 5 -4 -5 8 -8 -1 -6 12 -12 -9 15 -14
right_child=1 -3 4 6 10 -7 7 13 -10 -11 11 -13 14 -15 -16 -17
leaf_value=0.017773519109791736 -0.013339386242754776 0.0058321239453222005 0.0010536148072363631 -0.012671724271097013 -0.0036110945596849833 -0.023113346517024912 0.01199909520750045 -0.011309547370288575 0.0015188079690721349 0.0062299679042043333 -0.004865230994883802 0.0098587193930337116 0.0048187789834644714 -0.00088096370290983322 0.0072092817091362824 -0.0014246306974848432
leaf_weight=425.86262738704681 375.33147193491459 417.3356921672821 418.33944156765938 451.38587220013142 622.2200887799263 344.38571152091026 397.14556783437729 322.23678511381149 721.82353360950947 407.11776477098465 636.05443751811981 502.04007777571678 381.05591121315956 328.56315851211548 410.15498515963554 443.04637008905411
leaf_count=521 640 512 640 768 960 640 551 556 985 503 896 640 537 468 533 594
internal_value=0 -0.00324567 0.000376473 0.00206719 -0.00099783 -0.00985825 -0.00170719 0.00108935 0.00523848 0.0121316 0.00125894 0.00253626 0.000570717 -0.00604457 0.00337204 0.00146225
internal_weight=0 792.667 6811.43 3054.14 3757.3 762.725 2221.15 1769.77 1118.97 832.98 2994.57 2372.35 1870.31 650.8 1234.26 824.102
internal_count=10944 1152 9792 4352 5440 1280 3328 2560 1536 1024 4160 3200 2560 1024 1664 1131
is_linear=0
shrinkage=0.1


Tree=45
num_leaves=15
num_cat=0
split_feature=204 172 137 137 205 203 108 83 120 5 84 204 203 205
split_gain=0.800005 4.70078 2.8922 2.5311 2.49702 3.93204 2.14634 2.00548 1.442 1.00954 1.06907 1.53058 1.88128 0.951954
threshold=0.27154660224914556 0.98854178190231334 -0.19201635569334027 -0.20188689231872556 -0.9445936083793639 -0.68622735142707814 1.1560323238372805 0.28235518932342535 -1.2264177203178404 0.24567774683237079 -0.1427958011627197 0.99679502844810497 0.74511301517486583 0.46887072920799261
decision_type=2 2 2 2 2 2 2 2 2 2 2 2 2 2
left_child=1 2 3 4 -1 -6 8 -7 -2 -10 11 12 13 -11
right_child=6 -3 -4 -5 5 7 -8 -9 9 10 -12 -13 -14 -15
leaf_value=-0.005378403992221217 0.0059616339851788699 -0.0097004915973062742 -0.00592120373977664 0.0092923719861573786 0.0092486234878296769 0.0036172709443503073 -0.0061647832826553905 -0.0045564813304137513 0.0053298288621940618 0.0047764558196931109 -0.0042403647421197519 0.0058989656929052644 -0.0059892899805066091 -0.0018167241142900985
leaf_weight=545.99064715206623 675.39682853221893 536.306666046381 594.65489974617958 384.8175944685936 564.35705175995827 548.35439789295197 373.0608786046505 663.23961880803108 416.29485896229744 515.29545432329178 476.31688353419304 484.12979725003242 443.40013608336449 380.84125554561615
leaf_count=908 901 863 925 519 785 749 562 958 535 696 688 646 687 522
internal_value=0 -0.00101705 0.00039355 0.00178085 0.000535963 0.00235425 0.00103467 -0.000857129 0.00182656 0.000798386 -2.18009e-05 0.00108003 -0.000661609 0.00197448
internal_weight=0 3837.72 3301.41 2706.76 2321.94 1775.95 3764.74 1211.59 3391.68 2716.28 2299.98 1823.67 1339.54 896.137
internal_count=10944 5707 4844 3919 3400 2492 5237 1707 4675 3774 3239 2551 1905 1218
is_linear=0
shrinkage=0.1


Tree=46
num_leaves=16
num_cat=0
split_feature=204 172 164 200 201 204 108 114 120 5 84 204 203 139 205
split_gain=0.675109 5.9258 3.62669 4.50559 6.6452 2.32388 2.13339 1.99472 1.27137 0.933855 1.01055 1.21049 1.67272 1.07335 0.399736
threshold=0.12455447763204576 0.95683914422988903 -0.34749810397624964 -0.32740421593189234 -0.19364916269106566 -0.67291247844696034 1.1602078080177309 0.74615547060966503 -1.2264177203178404 0.23904091119766238 -0.1427958011627197 0.99679502844810497 0.74511301517486583 -0.32092337310314173 0.36968328058719641
decision_type=2 2 2 2 2 2 2 2 2 2 2 2 2 2 2
left_child=1 2 5 4 -4 -1 8 -7 14 -10 11 12 13 -11 -2
right_child=6 -3 3 -5 -6 7 -8 -9 9 10 -12 -13 -14 -15 -16
leaf_value=-0.0081303101115037316 0.0075077793301779874 -0.011486992053502319 0.01559440059048311 -0.0045477662665230354 -0.00057140859891476829 -0.0050293435173409499 -0.0062667995754499732 0.0048097196679214166 0.0045892990548160846 0.004767908621504449 -0.0039191946142563047 0.0052577112404467918 -0.0055937678343310057 -0.0012815004309653167 0.0029366491244666518
