tree
version=v3
num_class=1
num_tree_per_iteration=1
label_index=0
max_feature_idx=254
objective=tweedie
feature_names=Column_0 Column_1 Column_2 Column_3 Column_4 Column_5 Column_6 Column_7 Column_8 Column_9 Column_10 Column_11 Column_12 Column_13 Column_14 Column_15 Column_16 Column_17 Column_18 Column_19 Column_20 Column_21 Column_22 Column_23 Column_24 Column_25 Column_26 Column_27 Column_28 Column_29 Column_30 Column_31 Column_32 Column_33 Column_34 Column_35 Column_36 Column_37 Column_38 Column_39 Column_40 Column_41 Column_42 Column_43 Column_44 Column_45 Column_46 Column_47 Column_48 Column_49 Column_50 Column_51 Column_52 Column_53 Column_54 Column_55 Column_56 Column_57 Column_58 Column_59 Column_60 Column_61 Column_62 Column_63 Column_64 Column_65 Column_66 Column_67 Column_68 Column_69 Column_70 Column_71 Column_72 Column_73 Column_74 Column_75 Column_76 Column_77 Column_78 Column_79 Column_80 Column_81 Column_82 Column_83 Column_84 Column_85 Column_86 Column_87 Column_88 Column_89 Column_90 Column_91 Column_92 Column_93 Column_94 Column_95 Column_96 Column_97 Column_98 Column_99 Column_100 Column_101 Column_102 Column_103 Column_104 Column_105 Column_106 Column_107 Column_108 Column_109 Column_110 Column_111 Column_112 Column_113 Column_114 Column_115 Column_116 Column_117 Column_118 Column_119 Column_120 Column_121 Column_122 Column_123 Column_124 Column_125 Column_126 Column_127 Column_128 Column_129 Column_130 Column_131 Column_132 Column_133 Column_134 Column_135 Column_136 Column_137 Column_138 Column_139 Column_140 Column_141 Column_142 Column_143 Column_144 Column_145 Column_146 Column_147 Column_148 Column_149 Column_150 Column_151 Column_152 Column_153 Column_154 Column_155 Column_156 Column_157 Column_158 Column_159 Column_160 Column_161 Column_162 Column_163 Column_164 Column_165 Column_166 Column_167 Column_168 Column_169 Column_170 Column_171 Column_172 Column_173 Column_174 Column_175 Column_176 Column_177 Column_178 Column_179 Column_180 Column_181 Column_182 Column_183 Column_184 Column_185 Column_186 Column_187 Column_188 Column_189 Column_190 Column_191 Column_192 Column_193 Column_194 Column_195 Column_196 Column_197 Column_198 Column_199 Column_200 Column_201 Column_202 Column_203 Column_204 Column_205 Column_206 Column_207 Column_208 Column_209 Column_210 Column_211 Column_212 Column_213 Column_214 Column_215 Column_216 Column_217 Column_218 Column_219 Column_220 Column_221 Column_222 Column_223 Column_224 Column_225 Column_226 Column_227 Column_228 Column_229 Column_230 Column_231 Column_232 Column_233 Column_234 Column_235 Column_236 Column_237 Column_238 Column_239 Column_240 Column_241 Column_242 Column_243 Column_244 Column_245 Column_246 Column_247 Column_248 Column_249 Column_250 Column_251 Column_252 Column_253 Column_254
feature_infos=[-0.49798458814620972:5.711097240447998] [-0.32076266407966614:5.8191585540771484] [-1.1934499740600586:4.1432161331176758] [-1.8209398984909058:2.3494663238525391] [-0.17217130959033966:6.1632852554321289] [-5.8467512130737305:0.366982102394104] [-0.21052423119544983:6.0957074165344238] [-0.30421936511993408:6.0366249084472656] [-4.088038444519043:0.67791956663131714] [-5.3985605239868164:0.94927918910980225] [-5.3085031509399414:1.1814702749252319] [-5.2710161209106445:1.2621390819549561] [-0.41360923647880554:4.4330081939697266] [-1.6340041160583496:2.1070466041564941] [-1.4804518222808838:2.2618250846862793] [-0.21308623254299164:6.08929443359375] [-1.5913738012313843:1.8369125127792358] [-0.50321805477142334:3.4454689025878906] [-0.50468844175338745:5.2492384910583496] [-3.2233238220214844:2.9665782451629639] [-0.16224651038646698:6.1644144058227539] [-0.47360694408416748:4.2489871978759766] [-0.44263172149658203:5.448946475982666] [-0.47235724329948425:4.2337689399719238] [-0.33539626002311707:5.6069235801696777] none none none [-1.8257418870925903:0.54772257804870605] [-0.16222143173217773:6.1644139289855957] [-0.54129999876022339:2.5558755397796631] [-0.39691537618637085:4.6916961669921875] [-0.47618791460990906:3.5030829906463623] [-0.76876586675643921:5.069185733795166] [-0.29427358508110046:6.0196504592895508] [-1.7029386758804321:0.58722025156021118] none [-4.0477099418640137:0.40741366147994995] [-0.53288727998733521:2.7038681507110596] [-3.8453667163848877:0.41239362955093384] [-0.31348082423210144:4.335669994354248] [-1.2649110555648804:0.79056942462921143] none [-3.6247878074645996:0.49054235219955444] [-0.70912033319473267:2.111309289932251] [-2.8777339458465576:0.93719702959060669] [-0.46100911498069763:3.4947834014892578] [-4.7011842727661133:0.25829082727432251] [-0.16222643852233887:6.1644139289855957] [-0.16222576797008514:6.1644139289855957] [-0.1622258722782135:6.1644139289855957] [-1.7495623826980591:3.6877543926239014] [-0.35196638107299805:4.360407829284668] [-0.22850809991359711:2.8477365970611572] [-0.16222198307514191:6.1644139289855957] [-0.16222190856933594:6.1644139289855957] [-0.16222190856933594:6.1644139289855957] [-0.83910608291625977:3.9030570983886719] [-0.35589531064033508:4.3584866523742676] [-5.3408932685852051:0.25013521313667297] [-0.16222147643566132:6.1644139289855957] [-0.16222146153450012:6.1644139289855957] [-0.16222147643566132:6.1644139289855957] [-1.8103036880493164:3.6377899646759033] [-0.36687842011451721:4.3296833038330078] [-0.17569348216056824:0.34774431586265564] [-0.16222143173217773:6.1644139289855957] [-0.16222141683101654:6.1644139289855957] [-0.16222141683101654:6.1644139289855957] [-0.9570080041885376:3.8165662288665771] [-0.38384771347045898:4.2961215972900391] [-5.9146871566772461:0.22816237807273865] [-0.16224811971187592:6.1644139289855957] [-0.16222378611564636:6.1644139289855957] [-0.16222864389419556:6.1644139289855957] [-1.8284940719604492:3.5407266616821289] [-0.38618168234825134:4.2691287994384766] [-0.16421833634376526:-0.08828137069940567] [-0.28110021352767944:3.9534168243408203] [-0.19425587356090546:6.037147045135498] [-0.23533974587917328:5.3001923561096191] [-0.93446260690689087:3.7580392360687256] [-0.40093600749969482:4.2502155303955078] [-4.2073192596435547:0.71892935037612915] [-0.59850776195526123:4.4260468482971191] [-0.84322267770767212:3.4400670528411865] [-0.68913215398788452:3.7757322788238525] [-1.5674479007720947:3.0357544422149658] [-0.65406322479248047:5.0263862609863281] [-1.6380274295806885:4.2883405685424805] [-0.3038860559463501:5.7726292610168457] [-0.40959200263023376:5.1103935241699219] [-0.33640041947364807:5.4994993209838867] [-1.5492256879806519:4.1091656684875488] [-0.55372440814971924:5.5912642478942871] [-1.7147738933563232:2.4475991725921631] [-3.4648356437683105:0.96587187051773071] [-1.2010223865509033:3.0677134990692139] [-2.0926582813262939:1.5923916101455688] [-0.77985715866088867:5.3460507392883301] [-0.33853012323379517:5.939455509185791] [-5.5759286880493164:0.30547294020652771] [-0.16621752083301544:6.1640505790710449] [-0.16385112702846527:6.1643867492675781] [-0.16431123018264771:6.1643385887145996] [-1.0004993677139282:4.589813232421875] [-0.22660644352436066:5.9636435508728027] [-0.61789059638977051:2.3694591522216797] [-1.2013803720474243:1.1634595394134521] [-0.88477790355682373:1.7389055490493774] [-0.92536008358001709:2.7018256187438965] [-2.5098366737365723:2.5721714496612549] [-0.96779388189315796:3.6576645374298096] [-0.23249527812004089:4.3011627197265625] [-1.6911346912384033:0.75480550527572632] [-0.4183935821056366:4.1706981658935547] [-1.1786890029907227:2.1018764972686768] [-1.6759227514266968:2.5601987838745117] [-0.87003487348556519:3.164663553237915] [-0.44500601291656494:4.6425247192382812] [-1.2813718318939209:1.5516257286071777] none [-0.59475284814834595:3.2355518341064453] [-0.8481680154800415:2.9996027946472168] [-0.76135700941085815:3.0700969696044922] [-0.69583415985107422:3.0540521144866943] [-2.5969908237457275:4.0505785942077637] [-0.44719472527503967:5.3074917793273926] [-0.67360365390777588:2.9562487602233887] [-0.28164759278297424:5.6671695709228516] [-0.40198329091072083:5.3836092948913574] [-0.29402995109558105:5.3812618255615234] [-1.028529167175293:4.2001709938049316] [-0.46790584921836853:5.7352614402770996] [-0.55361455678939819:3.7456438541412354] [-0.23739612102508545:6.0341153144836426] [-0.30781251192092896:5.957242488861084] [-0.24997609853744507:5.953345775604248] [-5.0576086044311523:1.6670112609863281] [-0.38931509852409363:5.848052978515625] [-0.18964020907878876:6.1241164207458496] [-0.41141954064369202:4.6674208641052246] [-0.46203631162643433:4.2287883758544922] [-0.39938867092132568:5.0567736625671387] [-1.3051173686981201:3.1778037548065186] [-0.67794948816299438:4.1430635452270508] [-1.3068603277206421:2.5937175750732422] [-3.0333881378173828:1.7916234731674194] [-2.2466833591461182:2.1240601539611816] [-3.6245248317718506:1.5407088994979858] [-2.6919522285461426:2.5764985084533691] [-1.7785650491714478:2.8553934097290039] none none none none none none [-1.2736631631851196:1.7126513719558716] [-1.2736631631851196:1.7126513719558716] [-1.2736631631851196:1.7126513719558716] [-0.87940531969070435:2.3580951690673828] none none [-1.5683722496032715:1.9388128519058228] [-1.594538688659668:2.1474373340606689] [-1.7296202182769775:1.7728807926177979] [-1.4873154163360596:2.3013575077056885] [-1.5348687171936035:2.526777982711792] [-1.3473966121673584:2.949000358581543] [-1.8325022459030151:2.3024506568908691] [-1.9705021381378174:3.1290242671966553] [-1.9731091260910034:1.8163529634475708] [-1.0003833770751953:2.8504974842071533] [-0.99713611602783203:3.2113182544708252] [-0.97577494382858276:3.4140317440032959] [-1.4179590940475464:2.1917312145233154] [-1.0101330280303955:4.0306720733642578] none [-1.495785117149353:3.2399320602416992] [-2.0455899238586426:2.536179780960083] [-0.82523566484451294:3.6629674434661865] [-1.1970256567001343:2.1581239700317383] [-1.8004187345504761:1.2837255001068115] [-1.6294167041778564:1.8039644956588745] [-1.287097692489624:3.8121387958526611] [-1.8720088005065918:3.3350400924682617] [-1.2321150302886963:3.1830134391784668] none none none [-0.98460203409194946:1.9164931774139404] none none [-1.2296067476272583:2.9322855472564697] [-1.8004187345504761:1.2837255001068115] [-1.0266776084899902:2.5123424530029297] [-1.5975618362426758:2.0596356391906738] [-3.030825138092041:1.6222782135009766] [-1.0672866106033325:2.8997712135314941] [-2.8187015056610107:0.96798014640808105] [-3.1006824970245361:0.99902868270874023] [-1.5048595666885376:11.787323951721191] [-1:1] [-0.71763396263122559:1.4141609668731689] [-1:1] [-1:1] [-1:1] [-1:1] [-1.1717002391815186:1.4320780038833618] [-0.43351146578788757:6.562568187713623] [-0.4096202552318573:6.7111449241638184] [-0.17672207951545715:6.160860538482666] [-0.35961022973060608:6.6669921875] [-0.25042301416397095:6.0761299133300781] [-0.30982005596160889:5.9594850540161133] [-0.36085903644561768:6.6585569381713867] [-0.36866572499275208:6.6143088340759277] [-0.37106084823608398:6.6092696189880371] [-0.37217947840690613:6.6327171325683594] [-0.41722786426544189:8.1245784759521484] [-1.5819677114486694:2.1608142852783203] [-1.4617947340011597:2.1412270069122314] [-0.2317674309015274:6.0975437164306641] [-0.95629757642745972:3.0060899257659912] [-0.50233376026153564:5.4767851829528809] [-0.41332262754440308:5.3058743476867676] [-0.47594702243804932:8.6383695602416992] [-0.18952339887619019:6.569849967956543] [-1.4890376329421997:26.558862686157227] [-0.085558295249938965:44.888797760009766] [-3.6995894908905029:0.40302670001983643] [-25.464389801025391:8.4592056274414062] [-25.836006164550781:9.6088199615478516] [-0.024402478709816933:83.877426147460938] [-57.186019897460938:1.659806489944458] [-3.8280251026153564:57.781166076660156] [-0.21153314411640167:60.909709930419922] [-57.336811065673828:1.661756157875061] [-57.859764099121094:1.6854919195175171] [-57.999668121337891:1.7202600240707397] [-57.94891357421875:1.7353664636611938] [-0.18684624135494232:41.145923614501953] [-35.634735107421875:76.780799865722656] [-15.930048942565918:114.48508453369141] [-0.24742324650287628:59.660926818847656] [-2.2894887924194336:5.1084942817687988] [-0.37448641657829285:36.012702941894531] [-0.22044852375984192:59.454444885253906] [-108.44190979003906:43.697475433349609] [-45.260433197021484:56.247573852539062] [-43.653701782226562:8.4473543167114258] [-0.054554838687181473:51.348915100097656] [-63.602535247802734:0.13641500473022461] [-0.2094281017780304:18.362741470336914]
tree_sizes=2710 2522 2974 2746 2635 3307 2838 2531 3193 2635 1648 3418 2743 1658 2972 1545 2525 2864 998 2526 1993 1656 2762 2436 1874 1663 1114 2423 1231 2096 1227 1664 1549 2216 2432 1543 2761 2097 2769 1550 1895 2326 1554 1555 1999 1670 1770 1882 2431 1447 1556 908 1230 3109 1231 1666 1552 2310 3108 2223 2225 1552 2310 2337 2124 2886 2335 1126 1228 1457 2122 1235 1223 1243 2011 1786 1786 1238 1461 1127 2229 2003 1570 2120 1127 2219 1335 1123 1238 2652 1894 1462 2334 1127 1907 1581 1226 2024 1127 2436

Tree=0
num_leaves=24
num_cat=0
split_feature=224 12 97 212 202 209 16 224 225 202 110 94 83 201 231 202 229 230 13 209 222 241 200
split_gain=81.5928 54.6849 51.769 51.0459 46.7804 33.9897 33.8251 103 39.7902 30.6607 43.0114 31.3428 27.1751 36.1549 27.145 18.6142 15.8711 14.463 13.8526 11.7521 6.43097 5.3967 5.15589
threshold=-0.41941225528717035 -0.37332053482532496 1.0000000180025095e-35 -0.14395593851804731 -1.4511175155639646 -0.91132238507270802 -0.94462367892265309 -0.65871921181678761 5.1515557765960702 -1.2787535190582273 1.0000000180025095e-35 -1.0000000180025095e-35 0.49384856224060064 0.48878894746303564 -3.0205349922180171 0.35294960439205175 -0.23488552123308179 -0.083006598055362688 0.51566061377525341 1.0000000180025095e-35 0.91144999861717235 0.055313091725111015 -0.81653842329978932
decision_type=2 2 2 2 2 2 2 2 2 2 2 2 2 2 2 2 2 2 2 2 2 2 2
left_child=2 5 4 15 17 12 7 -6 -8 10 -7 -11 14 -14 -2 19 18 -1 20 -3 -4 -17 -20
right_child=1 3 16 -5 6 9 8 -9 -10 11 -12 -13 13 -15 -16 21 -18 -19 22 -21 -22 -23 -24
leaf_value=-0.7860683158785654 -0.71300689609461332 -0.63733186067037761 -0.74046764146951816 -0.73648159791780177 -0.7735049200908205 -0.73941622275401508 -0.6860552751970237 -0.69182232503446983 -0.75343048359296516 -0.69415338914019742 -0.68318306629481595 -0.66737868695663038 -0.76279593238671894 -0.67310986629109482 -0.66348518459590433 -0.70052345356578538 -0.68646611882725728 -0.72357569485257522 -0.69362013296320058 -0.66471327466525387 -0.78354587328641256 -0.66916224555527271 -0.72506204897317794
leaf_weight=64.208845198154449 123.48908558487892 449.55477982759476 96.322003662586212 85.791710525751114 200.67873045802116 306.11864569783211 2792.8672608435154 669.06518721580505 90.495029866695404 2060.718730032444 244.78512635827065 554.94688293337822 75.939102381467819 110.14231872558594 1067.7385817170143 70.136041253805161 99.742601752281189 87.504768967628479 58.574053883552551 240.66110169887543 54.129115223884583 252.10814800858498 475.81061714887619
leaf_count=134 194 466 170 149 401 538 3856 951 168 2963 333 693 146 142 1304 104 138 144 84 296 112 318 788
internal_value=-0.690546 -0.682445 -0.700294 -0.66242 -0.695584 -0.687285 -0.693384 -0.710669 -0.68817 -0.692989 -0.71443 -0.688473 -0.674171 -0.70971 -0.668619 -0.656144 -0.723734 -0.750024 -0.729162 -0.646879 -0.755966 -0.675988 -0.721616
internal_weight=0 5642.13 4689.4 1098.25 3904.82 4543.88 3753.11 869.744 2883.36 3166.57 550.904 2615.67 1377.31 186.081 1191.23 1012.46 784.578 151.714 684.836 690.216 150.451 322.244 534.385
internal_count=14592 7646 6946 1333 5654 6313 5376 1352 4024 4527 871 3656 1786 288 1498 1184 1292 278 1154 762 282 422 872
is_linear=0
shrinkage=1


Tree=1
num_leaves=22
num_cat=0
split_feature=224 12 97 223 202 226 215 230 236 211 214 202 229 231 13 221 209 229 225 211 254
split_gain=66.2733 44.5461 42.1663 41.6507 38.4159 31.2994 42.764 40.4111 30.4455 59.4155 20.5201 16.2733 12.9925 12.4842 8.70221 9.16449 8.43755 4.91358 2.5012 1.47925 0.177181
threshold=-0.41941225528717035 -0.37332053482532496 1.0000000180025095e-35 0.37789186835289007 -1.4511175155639646 5.304152488708497 0.28747105598449713 0.097856588661670699 0.17932700365781787 0.71700525283813488 -0.21676041185855863 0.34466700255870825 -0.23459197580814359 0.35040415823459631 0.81416392326354992 0.8404243290424348 1.0000000180025095e-35 -0.23488552123308179 -0.49893076717853541 -0.080980692058801637 -0.19617199897766111
decision_type=2 2 2 2 2 2 2 2 2 2 2 2 2 2 2 2 2 2 2 2 2
left_child=2 5 4 11 13 6 7 -2 9 -6 -10 16 14 -1 15 -4 -3 -13 -16 -8 -7
right_child=1 3 12 -5 8 20 19 -9 10 -11 -12 17 -14 -15 18 -17 -18 -19 -20 -21 -22
leaf_value=-0.082991730850056539 0.0040628974002987961 0.049261674515959107 -0.038768169150061906 -0.032885674006300249 -0.00059417237199871115 -0.048880645485325995 0.048167685656298857 -0.041886192592361336 -0.010502889698817441 -0.038649682507319261 0.030830096919292133 0.00018417492237113233 0.011369299619664324 -0.0253115426284795 -0.0082197482207860204 -0.084278145657966042 0.025222520935388723 0.024697019377820942 -0.028660079162590377 0.032820845806584377 -0.041417053388551776
leaf_weight=75.055701434612274 3934.7753582298756 431.23994082212448 215.45320519804955 110.19085964560509 2688.5438520312309 72.295608341693878 175.42799359560013 201.18869209289551 170.66675806045532 484.14449137449265 405.48361253738403 145.90361455082893 69.205597877502441 75.039195507764816 71.4290871322155 55.684133380651474 220.74925151467323 186.04245978593826 369.77233475446701 97.831666707992554 56.79371577501297
leaf_count=156 5439 447 370 184 3812 127 186 349 254 826 484 205 92 122 106 117 269 228 607 115 97
internal_value=0 0.00730477 -0.00879674 0.0254169 -0.0045472 0.00293817 0.00435914 0.00182776 -0.00256103 -0.00640135 0.0185865 0.0319462 -0.0299966 -0.0541548 -0.0340154 -0.0481147 0.0411225 0.0139226 -0.0253509 0.0426733 -0.045597
internal_weight=0 5632.44 4680.48 1094.13 3898.93 4538.31 4409.22 4135.96 3748.84 3172.69 576.15 983.935 781.544 150.095 712.339 271.137 651.989 331.946 441.201 273.26 129.089
internal_count=14592 7646 6946 1333 5654 6313 6089 5788 5376 4638 738 1149 1292 278 1200 487 716 433 713 301 224
is_linear=0
shrinkage=0.1


Tree=2
num_leaves=26
num_cat=0
split_feature=209 210 228 225 224 108 202 196 123 210 201 231 228 201 217 200 122 254 200 201 149 243 2 202 254
split_gain=57.5844 47.1746 48.3589 59.7512 42.8034 40.7273 50.265 65.0019 50.8793 42.941 42.0109 40.7645 34.3415 31.2649 29.3608 27.7799 25.7964 22.5177 16.1474 12.4011 9.13172 8.25141 8.06099 7.72421 0.832392
threshold=1.0000000180025095e-35 0.72190022468566906 -0.18902934342622754 -0.49814495444297785 -0.73744940757751454 -1.1674898266792295 0.29441042244434362 1.0000000180025095e-35 -0.69477775692939747 0.72190022468566906 0.61711478233337413 0.38595636188983923 -0.18940077722072599 0.37417306005954748 -0.35408534109592432 -0.693385750055313 -0.30234190821647638 -0.20914759486913678 -1.4874869585037229 0.48300763964653021 0.41349649429321295 -0.0062419895548373452 -0.46063034236431116 0.41494539380073553 -0.19060798734426496
decision_type=2 2 2 2 2 2 2 2 2 2 2 2 2 2 2 2 2 2 2 2 2 2 2 2 2
left_child=5 2 3 18 -4 10 7 12 -9 15 11 17 -7 -3 -5 -8 -6 -1 -2 -11 24 -13 -12 -22 -15
right_child=1 13 4 14 16 6 9 8 -10 19 22 21 -14 20 -16 -17 -18 -19 -20 -21 23 -23 -24 -25 -26
leaf_value=-0.098532707689990784 -0.017397029387215372 -0.088626781794195267 -0.068335323227617956 -0.038274978233858191 0.013089262075925982 0.0019295860519173312 0.030318490648874982 0.014141261680623039 -0.036664992568219215 -0.076106007221855038 0.037850685275652614 0.012386242110893928 0.040207767925546395 -0.04846336646711083 -0.11048066756802513 -0.00079793469761474812 -0.0087069964770763921 -0.0336384657316285 0.005140429799121638 -0.025608764817001903 0.0045572784758589153 -0.028233218513812032 -0.0029114152377837156 -0.028737932702741404 -0.035462558248558082
leaf_weight=104.62194669246674 650.44562739133835 90.169358551502228 78.825205594301224 369.61003226041794 1789.6974197626114 289.1401806473732 350.35873839259148 705.53356298804283 273.52558824419975 61.427467435598373 117.11627238988876 128.77134200930595 1237.4894432127476 76.446423470973969 66.437774509191513 1584.4075995981693 779.49386957287788 109.36351945996284 621.80560901761055 233.47572228312492 134.73726168274879 81.76503711938858 82.824730336666107 144.29918050765991 138.4197883605957
leaf_count=224 1008 189 149 626 2355 406 418 929 464 125 133 170 1371 138 149 2242 1154 183 863 381 190 132 118 239 236
internal_value=0 -0.00779129 -0.00421323 -0.0173309 0.0042493 0.0071752 0.0103407 0.0200595 -5.27843e-05 -0.000581221 -0.0168292 -0.0346296 0.032958 -0.0344783 -0.0492765 0.00483681 0.00647627 -0.0653666 -0.00638197 -0.0361272 -0.0245927 -0.00338895 0.0209652 -0.0126608 -0.0400881
internal_weight=0 4940.39 4356.32 1708.3 2648.02 5359.82 4735.36 2505.69 979.059 2229.67 624.463 424.522 1526.63 584.072 436.048 1934.77 2569.19 213.985 1272.25 294.903 493.903 210.536 199.941 279.036 214.866
internal_count=14592 7296 6304 2646 3658 7296 6336 3170 1393 3166 960 709 1777 992 775 2660 3509 407 1871 506 803 302 251 429 374
is_linear=0
shrinkage=0.1


Tree=3
num_leaves=24
num_cat=0
split_feature=209 108 233 210 221 228 226 205 144 231 224 221 201 205 201 200 232 215 229 133 225 202 204
split_gain=49.664 45.025 44.4724 39.0019 42.4653 39.8783 53.3209 37.2099 35.0006 44.1752 33.9465 31.9087 31.2186 29.8927 27.5463 26.0708 24.3841 21.6373 18.1172 15.5655 10.5453 9.64486 1.80099
threshold=-0.91132238507270802 -1.1674898266792295 -0.078932534903287874 0.72190022468566906 0.70736780762672435 -0.18912053853273389 -0.41048303246498102 1.0000000180025095e-35 0.57854568958282482 -2.2429846525192256 -0.74103441834449757 0.98645406961441051 0.38884526491165167 1.0000000180025095e-35 0.55770292878150951 -1.5112493038177488 0.23765465617179873 0.28747105598449713 -0.18021700531244275 -0.33823603391647333 5.1116461753845224 0.14331518858671191 1.0000000180025095e-35
decision_type=2 2 2 2 2 2 2 2 2 2 2 2 2 2 2 2 2 2 2 2 2 2 2
left_child=1 2 -1 5 12 6 15 -4 9 19 -7 -8 -5 -11 21 -2 18 -12 -10 -3 -16 -6 -14
right_child=3 8 7 4 14 10 11 -9 16 13 17 -13 22 -15 20 -17 -18 -19 -20 -21 -22 -23 -24
leaf_value=0.021960251833860776 -0.016798454293043677 -0.058449186402467074 -0.017621696019389937 -0.10655182170783009 0.041470220125457376 -0.056079981603978479 -0.027985176033265082 -0.11066768693252756 -0.018954965930263815 0.012890245277066484 0.003962475142338928 -0.090912665332854706 -0.041110422409039012 0.040075990922169707 -0.016568798920944785 0.0065372727918709492 -0.057461696641976749 0.038226137332268179 0.018823840732042296 -0.0011109148514556705 -0.060847802715950229 -0.0026232242449521583 -0.021378729054988589
leaf_weight=118.01659268140793 867.58472830057144 70.71010684967041 100.4859664440155 84.643473386764526 108.97098213434219 91.300642758607864 452.4851059615612 75.102147847414017 221.87663611769676 716.26055100560188 3937.0208150446415 98.039302140474319 137.87381541728973 929.15238836407661 263.8466922044754 1068.2278209924698 77.551526874303818 193.35546815395355 296.66662859916687 143.28169405460358 67.557016283273697 91.062520384788513 69.613000750541687
leaf_count=148 1348 133 157 197 121 169 739 175 345 941 5434 215 246 1021 419 1465 144 214 375 209 131 134 112
internal_value=0 0.0114981 -0.025512 -0.0042053 -0.0247428 -0.00168384 -0.0117308 -0.0574191 0.0159234 0.0226833 0.00423326 -0.0391915 -0.0553698 0.0282418 -0.00790713 -0.00392124 -0.00516277 0.00556646 0.00265887 -0.0200574 -0.0255951 0.0213973 -0.0344903
internal_weight=0 2749.1 293.605 7531.58 823.568 6708.01 2486.34 175.588 2455.5 1859.4 4221.68 550.524 292.13 1645.41 531.437 1935.81 596.095 4130.38 518.543 213.992 331.404 200.034 207.487
internal_count=14592 3648 480 10944 1360 9584 3767 332 3168 2304 5817 954 555 1962 805 2813 864 5648 720 342 550 255 358
is_linear=0
shrinkage=0.1


Tree=4
num_leaves=23
num_cat=0
split_feature=209 167 210 221 228 226 224 201 221 202 144 231 53 234 201 201 229 225 112 202 254 204
split_gain=40.3275 37.8267 31.8347 35.001 32.4319 43.5048 27.6395 26.9373 26.6059 23.7959 23.1203 33.9428 23.4611 22.7397 22.375 21.5343 18.3292 8.69616 8.37822 7.88604 5.42353 1.42422
threshold=-0.91132238507270802 -1.4062677621841428 0.72190022468566906 0.70736780762672435 -0.18913363665342328 -0.41048303246498102 -0.74103441834449757 0.39920736849308019 1.0152267813682558 -1.4276711940765379 0.57854568958282482 -2.8767226934432979 -0.22850785404443738 -0.023799847811460492 0.55770292878150951 -1.0268974304199217 -0.18021700531244275 5.1116461753845224 -0.2117945775389671 0.13171526044607165 -0.18673499673604962 1.0000000180025095e-35
decision_type=2 2 2 2 2 2 2 2 2 2 2 2 2 2 2 2 2 2 2 2 2 2
left_child=1 -1 4 7 5 9 -6 20 -7 -2 11 18 -13 16 19 -8 -12 -16 -3 -5 -4 -9
right_child=2 10 3 14 6 8 15 21 -10 -11 13 12 -14 -15 17 -17 -18 -19 -20 -21 -22 -23
leaf_value=-0.049235988896286588 -0.023908382482238491 -0.054628073027295922 -0.1236556659611031 0.038228135902790443 -0.050873334211247061 -0.025817416957146566 -0.033424371048860792 -0.036627021936289181 -0.085099486450518416 0.0024306518458595723 -0.01859192930800474 0.027632831620265842 0.0018636939957989932 -0.051850176881077681 -0.014922197258625262 0.0063007547728091738 0.019820034453282141 -0.055276387868648538 -0.0061498674158615187 -0.0015751939668050459 -0.073184835561552877 -0.018966961288871168
leaf_weight=102.47135329246521 446.91177105903625 68.126502513885498 41.217453151941299 104.70186343789101 90.618600249290466 437.11771160364151 141.25267815589905 134.93162417411804 91.564621806144714 1475.314312428236 216.58224204182625 1431.7881550192833 469.04390874505043 87.14898619055748 263.67466884851456 4020.2775543928146 291.31633022427559 66.962870568037033 74.783236473798752 94.885028481483459 44.04108053445816 69.027672111988068
leaf_count=192 729 130 109 116 169 718 232 241 206 2068 340 1688 662 161 419 5462 363 131 112 139 94 111
internal_value=0 0.0103749 -0.00379278 -0.0223985 -0.00151825 -0.0106802 0.00376267 -0.0503817 -0.0360847 -0.00369309 0.0126897 0.0177405 0.0212741 -0.00465756 -0.00713467 0.00495239 0.00344009 -0.023095 -0.0292599 0.0193053 -0.0975845 -0.0306502
internal_weight=0 2741.26 7522.5 819.442 6703.06 2450.91 4252.15 289.218 528.682 1922.23 2638.79 2043.74 1900.83 595.048 530.224 4161.53 507.899 330.638 142.91 199.587 85.2585 203.959
internal_count=14592 3648 10944 1360 9584 3721 5863 555 924 2797 3456 2592 2350 864 805 5694 703 550 242 255 203 352
is_linear=0
shrinkage=0.1


Tree=5
num_leaves=29
num_cat=0
split_feature=209 185 204 228 226 139 229 116 221 221 205 228 231 230 224 84 202 221 202 228 230 228 225 225 12 219 210 230
split_gain=34.3283 32.7841 42.8915 33.3083 33.8603 28.4496 26.4289 25.8092 30.4686 28.8895 26.0671 33.8136 31.8795 21.9686 21.2381 21.0527 15.1945 14.1717 13.4867 12.9407 12.0191 11.1054 11.0301 17.3 9.91253 9.7658 4.66842 1.32726
threshold=1.0000000180025095e-35 -0.074594963341951356 1.0000000180025095e-35 -0.1892169192433357 -0.41005577147006983 0.28776255249977117 -0.3604168146848678 0.56756192445755016 -1.5216637253761289 -0.3015789240598678 1.0000000180025095e-35 -0.18424723297357556 1.0000000180025095e-35 -0.082456223666667924 -0.93355014920234669 -0.45102955400943751 0.82977589964866649 0.7868572771549226 1.666357755661011 -0.18657103925943372 -0.082745537161827074 -0.15775797516107556 -0.42874598503112787 -0.48353770375251764 -0.34356774389743799 -0.24625079333782193 0.55139711499214183 -0.08306556940078734
decision_type=2 2 2 2 2 2 2 2 2 2 2 2 2 2 2 2 2 2 2 2 2 2 2 2 2 2 2 2
left_child=6 3 5 4 18 14 15 10 -9 -10 11 -8 -12 24 -3 21 19 -7 -2 -5 -6 25 23 -17 -4 -1 -15 -18
right_child=1 2 13 16 20 17 7 8 9 -11 12 -13 -14 26 -16 22 27 -19 -20 -21 -22 -23 -24 -25 -26 -27 -28 -29
leaf_value=0.010257318066073121 -0.0097887803054758308 0.026444096689987779 -0.057010091554798026 0.019338522219745399 -0.030085407244625093 -0.039206026428134616 0.015788880750859342 -0.059802184789693319 0.012366084216399599 -0.024717646822463264 -0.010945620534993261 -0.017228091744744239 0.028053851697987686 0.01810722778602801 -0.024272738135510358 -0.024438846978600347 0.024504483302821994 -0.086988631224431706 0.031592295723535245 -0.00043557351695401543 -0.085903212298997986 0.035395038926448637 -0.0041123409247946696 -0.086886078007437362 -0.0093186097912366476 -0.012265970367247372 -0.0056185219996898635 0.039300244984337401
leaf_weight=332.49881353974342 877.4116624891758 91.347289592027664 66.710576385259628 465.84795793890953 81.633032113313675 175.58286908268929 847.00287970900536 89.284791558980942 696.07726103067398 300.87916535139084 245.20960122346878 489.41084465384483 1443.3876978456974 431.88390097022057 859.11232140660286 163.22860339283943 117.63185548782349 96.010922282934189 86.526470005512238 1142.9013830125332 73.140159487724304 84.327434837818146 122.6789203286171 60.919804871082306 125.70145553350449 457.2238852083683 102.64404207468033 125.11615300178528
leaf_count=437 1328 111 131 589 140 300 1093 174 914 482 372 764 1689 551 1425 268 144 212 104 1615 166 91 184 129 189 699 153 138
internal_value=0 -0.00603508 -0.016113 0.000577885 -0.0130455 -0.0275546 0.00554785 0.00938437 -0.00383773 0.0011743 0.0141323 0.00369767 0.0223905 0.00312127 -0.0193984 -0.00737148 0.00880941 -0.0560976 -0.00607427 0.00529044 -0.0564629 0.000900434 -0.0282178 -0.041411 -0.0258536 -0.00278294 0.0135512 0.0321305
internal_weight=0 4919.2 1948.99 2970.21 1118.71 1222.05 5332.13 4111.25 1086.24 996.956 3025.01 1336.41 1688.6 726.94 950.46 1220.88 1851.5 271.594 963.938 1608.75 154.773 874.05 346.827 224.148 192.412 789.723 534.528 242.748
internal_count=14592 7296 3072 4224 1738 2048 7296 5488 1570 1396 3918 1857 2061 1024 1536 1808 2486 512 1432 2204 306 1227 581 397 320 1136 704 282
is_linear=0
shrinkage=0.1


Tree=6
num_leaves=25
num_cat=0
split_feature=209 108 201 202 221 210 221 226 201 119 88 254 217 202 225 211 229 227 229 213 221 84 107 204
split_gain=28.2858 29.1684 32.5603 28.1153 36.5791 23.1724 27.2997 25.1658 23.3269 22.621 22.4926 22.0978 20.5977 19.5317 18.0002 19.078 17.8013 17.3901 12.0953 7.78129 6.92664 6.20038 3.88265 1.10642
threshold=-0.91132238507270802 -1.1674898266792295 0.54939982295036327 0.29441042244434362 -1.2348387241363523 0.72190022468566906 0.70736780762672435 0.22538784891366961 0.38884526491165167 -0.27682448923587794 0.10551800392568113 -0.2094110772013664 0.10478715598583223 1.666357755661011 -0.17076428979635236 0.49717189371585851 -0.37049324810504908 -0.27917033433914179 -0.23459197580814359 6.0697364807128915 0.79339653253555309 1.0000000180025095e-35 -0.54451826214790333 1.0000000180025095e-35
decision_type=2 2 2 2 2 2 2 2 2 2 2 2 2 2 2 2 2 2 2 2 2 2 2 2
left_child=1 2 11 4 10 7 8 12 -7 18 -3 17 13 -2 -9 -16 19 -1 -5 -8 -18 -11 -6 -10
right_child=5 3 -4 9 22 6 16 14 23 21 -12 -13 -14 -15 15 -17 20 -19 -20 -21 -22 -23 -24 -25
leaf_value=-0.042297755211674136 -0.0039228597855431825 -0.020494321040950586 0.021951949758294235 -0.00098762350740230959 0.038705137442081157 -0.089898233217101803 -0.028427170327041652 -0.02633628350131742 -0.031447239505293705 -0.010778993460405372 0.027560035822268097 -0.01273221274640313 -0.0548474706925417 0.025562382887749119 0.031659710086584525 -0.0073445563722158201 -0.0065931919456213382 -0.13083681101801511 0.025200308246100533 0.011339003345966605 0.030620696127326669 -0.041317546325885239 0.02410703050778297 -0.015943559107367
leaf_weight=48.679514974355698 5630.7638222873211 252.88064363598824 108.67056557536125 346.23900943994522 599.22916802763939 79.823682010173798 254.44598704576492 88.411050736904144 136.62116056680679 384.17516478896141 158.42484694719315 91.42215234041214 76.874514847993851 233.99834734201431 491.71987277269363 168.33326026797295 80.042382538318634 40.756985634565353 359.47415614128113 61.004117965698242 133.33233520388603 80.398146092891693 261.79206925630569 69.42071121931076
leaf_count=91 8196 408 135 482 637 197 444 144 246 574 188 144 155 285 556 248 119 110 428 86 156 144 307 112
internal_value=0 0.00870081 -0.0213105 0.0122581 0.0225476 -0.00318279 -0.0191062 -0.00124371 -0.0440038 0.00107156 -0.00198495 -0.0473052 -0.00342052 -0.00274643 0.0160368 0.0217125 -0.00564735 -0.0826458 0.0123519 -0.0207369 0.0166608 -0.0160639 0.0342666 -0.0262237
internal_weight=0 2732.14 289.529 2442.61 1272.33 7504.79 814.69 6690.1 285.866 1170.29 411.305 180.859 5941.64 5864.76 748.464 660.053 528.825 89.4365 705.713 315.45 213.375 464.573 861.021 206.042
internal_count=14592 3648 480 3168 1540 10944 1360 9584 555 1628 596 345 8636 8481 948 804 805 201 910 530 275 718 944 358
is_linear=0
shrinkage=0.1


Tree=7
num_leaves=22
num_cat=0
split_feature=224 97 12 202 212 202 215 201 201 223 3 0 236 112 222 229 13 242 211 221 200
split_gain=24.3387 27.4229 25.5382 24.924 24.8366 19.5333 17.2718 56.8794 33.1081 25.7157 22.1565 17.8392 17.2576 11.5896 8.33166 7.51497 12.4908 5.60262 4.05449 3.05917 0.940913
threshold=-0.41941225528717035 1.0000000180025095e-35 -0.37332053482532496 -1.4825660586357114 -0.14395593851804731 1.666357755661011 -0.30604882538318628 0.58246985077857982 0.9573219120502473 -0.23173826187849042 -0.41968314349651331 1.0000000180025095e-35 0.17932700365781787 -0.17638107389211652 0.56493410468101513 -0.23488552123308179 0.51566061377525341 -0.15674508363008496 -0.40551538765430445 0.74616682529449474 -1.3225461244583128
decision_type=2 2 2 2 2 2 2 2 2 2 2 2 2 2 2 2 2 2 2 2 2
left_child=1 3 6 -1 14 12 9 11 -9 13 -11 -8 -5 -2 17 16 18 -4 -3 -18 -7
right_child=2 15 4 5 -6 20 7 8 -10 10 -12 -13 -14 -15 -16 -17 19 -19 -20 -21 -22
leaf_value=-0.061177346391685455 -0.031856542370689113 -0.030557576220993435 0.014587349354112544 -0.0055688148630136632 -0.034025320750482126 0.021528153509008587 -0.02527358996394621 0.016940774058206397 -0.0087262668867193922 -0.003553706867392092 0.021859047990314229 -0.081849273368198819 0.013339193792430898 0.0069073193561242328 -0.0077847139634493329 0.0031405812970259589 -0.032850150526228312 0.031020669729670935 -0.064952801932987358 -0.014938065144804835 0.035357067414365506
leaf_weight=69.700440853834152 202.96769377589226 54.62956365942955 317.10751569271088 3007.2796594202518 83.976195782423019 85.581266611814499 540.48358082771301 990.46075522899628 1020.1970497369766 505.86349105834961 1066.1654362976551 62.14133432507515 575.01196047663689 124.40177690982819 82.794348984956741 99.436511337757111 124.6957873404026 600.01080298423767 91.969032496213913 405.12402451038361 115.74046903848648
leaf_count=147 350 97 401 4522 149 106 873 1242 1511 727 1305 135 749 170 118 138 220 665 185 652 130
internal_value=0 -0.00537569 0.00442561 -0.00192204 0.0182091 -0.000830459 0.00111499 -0.00415934 0.00391745 0.00837165 0.0136815 -0.0311075 -0.00253379 -0.0171261 0.0225959 -0.0225284 -0.0263018 0.0253386 -0.0521355 -0.0191538 0.0294784
internal_weight=0 4629.17 5596.57 3853.31 1083.89 3783.61 4512.68 2613.28 2010.66 1899.4 1572.03 602.625 3582.29 327.369 999.913 775.855 676.418 917.118 146.599 529.82 201.322
internal_count=14592 6946 7646 5654 1333 5507 6313 3761 2753 2552 2032 1008 5271 520 1184 1292 1154 1066 282 872 236
is_linear=0
shrinkage=0.1


Tree=8
num_leaves=28
num_cat=0
split_feature=209 108 201 221 21 165 185 205 232 109 200 200 231 226 164 202 204 88 102 202 200 254 221 224 202 210 224
split_gain=22.2686 24.1714 26.5811 24.0232 36.1631 23.4483 18.8284 40.4789 32.3342 22.4805 18.8872 17.9407 17.8239 17.5957 17.3991 13.6046 12.8825 11.0254 10.7448 8.92384 8.7445 8.71693 6.92852 5.82231 5.19465 3.74423 3.01475
threshold=1.0000000180025095e-35 -1.1674898266792295 -1.0268974304199217 0.31723436713218695 -0.39650681614875788 -0.77483487129211415 -0.074594963341951356 1.0000000180025095e-35 0.08832834288477899 -0.38882324099540705 -0.11307548731565474 0.19103208184242251 -3.0205349922180171 -0.41299964487552637 0.49257095158100134 0.35294960439205175 1.0000000180025095e-35 -0.21529179066419599 -0.1662170737981796 -1.3807867169380186 -1.0926268100738523 -0.16421329975128171 -0.10140898823738097 0.82433855533599865 0.34466700255870825 -0.11615498736500739 -0.67697292566299427
decision_type=2 2 2 2 2 2 2 2 2 2 2 2 2 2 2 2 2 2 2 2 2 2 2 2 2 2 2
left_child=6 2 -2 14 16 -6 8 11 12 10 -10 20 17 -14 19 -13 -5 -1 22 -3 -8 -16 -9 26 -20 -11 -4
right_child=1 3 23 4 5 -7 7 18 9 25 -12 15 13 -15 21 -17 -18 -19 24 -21 -22 -23 -24 -25 -26 -27 -28
leaf_value=-0.05450660078762927 -0.039159134753847538 -0.012837880131118222 0.010658636984532311 0.0082733692814638462 -0.016559290800130411 -0.045950078329180855 -0.0045585019791488119 0.022327034901475647 -0.075734823061180012 0.019293403790945435 -0.022810369852482693 0.013409101595521637 0.031444567932704781 0.0040703678386604797 -0.016135597831472098 -0.019679332424366036 -0.036762883350329262 -0.0050300970258741542 0.033274202634323367 0.0098380401263662206 0.028810459795640505 0.0067872271049871265 -0.0028222916797663502 -0.0028530070061132586 0.013724372707162022 -0.0071566983255329222 0.027669539778369296
leaf_weight=74.180294752120972 89.388898491859436 204.8247991502285 141.25055170059204 559.4989467561245 818.60322222113609 406.1190921664238 128.51945847272873 227.40070310235023 81.213554859161377 116.18780362606049 397.30495753884315 159.79382672905922 269.80795496702194 1810.3991690278053 765.42376145720482 558.80892437696457 71.648789077997208 114.6546248793602 692.47780725359917 1136.5658938288689 201.91195794939995 211.79585048556328 211.36082649230957 101.98929587006569 169.10731908679008 99.224001854658127 397.00352218747139
leaf_count=146 159 319 185 761 1330 803 186 274 180 139 656 204 303 2480 1201 909 128 176 742 1504 237 290 302 144 218 144 472
internal_value=0 -0.00487014 0.0119225 -0.00780523 -0.0162844 -0.0263053 0.00447473 0.0111605 -0.000826494 -0.0197164 -0.0317926 -0.00345363 0.00495052 0.00762087 -0.00101828 -0.0123215 0.00316079 -0.024466 0.0229502 0.00637552 0.0158318 -0.0111675 0.0102121 0.0190544 0.0294371 0.00710983 0.0232055
internal_weight=0 4904.11 729.632 4174.48 1855.87 1224.72 5312.35 2349.38 2962.97 693.93 478.519 1049.03 2269.04 2080.21 2318.61 718.603 631.148 188.835 1300.35 1341.39 330.431 977.22 438.762 640.243 861.585 215.412 538.254
internal_count=14592 7296 960 6336 3022 2133 7296 3072 4224 1119 836 1536 3105 2783 3314 1113 889 322 1536 1823 423 1491 576 801 960 283 657
is_linear=0
shrinkage=0.1


Tree=9
num_leaves=23
num_cat=0
split_feature=209 167 200 191 210 214 210 16 125 231 185 205 232 17 200 227 200 229 204 1 221 213
split_gain=18.4686 21.2967 16.0024 26.9193 18.9742 34.1451 24.662 16.7725 15.1106 17.9142 17.09 21.9667 15.7687 11.8711 16.1123 9.44374 6.16145 4.81307 4.07772 3.6181 3.03829 2.07952
threshold=-0.91132238507270802 -1.4062677621841428 -1.7395594120025633 -0.68293437361717213 -0.43125665187835688 -0.24787279218435285 0.72190022468566906 1.4528716802597048 -0.6095496118068694 -1.9322058558464048 -0.074594963341951356 1.0000000180025095e-35 0.069230422377586379 -0.50144846737384785 -1.4101155400276182 -0.37680587172508234 -1.7860805392265318 -0.39978103339672083 1.0000000180025095e-35 -0.26725140213966364 0.50448086857795726 -0.35915175080299372
decision_type=2 2 2 2 2 2 2 2 2 2 2 2 2 2 2 2 2 2 2 2 2 2
left_child=1 -1 3 15 13 7 -7 -6 9 18 12 -12 -10 -4 -15 19 17 -5 -3 -2 -11 -17
right_child=2 8 4 16 5 6 -8 -9 10 20 11 -13 -14 14 -16 21 -18 -19 -20 -21 -22 -23
leaf_value=-0.038305780949358915 -0.035466123030282536 0.0083244679147242429 -0.02320744886317232 -0.074241969071053654 -0.022671433223479143 0.0038395634596250332 -0.015425345665000629 0.021452306594864204 0.0023484586503369712 0.03106356695552296 -0.0042485150834714203 0.026971849889389443 -0.026855458726830397 -0.0046816742170295526 0.02156335837951592 0.0015171333456682954 -0.012720479646975567 -0.040303897692793078 -0.024719362328432377 -0.0065484840736752111 0.01363800965111747 0.022521150626017557
leaf_weight=99.731496542692184 65.640876919031143 65.583667933940887 96.680845588445663 56.751855760812759 1043.2878985702991 3686.9090993702412 810.59377530217171 93.90393191576004 652.60406348109245 514.38857153058052 398.37207469344139 518.93883612751961 257.97860240936279 340.34213790297508 748.06206887960434 75.697145938873291 58.774113237857819 158.47986182570457 86.734959751367569 126.93546891212463 124.22282811999321 124.93129289150238
leaf_count=192 117 92 155 115 1727 5093 1360 116 902 557 576 576 442 495 925 108 91 284 151 197 160 161
internal_value=0 0.00704906 -0.002574 -0.0173546 -0.00112794 -0.00354694 0.000367411 -0.0190279 0.00877629 0.0203239 0.00377961 0.0134134 -0.00592535 0.0103736 0.0133566 -0.00058703 -0.0414165 -0.0492526 -0.0104917 -0.0164052 0.0276739 0.0145963
internal_weight=0 2718.56 7486.99 667.211 6819.78 5634.69 4497.5 1137.19 2618.82 790.93 1827.89 917.311 910.583 1185.09 1088.4 393.205 274.006 215.232 152.319 192.576 638.611 200.628
internal_count=14592 3648 10944 1073 9871 8296 6453 1843 3456 960 2496 1152 1344 1575 1420 583 490 399 243 314 717 269
is_linear=0
shrinkage=0.1


Tree=10
num_leaves=14
num_cat=0
split_feature=202 236 217 200 225 12 211 229 138 116 144 228 230
split_gain=16.5676 17.4685 33.2707 21.3387 18.5232 21.7531 18.1208 14.2402 18.757 14.6874 13.4323 9.7593 1.41341
threshold=1.666357755661011 -0.22144639492034909 0.96648660302162182 0.61637592315673839 5.1515557765960702 1.9951819777488711 1.4780203700065615 -0.29592622816562647 0.88149291276931774 -1.1311075687408445 0.10561951249837877 -0.16190829873085019 -0.082408986985683427
decision_type=2 2 2 2 2 2 2 2 2 2 2 2 2
left_child=1 2 7 -4 5 6 -3 8 -1 -9 12 -7 -2
right_child=10 4 3 -5 -6 11 -8 9 -10 -11 -12 -13 -14
leaf_value=-0.007234935695849618 0.022086670080311593 0.0014347545081513789 -0.11476829627037488 -0.025664097131745202 -0.04682714932041751 -0.0033588795228927321 -0.04462865232115263 -0.018427225990815817 -0.038564410406950654 0.0062991304341170245 -0.0094155335634623413 0.028885586302056052 0.036147307678164209
leaf_weight=1053.1080871522427 117.10956963896751 6165.878733843565 44.200976610183716 68.570984601974487 77.111062288284302 120.82918131351471 86.600695639848709 299.65727755427361 233.46278339624405 1211.3056932091713 115.78659918904305 420.63758105039597 183.53608563542366
leaf_count=1619 140 8678 129 125 151 176 166 484 429 1654 168 477 196
internal_value=0 -0.000841561 -0.00733493 -0.0605885 0.00190877 0.00246192 0.000796748 -0.00518821 -0.01292 0.00139535 0.0195247 0.0216902 0.0306703
internal_weight=0 9781.36 2910.31 112.772 6871.06 6793.95 6252.48 2797.53 1286.57 1510.96 416.432 541.467 300.646
internal_count=14592 14088 4440 254 9648 9497 8844 4186 2048 2138 504 653 336
is_linear=0
shrinkage=0.1


Tree=11
num_leaves=30
num_cat=0
split_feature=209 185 224 224 254 214 226 254 229 83 212 226 24 202 232 84 200 201 202 231 222 200 202 201 52 202 202 201 228
split_gain=14.2575 19.5149 25.5104 24.5277 23.8968 20.3878 14.0544 13.589 13.5075 16.2349 19.5949 35.0063 15.2572 26.5777 24.4874 13.027 10.0425 9.15302 11.7173 9.09544 8.94875 8.23329 8.85183 8.28012 8.09471 7.87105 7.18697 6.75284 7.923
threshold=1.0000000180025095e-35 -0.23152466863393781 -0.61461022496223439 -0.93355014920234669 0.74907425045967113 -0.24787279218435285 -0.41048303246498102 -0.20767946541309354 -0.3604168146848678 0.31294518709182745 -0.14394315332174298 0.28670677542686468 -0.33163593709468836 0.35485726594924932 0.063609570264816298 -0.45102955400943751 -0.693385750055313 0.26655757427215582 0.54643890261650097 0.30964119732379919 -0.67623749375343312 0.78986948728561412 -0.92314788699150074 0.94396942853927623 -0.32103161513805384 -1.4276711940765379 0.35294960439205175 0.22058684378862384 -0.18547827750444409
decision_type=2 2 2 2 2 2 2 2 2 2 2 2 2 2 2 2 2 2 2 2 2 2 2 2 2 2 2 2 2
left_child=8 5 3 -3 -5 6 25 20 15 12 16 -12 14 -14 -10 27 -11 24 -19 -8 -4 22 -7 -23 -17 -2 -9 -1 -29
right_child=1 2 7 4 -6 21 19 26 9 10 11 -13 13 -15 -16 17 -18 18 -20 -21 -22 23 -24 -25 -26 -27 -28 28 -30
leaf_value=-0.026125942638234104 -0.013380080123027126 0.02064801978738702 -0.00056046300269117582 -0.041669886662475321 0.018054477752191263 -0.0043238845581960198 -0.062936377024204945 0.0072506744262464083 0.0071874456367360361 0.011539012361084228 -0.093266727456370907 0.004787983582045973 0.025815372300188006 -0.0025659948142164753 -0.044991179781801505 0.020921214816890021 -0.0046649030459032211 -0.0017041214057525005 -0.058155812504202292 -0.017467763370563032 -0.028275130890242785 -0.024444675136575226 0.021469533550231248 0.0090229143660534427 -0.023025275641193912 0.0053621071930907115 -0.0085942860900707265 0.014422656246760502 -0.005681305061698172
leaf_weight=84.006069123744965 348.02921628952026 95.299137860536575 187.04861012101173 520.42070211470127 76.892647713422775 163.40836316347122 57.279840290546417 819.91003230214119 687.76895090937614 666.36617976427078 61.863513052463531 88.48699426651001 1109.7133432328701 469.56899163126945 103.47242817282677 67.195680052042007 897.75361761450768 55.396814912557602 109.34015759825706 189.68654030561447 308.91391801834106 108.462616533041 716.16398948431015 232.14916238188744 111.3980907201767 629.13639470934868 439.82012882828712 367.54123741388321 420.09181928634644
leaf_count=140 560 120 268 1030 103 236 115 1111 917 862 149 122 1248 693 198 87 1299 82 222 307 535 185 870 311 190 872 673 481 606
internal_value=0 -0.00390249 -0.0102129 -0.0264648 -0.0339815 0.00241823 -0.00669989 -0.00380161 0.00358362 0.00633681 -0.00107605 -0.0355578 0.0116981 0.0173767 0.000363929 -0.00567324 0.00223849 -0.022172 -0.0391726 -0.0280135 -0.0178227 0.0115659 0.0166776 -0.00163433 -0.00649046 -0.00131315 0.00171859 0.000825472 0.00370001
internal_weight=0 4892.62 2448.31 692.612 597.313 2444.32 1224.13 1755.69 5299.96 4084.99 1714.47 150.351 2370.52 1579.28 791.241 1214.97 1564.12 343.331 164.737 246.966 495.963 1220.18 879.572 340.612 178.594 977.166 1259.73 871.639 787.633
internal_count=14592 7296 3840 1253 1133 3456 1854 2587 7296 5488 2432 271 3056 1941 1115 1808 2161 581 304 422 803 1602 1106 496 277 1432 1784 1227 1087
is_linear=0
shrinkage=0.1


Tree=12
num_leaves=24
num_cat=0
split_feature=200 210 201 6 127 202 214 210 213 105 201 223 202 201 200 200 200 200 231 225 2 254 228
split_gain=13.3636 28.4886 27.7192 29.5987 26.8825 16.5417 12.7894 16.8511 13.2298 12.4763 20.3476 13.6312 11.6663 11.7069 10.5729 10.1815 6.39617 5.88131 5.64463 4.63212 4.40843 3.63772 3.41538
threshold=-1.6274688243865965 -0.43125665187835688 -0.87248301506042469 -0.20952638983726499 -0.3323360383510589 -0.38979955017566675 -0.24800763279199597 0.72190022468566906 -0.35662989318370814 -0.38263127207756037 -0.060096904635429375 -0.23173826187849042 -1.2545785307884214 -1.6179254055023191 -1.4101155400276182 -1.7860805392265318 -1.9877378940582273 -2.0040272474288936 0.37838602066040045 -0.50168922543525685 -0.52674657106399525 -0.20925708115100858 -0.18945147097110746
decision_type=2 2 2 2 2 2 2 2 2 2 2 2 2 2 2 2 2 2 2 2 2 2 2
left_child=4 9 3 5 17 -3 8 -8 -4 10 -2 20 16 19 -13 -15 -6 18 22 -14 -11 -18 -1
right_child=1 2 6 -5 12 -7 7 -9 -10 11 -12 14 13 15 -16 -17 21 -19 -20 -21 -22 -23 -24
leaf_value=-0.025992981649304192 0.016577506350135291 0.011009205664879751 0.0004176684391352593 -0.08676958651333197 -0.06807990280277286 -0.03389649761406318 0.0042334535781962078 -0.0097448178421386169 -0.021653422583313233 0.0027794328181361674 -0.057240182953157005 -0.00034222830189883696 -0.011101782885647376 -0.057307727605940606 0.02286435438357556 -0.008511335089140544 -0.012426177328971126 0.026879987783661591 0.021593535608483368 0.021297123928258013 -0.028057478643135271 -0.039813076987034901 0.0047464246646700915
leaf_weight=75.047712594270706 88.7169249355793 143.16957485675812 575.38598284125328 68.701907366514206 58.647061705589294 192.09386119246483 4916.9917506873608 1045.8651318103075 514.36897709965706 117.0301870405674 64.482991605997086 236.97051060199738 80.54548043012619 75.936046183109283 1144.5752102136612 97.872840851545334 71.750820428133011 137.97599175572395 82.434127628803253 97.601556837558746 76.772111922502518 149.66975125670433 69.727594941854477
leaf_count=136 114 188 814 164 125 347 6728 1707 878 166 120 329 121 146 1348 147 115 161 107 125 130 277 99
internal_value=0 0.00118344 -0.00149798 -0.0269735 -0.011005 -0.0147201 -3.8771e-05 0.00178171 -0.00999998 0.0127505 -0.0144929 0.0153998 -0.0234855 -0.011366 0.0188838 -0.0298302 -0.038716 0.0105948 0.00070546 0.00664863 -0.00943619 -0.0309384 -0.0111881
internal_weight=0 9185.13 7456.58 403.965 997.209 335.263 7052.61 5962.86 1089.75 1728.55 153.2 1575.35 632.024 351.956 1381.55 173.809 280.068 365.185 227.209 178.147 193.802 221.421 144.775
internal_count=14592 13033 10826 699 1559 535 10127 8435 1692 2207 234 1973 1056 539 1677 293 517 503 342 246 296 392 235
is_linear=0
shrinkage=0.1


Tree=13
num_leaves=14
num_cat=0
split_feature=202 242 219 201 224 248 10 229 201 200 144 93 230
split_gain=12.4856 12.8501 25.9352 30.0973 14.8593 10.9344 10.2932 12.0393 9.85319 11.3495 9.43466 5.09815 1.23941
threshold=1.666357755661011 -0.068635217845439897 0.89487126469612133 0.29909515380859381 -0.6675715148448943 -0.19464894384145734 0.19308102875947955 -0.37330436706542963 -2.2470926046371456 -1.5112493038177488 0.10561951249837877 1.0621775984764101 -0.081855915486812578
decision_type=2 2 2 2 2 2 2 2 2 2 2 2 2
left_child=1 2 8 -4 -5 -3 7 -7 -1 -10 12 -8 -2
right_child=10 5 3 4 -6 6 11 -9 9 -11 -12 -13 -14
leaf_value=0.028871561710377538 0.020259399848877768 -0.030433849173415274 -0.10193231446978435 0.0062555254753965854 -0.041494039131137112 -0.0056440369689609972 -0.0033290907760143346 0.022003728091695665 -0.012293262176194732 -0.00035974831830400908 -0.0073090228853801373 0.011963660705548176 0.033142751920734063
leaf_weight=105.94550886750221 158.40515542030334 77.714122861623764 50.036779150366783 132.33161845803261 128.41392749547958 203.9770784676075 748.07581230998039 691.22847360372543 910.23748609423637 6404.2097068727016 115.49022263288498 307.63968402147293 141.26371443271637
leaf_count=126 187 138 139 197 263 307 1088 819 1442 9163 168 406 149
internal_value=0 -0.000732858 -0.00259157 -0.0308929 -0.0172605 0.00635072 0.00781602 0.015704 -0.00140624 -0.0018448 0.0169741 0.00112728 0.0263326
internal_weight=0 9759.81 7731.18 310.782 260.746 2028.64 1950.92 895.206 7420.39 7314.45 415.159 1055.72 299.669
internal_count=14592 14088 11330 599 460 2758 2620 1126 10731 10605 504 1494 336
is_linear=0
shrinkage=0.1


Tree=14
num_leaves=26
num_cat=0
split_feature=209 146 211 205 144 231 234 205 236 254 181 230 83 125 19 2 202 226 212 224 254 211 52 120 202
split_gain=10.3046 16.8508 26.1713 24.9455 14.2016 12.6472 11.4696 11.2199 9.56834 9.08624 31.4238 16.2239 15.5152 14.8637 13.4647 13.1183 12.9622 12.3875 10.087 9.47677 7.18072 6.82531 3.86446 2.63297 1.94883
threshold=-0.91132238507270802 0.81678766012191784 -0.40455025434494013 1.0000000180025095e-35 0.57854568958282482 -2.2429846525192256 -0.023799847811460492 1.0000000180025095e-35 -0.22935784608125684 -0.19479206949472425 -0.68363142013549794 -0.082745537161827074 0.49384856224060064 2.4121856093406682 -0.75241708755493153 -0.49587044119834894 0.4410869181156159 0.32722640037536627 -0.17603247612714765 -0.66628506779670704 -0.16421329975128171 -0.081818696111440645 -0.30864393711090082 0.43451149761676794 -1.2787535190582273
decision_type=2 2 2 2 2 2 2 2 2 2 2 2 2 2 2 2 2 2 2 2 2 2 2 2 2
left_child=1 4 24 -4 5 22 8 -7 -6 10 11 23 13 16 18 -16 -11 20 -12 -13 -14 -15 -1 -2 -3
right_child=9 2 3 -5 6 7 -8 -9 -10 12 14 19 17 21 15 -17 -18 -19 -20 -21 -22 -23 -24 -25 -26
leaf_value=-0.001598829965917016 -0.00041251245523586043 0.0027191339967408863 -0.011345485454185436 -0.086034285525024359 -0.030871970978952029 0.0062018916713140748 -0.039249691155936302 0.023231715617534718 0.0066274933062068497 0.0095470828209398631 0.0033285849919882839 -0.087939080985561816 -0.021793047190727891 -0.05047751138894005 -0.0051976664360008952 0.0071669681284702892 -0.006929080553467081 0.012267462154106245 -0.049747575455815603 -0.038437339039411329 -0.065024482138335782 -0.0042029718325733408 -0.031881515327282665 -0.022061840936632732 0.024349869048437219
leaf_weight=131.35136529803276 98.98532497882843 81.553950667381287 113.79236155748367 73.667774140834808 81.100263178348541 687.46967056393623 84.364520311355591 884.78078880906105 422.64223256707191 2114.6413062214851 55.592001438140869 53.222019076347351 108.53691250085831 68.730090320110321 2467.2840195000172 1315.5716960132122 616.76027542352676 72.888853073120117 100.60848596692085 141.4841380417347 59.474299401044846 59.439805716276169 62.046521931886673 129.89699450135231 85.129340708255768
leaf_count=195 149 116 181 183 144 908 161 987 559 2805 79 151 176 137 3722 1759 975 90 202 264 123 86 118 226 96
internal_value=0 0.00527426 -0.0150627 -0.0406966 0.00833413 0.0128171 -0.00512483 0.0157854 0.000590249 -0.00192723 -0.00486875 -0.0307496 0.00221174 0.00426495 -0.00208564 -0.000897591 0.00582671 -0.0221605 -0.0308577 -0.0519684 -0.0370965 -0.0290173 -0.0113142 -0.0126991 0.0137665
internal_weight=0 2707.9 354.143 187.46 2353.76 1765.65 588.107 1572.25 503.742 7463.12 4362.64 423.588 3100.47 2859.57 3939.06 3782.86 2731.4 240.9 156.2 194.706 168.011 128.17 193.398 228.882 166.683
internal_count=14592 3648 576 364 3072 2208 864 1895 703 10944 6552 790 4392 4003 5762 5481 3780 389 281 415 299 223 313 375 212
is_linear=0
shrinkage=0.1


Tree=15
num_leaves=13
num_cat=0
split_feature=225 228 230 201 214 5 224 211 5 201 17 247
split_gain=10.2006 9.98734 23.0757 31.36 21.6705 12.7427 20.9028 11.2237 11.0073 1.75767 1.03275 1.02541
threshold=5.1515557765960702 -0.16190829873085019 -0.066844522953033433 0.62453162670135509 -0.015472930856049059 -0.53210245072841633 -0.65385356545448292 -0.040061146020889275 1.0000000180025095e-35 0.44107542932033544 0.21472502499818805 -0.1793614327907562
decision_type=2 2 2 2 2 2 2 2 2 2 2 2
left_child=1 4 9 -4 5 6 -1 -5 -7 10 -3 -11
right_child=-2 2 3 7 -6 8 -8 -9 -10 11 -12 -13
leaf_value=-0.069235462950652193 -0.03423633422867807 0.022260196546505483 -0.06241249256921625 0.01164001027723064 -0.055999061794629802 0.023651535967046843 -0.005200262765047513 -0.010051485693778006 -0.00055542144338530271 0.0086701972854671041 0.032785181796336035 0.021499043596335834
leaf_weight=69.920714154839516 86.340141773223877 266.70925748348236 79.203350275754929 596.79784339666367 71.421002119779587 192.46772700548172 188.14207080006599 397.35979968309402 7822.2731123566628 120.66785836219788 143.33026659488678 128.81784522533417
leaf_count=188 168 295 174 760 154 230 286 607 11270 158 151 151
internal_value=0 0.000282798 0.007191 -0.00185455 -0.00115186 -0.000678353 -0.0225503 0.00297003 2.58897e-05 0.0219124 0.0259392 0.0152942
internal_weight=0 10077.1 1732.89 1073.36 8344.22 8272.8 258.063 994.158 8014.74 659.525 410.04 249.486
internal_count=14592 14424 2296 1541 12128 11974 474 1367 11500 755 446 309
is_linear=0
shrinkage=0.1


Tree=16
num_leaves=22
num_cat=0
split_feature=202 111 202 105 198 224 120 131 200 97 211 119 225 209 69 231 228 201 64 151 244
split_gain=9.75582 13.6425 11.7012 33.909 20.5438 18.8777 25.2281 18.7782 25.7494 15.1898 13.8892 13.2661 18.1613 9.54152 8.50075 8.14744 4.84782 6.08108 3.01704 0.781669 0.480074
threshold=1.0326668024063113 -1.3692815899848936 0.35294960439205175 -0.36681312322616572 0.43428722023963934 -0.64295309782028187 -0.33476424217224116 -0.29127362370491022 -1.9119643568992613 -0.62323227524757374 0.027399547398090366 -0.43212476372718805 -0.49915508925914759 0.91132239997386943 -0.36835010349750513 -3.508655190467834 -0.18853883445262906 -1.0525766015052793 -0.27924859523773188 0.12240800634026529 -0.010796234477311371
decision_type=2 2 2 2 2 2 2 2 2 2 2 2 2 2 2 2 2 2 2 2 2
left_child=2 -2 4 10 7 6 -5 8 -1 -7 18 12 -6 -13 16 -9 17 -3 -4 20 -16
right_child=1 14 3 5 11 9 -8 15 -10 -11 -12 13 -14 -15 19 -17 -18 -19 -20 -21 -22
leaf_value=-0.065306944845661866 -0.029254431493172507 0.020043540077532521 0.011201992559517406 -0.063742919077917237 0.010964175134967167 0.012185243138233095 -0.013374218219877686 -0.023976347224841238 -0.0089748997133480193 -0.012947593583879237 -0.031700971073927775 0.018245292728702171 -0.023299564059738102 -0.0010784511394694993 0.028149440407201905 0.002973300428299055 0.021249651585656809 -0.013630919154264077 0.031463954627228168 0.01628388150560962 0.019988165846906842
leaf_weight=87.170290976762772 81.130267560482025 73.652063131332397 792.44726100564003 158.12141613662243 384.52420482039452 293.22792255878448 267.95118367671967 117.10470402240753 1173.7285812497139 1336.6469362676144 75.222505867481232 1235.6375582814217 258.81891193985939 322.14436915516853 219.30937218666077 2667.5002212375402 100.41077750921249 197.23358079791069 80.999796032905579 129.40371334552765 107.36028128862381
leaf_count=185 135 87 1033 395 510 381 446 207 1803 2128 143 1460 444 470 237 3713 124 313 95 156 127
internal_value=0 0.00987849 -0.000981029 -0.00610897 0.0014855 -0.0133253 -0.0320667 -0.00274462 -0.0128693 -0.00842599 0.00953012 0.00926016 -0.00282023 0.0142492 0.0137158 0.00183995 0.00248176 -0.00447505 0.013081 0.0228616 0.0254672
internal_weight=0 908.5 9251.25 3004.62 6246.63 2055.95 426.073 4045.5 1260.9 1629.87 948.67 2201.13 643.343 1557.78 827.37 2784.6 371.296 270.886 873.447 456.073 326.67
internal_count=14592 1179 13413 4621 8792 3350 841 5908 1988 2509 1271 2884 954 1930 1044 3920 524 400 1128 520 364
is_linear=0
shrinkage=0.1


Tree=17
num_leaves=25
num_cat=0
split_feature=210 200 201 191 210 119 201 200 105 201 204 223 200 236 138 229 247 224 110 211 228 225 201 2
split_gain=8.43916 23.6067 16.3621 39.6007 24.4098 20.7051 13.1836 12.5099 12.1208 15.2558 10.9276 10.4563 10.2338 10.0161 17.691 11.957 7.54972 7.45473 5.86413 4.81613 4.65804 3.49047 3.34298 2.68249
threshold=-0.43125665187835688 -1.5112493038177488 -0.57224890589714039 -0.47613129019737238 -0.42939424514770502 -0.44182106852531428 -1.6179254055023191 -1.7860805392265318 -0.38263127207756037 -0.060096904635429375 1.0000000180025095e-35 -0.23173826187849042 -0.71068844199180592 0.10756388306617738 -0.35213997960090632 -0.17577452212572095 -0.2865359485149383 -0.27892020344734186 0.65518364310264599 -0.40936976671218867 -0.18951001018285749 -0.49903635680675501 -1.380297005176544 -0.52674657106399525
decision_type=2 2 2 2 2 2 2 2 2 2 2 2 2 2 2 2 2 2 2 2 2 2 2 2
left_child=1 6 3 5 17 16 10 -8 9 -3 19 23 -4 15 -15 -14 -2 -5 -12 -1 -9 -13 -7 -10
right_child=2 8 12 4 -6 22 7 20 11 -11 18 21 13 14 -16 -17 -18 -19 -20 -21 -22 -23 -24 -25
leaf_value=0.035004012860660502 -0.0027580023335700477 0.014094212700275317 0.029394244951690601 -0.010074998986769099 -0.11112489872529255 0.033041541617106131 -0.061097892737923556 0.005424478331223173 0.0038687435266065448 -0.051475989034867824 -0.030804181163307544 0.021251004328235054 -0.0053035929819008915 -0.033145502231376377 0.010095511201041336 0.0054608576708100823 -0.028464563576392255 -0.059147379698765171 -0.00053597255865707612 0.0062394835861644465 -0.024691039603354822 0.0085515767679497801 0.0097035019734710501 -0.023096771539397515
leaf_weight=79.006821036338806 201.81137067079544 79.771176964044571 117.27275261282921 70.76034140586853 55.56870935857296 84.745950192213058 73.41450497508049 82.151068091392517 73.108852863311768 63.912148594856262 116.99121323227882 967.9572342634201 3853.2739432752132 101.86975449323654 1328.5430496633053 1409.321390658617 263.30435511469841 55.033498913049698 141.33183577656746 221.11243948340416 137.02717918157578 278.75779891014099 222.57798933982849 74.467913269996643
leaf_count=81 320 103 127 121 165 98 150 115 100 120 221 1131 5869 181 1718 1881 471 113 211 304 227 354 285 126
internal_value=0 0.00518773 -0.00160891 -0.0138756 -0.055927 -0.00400228 -0.00817543 -0.0253704 0.0125822 -0.0150722 0.000833774 0.015432 0.000109077 -0.000404048 0.00701601 -0.00242088 -0.0173106 -0.0315437 -0.0142441 0.0138118 -0.0134033 0.0184115 0.0161391 -0.00973818
internal_weight=0 2389.01 7764.08 953.802 181.363 772.44 851.035 292.593 1537.98 143.683 558.442 1394.29 6810.28 6693.01 1430.41 5262.6 465.116 125.794 258.323 300.119 219.178 1246.72 307.324 147.577
internal_count=14592 3243 11349 1573 399 1174 1309 492 1934 223 817 1711 9776 9649 1899 7750 791 234 432 385 342 1485 383 226
is_linear=0
shrinkage=0.1


Tree=18
num_leaves=8
num_cat=0
split_feature=225 2 211 226 212 200 217
split_gain=7.7112 7.36362 11.7535 7.21829 11.645 1.50513 0.0947601
threshold=5.1515557765960702 -0.86369323730468739 1.4780203700065615 5.304152488708497 -0.11915127187967299 0.75382655858993541 -0.34469211101531977
decision_type=2 2 2 2 2 2 2
left_child=1 5 3 4 -3 -1 -5
right_child=-2 2 -4 6 -6 -7 -8
leaf_value=0.029243098508666229 -0.029826980616678246 -5.3909604525860707e-05 -0.036549316458054905 -0.026007753847404554 0.021574493206992756 0.010876293588036535 -0.020508658659249501
leaf_weight=92.304177343845367 85.999864310026169 9411.3686548173428 87.773735076189041 69.359025359153748 255.70025813579559 86.363808304071426 57.160901010036469
leaf_count=100 168 13522 176 121 286 116 103
internal_value=0 0.000244888 -0.00011891 0.000207592 0.000518176 0.020365 -0.0235233
internal_weight=0 10060 9881.36 9793.59 9667.07 178.668 126.52
internal_count=14592 14424 14208 14032 13808 216 224
is_linear=0
shrinkage=0.1


Tree=19
num_leaves=22
num_cat=0
split_feature=202 111 202 105 83 201 229 200 144 83 221 144 218 224 210 69 191 227 111 151 227
split_gain=7.1543 10.4937 8.14086 27.0168 18.4085 20.2487 16.903 13.9331 19.9486 12.193 11.9951 11.2963 9.51246 8.78355 6.47235 5.4972 5.33097 4.70372 2.46973 0.643197 0.282381
threshold=1.0326668024063113 -1.3692815899848936 0.35294960439205175 -0.35452482104301447 0.49384856224060064 -0.13450514525175092 -0.17689995467662809 -1.5112493038177488 0.10561951249837877 0.13024124130606654 -1.5245739221572874 0.32442481815814977 0.10297753289341928 1.448583781719208 0.43159316480159765 -0.36835010349750513 -0.83076336979866017 -0.22757245600223538 -0.54190579056739796 0.12240800634026529 -0.28766463696956629
decision_type=2 2 2 2 2 2 2 2 2 2 2 2 2 2 2 2 2 2 2 2 2
left_child=2 -2 4 12 7 -6 11 8 -1 -9 -8 -5 16 -7 -14 17 -4 -3 -19 20 -17
right_child=1 15 3 6 5 13 10 9 -10 -11 -12 -13 14 -15 -16 19 -18 18 -20 -21 -22
leaf_value=-0.021184879258849015 -0.025896268190300858 -0.019416801056870176 -0.010632323939418454 -0.014282227719448313 -0.073861040360440694 -0.030764737999860667 -0.025388784747236118 0.012076533187927473 0.0065074235290855072 0.0013476817642360402 0.010994873791722011 -0.037626151586368645 -0.040512535721691507 0.0039406495053996076 -0.00079763977606789002 0.016980651300827661 0.012689182238715006 0.015226361150479498 -0.0039619282278439867 0.013229286584273685 0.023456012201472518
leaf_weight=543.05390438437462 80.930926978588104 75.836464047431946 109.77823203802109 1027.4884670078754 59.748281121253967 122.79063132405281 118.0179278254509 1567.7520629167557 499.31300491094589 3265.8629194945097 390.22865304350853 259.68524034321308 63.192156374454498 179.57264962792397 117.03222727775574 95.097165644168854 914.71674919128418 191.58382561802864 103.21519696712494 129.23753941059113 230.77298659086227
leaf_count=938 135 121 185 1699 148 209 214 1988 705 4551 511 525 128 253 185 111 1174 244 159 156 253
internal_value=0 0.00846768 -0.000840984 -0.0051215 0.00121768 -0.0206651 -0.0128948 0.00256622 -0.00791975 0.00482752 0.00254637 -0.0189918 0.00646324 -0.0101533 -0.0147229 0.0118357 0.0101902 0.00279437 0.00850815 0.0191989 0.0215663
internal_weight=0 906.674 9238.23 3000.14 6238.09 362.112 1795.42 5875.98 1042.37 4833.61 508.247 1287.17 1204.72 302.363 180.224 825.743 1024.49 370.635 294.799 455.108 325.87
internal_count=14592 1179 13413 4621 8792 610 2949 8182 1643 6539 725 2224 1672 462 313 1044 1359 524 403 520 364
is_linear=0
shrinkage=0.1


Tree=20
num_leaves=17
num_cat=0
split_feature=201 200 191 210 201 6 201 125 200 223 217 227 224 228 254 254
split_gain=6.46576 6.67362 15.3771 13.7058 15.0534 20.0117 7.83896 15.4713 7.69954 7.44693 7.125 6.53715 6.24157 4.34398 3.78472 1.92252
threshold=-2.2470926046371456 -1.6274688243865965 -0.68293437361717213 -0.43125665187835688 -0.87248301506042469 -0.20952638983726499 0.097777586430311217 -0.55091616511344899 -1.7860805392265318 -0.23173826187849042 -0.36849582195281977 -0.35597477853298182 -0.71031862497329701 -0.18951570242643354 -0.20934151858091352 -0.20931573212146756
decision_type=2 2 2 2 2 2 2 2 2 2 2 2 2 2 2 2
left_child=-1 2 11 6 5 -5 9 -8 12 -3 -6 13 -4 -2 -10 -13
right_child=1 3 8 4 10 -7 7 -9 14 -11 -12 15 -14 -15 -16 -17
leaf_value=0.024277835247689172 -0.024825297580283266 -0.0082982641908930493 -0.007357522681510055 -0.010251101509148139 -0.022191594460734786 -0.070829262099961876 0.021070998343540849 -0.042681439856130904 0.0061415470686699628 0.013660004460845521 0.00027777611089681704 0.02578036911370148 -0.044769577916056548 0.0016893631998154226 -0.020558967444948936 0.0078533277564119663
leaf_weight=108.44713068008423 92.521854221820831 175.09301716089249 60.913160994648933 333.35424035787582 144.07837373018265 65.197490260004997 71.827841997146606 80.983558863401413 98.070140272378922 1309.858907699585 6884.0390997231007 101.61841240525246 166.44427415728569 186.02233099937439 115.74149668216705 145.43667131662369
leaf_count=129 170 269 104 535 242 164 82 143 138 1612 9885 115 331 278 193 202
internal_value=0 -0.000271282 -0.00816921 0.000571073 -0.00125497 -0.0201608 0.00885152 -0.0127151 -0.021935 0.0110709 -0.000182852 0.00338528 -0.0347462 -0.00711781 -0.0083121 0.0152271
internal_weight=0 10031.2 966.768 9064.43 7426.67 398.552 1637.76 152.811 441.169 1484.95 7028.12 525.599 227.357 278.544 213.812 247.055
internal_count=14592 14463 1531 12932 10826 699 2106 225 766 1881 10127 765 435 448 331 317
is_linear=0
shrinkage=0.1


Tree=21
num_leaves=14
num_cat=0
split_feature=225 242 210 201 212 212 132 194 221 243 149 202 201
split_gain=5.95224 5.85607 9.35944 22.3731 8.02838 14.422 7.12546 5.85194 7.10631 6.5804 4.84722 1.23595 0.53258
threshold=5.1515557765960702 -0.068635217845439897 0.72190022468566906 0.32202182710170751 -0.11915127187967299 -0.14391706883907315 1.7486295104026797 -0.11702087149024008 0.94187289476394664 -0.010408144444227217 0.41349649429321295 -0.57229664921760548 0.909741371870041
decision_type=2 2 2 2 2 2 2 2 2 2 2 2 2
left_child=1 2 4 -4 5 -1 7 8 -3 -9 -5 -8 -6
right_child=-2 6 3 10 12 -7 11 9 -10 -11 -12 -13 -14
leaf_value=1.9310348332948684e-05 -0.026243973849852265 0.010026577606349403 -0.072880777557110241 -0.014864445891671442 0.023849472676254813 -0.032937782057607667 0.029806212686284035 0.002778434466529632 -0.013296778741156421 -0.018463221756436464 0.0042837866459989231 0.013928103112558921 0.013862761086862165
leaf_weight=7055.6108114570379 85.74488365650177 1058.1360971480608 56.561183765530586 313.4201477766037 111.26849853992462 135.32489827275276 113.2536706328392 415.30006083846092 149.03546154499054 224.77229952812195 228.64315509796143 86.440388023853302 102.67580777406693
leaf_count=10087 168 1370 158 568 119 251 118 576 238 365 348 106 120
internal_value=0 0.000215483 -0.00100526 -0.0130325 -3.295e-05 -0.000600903 0.00498856 0.00304868 0.00714711 -0.00468093 -0.00678769 0.0229331 0.0190567
internal_weight=0 10050.4 8003.5 598.624 7404.88 7190.94 2046.94 1847.24 1207.17 640.072 542.063 199.694 213.944
internal_count=14592 14424 11651 1074 10577 10338 2773 2549 1608 941 916 224 239
is_linear=0
shrinkage=0.1


Tree=22
num_leaves=24
num_cat=0
split_feature=209 146 211 205 144 232 231 202 254 181 5 225 200 230 125 116 242 223 229 211 236 201 240
split_gain=5.35436 12.5149 17.4207 18.888 8.47811 9.25177 7.22458 7.27924 5.85422 18.91 9.90558 13.6604 9.60629 8.68964 8.26626 9.76007 6.4637 6.24019 5.66288 5.35002 4.45777 3.52533 2.11036
threshold=-0.91132238507270802 0.81678766012191784 -0.40455025434494013 1.0000000180025095e-35 0.57854568958282482 0.23765465617179873 -3.508655190467834 0.35294960439205175 -0.19716280698776242 -0.68363142013549794 0.25302413105964666 -0.49785523116588587 -1.4101155400276182 -0.082704991102218614 2.4121856093406682 0.56756192445755016 -0.17832481861114499 -0.092985365539789186 -0.17839755117893216 -0.080462772399187074 -0.22935784608125684 0.1610195264220238 -0.003756159450858831
decision_type=2 2 2 2 2 2 2 2 2 2 2 2 2 2 2 2 2 2 2 2 2 2 2
left_child=1 4 22 -4 6 20 -1 -8 9 13 11 -11 -12 21 15 17 -17 -10 -15 -16 -6 -2 -3
right_child=8 2 3 -5 5 -7 7 -9 14 10 12 -13 -14 18 19 16 -18 -19 -20 -21 -22 -23 -24
leaf_value=-0.016758019753682876 -0.023389549763844476 -0.0024563240001128574 -0.0095973437620487118 -0.07530019849052072 -0.020849350325776866 -0.037040879217432439 0.017327450412870662 0.0040051548450572736 0.0095734222515879777 0.029895381016904046 -0.0068587149371135336 -0.017933408462411784 0.0046040103573603284 -0.054742710150440903 -0.040509132075401993 -0.02552942209818362 -0.0021706756828498946 -0.0031966570116006617 -0.015265183739624344 9.4355060633074869e-05 0.0048317616690821286 0.0014290922595354999 0.020151932904272689
leaf_weight=96.020695626735687 125.08897429704666 76.830876559019089 113.42326366901398 71.232611209154129 80.174917578697205 73.961333602666855 930.01413053274155 733.69600164890289 1642.4432656168938 66.59452348947525 1125.0718911588192 578.05630072951317 2087.8595862984657 112.74946849048138 73.875764906406403 139.96899580955505 770.99221250414848 498.88937287032604 53.614510297775269 57.87239596247673 430.64453169703484 105.50508788228035 89.248756974935532
leaf_count=169 220 104 181 183 144 144 1062 977 2169 75 1763 958 2870 272 147 242 1127 765 88 82 576 166 108
internal_value=0 0.00381087 -0.0138069 -0.0349428 0.00644646 -0.00398511 0.00991301 0.0114523 -0.00139144 -0.00381835 -0.00167972 -0.0129925 0.000590109 -0.0246012 0.0018514 0.00290998 -0.00575974 0.00659824 -0.0420202 -0.0226734 0.00080102 -0.0120341 0.00969302
internal_weight=0 2695.25 350.736 184.656 2344.51 584.781 1759.73 1663.71 7438.58 4254.54 3857.58 644.651 3212.93 396.958 3184.04 3052.29 910.961 2141.33 166.364 131.748 510.819 230.594 166.08
internal_count=14592 3648 576 364 3072 864 2208 2039 10944 6412 5666 1033 4633 746 4532 4303 1369 2934 360 229 720 386 212
is_linear=0
shrinkage=0.1


Tree=23
num_leaves=21
num_cat=0
split_feature=202 111 209 185 214 200 246 22 229 226 214 225 224 202 69 217 227 219 210 227
split_gain=5.38498 8.01336 5.9526 9.90352 6.97023 6.71151 6.0162 11.093 6.53169 7.80762 6.41533 5.86256 9.75354 5.5854 4.04314 4.0362 2.4193 1.38949 0.971838 0.509355
threshold=1.0326668024063113 -1.3692815899848936 0.91132239997386943 -0.074594963341951356 -0.24782789498567578 -0.81653842329978932 -0.37916830182075495 -0.41961570084094996 -0.33565013110637659 -0.19672120362520215 -0.21764323115348813 -0.50013157725334156 -0.62509077787399281 0.52231556177139293 -0.39486891031265253 -0.27259625494480128 -0.19942114502191541 -0.37082523107528681 -0.35528014600276941 -0.24421391636133191
decision_type=2 2 2 2 2 2 2 2 2 2 2 2 2 2 2 2 2 2 2 2
left_child=2 -2 6 4 5 -4 7 -1 10 -10 -8 -5 -13 -9 16 -6 -3 -18 19 -16
right_child=1 14 3 11 15 -7 8 13 9 -11 -12 12 -14 -15 18 -17 17 -19 -20 -21
leaf_value=-0.02804313146870524 -0.022708807370555528 -0.013531818249789111 4.6140193239445186e-05 0.0064464890051025821 0.019352113535957817 -0.022315827581513556 -0.014646076614610971 0.0080850788581743379 0.0034135152001360013 -0.0083750975827915006 0.0001816659535885411 -0.035077846561795127 -0.0097522666505541634 -0.0037433663603218636 0.014047671063089387 0.0023680400814631154 -0.003065901865341232 0.012453388990088847 0.0065180365263087436 0.021138137123626138
leaf_weight=100.91919828951359 80.769071906805038 79.722239673137665 382.55239897966385 127.12465849518776 190.51954209804535 206.75121887028217 645.71911323070526 2035.4923120886087 2493.2247153073549 725.23721739649773 532.34655669331551 210.18324400484562 550.00486221909523 496.60372066497803 182.03295928239822 526.87584221363068 93.312069207429886 151.12810531258583 89.964652836322784 228.47958505153656
leaf_count=182 135 123 575 177 231 359 1075 2659 3433 1111 771 437 878 790 215 735 133 203 114 256
internal_value=0 0.00735158 -0.000730128 -0.00527737 0.000259008 -0.00779933 0.000689126 0.00446942 -0.00157484 0.000757109 -0.00794569 -0.0134305 -0.0167545 0.00576524 0.0102958 0.00687852 0.00159545 0.00652909 0.0159311 0.017994
internal_weight=0 905.409 9223.55 2194.01 1306.7 589.304 7029.54 2633.02 4396.53 3218.46 1178.07 887.313 760.188 2532.1 824.64 717.395 324.162 244.44 500.477 410.513
internal_count=14592 1179 13413 3392 1900 934 10021 3631 6390 4544 1846 1492 1315 3449 1044 966 459 336 585 471
is_linear=0
shrinkage=0.1


Tree=24
num_leaves=16
num_cat=0
split_feature=201 200 127 210 201 191 221 201 125 200 228 251 200 224 254
split_gain=5.02794 4.92479 12.3368 8.38686 11.8094 26.2045 7.36075 6.33496 11.6744 6.10991 5.96475 5.26705 4.93109 4.50995 2.31438
threshold=-2.2470926046371456 -1.6274688243865965 -0.3323360383510589 -0.43125665187835688 -0.57224890589714039 -0.47613129019737238 1.2810655832290652 0.097777586430311217 -0.55091616511344899 -1.2647109031677244 -0.18950283527374265 0.17218660563230517 -1.9515156745910642 -0.83103778958320607 -0.20931043475866315
decision_type=2 2 2 2 2 2 2 2 2 2 2 2 2 2 2
left_child=-1 2 13 7 5 -5 -6 9 -9 -3 11 -4 -12 -2 -15
right_child=1 3 10 4 6 -7 -8 8 -10 -11 12 -13 -14 14 -16
leaf_value=0.021426807339803729 -0.014926637386667736 0.00022801733178988114 -0.014509893627943516 -0.0011983666206428264 -0.00068041039663173722 -0.046770515419505693 0.011763841198647984 0.016911101479976636 -0.038557767521790437 0.013677144242534581 -0.049717546979233501 0.01417849813341782 -0.018839509603630747 0.027092210567629161 0.007457419523016315
leaf_weight=108.27264222502708 70.133477628231049 520.23218995332718 204.05658689141273 443.80454289913177 6282.7386142611504 176.29890176653862 514.22142532467842 71.66888028383255 80.632306188344955 963.20393353700638 65.38869908452034 93.237525969743729 247.37919488549232 85.967082381248474 198.98717454075813
leaf_count=129 124 718 340 653 9086 397 690 82 143 1163 140 128 429 91 279
internal_value=0 -0.00023875 -0.0070292 0.000485203 -0.000944181 -0.0141548 0.000261055 0.00696658 -0.0124556 0.00896062 -0.0156547 -0.00551263 -0.025295 0.00778994 0.013381
internal_weight=0 10018 965.15 9052.8 7417.06 620.103 6796.96 1635.74 152.301 1483.44 610.062 297.294 312.768 355.088 284.954
internal_count=14592 14463 1531 12932 10826 1050 9776 2106 225 1881 1037 468 569 494 370
is_linear=0
shrinkage=0.1


Tree=25
num_leaves=14
num_cat=0
split_feature=225 254 99 167 226 230 211 201 116 224 254 212 251
split_gain=5.07866 5.1744 12.1729 7.57639 10.8929 6.19525 12.4766 5.791 5.74943 8.46113 5.03882 4.96506 2.06163
threshold=5.1515557765960702 -0.19808788597583768 -0.70713564753532399 -1.4062677621841428 -0.27084834873676294 -0.083269756287336336 -0.2667382806539535 0.27668660879135137 0.56756192445755016 -0.74590620398521412 -0.16893017292022702 -0.17556288093328473 0.043028797954320915
decision_type=2 2 2 2 2 2 2 2 2 2 2 2 2
left_child=1 3 11 4 -1 7 -7 -5 9 -4 -10 12 -3
right_child=-2 2 8 5 -6 6 -8 -9 10 -11 -12 -13 -14
leaf_value=-0.059071968305344474 -0.024260023911126312 -0.021495378048971222 -0.026020988893757219 -0.010194866671313401 0.00029910326554608496 0.00026548619355902861 -0.011361000606797058 0.011192697626063246 0.0065675087350225347 0.0080984435326288129 -0.0080510828196939666 0.0010101115051280645 -0.048063811685078665
leaf_weight=55.226183220744133 85.608856379985809 60.274881362915039 74.939789906144142 156.60488227009773 70.163704812526703 4282.4477733075619 1176.5838102698326 660.74288350343704 402.31550249457359 2412.0682317018509 569.62978744506836 60.029369175434113 56.662366807460785
leaf_count=129 168 101 147 262 97 6143 1856 870 549 3197 881 86 106
internal_value=0 0.000200147 0.00321285 -0.00151093 -0.02585 -0.00102468 -0.00224037 0.00709481 0.00452162 0.00707034 -0.00200004 -0.0223681 -0.0343692
internal_weight=0 10037.7 3635.92 6401.77 125.39 6276.38 5459.03 817.348 3458.95 2487.01 971.945 176.967 116.937
internal_count=14592 14424 5067 9357 226 9131 7999 1132 4774 3344 1430 293 207
is_linear=0
shrinkage=0.1


Tree=26
num_leaves=9
num_cat=0
split_feature=229 225 228 214 221 228 9 16
split_gain=4.15871 4.19574 4.45805 12.6601 10.5691 12.5827 7.09447 4.63351
threshold=-0.44462732970714564 5.1515557765960702 -0.16190829873085019 -0.015472930856049059 -1.5216637253761289 6.105248451232911 -1.4531547427177427 1.4934366941452029
decision_type=2 2 2 2 2 2 2 2
left_child=-1 2 3 6 5 -4 -2 -6
right_child=1 -3 4 -5 7 -7 -8 -9
leaf_value=-0.020640543611235174 0.018776075435770492 -0.021866312340559552 -0.023742774138442488 -0.042911808515181171 0.013573245011183323 0.013879093592546974 -0.0006823580525161841 0.0013496092589727216
leaf_weight=96.740872725844383 191.89353257417679 85.489189445972443 238.46628855168819 70.07260462641716 859.96832263469696 141.73604273796082 7951.7598719596863 484.99486808478832
leaf_count=174 230 168 450 154 1016 163 11570 667
internal_value=0 0.000192851 0.000382593 -0.000588026 0.00500383 -0.00971768 -0.000223848 0.00916539
internal_weight=0 10024.4 9938.89 8213.73 1725.17 380.202 8143.65 1344.96
internal_count=14592 14418 14250 11954 2296 613 11800 1683
is_linear=0
shrinkage=0.1


Tree=27
num_leaves=21
num_cat=0
split_feature=202 111 224 12 223 117 214 229 202 222 233 225 221 231 100 201 217 89 221 229
split_gain=4.21215 6.49153 4.87165 8.00028 8.16095 7.91022 10.2296 6.98534 6.46452 5.84476 5.20816 6.9421 4.35264 3.64301 2.62628 3.99006 2.5957 1.49207 0.92668 0.691028
threshold=1.0283945798873904 -1.3692815899848936 -0.42244859039783472 -0.37332053482532496 0.37789186835289007 0.32063965499401098 -0.065668411552906022 -0.41235043108463282 -1.4511175155639646 0.83435779809951793 0.75091636180877697 -0.48879405856132502 0.50448086857795726 0.35040415823459631 -0.29585275053977961 -1.0525766015052793 -0.3412302285432815 -0.37555986642837519 0.50448086857795726 -0.37900115549564356
decision_type=2 2 2 2 2 2 2 2 2 2 2 2 2 2 2 2 2 2 2 2
left_child=2 -2 5 10 12 6 7 -1 13 -10 11 -4 -5 -7 15 -3 -12 18 -16 -19
right_child=1 14 3 4 -6 8 -8 -9 9 -11 16 -13 -14 -15 17 -17 -18 19 -20 -21
leaf_value=-0.037546525194299657 -0.02076031252384716 0.015080749818413295 0.002436129752670952 0.013878835536092088 -0.017264557649341171 -0.039603750642816515 -0.046919285458473597 -0.0053670089207287722 0.0094804485938544767 -0.0016663782167239524 0.0021101839366623972 -0.0062153056718348221 -0.010083947040229666 -0.0032980212307193745 -0.0058820710783733833 -0.016071694000129182 0.022076811025193141 0.020916523488989529 0.01036466500760422 0.012155320811876862
leaf_weight=70.197218582034111 80.683624386787415 73.430272877216339 1977.0182943940163 899.66431513428688 106.65638539195061 59.467620432376862 65.28510494530201 1728.2200018465519 702.17153108119965 1425.0852161794901 119.88641604781151 1747.1728574931622 82.775926738977432 51.637221395969391 68.82000270485878 93.423319220542908 142.50096637010574 113.13154464960098 71.666966646909714 440.79337993264198
leaf_count=139 135 87 2738 1052 184 134 184 2698 953 2125 165 2626 118 86 110 159 154 129 93 523
internal_value=0 0.00636255 -0.000659336 0.00141187 0.00900766 -0.00322214 -0.00803463 -0.00662306 0.000784828 0.002013 -0.000663223 -0.00162262 0.0118598 -0.0227303 0.00890343 -0.00236188 0.0129539 0.0116103 0.00240592 0.0139447
internal_weight=0 941.949 9177.74 5075.68 1089.1 4102.06 1863.7 1798.42 2238.36 2127.26 3986.58 3724.19 982.44 111.105 861.265 166.854 262.387 694.412 140.487 553.925
internal_count=14592 1236 13356 7037 1354 6319 3021 2837 3298 3078 5683 5364 1170 220 1101 246 319 855 203 652
is_linear=0
shrinkage=0.1


Tree=28
num_leaves=10
num_cat=0
split_feature=201 221 224 120 225 120 225 200 204
split_gain=4.06159 3.90778 5.81225 20.8185 18.3448 7.02394 5.44349 5.35895 4.80413
threshold=-2.2470926046371456 2.0846309661865239 -0.66469508409500111 -0.33476424217224116 -0.49972610175609583 -1.2748124003410337 4.908210515975953 -0.79687106609344471 1.0000000180025095e-35
decision_type=2 2 2 2 2 2 2 2 2
left_child=-1 2 3 4 -2 7 -7 -4 -5
right_child=1 -3 5 8 -6 6 -8 -9 -10
leaf_value=0.019269101490165141 -0.0026087710925510564 0.016974047186747891 0.0051825351882425286 -6.1754001982957722e-05 -0.035663074188959948 0.00032187455683032272 -0.026758384458028351 0.031239870388446722 0.017660583364274115
leaf_weight=108.16009384393692 329.22245424985886 130.55600601434708 214.91567155718803 864.63662469387054 342.65406847000122 7741.615819439292 74.947303146123886 124.73324054479599 185.83291181921959
leaf_count=129 484 171 282 1283 702 11013 141 142 245
internal_value=0 -0.000213561 -0.000440714 -0.0057192 -0.0194663 0.000673943 6.22218e-05 0.0147519 0.00307341
internal_weight=0 10009.1 9878.56 1722.35 671.877 8156.21 7816.56 339.649 1050.47
internal_count=14592 14463 14292 2714 1186 11578 11154 424 1528
is_linear=0
shrinkage=0.1


Tree=29
num_leaves=18
num_cat=0
split_feature=223 225 224 200 16 252 201 201 69 127 4 225 200 110 236 201 202
split_gain=3.75003 5.66606 13.8667 7.997 10.1627 9.80634 6.99242 6.61635 6.71143 6.43684 6.32903 5.96881 5.06985 3.48469 3.9791 1.9394 1.36219
threshold=-0.23173826187849042 -0.49984794855117792 -0.7508718967437743 -1.4101155400276182 1.4528716802597048 -0.044098667800426476 -1.2419392466545103 -1.4462448954582212 -0.49435693025588984 -0.31393156945705408 -0.17217086255550382 -0.49678707122802729 -1.7627493143081663 0.65518364310264599 -0.077309515327215181 0.18149212002754214 -1.4398887753486631
decision_type=2 2 2 2 2 2 2 2 2 2 2 2 2 2 2 2 2
left_child=13 3 11 7 15 -6 9 8 -2 -4 -8 -3 -9 14 16 -5 -1
right_child=1 2 6 4 5 -7 10 12 -10 -11 -12 -13 -14 -15 -16 -17 -18
leaf_value=0.0022341414774880264 0.021934171122765918 -0.0097955365519259326 0.0093227245123546007 0.012261509719365698 -0.044352543434966106 0.0099204170144317223 0.017854327821817798 -0.037748737688049788 -0.002796802665607816 -0.019467599436090263 -8.6736228917496955e-05 -0.053683174599204887 -0.0070724929578611971 0.0031309025890724398 -0.036051906219183159 0.026778991650478007 -0.016625406144126522
leaf_weight=69.498858541250229 152.44689789414406 56.460141733288765 101.57068166136742 949.03848767280579 62.859908849000931 70.777201592922211 202.33092013001442 71.047770023345947 391.62454923987389 329.83663153648376 6973.6068721115589 68.689648121595383 222.90144583582878 129.20632964372635 76.374172270298004 101.90126800537109 85.307407408952713
leaf_count=116 193 96 136 1148 119 93 242 139 579 586 10061 166 332 185 150 111 140
internal_value=0 0.000365198 -0.000867395 0.00507746 0.0103662 -0.0156084 -0.000324238 -0.00239843 0.00413273 -0.0126892 0.000419125 -0.0338837 -0.014487 -0.0100223 -0.0173736 0.0136692 -0.00815858
internal_weight=0 9755.09 7732.49 2022.6 1184.58 133.637 7607.35 838.021 544.071 431.407 7175.94 125.15 293.949 360.387 231.18 1050.94 154.806
internal_count=14592 14001 11287 2714 1471 212 11025 1243 772 722 10303 262 471 591 406 1259 256
is_linear=0
shrinkage=0.1


Tree=30
num_leaves=10
num_cat=0
split_feature=223 224 222 182 0 229 200 202 202
split_gain=3.19439 4.61654 3.95414 8.60593 7.15301 9.9628 6.78175 6.7193 5.11623
threshold=-0.2317538112401962 -0.94167202711105336 0.097779937088489546 -0.68970686197280873 -0.32216218113899225 -0.4045735746622085 -1.6771187186241148 -1.4511175155639646 0.35838180780410772
decision_type=2 2 2 2 2 2 2 2 2
left_child=-1 -2 3 6 5 -4 -3 -6 -5
right_child=1 2 4 8 7 -7 -8 -9 -10
leaf_value=-0.017626733981587577 0.022640255896618486 -0.017185149503447572 -0.042898255099605723 -0.0024134880511062491 -0.028918085796251655 -0.0052270399084316712 0.012326459220463899 0.001942011249136505 0.0056628172695991465
leaf_weight=101.83049783110619 90.641851797699928 84.645996868610382 72.799657374620438 2859.8319905549288 72.373351559042931 1969.0018684417009 972.36429578065872 2808.6520339250565 1080.8167228102684
leaf_count=184 116 150 155 4139 152 3060 1149 4049 1438
internal_value=0 0.000174617 -3.0648e-05 0.0019508 -0.00204222 -0.00657019 0.00996315 0.00116678 -0.000198369
internal_weight=0 10011.1 9920.49 4997.66 4922.83 2041.8 1057.01 2881.03 3940.65
internal_count=14592 14408 14292 6876 7416 3215 1299 4201 5577
is_linear=0
shrinkage=0.1


Tree=31
num_leaves=14
num_cat=0
split_feature=201 246 22 202 224 202 254 217 228 213 221 217 209
split_gain=3.04256 3.01869 6.82224 6.84692 5.95135 9.99549 5.72513 4.78745 7.93121 6.31172 3.91994 2.98387 2.898
threshold=-2.2470926046371456 -0.37916830182075495 -0.42241339385509485 0.10410119220614435 -0.30850063264369959 -1.2671715617179868 -0.20417798310518262 0.11445297673344614 -0.17341071367263791 -0.039810257032513612 0.95723637938499462 5.9635279178619394 1.0000000180025095e-35
decision_type=2 2 2 2 2 2 2 2 2 2 2 2 2
left_child=-1 2 3 -2 5 -4 -6 9 -9 10 -3 -10 -11
right_child=1 7 4 -5 6 -7 -8 8 11 12 -12 -13 -14
leaf_value=0.016690933968746904 -0.044482786546924606 -0.00034718464607260996 -0.03024360464984396 0.0012751076403308428 0.0032889613741221829 0.0014710136968345989 0.01755516458974888 -0.045239850473965254 -0.010497120704460433 0.023477547454978397 -0.0074895110841813623 0.012570455579049523 0.0038910351668462032
leaf_weight=107.99258962273598 61.54252877831459 4874.7252748310566 104.41477715969086 69.778736621141434 735.95858523249626 2059.6305592954159 455.33960708975792 60.475054517388344 297.94147162139416 146.00528553128242 912.21879342198372 69.07698717713356 156.52550542354584
leaf_count=129 126 6956 205 100 1005 2953 528 144 504 174 1450 99 219
internal_value=0 -0.000184466 0.00219045 -0.0201689 0.00306555 -5.92106e-05 0.00874181 -0.00145508 -0.0116846 -0.000736945 -0.00147306 -0.00615554 0.0133437
internal_weight=0 10003.6 3486.66 131.321 3355.34 2164.05 1191.3 6516.97 427.494 6089.47 5786.94 367.018 302.531
internal_count=14592 14463 4917 226 4691 3158 1533 9546 747 8799 8406 603 393
is_linear=0
shrinkage=0.1


Tree=32
num_leaves=13
num_cat=0
split_feature=225 215 212 212 226 228 211 19 217 254 214 217
split_gain=2.95196 3.69732 35.5316 12.9244 8.02996 5.14297 4.7782 2.85685 2.75119 1.43514 0.510947 0.188928
threshold=5.1515557765960702 0.28578391671180731 -0.14391706883907315 -0.12386979162693022 5.304152488708497 -0.16190829873085019 -0.2667382806539535 0.13195590209215882 -0.24185775220394132 -0.20942367613315579 0.44876627624034887 -0.34469211101531977
decision_type=2 2 2 2 2 2 2 2 2 2 2 2
left_child=1 2 5 8 9 6 -1 -7 -4 -3 -11 -6
right_child=-2 4 3 -5 11 7 -8 -9 -10 10 -12 -13
leaf_value=0.0012355462345744834 -0.018541943191184223 0.0014061494458017373 -0.096000294803046241 -0.018504842113348626 -0.018355223015022851 0.011363367450658213 -0.0039840206418258455 0.00025904851646503898 -0.058520393447436016 0.013020955435780078 0.02026114264774502 -0.010574426190963115
leaf_weight=5735.6508754938841 85.174477368593216 81.961398899555206 37.335236832499504 76.069278806447983 69.047012746334076 626.00161466002464 2526.3858861029148 367.82168340682983 41.194366663694382 244.11425611376762 162.25864923000336 56.942872703075409
leaf_count=8174 168 103 111 138 121 747 3859 498 99 293 178 103
internal_value=0 0.000153578 -0.000337103 -0.0478823 0.00767003 0.000457036 -0.000360506 0.00725357 -0.0763394 0.0134772 0.0159119 -0.0148386
internal_weight=0 10024.8 9410.46 154.599 614.324 9255.86 8262.04 993.823 78.5296 488.334 406.373 125.99
internal_count=14592 14424 13626 348 798 13278 12033 1245 210 574 471 224
is_linear=0
shrinkage=0.1


Tree=33
num_leaves=19
num_cat=0
split_feature=223 225 228 226 200 16 201 191 228 254 230 99 145 210 200 254 201 249
split_gain=2.71673 4.91925 11.0378 6.58105 6.26516 7.87668 7.35572 6.71882 5.41346 3.5822 10.0874 8.29399 3.18338 3.87556 2.89512 2.57483 2.57459 0.879616
threshold=-0.23173826187849042 -0.49915508925914759 -0.18940077722072599 -0.40966416895389551 -1.4101155400276182 1.4528716802597048 -0.060096904635429375 -0.68293437361717213 -0.18951328098773954 -0.19808788597583768 -0.083265781402587877 -0.70713564753532399 -0.37782116234302515 -0.43350477516651148 -0.9734986126422881 -0.20942451804876325 -0.31504239141941065 0.018716654740273956
decision_type=2 2 2 2 2 2 2 2 2 2 2 2 2 2 2 2 2 2
left_child=12 4 3 14 7 16 -7 15 -9 10 -4 -11 13 -1 -3 -2 -6 -14
right_child=1 2 9 -5 5 6 -8 8 -10 11 -12 -13 17 -15 -16 -17 -18 -19
leaf_value=-0.040430939473634138 0.020686546216373627 0.0037355301557709213 0.0081421500609933448 -0.048808975802385871 0.0085731042681670734 0.0066552409289554158 -0.039153098211910396 0.0061276938019951656 -0.017125195276216951 -0.019022388408996692 -0.0049797357638713177 0.00321219834331399 0.0042388701664375699 -0.0067065081723539704 -0.01993053716891012 0.0026016870700407259 0.019032348733454336 -0.0087297490912313456
leaf_weight=56.760694265365601 106.4528403878212 76.933511152863503 733.29177160561085 61.964151486754417 882.9228980243206 79.577557533979416 62.652076035737991 142.95000779628754 334.16218042373657 176.48425510525703 2913.6354714632034 3396.3354788571596 130.85387271642685 85.262023985385895 157.54212161898613 302.25776439905167 320.87776470184326 87.12180432677269
leaf_count=121 123 125 996 155 1112 104 120 207 556 293 4404 4722 191 135 274 440 370 144
internal_value=0 0.000311035 -0.000913087 -0.019825 0.0044335 0.00873163 -0.0135233 -0.00209762 -0.0101583 -0.000136572 -0.0023413 0.00211389 -0.00853498 -0.0201848 -0.0121655 0.00731207 0.0113611 -0.000944504
internal_weight=0 9748.04 7516.19 296.44 2231.85 1346.03 142.23 885.823 477.112 7219.75 3646.93 3572.82 359.998 142.023 234.476 408.711 1203.8 217.976
internal_count=14592 14001 10969 554 3032 1706 224 1326 763 10415 5400 5015 591 256 399 563 1482 335
is_linear=0
shrinkage=0.1


Tree=34
num_leaves=21
num_cat=0
split_feature=202 254 99 182 224 181 200 233 232 211 127 224 212 226 38 254 0 222 245 213
split_gain=2.77041 3.07726 6.67583 5.91894 11.5038 16.4225 10.8981 8.85865 6.71606 4.76886 5.32321 4.33512 4.20452 3.01747 2.61569 1.7542 1.2273 1.10898 0.438355 0.271143
threshold=1.3906952142715456 -0.19808788597583768 -0.70713564753532399 -0.041874683462083333 -0.66628506779670704 -0.68363142013549794 -1.8431480526924131 0.098645836114883437 -0.44402992725372309 0.45311725139617925 -0.31559513509273524 -0.6675715148448943 -0.17556288093328473 0.28670677542686468 1.1816442012786867 -0.17967200279235837 1.0000000180025095e-35 -0.97693678736686695 -0.19837419688701627 -0.35886283218860621
decision_type=2 2 2 2 2 2 2 2 2 2 2 2 2 2 2 2 2 2 2 2
left_child=1 3 12 4 5 -1 -6 8 -5 10 -4 -11 15 -9 16 -3 18 -18 -2 -20
right_child=14 2 9 7 6 -7 -8 13 -10 11 -12 -13 -14 -15 -16 -17 17 -19 19 -21
leaf_value=-0.056586541680664459 0.019123307743211221 -0.040039681852135821 0.0088390167896817504 -0.0086357474794087879 -0.039985027488647365 -0.010102177872308949 -0.0010051443482242937 -0.025315584241183072 0.0056662771609278621 0.0092245076981507697 -0.00017777936763854871 -0.0076357697419811776 0.0043570006734158818 -0.0022505076677301109 -0.0089392270087635534 -0.015458026441658227 0.012064668559370332 -0.0035652527006872986 0.0066823750112340388 0.014085246999648179
leaf_weight=92.540925085544586 97.082956343889236 60.425800204277039 1495.106213003397 390.34316071867943 73.799569576978683 425.26197056472301 2551.6769920885563 151.15382552146912 2066.9460188597441 198.88827864825726 1164.8573422133923 653.85207705199718 60.032030135393143 90.786892473697662 89.744739860296249 55.874752342700958 80.356378853321075 104.3386612534523 85.79843744635582 116.87140229344368
leaf_count=250 106 114 1899 624 156 716 3696 268 2825 284 1667 1056 86 130 140 93 100 143 98 141
internal_value=0 -0.000410177 0.00185105 -0.00183794 -0.00478746 -0.0184098 -0.00210083 0.0015968 0.00339438 0.00280415 0.00489036 -0.00370338 -0.0171357 -0.0166605 0.00674212 -0.0282298 0.00964712 0.00323495 0.013598 0.0109513
internal_weight=0 9531.55 3689.04 5842.51 3143.28 517.803 2625.48 2699.23 2457.29 3512.7 2659.96 852.74 176.333 241.941 574.193 116.301 484.448 184.695 299.753 202.67
internal_count=14592 13864 5199 8665 4818 966 3852 3847 3449 4906 3566 1340 293 398 728 207 588 243 345 239
is_linear=0
shrinkage=0.1


Tree=35
num_leaves=13
num_cat=0
split_feature=225 215 212 211 226 228 212 200 228 254 211 202
split_gain=2.4411 2.89669 28.882 10.661 6.39385 3.82725 3.94875 2.42715 2.30662 1.10933 0.510123 0.175143
threshold=5.1515557765960702 0.28578391671180731 -0.14391706883907315 -0.35163125395774836 5.304152488708497 -0.16190829873085019 -0.17457504570484159 0.5582752823829652 -0.16287131607532498 -0.20942367613315579 -0.34997236728668207 0.83760482072830211
decision_type=2 2 2 2 2 2 2 2 2 2 2 2
left_child=1 2 5 -4 9 6 -1 -7 -5 -3 -11 -6
right_child=-2 4 3 8 11 7 -8 -9 -10 10 -12 -13
leaf_value=0.00073193150917799914 -0.01687263766241694 0.0013651770737027995 -0.016845660503162205 -0.052194733900492819 -0.01715301820238448 0.01521014613856924 -0.004979836238592281 0.0035459203601529961 -0.0868056359496307 0.0075014972161821306 0.016017744014019255 -0.0096897953566346864
leaf_weight=6784.3000698238611 85.062882274389267 81.953519463539124 76.279782921075821 38.31625397503376 60.847996950149536 233.07669627666473 1473.2001612186432 760.40866926312447 38.706796109676361 90.508003175258636 315.58691146969795 65.07026344537735
leaf_count=9739 168 103 139 93 107 252 2294 993 116 110 361 117
internal_value=0 0.000139499 -0.000294975 -0.0433447 0.00679446 0.000418423 -0.000287091 0.00628241 -0.0695879 0.0119779 0.0141197 -0.0132963
internal_weight=0 10018.3 9404.29 153.303 613.967 9250.99 8257.5 993.485 77.0231 488.048 406.095 125.918
internal_count=14592 14424 13626 348 798 13278 12033 1245 209 574 471 224
is_linear=0
shrinkage=0.1


Tree=36
num_leaves=24
num_cat=0
split_feature=209 146 211 205 229 115 200 228 0 224 108 209 200 201 229 229 126 172 228 248 240 204 231
split_gain=2.40848 9.01544 10.8469 14.2986 4.34445 7.28324 7.09175 5.08359 5.29846 4.25204 3.74181 4.26791 4.73069 3.23641 3.33525 3.12064 8.27093 6.27912 2.58142 2.18266 1.85848 1.81209 1.56873
threshold=-0.91132238507270802 0.81678766012191784 -0.40487252175807947 1.0000000180025095e-35 -0.36582200229167933 -0.18559997528791425 0.96620556712150585 0.11480549350380899 -0.42301814258098597 1.8656153678894045 -1.1743443012237547 1.0000000180025095e-35 -1.1201773285865781 -2.0146631002426143 -0.14615874737501142 -0.17689995467662809 0.66544371843338024 0.65422219038009655 -0.18868064880371091 -0.1595112010836601 -0.003756159450858831 1.0000000180025095e-35 0.39884972572326666
decision_type=2 2 2 2 2 2 2 2 2 2 2 2 2 2 2 2 2 2 2 2 2 2 2
left_child=1 4 20 -4 5 6 -1 8 -6 -9 11 18 -13 14 -12 16 -15 -17 -2 -7 -3 -14 -20
right_child=10 2 3 -5 7 19 -8 9 -10 -11 13 12 21 15 -16 17 -18 -19 22 -21 -22 -23 -24
leaf_value=-0.035990567584602319 -0.018949898632840152 -0.0050679224312768553 -0.0075125126095501515 -0.065064739542847874 0.0022482145675923933 0.020956814027863792 0.0052824129805192485 -0.027289917412065656 0.013164904595735728 0.0076533998177642218 0.026498574396977205 -0.011759152402132827 0.0089208517411920353 -0.0024514833617625582 -0.002034254417760679 0.005327706307575928 -0.019523481206182091 -0.0054683688496482523 -0.0089018715955071857 0.00020907044979226005 0.016301838661887526 0.021252852115297042 0.010643956732990031
leaf_weight=107.24975755810738 90.728159755468369 76.582342565059662 115.05749452114105 69.091478809714317 815.15733689069748 76.158401638269424 68.044520020484924 77.260337457060814 978.02990445494652 63.398673057556152 81.416815102100372 84.743283480405807 301.30418384075165 3875.2280967980623 82.459465503692627 1322.3886996805668 306.20610961318016 909.06853380799294 73.517240971326828 151.70560005307198 86.848834663629532 197.10177689790726 93.013199627399445
leaf_count=209 150 104 184 183 1090 92 94 152 1156 72 97 154 384 5900 118 1760 536 1381 109 207 105 230 125
internal_value=0 0.00256286 -0.0124636 -0.0291057 0.00479773 -0.00464529 -0.0199695 0.00676636 0.00820233 -0.0115401 -0.000932666 0.00535056 0.0100838 -0.00173556 0.0121414 -0.00209018 -0.00370166 0.000929517 -0.00537864 0.00714354 0.00628817 0.0137977 0.00201517
internal_weight=0 2684.58 347.58 184.149 2337 403.158 175.294 1933.85 1793.19 140.659 7417.18 840.408 583.149 6576.77 163.876 6412.89 4181.43 2231.46 257.259 227.864 163.431 498.406 166.53
internal_count=14592 3648 576 367 3072 602 303 2470 2246 224 10944 1152 768 9792 215 9577 6436 3141 384 299 209 614 234
is_linear=0
shrinkage=0.1


Tree=37
num_leaves=18
num_cat=0
split_feature=223 225 224 201 51 200 16 246 191 228 4 221 97 230 227 221 200
split_gain=2.11315 3.67465 9.41347 5.56224 5.30827 4.75092 6.30929 6.29917 5.30501 4.24921 4.05163 3.31109 2.87037 2.49573 2.37315 1.21311 1.61691
threshold=-0.23173826187849042 -0.49915508925914759 -0.7508718967437743 -1.4173120260238645 -0.26871863752603525 -1.4101155400276182 1.4528716802597048 -0.1464278772473335 -0.68293437361717213 -0.18951328098773954 -0.17217086255550382 1.846936106681824 -0.57797592878341664 -0.082482229918241487 -0.33656349778175348 -1.512373626232147 -1.7210562229156492
decision_type=2 2 2 2 2 2 2 2 2 2 2 2 2 2 2 2 2
left_child=12 5 11 4 -4 8 13 -8 14 -10 -5 -3 -1 -7 -2 16 -14
right_child=1 2 3 10 -6 6 7 -9 9 -11 -12 -13 15 -15 -16 -17 -18
leaf_value=-0.024080924174157244 -0.001115671541233677 -0.049952801723774989 0.007559362703713296 0.01377845236252772 -0.023913543646781776 0.00015087050371673889 0.0077290099572364648 -0.03445673704230514 0.0054091060559220911 -0.015199084618149129 -0.00027067210033164378 -0.013176586226157493 -0.017434799538079523 0.012055043503540905 0.014128132628643856 0.0064965897361889558 0.0013545907640040318
leaf_weight=81.151109218597412 204.12991136312485 49.019554108381271 75.590803563594818 211.52931994199753 184.11902825534344 214.2791385948658 74.329822152853012 67.574960589408875 142.90657660365105 333.64995838701725 6940.0568174272776 48.906406611204147 86.104205757379532 988.86048826575279 204.37678638100624 94.555817514657974 97.842781484127045
leaf_count=142 306 120 101 261 342 303 99 125 207 556 10046 99 165 1179 257 138 146
internal_value=0 0.000274369 -0.000784174 -0.000377188 -0.0147531 0.0038387 0.00758277 -0.0123598 -0.00185123 -0.00901924 0.000144872 -0.0315859 -0.00753106 0.00993491 0.00651084 -0.00270871 -0.00744058
internal_weight=0 9739.33 7509.22 7411.3 259.71 2230.11 1345.04 141.905 885.063 476.557 7151.59 97.926 359.654 1203.14 408.507 278.503 183.947
internal_count=14592 14001 10969 10750 443 3032 1706 224 1326 763 10307 219 591 1482 563 449 311
is_linear=0
shrinkage=0.1


Tree=38
num_leaves=24
num_cat=0
split_feature=209 185 220 229 141 224 225 201 231 186 215 242 164 148 166 227 230 216 227 201 231 230 251
split_gain=1.99628 7.15796 5.17767 4.59643 5.94832 6.71182 3.42905 4.14341 2.78682 6.47896 4.78277 2.97002 3.70203 3.65283 2.21225 2.0426 1.79456 1.48643 1.46491 0.803031 0.534031 0.44266 0.25954
threshold=0.91132239997386943 -0.23152466863393781 -0.40487737953662867 -0.40095993876457209 0.35850098729133612 -0.62509077787399281 -0.49814495444297785 0.53363642096519481 -2.5188580751419063 0.37771444022655493 -0.30964389443397516 -0.051078300923109048 -0.88396456837654103 0.54027467966079723 0.42476785182952886 -0.36035715043544764 -0.073081359267234788 -0.036809386685490601 -0.4300741553306579 -2.0691429376602168 -3.508655190467834 -0.071198146790266023 0.034364057704806335
decision_type=2 2 2 2 2 2 2 2 2 2 2 2 2 2 2 2 2 2 2 2 2 2 2
left_child=8 2 6 -3 5 -5 16 -8 9 14 21 12 -12 -13 20 -4 -2 -17 -6 -16 -1 22 -10
right_child=1 3 15 4 18 -7 7 -9 10 -11 11 13 -14 -15 19 17 -18 -19 -20 -21 -22 -23 -24
