tree
version=v3
num_class=1
num_tree_per_iteration=1
label_index=0
max_feature_idx=208
objective=huber
feature_names=Column_0 Column_1 Column_2 Column_3 Column_4 Column_5 Column_6 Column_7 Column_8 Column_9 Column_10 Column_11 Column_12 Column_13 Column_14 Column_15 Column_16 Column_17 Column_18 Column_19 Column_20 Column_21 Column_22 Column_23 Column_24 Column_25 Column_26 Column_27 Column_28 Column_29 Column_30 Column_31 Column_32 Column_33 Column_34 Column_35 Column_36 Column_37 Column_38 Column_39 Column_40 Column_41 Column_42 Column_43 Column_44 Column_45 Column_46 Column_47 Column_48 Column_49 Column_50 Column_51 Column_52 Column_53 Column_54 Column_55 Column_56 Column_57 Column_58 Column_59 Column_60 Column_61 Column_62 Column_63 Column_64 Column_65 Column_66 Column_67 Column_68 Column_69 Column_70 Column_71 Column_72 Column_73 Column_74 Column_75 Column_76 Column_77 Column_78 Column_79 Column_80 Column_81 Column_82 Column_83 Column_84 Column_85 Column_86 Column_87 Column_88 Column_89 Column_90 Column_91 Column_92 Column_93 Column_94 Column_95 Column_96 Column_97 Column_98 Column_99 Column_100 Column_101 Column_102 Column_103 Column_104 Column_105 Column_106 Column_107 Column_108 Column_109 Column_110 Column_111 Column_112 Column_113 Column_114 Column_115 Column_116 Column_117 Column_118 Column_119 Column_120 Column_121 Column_122 Column_123 Column_124 Column_125 Column_126 Column_127 Column_128 Column_129 Column_130 Column_131 Column_132 Column_133 Column_134 Column_135 Column_136 Column_137 Column_138 Column_139 Column_140 Column_141 Column_142 Column_143 Column_144 Column_145 Column_146 Column_147 Column_148 Column_149 Column_150 Column_151 Column_152 Column_153 Column_154 Column_155 Column_156 Column_157 Column_158 Column_159 Column_160 Column_161 Column_162 Column_163 Column_164 Column_165 Column_166 Column_167 Column_168 Column_169 Column_170 Column_171 Column_172 Column_173 Column_174 Column_175 Column_176 Column_177 Column_178 Column_179 Column_180 Column_181 Column_182 Column_183 Column_184 Column_185 Column_186 Column_187 Column_188 Column_189 Column_190 Column_191 Column_192 Column_193 Column_194 Column_195 Column_196 Column_197 Column_198 Column_199 Column_200 Column_201 Column_202 Column_203 Column_204 Column_205 Column_206 Column_207 Column_208
feature_infos=[-0.49798458814620972:5.711097240447998] [-0.32472646236419678:5.8191585540771484] [-1.1934499740600586:4.1432161331176758] [-1.8209398984909058:3.976776123046875] [-0.17217130959033966:6.1632852554321289] [-5.8467512130737305:0.366982102394104] [-0.21052423119544983:6.0957074165344238] [-0.30421936511993408:6.0366249084472656] [-4.088038444519043:0.67791956663131714] [-5.3985605239868164:0.94927918910980225] [-5.3085031509399414:1.1814702749252319] [-5.2710161209106445:1.2621390819549561] [-0.41360923647880554:4.4330081939697266] [-1.6340041160583496:2.1070466041564941] [-1.4804518222808838:2.2618250846862793] [-0.21308623254299164:6.08929443359375] [-1.5913738012313843:1.8369125127792358] [-0.50321805477142334:3.9489510059356689] [-0.50468844175338745:5.2492384910583496] [-3.2233238220214844:2.9665782451629639] none [-0.47360694408416748:4.2489871978759766] [-0.44263172149658203:5.448946475982666] [-0.47235724329948425:4.2337689399719238] [-0.33539626002311707:5.6069235801696777] none none none [-1.8257418870925903:0.54772257804870605] none [-0.54129999876022339:2.5558755397796631] [-0.39691537618637085:4.6916961669921875] [-0.47618791460990906:3.5030829906463623] [-0.76876586675643921:5.069185733795166] [-0.29427358508110046:6.0196504592895508] [-1.7029386758804321:0.58722025156021118] none [-4.0477099418640137:0.40741366147994995] [-0.53288727998733521:2.7038681507110596] [-3.8453667163848877:0.41239362955093384] [-0.31348082423210144:4.335669994354248] [-1.2649110555648804:0.79056942462921143] none [-3.6247878074645996:0.49054235219955444] [-0.70912033319473267:2.111309289932251] [-2.8777339458465576:0.93719702959060669] [-0.46100911498069763:3.4947834014892578] [-4.7011842727661133:0.25829082727432251] [-0.16222643852233887:6.1644139289855957] [-0.16222576797008514:6.1644139289855957] [-0.1622258722782135:6.1644139289855957] [-1.7495623826980591:3.6877543926239014] [-0.35196638107299805:4.360407829284668] [-0.22850809991359711:5.3894329071044922] [-0.16222198307514191:6.1644139289855957] [-0.16222190856933594:6.1644139289855957] [-0.16222190856933594:6.1644139289855957] [-0.83910608291625977:3.9030570983886719] [-0.35589531064033508:4.3584866523742676] [-5.3408932685852051:0.25013521313667297] [-0.16222147643566132:6.1644139289855957] [-0.16222146153450012:6.1644139289855957] [-0.16222147643566132:6.1644139289855957] [-1.8103036880493164:3.6377899646759033] [-0.36687842011451721:4.3296833038330078] [-0.17569348216056824:6.1433134078979492] [-0.16222143173217773:6.1644139289855957] none [-0.16222141683101654:6.1644139289855957] [-0.9570080041885376:3.8165662288665771] [-0.38384771347045898:4.2961215972900391] [-5.9146871566772461:0.22816237807273865] [-0.16224811971187592:6.1644139289855957] [-0.16222378611564636:6.1644139289855957] [-0.16222864389419556:6.1644139289855957] [-1.8284940719604492:3.5407266616821289] [-0.38618168234825134:4.2691287994384766] [-0.16421833634376526:6.1639704704284668] [-0.28110021352767944:3.9534168243408203] [-0.19425587356090546:6.037147045135498] [-0.23533974587917328:5.3001923561096191] [-0.93446260690689087:3.7580392360687256] [-0.40093600749969482:4.2502155303955078] [-4.2073192596435547:0.71892935037612915] [-0.59850776195526123:4.4260468482971191] [-0.84322267770767212:3.4400670528411865] [-0.68913215398788452:3.7757322788238525] [-1.5674479007720947:3.0357544422149658] [-0.69213414192199707:5.0263862609863281] [-1.6380274295806885:4.2883405685424805] [-0.3038860559463501:5.7726292610168457] [-0.40959200263023376:5.1103935241699219] [-0.33640041947364807:5.4994993209838867] [-1.5492256879806519:4.1091656684875488] [-0.56496971845626831:5.5912642478942871] [-1.7147738933563232:2.4475991725921631] [-3.4648356437683105:0.96587187051773071] [-1.2010223865509033:3.0677134990692139] [-2.0926582813262939:1.5923916101455688] [-0.77985715866088867:5.3460507392883301] [-0.33853012323379517:5.939455509185791] [-5.5759286880493164:0.30547294020652771] [-0.16621752083301544:6.1640505790710449] [-0.16385112702846527:6.1643867492675781] [-0.16431123018264771:6.1643385887145996] [-1.0004993677139282:4.589813232421875] [-0.22660644352436066:5.9636435508728027] [-0.61789059638977051:2.3694591522216797] [-1.2013803720474243:1.1634595394134521] [-0.88477790355682373:1.7389055490493774] [-0.92536008358001709:2.7018256187438965] [-2.5098366737365723:2.5721714496612549] [-0.96779388189315796:3.6576645374298096] none [-1.6911346912384033:0.75480550527572632] [-0.4183935821056366:4.1706981658935547] [-1.1786890029907227:2.1018764972686768] [-1.6759227514266968:2.5601987838745117] [-0.87003487348556519:3.164663553237915] [-0.44500601291656494:4.6425247192382812] [-1.2813718318939209:1.5516257286071777] none [-0.59475284814834595:3.2355518341064453] [-0.8481680154800415:2.9996027946472168] [-0.76135700941085815:3.0700969696044922] [-0.69583415985107422:3.0540521144866943] [-2.5969908237457275:4.0505785942077637] [-0.44719472527503967:5.3074917793273926] [-0.67360365390777588:2.9562487602233887] [-0.28178673982620239:5.6671695709228516] [-0.40216255187988281:5.3836092948913574] [-0.29402995109558105:5.3812618255615234] [-1.028529167175293:4.2001709938049316] [-0.46790584921836853:5.7352614402770996] [-0.55361455678939819:3.7456438541412354] [-0.23739612102508545:6.0341153144836426] [-0.30781251192092896:5.957242488861084] [-0.24997609853744507:5.953345775604248] [-5.0576086044311523:1.6670112609863281] [-0.38931509852409363:5.848052978515625] [-0.18964020907878876:6.1241164207458496] [-0.41141954064369202:4.6674208641052246] [-0.46203631162643433:4.2287883758544922] [-0.39938867092132568:5.0567736625671387] [-1.1620302200317383:3.1778037548065186] [-0.67794948816299438:4.1430635452270508] [-1.3068603277206421:2.5937175750732422] [-3.0333881378173828:1.7916234731674194] [-2.2466833591461182:2.1240601539611816] [-3.6245248317718506:1.5407088994979858] [-2.6919522285461426:2.5764985084533691] [-1.7785650491714478:2.8553934097290039] none none none none none none [-1.2736631631851196:2.312227725982666] [-1.2736631631851196:2.312227725982666] [-1.2736631631851196:2.312227725982666] [-0.87940531969070435:2.3580951690673828] none none [-1.5683722496032715:2.232083797454834] [-1.594538688659668:2.1474373340606689] [-1.7296202182769775:1.9272209405899048] [-1.4873154163360596:2.3013575077056885] [-1.5348687171936035:2.526777982711792] [-1.3473966121673584:2.949000358581543] [-1.8325022459030151:2.3024506568908691] [-1.9705021381378174:3.1290242671966553] [-1.9731091260910034:1.7291109561920166] [-0.99139857292175293:2.8504974842071533] [-0.99713611602783203:3.2113182544708252] [-0.97577494382858276:3.4140317440032959] [-1.4179590940475464:2.1917312145233154] [-1.0101330280303955:4.0306720733642578] none [-1.495785117149353:3.2399320602416992] [-2.0455899238586426:2.536179780960083] [-0.82523566484451294:3.6629674434661865] [-1.1970256567001343:2.1581239700317383] [-1.8004187345504761:1.2837255001068115] [-1.6294167041778564:1.8039644956588745] [-1.287097692489624:3.8121387958526611] [-1.8720088005065918:3.3350400924682617] [-1.2321150302886963:3.1830134391784668] none none none [-0.98460203409194946:1.9164931774139404] none none [-1.2296067476272583:2.9322855472564697] [-1.8004187345504761:1.2837255001068115] [-1.0266776084899902:2.5123424530029297] [-1.5975618362426758:2.1736018657684326] [-3.030825138092041:1.6222782135009766] [-1.0672866106033325:2.8997712135314941] [-1.6892775297164917:1.6892775297164917] [-0.5:2] [-0.5:2] [-0.5:2] [-0.5:2] [-0.5:2] [-4.472226619720459:1.2679446935653687] [-3.271803617477417:1.4950339794158936] [-1.6212873458862305:3.5120711326599121]
tree_sizes=1096 1240 1157 1244 1244 1338 1155 1247 1244 1161 1337 1157 1243 1248 1159 1249 1155 1347 1161 1164 1339 1257 1163 1346 1165 1250 1172 1158 1350 980 972 1165 974 1163 979 1067 972 1064 1070 980 1068 1160 977 1068 1070 1160 1069 1060 1161 1061 1069 1064 1159 1067 1158 1068 1062 1161 1066 1160 1067 1156 1068 1067 1157 1067 1156 1065 1065 1067 1158 881 1065 1162 1069 1164 882 1067 1070 1068 972 1163 1063 1069 972 1164 1069 1069 884 1164 1071 1066 975 1163 882 1164 1074 1078 1070 1165

Tree=0
num_leaves=11
num_cat=0
split_feature=207 173 208 118 24 10 206 2 200 200
split_gain=41.4805 17.7273 10.651 18.6264 13.164 9.7443 9.27687 6.68548 6.63981 2.44896
threshold=-0.28221155703067774 0.412201538681984 0.01335102040320635 0.26568076014518743 -0.32494318485260004 0.20338257402181628 -1.2080302238464353 -0.33000087738037104 1.0000000180025095e-35 -0.086629617959260927
decision_type=2 2 2 2 2 2 2 2 2 2
left_child=1 6 5 4 -4 -2 -1 -8 -6 -7
right_child=2 -3 3 -5 8 9 7 -9 -10 -11
leaf_value=0.49980597138523802 0.50118754932072318 0.50295023488247581 0.50275044728633855 0.50192634682966719 0.50324891511211645 0.50248543790603428 0.50067987211040932 0.50221483613194728 0.50460725799222084 0.50335173402041611
leaf_weight=561 506 532 950 761 507 879 626 519 1240 519
leaf_count=561 506 532 950 761 507 879 626 519 1240 519
internal_value=0.5025 0.501356 0.502977 0.503308 0.503698 0.502377 0.500859 0.501376 0.504213 0.502807
internal_weight=0 2238 5362 3458 2697 1904 1706 1145 1747 1398
internal_count=7600 2238 5362 3458 2697 1904 1706 1145 1747 1398
is_linear=0
shrinkage=1


Tree=1
num_leaves=12
num_cat=0
split_feature=207 173 208 191 200 95 10 206 99 2 200
split_gain=40.655 17.3745 10.439 18.3787 13.8012 13.2396 9.55039 9.09226 6.59232 6.55244 2.40023
threshold=-0.28221155703067774 0.412201538681984 0.01335102040320635 -0.57170376181602467 0.34651847183704382 -0.1230512000620365 0.20338257402181628 -1.2080302238464353 -0.2399712800979614 -0.33000087738037104 -0.086629617959260927
decision_type=2 2 2 2 2 2 2 2 2 2 2
left_child=1 7 6 5 -5 -4 -2 -1 -6 -9 -8
right_child=2 -3 3 4 8 -7 10 9 -10 -11 -12
leaf_value=-0.0026670881962144676 -0.0012993261217633851 0.00044573267155915107 -0.00090152792547296189 0.0004636851724069877 0.0014686993166751938 0.00086139035683142982 -1.4416361127100846e-05 -0.001801926516289912 0.0030773513502071561 -0.00028231218256242932 0.00084321671553128379
leaf_weight=561 506 532 775 718 509 946 879 626 510 519 519
leaf_count=561 506 532 775 718 509 946 879 626 510 519 519
internal_value=0 -0.0011321 0.000472516 0.000799923 0.00152559 6.75137e-05 -0.000122112 -0.00162413 0.00227381 -0.00111312 0.000303975
internal_weight=0 2238 5362 3458 1737 1721 1904 1706 1019 1145 1398
internal_count=7600 2238 5362 3458 1737 1721 1904 1706 1019 1145 1398
is_linear=0
shrinkage=0.01


Tree=2
num_leaves=11
num_cat=0
split_feature=207 173 208 118 24 10 206 2 200 200
split_gain=39.846 17.0288 10.2313 18.0681 12.7627 9.36034 8.91132 6.42205 6.40891 2.35246
threshold=-0.28221155703067774 0.412201538681984 0.01335102040320635 0.26568076014518743 -0.32494318485260004 0.20338257402181628 -1.2080302238464353 -0.33000087738037104 1.0000000180025095e-35 -0.086629617959260927
decision_type=2 2 2 2 2 2 2 2 2 2
left_child=1 6 5 4 -4 -2 -1 -8 -6 -7
right_child=2 -3 3 -5 8 9 7 -9 -10 -11
leaf_value=-0.0026404173464021265 -0.0012863328131554491 0.00044127523979168611 0.00024303537116961949 -0.00056886843416831267 0.00073594631596663102 -1.4272228433373181e-05 -0.0017839072479274326 -0.00027948901832448267 0.0020704624397734619 0.00083478462187436936
leaf_weight=561 506 532 950 761 507 879 626 519 1240 519
leaf_count=561 506 532 950 761 507 879 626 519 1240 519
internal_value=0 -0.00112078 0.000467791 0.000791924 0.00117589 -0.000120891 -0.00160789 -0.00110199 0.00168317 0.000300936
internal_weight=0 2238 5362 3458 2697 1904 1706 1145 1747 1398
internal_count=7600 2238 5362 3458 2697 1904 1706 1145 1747 1398
is_linear=0
shrinkage=0.01


Tree=3
num_leaves=12
num_cat=0
split_feature=207 191 208 191 200 83 116 5 206 3 181
split_gain=39.053 16.7028 10.0277 17.9427 13.469 12.8454 9.3151 9.1848 8.34653 5.94457 1.95557
threshold=-0.28221155703067774 -0.57170376181602467 0.01335102040320635 -0.57170376181602467 0.43314808607101446 0.17698550224304202 0.084314765408635153 0.25302413105964666 -0.94150608777999867 -0.37931382656097407 -0.088989162817597375
decision_type=2 2 2 2 2 2 2 2 2 2 2
left_child=1 6 7 5 -5 -4 -1 -2 -3 -7 -9
right_child=2 8 3 4 -6 9 -8 10 -10 -11 -12
leaf_value=0.00066740813316059245 -0.0011970317759551108 -0.002908526664997657 -0.0012070429419014251 0.00052902193184175422 0.002298773387900336 0.001318784087868925 -0.0011171509403946056 0.00062985685739646419 -0.0011354646294274653 -0.00010638197351395121 -0.00015371736820323271
leaf_weight=546 559 529 546 783 954 623 630 827 533 552 518
leaf_count=546 559 529 546 783 954 623 630 827 533 552 518
internal_value=0 -0.00110957 0.000463113 0.000784005 0.00150101 6.03336e-05 -0.000288606 -0.000119682 -0.00201866 0.000649259 0.000328079
internal_weight=0 2238 5362 3458 1737 1721 1176 1904 1062 1175 1345
internal_count=7600 2238 5362 3458 1737 1721 1176 1904 1062 1175 1345
is_linear=0
shrinkage=0.01


Tree=4
num_leaves=12
num_cat=0
split_feature=207 173 208 191 200 95 10 206 99 101 200
split_gain=38.2759 16.5486 9.82814 17.5857 13.2132 12.6177 9.00354 8.60478 6.36157 6.31995 2.30681
threshold=-0.28221155703067774 0.412201538681984 0.01335102040320635 -0.57170376181602467 0.34651847183704382 -0.1230512000620365 0.20338257402181628 -1.2080302238464353 -0.2399712800979614 0.29316984117031103 -0.086629617959260927
decision_type=2 2 2 2 2 2 2 2 2 2 2
left_child=1 7 6 5 -5 -4 -2 -1 -6 -9 -8
right_child=2 -3 3 4 8 -7 10 9 -10 -11 -12
leaf_value=-0.0025932828697364336 -0.0012614992237529072 0.00044139871336791066 -0.00088627609015787929 0.00044696700153138693 0.0014272158323291532 0.00083473552315841456 -1.6910434565856518e-05 -0.00040388283622264863 0.0030074632643247207 -0.0018960518712724129 0.00082386684724834519
leaf_weight=561 506 532 775 718 509 946 879 625 510 520 519
leaf_count=561 506 532 775 718 509 946 879 625 510 520 519
internal_value=0 -0.00109847 0.000458482 0.000776165 0.001486 5.97303e-05 -0.000118485 -0.00157867 0.00221811 -0.00108155 0.000295224
internal_weight=0 2238 5362 3458 1737 1721 1904 1706 1019 1145 1398
internal_count=7600 2238 5362 3458 1737 1721 1904 1706 1019 1145 1398
is_linear=0
shrinkage=0.01


Tree=5
num_leaves=13
num_cat=0
split_feature=207 191 208 191 200 83 116 206 5 99 3 207
split_gain=37.5142 16.2306 9.63694 17.5139 13.7625 11.8173 9.13095 8.07069 7.54517 6.18416 5.5902 2.09506
threshold=-0.28221155703067774 -0.57170376181602467 -0.052233345806598656 -0.57170376181602467 0.34651847183704382 0.17698550224304202 0.084314765408635153 -0.94150608777999867 0.25302413105964666 -0.2399712800979614 -0.37931382656097407 0.35282637178897863
decision_type=2 2 2 2 2 2 2 2 2 2 2 2
left_child=1 6 8 5 -5 -4 -1 -3 -2 -6 -7 -10
right_child=2 7 3 4 9 10 -8 -9 11 -11 -12 -13
leaf_value=0.00066830275110168179 -0.0011616885310360753 -0.0028586746541350121 -0.0011598885827530008 0.000430177196349524 0.0014316600345852129 0.0012317778941860246 -0.0010985282815776634 -0.001115157822685187 0.00067839090387805515 0.0029783856692244706 -0.00012719505116244597 -0.00013173919757412993
leaf_weight=546 518 529 555 761 519 652 630 533 632 515 565 645
leaf_count=546 518 529 555 761 519 652 630 533 632 515 565 645
internal_value=0 -0.00108749 0.000453897 0.000754634 0.00145084 4.93882e-05 -0.000278214 -0.00198363 -0.000143723 0.00220203 0.000600866 0.000269202
internal_weight=0 2238 5362 3567 1795 1772 1176 1062 1795 1034 1217 1277
internal_count=7600 2238 5362 3567 1795 1772 1176 1062 1795 1034 1217 1277
is_linear=0
shrinkage=0.01


Tree=6
num_leaves=11
num_cat=0
split_feature=207 173 208 118 24 10 206 101 200 200
split_gain=36.7677 16.0821 9.44731 17.1969 12.0765 8.67941 8.30865 6.21183 6.02507 2.25012
threshold=-0.28221155703067774 0.412201538681984 0.01335102040320635 0.26568076014518743 -0.32494318485260004 0.20338257402181628 -1.2080302238464353 0.29316984117031103 1.0000000180025095e-35 -0.086629617959260927
decision_type=2 2 2 2 2 2 2 2 2 2
left_child=1 6 5 4 -4 -2 -1 -8 -6 -7
right_child=2 -3 3 -5 8 9 7 -9 -10 -11
leaf_value=-0.0025469945467105413 -0.0012385710190959539 0.0004413976414388228 0.00022799005087121928 -0.00056675357272087889 0.00071045343874916026 -1.8401627746819643e-05 -0.00038965719728171826 -0.0018690064992854158 0.002004388781575178 0.00081198154418390099
leaf_weight=561 506 532 950 761 507 879 625 520 1240 519
leaf_count=561 506 532 950 761 507 879 625 520 1240 519
internal_value=0 -0.00107661 0.000449358 0.000760825 0.00113542 -0.00011632 -0.00154999 -0.0010615 0.00162887 0.000289874
internal_weight=0 2238 5362 3458 2697 1904 1706 1145 1747 1398
internal_count=7600 2238 5362 3458 2697 1904 1706 1145 1747 1398
is_linear=0
shrinkage=0.01


Tree=7
num_leaves=12
num_cat=0
split_feature=207 191 208 191 200 83 116 206 5 3 207
split_gain=36.036 15.772 9.26746 17.096 13.4403 11.4634 8.95031 7.80399 7.25205 5.39416 2.04533
threshold=-0.28221155703067774 -0.57170376181602467 -0.052233345806598656 -0.57170376181602467 0.43314808607101446 0.17698550224304202 0.084314765408635153 -0.94150608777999867 0.25302413105964666 -0.37931382656097407 0.35282637178897863
decision_type=2 2 2 2 2 2 2 2 2 2 2
left_child=1 6 8 5 -5 -4 -1 -3 -2 -7 -10
right_child=2 7 3 4 -6 9 -8 -9 10 -11 -12
leaf_value=0.00066902003289821257 -0.0011391833307703375 -0.0028097037544970479 -0.0011480316394302356 0.00049040877482034689 0.0022265462620689371 0.0012059075904674785 -0.0010802467525456219 -0.0010952366304087609 0.00066794135296478557 -0.00012902487190265158 -0.00013251650405058624
leaf_weight=546 518 529 555 826 969 652 630 533 632 565 645
leaf_count=546 518 529 555 826 969 652 630 533 632 565 645
internal_value=0 -0.00106585 0.000444865 0.00073978 0.00142763 4.29995e-05 -0.000268087 -0.00194924 -0.000141187 0.000586157 0.000263638
internal_weight=0 2238 5362 3567 1795 1772 1176 1062 1795 1217 1277
internal_count=7600 2238 5362 3567 1795 1772 1176 1062 1795 1217 1277
is_linear=0
shrinkage=0.01


Tree=8
num_leaves=12
num_cat=0
split_feature=207 173 208 191 200 83 206 5 2 3 207
split_gain=35.3189 15.6288 9.08303 16.7558 13.1728 11.2352 8.02258 7.10774 6.11538 5.28682 2.00463
threshold=-0.28221155703067774 0.412201538681984 -0.052233345806598656 -0.57170376181602467 0.43314808607101446 0.17698550224304202 -1.2080302238464353 0.25302413105964666 -0.33000087738037104 -0.37931382656097407 0.35282637178897863
decision_type=2 2 2 2 2 2 2 2 2 2 2
left_child=1 6 7 5 -5 -4 -1 -2 -8 -7 -9
right_child=2 -3 3 4 -6 9 8 10 -10 -11 -12
leaf_value=-0.0025015370114482346 -0.0011277915006746183 0.00044127619467085734 -0.0011365513050475636 0.0004855046724969945 0.0022042808468346422 0.0011938485050350936 -0.0017072756882435597 0.00066126188726747955 -0.00023921648847470366 -0.00012773462940757967 -0.00013119131131927923
leaf_weight=561 518 532 555 826 969 652 626 632 519 565 645
leaf_count=561 518 532 555 826 969 652 626 632 519 565 645
internal_value=0 -0.00105519 0.000440416 0.000732382 0.00141336 4.25695e-05 -0.00152185 -0.000139775 -0.00104184 0.000580295 0.000261002
internal_weight=0 2238 5362 3567 1795 1772 1706 1795 1145 1217 1277
internal_count=7600 2238 5362 3567 1795 1772 1706 1795 1145 1217 1277
is_linear=0
shrinkage=0.01


Tree=9
num_leaves=11
num_cat=0
split_feature=207 191 208 118 24 116 10 206 200 200
split_gain=34.616 15.3349 8.90912 16.5541 11.6157 8.76213 8.23073 7.54092 5.77333 2.18405
threshold=-0.28221155703067774 -0.57170376181602467 0.01335102040320635 0.26568076014518743 -0.32494318485260004 0.084314765408635153 0.20338257402181628 -0.94150608777999867 1.0000000180025095e-35 -0.086629617959260927
decision_type=2 2 2 2 2 2 2 2 2 2
left_child=1 5 6 4 -4 -1 -2 -3 -6 -8
right_child=2 7 3 -5 8 -7 9 -9 -10 -11
leaf_value=0.00066919495612427656 -0.0012061764941833316 -0.0027615393699447861 0.00021605546420905741 -0.00056405656359895197 0.00069092375443392091 -0.0010615852623457268 -2.1477496192925128e-05 -0.0010762168675325602 0.0019575394191880709 0.0007966229860914911
leaf_weight=546 506 529 950 761 507 630 879 533 1240 519
leaf_count=546 506 529 950 761 507 630 879 533 1240 519
internal_value=0 -0.00104464 0.000436012 0.000738477 0.00110601 -0.000258009 -0.000113318 -0.0019157 0.00158995 0.000282238
internal_weight=0 2238 5362 3458 2697 1176 1904 1062 1747 1398
internal_count=7600 2238 5362 3458 2697 1176 1904 1062 1747 1398
is_linear=0
shrinkage=0.01


Tree=10
num_leaves=13
num_cat=0
split_feature=207 173 208 191 200 83 206 5 101 99 3 207
split_gain=33.9272 15.1883 8.73473 16.3558 12.8617 10.898 7.74626 6.83116 6.02105 5.87537 5.10072 1.95699
threshold=-0.28221155703067774 0.412201538681984 -0.052233345806598656 -0.57170376181602467 0.34651847183704382 0.17698550224304202 -1.2080302238464353 0.25302413105964666 0.29316984117031103 -0.2399712800979614 -0.37931382656097407 0.35282637178897863
decision_type=2 2 2 2 2 2 2 2 2 2 2 2
left_child=1 6 7 5 -5 -4 -1 -2 -8 -6 -7 -9
right_child=2 -3 3 4 9 10 8 11 -10 -11 -12 -13
leaf_value=-0.0024568959786066928 -0.0011059095825049102 0.00044103601883529667 -0.0011248553214376574 0.00040406108908655074 0.0013660589199148024 0.0011686892084521313 -0.00036111158664524557 0.00065107130657740032 -0.0018175672688790095 0.0028736750060710517 -0.00012942540194670282 -0.00013190968592232454
leaf_weight=561 518 532 555 761 519 652 625 632 520 515 565 645
leaf_count=561 518 532 555 761 519 652 625 632 520 515 565 645
internal_value=0 -0.00103419 0.000431652 0.000717966 0.00139076 3.64364e-05 -0.00149423 -0.000137307 -0.00102256 0.00211695 0.000566031 0.000255595
internal_weight=0 2238 5362 3567 1795 1772 1706 1795 1145 1034 1217 1277
internal_count=7600 2238 5362 3567 1795 1772 1706 1795 1145 1034 1217 1277
is_linear=0
shrinkage=0.01


Tree=11
num_leaves=11
num_cat=0
split_feature=207 191 116 208 118 24 10 206 200 196
split_gain=33.252 14.9023 8.58852 8.56385 16.0689 11.2199 7.93502 7.29174 5.5726 2.15118
threshold=-0.28221155703067774 -0.57170376181602467 0.084314765408635153 0.01335102040320635 0.26568076014518743 -0.32494318485260004 0.20338257402181628 -0.94150608777999867 1.0000000180025095e-35 -0.6237257421016692
decision_type=2 2 2 2 2 2 2 2 2 2
left_child=1 2 -1 6 5 -5 -2 -3 -7 -8
right_child=3 7 -4 4 -6 8 9 -9 -10 -11
leaf_value=0.00066957731329539156 -0.0011842915850342711 -0.002714285633327802 -0.0010439700039661681 0.00021132448375543679 -0.00055941852516564763 0.00067835301100882593 0.0007348515191158701 -0.001057041399135022 0.0019227546203928062 -5.9044603543632226e-05
leaf_weight=546 506 529 630 950 761 507 592 533 1240 806
leaf_count=546 506 529 630 950 761 507 592 533 1240 806
internal_value=0 -0.00102385 -0.000248394 0.000427335 0.000723881 0.00108598 -0.000111244 -0.00188254 0.00156161 0.00027714
internal_weight=0 2238 1176 5362 3458 2697 1904 1062 1747 1398
internal_count=7600 2238 1176 5362 3458 2697 1904 1062 1747 1398
is_linear=0
shrinkage=0.01


Tree=12
num_leaves=12
num_cat=0
split_feature=207 173 208 191 200 83 206 5 101 3 207
split_gain=32.5903 14.7603 8.40032 15.9674 12.5512 10.5703 7.47932 6.56075 5.91753 4.921 1.92028
threshold=-0.28221155703067774 0.412201538681984 -0.052233345806598656 -0.57170376181602467 0.43314808607101446 0.17698550224304202 -1.2080302238464353 0.25302413105964666 0.29316984117031103 -0.37931382656097407 0.35282637178897863
decision_type=2 2 2 2 2 2 2 2 2 2 2
left_child=1 6 7 5 -5 -4 -1 -2 -8 -7 -9
right_child=2 -3 3 4 -6 9 8 10 -10 -11 -12
leaf_value=-0.0024130558355673218 -0.001084137117633107 0.00044068342172293455 -0.0011132453106142378 0.00046290437399945845 0.0021406402205711977 0.0011439697000614447 -0.00034791210745717399 0.00064189756467615696 -0.0017917933104506048 -0.00013107017752203465 -0.00013370496774446074
leaf_weight=561 518 532 555 826 969 652 625 632 520 565 645
leaf_count=561 518 532 555 826 969 652 625 632 520 565 645
internal_value=0 -0.00101361 0.000423062 0.000703841 0.0013686 3.04528e-05 -0.00146712 -0.000134899 -0.00100365 0.000552024 0.000250148
internal_weight=0 2238 5362 3567 1795 1772 1706 1795 1145 1217 1277
internal_count=7600 2238 5362 3567 1795 1772 1706 1795 1145 1217 1277
is_linear=0
shrinkage=0.01


Tree=13
num_leaves=12
num_cat=0
split_feature=207 191 116 208 191 200 117 206 5 99 207
split_gain=31.9417 14.4823 8.41822 8.23315 15.6496 12.311 10.4 7.05083 6.4302 5.67001 1.88207
threshold=-0.28221155703067774 -0.57170376181602467 0.084314765408635153 -0.052233345806598656 -0.57170376181602467 0.34651847183704382 -0.086458005011081682 -0.94150608777999867 0.25302413105964666 -0.2399712800979614 0.35282637178897863
decision_type=2 2 2 2 2 2 2 2 2 2 2
left_child=1 2 -1 8 6 -6 -5 -3 -2 -7 -10
right_child=3 7 -4 4 5 9 -8 -9 10 -11 -12
leaf_value=0.00066979801550297747 -0.0010732957927483623 -0.0026678662589840973 -0.0010266761909967052 0.00077156838088848529 0.00038957002088562927 0.0013277349486720061 -0.00076144954446940097 -0.0010382293127337383 0.00063547855233600449 0.0028087684824120128 -0.00013236794395863201
leaf_weight=546 518 529 630 915 761 519 857 533 632 515 645
leaf_count=546 518 529 630 915 761 519 857 533 632 515 645
internal_value=0 -0.00100347 -0.000239027 0.000418831 0.000696803 0.00135492 3.01483e-05 -0.00184998 -0.00013355 0.00206539 0.000247647
internal_weight=0 2238 1176 5362 3567 1795 1772 1062 1795 1034 1277
internal_count=7600 2238 1176 5362 3567 1795 1772 1062 1795 1034 1277
is_linear=0
shrinkage=0.01


Tree=14
num_leaves=11
num_cat=0
split_feature=207 173 208 118 24 10 206 2 200 200
split_gain=31.3061 14.3445 8.07268 15.4406 10.7816 7.52431 7.22147 5.82199 5.31691 2.11761
threshold=-0.28221155703067774 0.412201538681984 0.01335102040320635 0.26568076014518743 -0.32494318485260004 0.20338257402181628 -1.2080302238464353 -0.33000087738037104 1.0000000180025095e-35 -0.086629617959260927
decision_type=2 2 2 2 2 2 2 2 2 2
left_child=1 6 5 4 -4 -2 -1 -8 -6 -7
right_child=2 -3 3 -5 8 9 7 -9 -10 -11
leaf_value=-0.0023700020141707015 -0.001153172830442057 0.00044022225324535843 0.00020010826297373952 -0.00055540353428901624 0.00066100040507149015 -2.9124202247555669e-05 -0.0016343791060578882 -0.00020196877345927275 0.0018765185170791924 0.00077643677020294735
leaf_weight=561 506 532 950 761 507 879 626 519 1240 519
leaf_count=561 506 532 950 761 507 879 626 519 1240 519
internal_value=0 -0.000993439 0.000414643 0.00070256 0.00105751 -0.000108264 -0.00144051 -0.000985103 0.00152376 0.000269936
internal_weight=0 2238 5362 3458 2697 1904 1706 1145 1747 1398
internal_count=7600 2238 5362 3458 2697 1904 1706 1145 1747 1398
is_linear=0
shrinkage=0.01


Tree=15
num_leaves=12
num_cat=0
split_feature=207 191 116 208 191 200 83 206 5 3 207
split_gain=30.6831 14.082 8.2408 7.91745 15.2761 12.0159 10.1515 6.81307 6.17935 4.73083 1.83722
threshold=-0.28221155703067774 -0.57170376181602467 0.084314765408635153 -0.052233345806598656 -0.57170376181602467 0.43314808607101446 0.17698550224304202 -0.94150608777999867 0.25302413105964666 -0.37931382656097407 0.35282637178897863
decision_type=2 2 2 2 2 2 2 2 2 2 2
left_child=1 2 -1 8 6 -6 -5 -3 -2 -8 -10
right_child=3 7 -4 4 5 -7 9 -9 10 -11 -12
leaf_value=0.00066950080345722519 -0.0010524238885356056 -0.0026222086927390506 -0.0010090010029944385 -0.0010963723511972071 0.00044712816734745261 0.0020886921264727139 0.001115963140624344 -0.0010202837569812072 0.00062568036336565049 -0.00013419808745713889 -0.00013296361323157253
leaf_weight=546 518 529 630 555 826 969 652 533 632 565 645
leaf_count=546 518 529 630 555 826 969 652 533 632 565 645
internal_value=0 -0.000983504 -0.000229697 0.000410497 0.000683087 0.0013333 2.44353e-05 -0.00181823 -0.000131191 0.000535568 0.000242497
internal_weight=0 2238 1176 5362 3567 1795 1772 1062 1795 1217 1277
internal_count=7600 2238 1176 5362 3567 1795 1772 1062 1795 1217 1277
is_linear=0
shrinkage=0.01


Tree=16
num_leaves=11
num_cat=0
split_feature=207 173 208 118 24 10 206 101 200 196
split_gain=30.0725 13.9404 7.76093 14.9983 10.4685 7.25486 6.9724 5.73487 5.15207 2.11009
threshold=-0.28221155703067774 0.412201538681984 0.01335102040320635 0.26568076014518743 -0.32494318485260004 0.20338257402181628 -1.2080302238464353 0.29316984117031103 1.0000000180025095e-35 -0.6237257421016692
decision_type=2 2 2 2 2 2 2 2 2 2
left_child=1 6 5 4 -4 -2 -1 -8 -6 -7
right_child=2 -3 3 -5 8 9 7 -9 -10 -11
leaf_value=-0.0023277210306796229 -0.001132347743395484 0.00043965388531993577 0.00019366156371665726 -0.00055112075071237887 0.0006486743916379686 0.00071836646002240647 -0.00032137777706095955 -0.0017427985752493933 0.0018452018614644337 -6.791163198102618e-05
leaf_weight=561 506 532 950 761 507 592 625 520 1240 806
leaf_count=561 506 532 950 761 507 592 625 520 1240 806
internal_value=0 -0.000973669 0.000406392 0.000688694 0.00103853 -0.000106319 -0.0014144 -0.000966914 0.00149796 0.000265047
internal_weight=0 2238 5362 3458 2697 1904 1706 1145 1747 1398
internal_count=7600 2238 5362 3458 2697 1904 1706 1145 1747 1398
is_linear=0
shrinkage=0.01


Tree=17
num_leaves=13
num_cat=0
split_feature=207 191 139 208 191 200 83 206 196 99 3 141
split_gain=29.4741 13.6857 8.11506 7.61433 14.9135 11.7246 9.84605 6.58798 6.0086 5.38906 4.56389 3.29105
threshold=-0.28221155703067774 -0.57170376181602467 -0.12728021293878553 -0.052233345806598656 -0.57170376181602467 0.34651847183704382 0.17698550224304202 -0.94150608777999867 -0.70271378755569447 -0.2399712800979614 -0.37931382656097407 -0.37044395506381983
decision_type=2 2 2 2 2 2 2 2 2 2 2 2
left_child=1 2 -1 8 6 -6 -5 -3 -2 -7 -8 -10
right_child=3 7 -4 4 5 9 10 -9 11 -11 -12 -13
leaf_value=-0.00095785248834968158 0.00059813488315624969 -0.0025774154327976103 0.00071543892584925402 -0.0010849560728246296 0.00037002241277272362 0.0012862955182584392 0.0010923106356043985 -0.001002174373012819 -0.0011699262254374384 0.0027301706040947183 -0.00013559438451399319 -7.3549970908073879e-05
leaf_weight=658 696 529 518 555 761 519 652 533 517 515 565 582
leaf_count=658 696 529 518 555 761 519 652 533 517 515 565 582
internal_value=0 -0.000963933 -0.000220807 0.000402328 0.000669649 0.0013121 1.88629e-05 -0.00178683 -0.000128889 0.00200544 0.000522248 -0.000589316
internal_weight=0 2238 1176 5362 3567 1795 1772 1062 1795 1034 1217 1099
internal_count=7600 2238 1176 5362 3567 1795 1772 1062 1795 1034 1217 1099
is_linear=0
shrinkage=0.01


Tree=18
num_leaves=11
num_cat=0
split_feature=207 173 208 191 200 117 207 196 103 141
split_gain=28.8875 13.4368 7.46281 14.6167 11.5049 9.65109 6.76297 5.88903 5.67402 3.22556
threshold=-0.28221155703067774 0.412201538681984 -0.052233345806598656 -0.57170376181602467 0.43314808607101446 -0.086458005011081682 -1.2297241091728208 -0.70271378755569447 -0.16335212439298627 -0.37044395506381983
decision_type=2 2 2 2 2 2 2 2 2 2
left_child=1 6 7 5 -5 -4 -1 -2 -8 -9
right_child=2 -3 3 4 -6 -7 8 9 -10 -11
leaf_value=-0.0022563012562544613 0.00059215354167818808 0.00043326362172469693 0.0007329012272927829 0.00043185311375799218 0.0020381315723005697 -0.00074389006970449173 -0.0016088728933695076 -0.0011582269943976771 -0.00018298402593184011 -7.281447116951051e-05
leaf_weight=587 696 532 915 826 969 857 587 517 532 582
leaf_count=587 696 532 915 826 969 857 587 517 532 582
internal_value=0 -0.000954293 0.000398304 0.000662952 0.00129898 1.86743e-05 -0.00138699 -0.0001276 -0.00093097 -0.000583423
internal_weight=0 2238 5362 3567 1795 1772 1706 1795 1119 1099
internal_count=7600 2238 5362 3567 1795 1772 1706 1795 1119 1099
is_linear=0
shrinkage=0.01


Tree=19
num_leaves=11
num_cat=0
split_feature=207 191 116 208 118 24 10 206 200 200
split_gain=28.3127 13.3222 8.0589 7.31571 14.4123 10.0594 6.99174 6.36786 4.91479 2.0725
threshold=-0.28221155703067774 -0.57170376181602467 0.084314765408635153 0.01335102040320635 0.26568076014518743 -0.32494318485260004 0.20338257402181628 -0.94150608777999867 1.0000000180025095e-35 -0.086629617959260927
decision_type=2 2 2 2 2 2 2 2 2 2
left_child=1 2 -1 6 5 -5 -2 -3 -7 -8
right_child=3 7 -4 4 -6 8 9 -9 -10 -11
leaf_value=0.00067765817862138801 -0.0011107164285997649 -0.0025339125068717422 -0.00098221470771028504 0.00018314662075258399 -0.00054694461711968755 0.00063220428624116904 -3.4754025538851151e-05 -0.00098521157700785116 0.0018008535706246604 0.00076218156891413803
leaf_weight=546 506 529 630 950 761 507 879 533 1240 519
leaf_count=546 506 529 630 950 761 507 879 533 1240 519
internal_value=0 -0.00094475 -0.000211559 0.000394321 0.000668407 0.00101134 -0.000103466 -0.00175665 0.0014617 0.000261104
internal_weight=0 2238 1176 5362 3458 2697 1904 1062 1747 1398
internal_count=7600 2238 1176 5362 3458 2697 1904 1062 1747 1398
is_linear=0
shrinkage=0.01


Tree=20
num_leaves=13
num_cat=0
split_feature=207 173 208 191 200 83 207 196 103 99 3 141
split_gain=27.7493 13.058 7.17666 14.2679 11.2393 9.45592 6.53159 5.76693 5.58857 5.25211 4.38728 3.11054
threshold=-0.28221155703067774 0.412201538681984 -0.052233345806598656 -0.57170376181602467 0.25988885760307318 0.17698550224304202 -1.2297241091728208 -0.70271378755569447 -0.16335212439298627 -0.2399712800979614 -0.37931382656097407 -0.37044395506381983
decision_type=2 2 2 2 2 2 2 2 2 2 2 2
left_child=1 6 7 5 -5 -4 -1 -2 -8 -6 -7 -9
right_child=2 -3 3 4 9 10 8 11 -10 -11 -12 -13
leaf_value=-0.0022161677180832251 0.000586907207730344 0.0004325559153938202 -0.0010683710938676151 0.00027809778074585657 0.0012195617515382712 0.001065594143612454 -0.0015864848446979914 -0.0011408798927369183 -0.0001713732691373172 0.0025990685399126323 -0.00013831789863081567 -7.4996324456088839e-05
leaf_weight=587 696 532 555 691 556 652 587 517 532 548 565 582
leaf_count=587 696 532 555 691 556 652 587 517 532 548 565 582
internal_value=0 -0.000935303 0.000390378 0.000649903 0.00127829 1.33588e-05 -0.00136186 -0.000125346 -0.000913706 0.00190432 0.00050667 -0.000576417
internal_weight=0 2238 5362 3567 1795 1772 1706 1795 1119 1104 1217 1099
internal_count=7600 2238 5362 3567 1795 1772 1706 1795 1119 1104 1217 1099
is_linear=0
shrinkage=0.01


Tree=21
num_leaves=12
num_cat=0
split_feature=207 191 116 208 191 200 83 206 196 3 141
split_gain=27.1971 12.9689 7.89492 7.03385 13.9839 11.0326 9.26775 6.15505 5.65216 4.29997 3.04864
threshold=-0.28221155703067774 -0.57170376181602467 0.084314765408635153 -0.052233345806598656 -0.57170376181602467 0.51977771520614635 0.17698550224304202 -0.94150608777999867 -0.70271378755569447 -0.37931382656097407 -0.37044395506381983
decision_type=2 2 2 2 2 2 2 2 2 2 2
left_child=1 2 -1 8 6 -6 -5 -3 -2 -8 -10
right_child=3 7 -4 4 5 -7 9 -9 10 -11 -12
leaf_value=0.00067757887269507568 0.00058103813524170648 -0.002491176373700282 -0.00096532054184527154 -0.001057687403877509 0.00047933869715129654 0.0020473088292547294 0.0010549381927000016 -0.00096857342825360307 -0.0011294710923101558 -0.00013693472649799082 -7.4246341991278308e-05
leaf_weight=546 696 529 630 555 895 900 652 533 517 565 582
leaf_count=546 696 529 630 555 895 900 652 533 517 565 582
internal_value=0 -0.00092595 -0.000202546 0.000386474 0.000643404 0.00126551 1.32252e-05 -0.00172701 -0.000124092 0.000501604 -0.000570653
internal_weight=0 2238 1176 5362 3567 1795 1772 1062 1795 1217 1099
internal_count=7600 2238 1176 5362 3567 1795 1772 1062 1795 1217 1099
is_linear=0
shrinkage=0.01


Tree=22
num_leaves=11
num_cat=0
split_feature=207 191 58 208 118 24 10 206 200 200
split_gain=26.6558 12.7109 7.81252 6.89754 13.8651 9.62452 6.74043 6.03257 4.68737 2.03132
threshold=-0.28221155703067774 -0.57170376181602467 -0.30073113739490503 0.01335102040320635 0.26568076014518743 -0.32494318485260004 0.20338257402181628 -0.94150608777999867 1.0000000180025095e-35 -0.086629617959260927
decision_type=2 2 2 2 2 2 2 2 2 2
left_child=1 2 -1 6 5 -5 -2 -3 -7 -8
right_child=3 7 -4 4 -6 8 9 -9 -10 -11
leaf_value=-0.0010911548084800075 -0.0010897243444774698 -0.002466264613772019 0.00054538597896680585 0.00017501218606301241 -0.00054330956422546069 0.00061554751014272649 -3.5687200906191158e-05 -0.00095888768659125299 0.0017568379987825476 0.00075329076236980627
leaf_weight=536 506 529 640 950 761 507 879 533 1240 519
leaf_count=536 506 529 640 950 761 507 879 533 1240 519
internal_value=0 -0.00091669 -0.00020052 0.00038261 0.000648746 0.000985103 -0.000100741 -0.00170974 0.00142562 0.000257217
internal_weight=0 2238 1176 5362 3458 2697 1904 1062 1747 1398
internal_count=7600 2238 1176 5362 3458 2697 1904 1062 1747 1398
is_linear=0
shrinkage=0.01


Tree=23
num_leaves=13
num_cat=0
split_feature=207 173 208 191 200 83 206 101 196 99 3 93
split_gain=26.1254 12.5063 6.76413 13.6501 10.7826 8.98893 6.23223 5.56851 5.53503 5.06735 4.14785 2.96357
threshold=-0.28221155703067774 0.412201538681984 -0.052233345806598656 -0.57170376181602467 0.25988885760307318 0.17698550224304202 -1.2080302238464353 0.29316984117031103 -0.70271378755569447 -0.2399712800979614 -0.37931382656097407 1.0000000180025095e-35
decision_type=2 2 2 2 2 2 2 2 2 2 2 2
left_child=1 6 8 5 -5 -4 -1 -8 -2 -6 -7 -10
right_child=2 -3 3 4 9 10 7 -9 11 -11 -12 -13
leaf_value=-0.0021884524319221309 0.00057588717049180435 0.00043112956523193714 -0.0010465524557155667 0.00026571207571226841 0.0011859435953939811 0.0010325625432306862 -0.00026579668538412082 -0.0016664494151773395 -0.0011249407684210968 0.0025409692459923291 -0.00013803830422642354 -8.3243837220219871e-05
leaf_weight=561 696 532 555 691 556 652 625 520 507 548 565 592
leaf_count=561 696 532 555 691 556 652 625 520 507 548 565 592
internal_value=0 -0.000907523 0.000378784 0.000630739 0.00124537 8.12783e-06 -0.00132497 -0.000901901 -0.000121899 0.00185855 0.000489104 -0.000563808
internal_weight=0 2238 5362 3567 1795 1772 1706 1145 1795 1104 1217 1099
internal_count=7600 2238 5362 3567 1795 1772 1706 1145 1795 1104 1217 1099
is_linear=0
shrinkage=0.01


Tree=24
num_leaves=11
num_cat=0
split_feature=207 191 116 208 118 24 10 206 200 200
split_gain=25.6055 12.3549 7.74444 6.62981 13.4591 9.2949 6.5626 5.83274 4.51798 1.99207
threshold=-0.28221155703067774 -0.57170376181602467 0.084314765408635153 0.01335102040320635 0.26568076014518743 -0.32494318485260004 0.20338257402181628 -0.94150608777999867 1.0000000180025095e-35 -0.086629617959260927
decision_type=2 2 2 2 2 2 2 2 2 2
left_child=1 2 -1 6 5 -5 -2 -3 -7 -8
right_child=3 7 -4 4 -6 8 9 -9 -10 -11
leaf_value=0.00067931799708879231 -0.0010747315082595529 -0.0024242028637337172 -0.00094784848475255922 0.00017121456937165932 -0.00053855968325499217 0.0006049190550934246 -3.5737520920147696e-05 -0.0009420016960819264 0.0017253986724611043 0.00074558061989910744
leaf_weight=546 506 529 630 950 761 507 879 533 1240 519
leaf_count=546 506 529 630 950 761 507 879 533 1240 519
internal_value=0 -0.000898448 -0.000192378 0.000374996 0.000635916 0.000967313 -9.88819e-05 -0.00168031 0.00140022 0.000254323
internal_weight=0 2238 1176 5362 3458 2697 1904 1062 1747 1398
internal_count=7600 2238 1176 5362 3458 2697 1904 1062 1747 1398
is_linear=0
shrinkage=0.01


Tree=25
num_leaves=12
num_cat=0
split_feature=207 173 208 191 200 83 207 196 103 3 141
split_gain=25.0959 12.1542 6.5048 13.3244 10.5485 8.7185 6.03606 5.42037 5.37276 4.00103 2.87034
threshold=-0.28221155703067774 0.412201538681984 -0.052233345806598656 -0.57170376181602467 0.51977771520614635 0.17698550224304202 -1.2825519442558286 -0.70271378755569447 -0.16335212439298627 -0.37931382656097407 -0.37044395506381983
decision_type=2 2 2 2 2 2 2 2 2 2 2
left_child=1 6 7 5 -5 -4 -1 -2 -8 -7 -9
right_child=2 -3 3 4 -6 9 8 10 -10 -11 -12
leaf_value=-0.0021822041380070915 0.0005707758990345234 0.0004302107844776579 -0.0010355091796986557 0.00045685268829019957 0.0019900375628863305 0.0010106252490904976 -0.0015538289637797398 -0.0010992840516274684 -0.00019889511333164749 -0.00013907176319229525 -7.5381046824242849e-05
leaf_weight=534 696 532 555 895 900 652 606 517 566 565 582
leaf_count=534 696 532 555 895 900 652 606 517 566 565 582
internal_value=0 -0.000889464 0.000371246 0.000618324 0.00122558 3.1854e-06 -0.00130099 -0.000119745 -0.000899484 0.000476871 -0.000557053
internal_weight=0 2238 5362 3567 1795 1772 1706 1795 1172 1217 1099
internal_count=7600 2238 5362 3567 1795 1772 1706 1795 1172 1217 1099
is_linear=0
shrinkage=0.01


Tree=26
num_leaves=11
num_cat=0
split_feature=207 191 116 208 191 200 117 206 196 93
split_gain=24.5965 12.0313 7.58803 6.37536 13.0593 10.3462 8.61478 5.64345 5.31251 2.84801
threshold=-0.28221155703067774 -0.57170376181602467 0.084314765408635153 -0.052233345806598656 -0.57170376181602467 0.43314808607101446 -0.086458005011081682 -0.94150608777999867 -0.70271378755569447 1.0000000180025095e-35
decision_type=2 2 2 2 2 2 2 2 2 2
left_child=1 2 -1 8 6 -6 -5 -3 -2 -10
right_child=3 7 -4 4 5 -7 -8 -9 9 -11
leaf_value=0.00067904216307727112 0.00056506811614060002 -0.0023838465842299537 -0.00093160968150533298 0.00067794564438782142 0.00039102623114287946 0.0019142725451256394 -0.00071730707105370885 -0.00092589447349283719 -0.0011015668436765481 -8.0380420937168259e-05
leaf_weight=546 696 529 630 915 826 969 857 533 507 592
leaf_count=546 696 529 630 915 826 969 857 533 507 592
internal_value=0 -0.000880569 -0.000183807 0.000367533 0.000612141 0.00121332 3.15356e-06 -0.00165212 -0.000118547 -0.000551483
internal_weight=0 2238 1176 5362 3567 1795 1772 1062 1795 1099
internal_count=7600 2238 1176 5362 3567 1795 1772 1062 1795 1099
is_linear=0
shrinkage=0.01


Tree=27
num_leaves=11
num_cat=0
split_feature=207 173 208 118 24 10 207 103 200 200
split_gain=24.1071 11.812 6.25039 12.9428 8.97891 6.3365 5.8354 5.29595 4.32972 1.95392
threshold=-0.28221155703067774 0.412201538681984 0.01335102040320635 0.26568076014518743 -0.32494318485260004 0.20338257402181628 -1.2825519442558286 -0.16335212439298627 1.0000000180025095e-35 -0.086629617959260927
decision_type=2 2 2 2 2 2 2 2 2 2
left_child=1 6 5 4 -4 -2 -1 -8 -6 -7
right_child=2 -3 3 -5 8 9 7 -9 -10 -11
leaf_value=-0.0021438969030559032 -0.0010551514081737917 0.00042919886470474725 0.00015973076052522579 -0.00053452419980417481 0.00058911055731963684 -3.6462543125527108e-05 -0.0015323293824600331 -0.00018711617797516063 0.0016859962159177222 0.00073733732761857367
leaf_weight=534 506 532 950 761 507 879 606 566 1240 519
leaf_count=534 506 532 950 761 507 879 606 566 1240 519
internal_value=0 -0.000871763 0.000363858 0.000617202 0.00094218 -9.626e-05 -0.00127746 -0.000882679 0.00136767 0.000250807
internal_weight=0 2238 5362 3458 2697 1904 1706 1172 1747 1398
internal_count=7600 2238 5362 3458 2697 1904 1706 1172 1747 1398
is_linear=0
shrinkage=0.01


Tree=28
num_leaves=13
num_cat=0
split_feature=207 191 58 208 191 200 83 194 196 99 3 93
split_gain=23.6273 11.7167 7.45917 6.13093 12.7475 10.1134 8.37213 5.50945 5.20251 4.8133 3.84544 2.75708
threshold=-0.28221155703067774 -0.57170376181602467 -0.30073113739490503 -0.052233345806598656 -0.57170376181602467 0.25988885760307318 0.17698550224304202 -0.11702087149024008 -0.70271378755569447 -0.2399712800979614 -0.37931382656097407 1.0000000180025095e-35
decision_type=2 2 2 2 2 2 2 2 2 2 2 2
left_child=1 2 -1 8 6 -6 -5 -3 -2 -7 -8 -10
right_child=3 7 -4 4 5 9 10 -9 11 -11 -12 -13
leaf_value=-0.0010457140884541128 0.00056004932790487173 -0.0023751975325153945 0.00055338955868410272 -0.0010194350859435561 0.00024528578492541908 0.0011323719591353751 0.00098587164416069303 -0.00093343127265641608 -0.0010861127646982073 0.0024529932119246181 -0.00014124936397100872 -8.1361900326826163e-05
leaf_weight=536 696 509 640 555 691 556 652 553 507 548 565 592
leaf_count=536 696 509 640 555 691 556 652 553 507 548 565 592
internal_value=0 -0.000863046 -0.000175454 0.000360219 0.000600092 0.00119406 -1.58242e-06 -0.00162445 -0.000116452 0.0017879 0.000462599 -0.000544882
internal_weight=0 2238 1176 5362 3567 1795 1772 1062 1795 1104 1217 1099
internal_count=7600 2238 1176 5362 3567 1795 1772 1062 1795 1104 1217 1099
is_linear=0
shrinkage=0.01


Tree=29
num_leaves=9
num_cat=0
split_feature=207 191 116 200 150 129 200 206
split_gain=23.1571 11.4835 7.44133 6.04727 10.2473 6.67991 8.50738 5.45763
threshold=-0.28221155703067774 -0.57170376181602467 0.084314765408635153 -0.8662961721420287 -1.1560148000717161 -0.1114453189074993 0.51977771520614635 -0.94150608777999867
decision_type=2 2 2 2 2 2 2 2
left_child=1 2 -1 -2 -5 6 -6 -3
right_child=3 7 -4 4 5 -7 -8 -9
leaf_value=0.00068076842733157366 -0.00057554145145827945 -0.0023277767089905045 -0.00091423753980040883 -0.00068366947616912608 0.00038235986704270502 -0.00028446671157046844 0.0013777424137058716 -0.00089402913782085105
leaf_weight=546 616 529 630 655 1885 629 1577 533
leaf_count=546 616 529 630 655 1885 629 1577 533
internal_value=0 -0.000854415 -0.000173699 0.000356617 0.000477605 0.000663534 0.000835774 -0.0016082
internal_weight=0 2238 1176 5362 4746 4091 3462 1062
internal_count=7600 2238 1176 5362 4746 4091 3462 1062
is_linear=0
shrinkage=0.01


Tree=30
num_leaves=9
num_cat=0
split_feature=207 173 200 150 129 200 206 101
split_gain=22.6963 11.3193 5.92693 10.0434 6.54698 8.36049 5.6356 5.40109
threshold=-0.28221155703067774 0.412201538681984 -0.8662961721420287 -1.1560148000717161 -0.1114453189074993 0.25988885760307318 -1.2080302238464353 0.29316984117031103
decision_type=2 2 2 2 2 2 2 2
left_child=1 6 -2 -4 5 -5 -1 -8
right_child=2 -3 3 4 -6 -7 7 -9
leaf_value=-0.002064124934861699 -0.0005697860302934242 0.00042767276377347126 -0.00067683279987483264 0.00027422697579740661 -0.00028162205017112852 0.0012639633168921222 -0.00021423624200397171 -0.0015936727693367106
leaf_weight=561 616 532 655 1527 629 1935 625 520
leaf_count=561 616 532 655 1527 629 1935 625 520
internal_value=0 -0.000845871 0.000353051 0.000472829 0.000656899 0.000827416 -0.00124301 -0.000840705
internal_weight=0 2238 5362 4746 4091 3462 1706 1145
internal_count=7600 2238 5362 4746 4091 3462 1706 1145
is_linear=0
shrinkage=0.01


Tree=31
num_leaves=11
num_cat=0
split_feature=207 191 116 208 173 10 194 24 187 200
split_gain=22.2447 11.1629 7.29232 5.84142 12.4249 6.20903 5.41678 5.21732 3.92634 1.85813
threshold=-0.28221155703067774 -0.57170376181602467 0.084314765408635153 0.01335102040320635 0.36135488748550421 0.20338257402181628 -0.11702087149024008 -0.32932066917419428 -0.65062138438224781 -0.086629617959260927
decision_type=2 2 2 2 2 2 2 2 2 2
left_child=1 2 -1 5 7 -2 -3 -5 -9 -7
right_child=3 6 -4 4 -6 9 -8 8 -10 -11
leaf_value=0.00067960437611530057 -0.0010444876577088212 -0.0023250135207047401 -0.00089935170813236812 0.00019046264909355578 -0.00053116806570750773 -3.1871079080245445e-05 -0.00089542427873939943 0.00045983539941750571 0.0014582029996419495 0.00072272332535131597
leaf_weight=546 506 509 630 728 764 879 553 545 1421 519
leaf_count=546 506 509 630 728 764 879 553 545 1421 519
internal_value=0 -0.000837412 -0.000166265 0.000349521 0.000594436 -9.52899e-05 -0.0015806 0.00091365 0.00118144 0.000248268
internal_weight=0 2238 1176 5362 3458 1904 1062 2694 1966 1398
internal_count=7600 2238 1176 5362 3458 1904 1062 2694 1966 1398
is_linear=0
shrinkage=0.01


Tree=32
num_leaves=9
num_cat=0
split_feature=207 173 200 150 129 200 207 103
split_gain=21.802 11.0083 5.74382 9.76565 6.40677 8.17122 5.52209 5.32815
threshold=-0.28221155703067774 0.412201538681984 -0.8662961721420287 -1.1560148000717161 -0.1114453189074993 0.51977771520614635 -1.2297241091728208 -0.16335212439298627
decision_type=2 2 2 2 2 2 2 2
left_child=1 6 -2 -4 5 -5 -1 -8
right_child=2 -3 3 4 -6 -7 7 -9
leaf_value=-0.0020062083303150954 -0.00056244423188678858 0.00042688608385974377 -0.00066971576791424823 0.00036976143106385619 -0.0002829711448970519 0.0013452795202589607 -0.0014655368891852039 -8.3790921597479831e-05
leaf_weight=587 616 532 655 1885 629 1577 587 532
leaf_count=587 616 532 655 1885 629 1577 587 532
internal_value=0 -0.000829038 0.000346025 0.000463939 0.000645445 0.000814127 -0.00122069 -0.000808621
internal_weight=0 2238 5362 4746 4091 3462 1706 1119
internal_count=7600 2238 5362 4746 4091 3462 1706 1119
is_linear=0
shrinkage=0.01


Tree=33
num_leaves=11
num_cat=0
split_feature=207 191 58 208 191 200 95 199 196 141
split_gain=21.3681 10.8697 7.19484 5.65088 12.0232 9.58193 7.98374 5.32341 5.1867 2.70992
threshold=-0.28221155703067774 -0.57170376181602467 -0.30073113739490503 -0.052233345806598656 -0.57170376181602467 0.51977771520614635 -0.1230512000620365 -0.59284454584121693 -0.70271378755569447 -0.37044395506381983
decision_type=2 2 2 2 2 2 2 2 2 2
left_child=1 2 -1 8 6 -6 -5 -3 -2 -10
right_child=3 7 -4 4 5 -7 -8 -9 9 -11
leaf_value=-0.0010131757100913744 0.0005604081738896764 -0.0008258241078885842 0.00055733882785352759 -0.00075898554049889694 0.00041703484889364401 0.0018782899132224785 0.00059125846552911287 -0.0022423870638550187 -0.0010697037574512673 -7.4823779535286919e-05
leaf_weight=536 696 516 640 791 895 900 981 546 517 582
leaf_count=536 696 516 640 791 895 900 981 546 517 582
internal_value=0 -0.000820748 -0.000158474 0.000342565 0.000572855 0.0011497 -1.14746e-05 -0.00155411 -0.000115064 -0.000542843
internal_weight=0 2238 1176 5362 3567 1795 1772 1062 1795 1099
internal_count=7600 2238 1176 5362 3567 1795 1772 1062 1795 1099
is_linear=0
shrinkage=0.01


Tree=34
num_leaves=9
num_cat=0
split_feature=207 191 116 200 150 129 200 194
split_gain=20.9429 10.6534 7.14926 5.57944 9.50326 6.21968 7.90012 5.30042
threshold=-0.28221155703067774 -0.57170376181602467 0.084314765408635153 -0.8662961721420287 -1.1560148000717161 -0.1114453189074993 0.25988885760307318 -0.11702087149024008
decision_type=2 2 2 2 2 2 2 2
left_child=1 2 -1 -2 -5 6 -6 -3
right_child=3 7 -4 4 5 -7 -8 -9
leaf_value=0.00068064160575500036 -0.00055623653368716726 -0.0022749432642927689 -0.00088274926165329479 -0.00066296791120806439 0.00026286268371583177 -0.0002803557004200151 0.0012249631339805056 -0.00086079161165359601
leaf_weight=546 616 509 630 655 1527 629 1935 553
leaf_count=546 616 509 630 655 1527 629 1935 553
internal_value=0 -0.00081254 -0.000156889 0.000339139 0.000455353 0.000634405 0.000800605 -0.00153857
internal_weight=0 2238 1176 5362 4746 4091 3462 1062
internal_count=7600 2238 1176 5362 4746 4091 3462 1062
is_linear=0
shrinkage=0.01


Tree=35
num_leaves=10
num_cat=0
split_feature=208 118 118 207 111 200 133 116 31
split_gain=20.5706 17.3592 13.3507 12.017 7.836 6.27712 6.15737 5.23176 3.78664
threshold=0.038631027564406402 0.26568076014518743 0.26568076014518743 -0.53017738461494435 1.0000000180025095e-35 0.77966654300689708 -0.29831105470657343 0.56756192445755016 -0.38341224193572992
decision_type=2 2 2 2 2 2 2 2 2
left_child=1 3 4 7 8 -6 -5 -1 -2
right_child=2 -3 -4 6 5 -7 -8 -9 -10
leaf_value=-0.0022890309987677738 -0.00014706543152098519 0.00063408266089997288 -0.00060003270902615486 0.00020406561094405502 0.00084092970944615192 0.002212370262597259 -0.0010299314580316517 -0.00094240489707879947 0.00082779085413245467
leaf_weight=656 788 960 840 872 866 543 754 515 806
leaf_count=656 788 960 840 872 866 543 754 515 806
internal_value=0 -0.000526177 0.000514402 -0.000924407 0.000826132 0.00136946 -0.000368157 -0.00169679 0.000345867
internal_weight=0 3757 3843 2797 3003 1409 1626 1171 1594
internal_count=7600 3757 3843 2797 3003 1409 1626 1171 1594
is_linear=0
shrinkage=0.01


Tree=36
num_leaves=9
num_cat=0
split_feature=207 173 200 150 129 200 207 103
split_gain=20.1834 10.4266 5.42256 9.27083 6.07018 7.69654 5.30677 5.14979
threshold=-0.28221155703067774 0.412201538681984 -0.8662961721420287 -1.1560148000717161 -0.1114453189074993 0.6064073145389558 -1.2825519442558286 -0.16335212439298627
decision_type=2 2 2 2 2 2 2 2
left_child=1 6 -2 -4 5 -5 -1 -8
right_child=2 -3 3 4 -6 -7 7 -9
leaf_value=-0.0020050957693530016 -0.00054976495404655183 0.00042462427972175213 -0.00065705888983367004 0.00038636631332187178 -0.00027935016156001747 0.0013413228446817976 -0.0014429832440908544 -0.00011646264571348508
leaf_weight=534 616 532 655 2004 629 1458 606 566
leaf_count=534 616 532 655 2004 629 1458 606 566
internal_value=0 -0.000797671 0.000332933 0.000447501 0.00062435 0.00078854 -0.00117883 -0.00080236
internal_weight=0 2238 5362 4746 4091 3462 1706 1172
internal_count=7600 2238 5362 4746 4091 3462 1706 1172
is_linear=0
shrinkage=0.01


Tree=37
num_leaves=10
num_cat=0
split_feature=208 118 118 207 111 200 133 116 31
split_gain=19.8527 16.9883 12.9882 11.575 7.68142 6.09953 6.039 5.0917 3.6956
threshold=0.038631027564406402 0.26568076014518743 0.26568076014518743 -0.53017738461494435 1.0000000180025095e-35 0.77966654300689708 -0.29831105470657343 0.56756192445755016 -0.38341224193572992
decision_type=2 2 2 2 2 2 2 2 2
left_child=1 3 4 7 8 -6 -5 -1 -2
right_child=2 -3 -4 6 5 -7 -8 -9 -10
leaf_value=-0.0022531723002221708 -0.00014965996992503066 0.00063088347446455374 -0.00059385699759184802 0.00020175480156467529 0.00082975765570507051 0.002181658143668374 -0.001020323409147436 -0.00092469381030312135 0.00081340604445552707
leaf_weight=656 788 960 840 872 866 543 754 515 806
leaf_count=656 788 960 840 872 866 543 754 515 806
internal_value=0 -0.000516913 0.000505346 -0.000910866 0.000812815 0.00135075 -0.000364941 -0.00166891 0.000337311
internal_weight=0 3757 3843 2797 3003 1409 1626 1171 1594
internal_count=7600 3757 3843 2797 3003 1409 1626 1171 1594
is_linear=0
shrinkage=0.01


Tree=38
num_leaves=10
num_cat=0
split_feature=208 118 118 207 111 200 133 116 31
split_gain=19.4577 16.6502 12.7298 11.3447 7.52856 5.97815 5.91883 4.99038 3.62206
threshold=0.038631027564406402 0.26568076014518743 0.26568076014518743 -0.53017738461494435 1.0000000180025095e-35 0.77966654300689708 -0.29831105470657343 0.56756192445755016 -0.38341224193572992
decision_type=2 2 2 2 2 2 2 2 2
left_child=1 3 4 7 8 -6 -5 -1 -2
right_child=2 -3 -4 6 5 -7 -8 -9 -10
leaf_value=-0.0022306405753749082 -0.00014816335995438115 0.00062457464631309758 -0.00058791843130997481 0.00019973727235575355 0.0008214600733101586 0.0021598415943608717 -0.0010101201723249089 -0.00091544687346718041 0.00080527196132471654
leaf_weight=656 788 960 840 872 866 543 754 515 806
leaf_count=656 788 960 840 872 866 543 754 515 806
internal_value=0 -0.000511744 0.000500292 -0.000901757 0.000804687 0.00133725 -0.000361291 -0.00165222 0.000333938
internal_weight=0 3757 3843 2797 3003 1409 1626 1171 1594
internal_count=7600 3757 3843 2797 3003 1409 1626 1171 1594
is_linear=0
shrinkage=0.01


Tree=39
num_leaves=9
num_cat=0
split_feature=207 191 116 200 150 129 200 194
split_gain=19.1269 10.1398 7.01891 5.22624 9.00289 5.89997 7.42925 5.14623
threshold=-0.28221155703067774 -0.57170376181602467 0.084314765408635153 -0.8662961721420287 -1.1560148000717161 -0.1114453189074993 0.25988885760307318 -0.11702087149024008
decision_type=2 2 2 2 2 2 2 2
left_child=1 2 -1 -2 -5 6 -6 -3
right_child=3 7 -4 4 5 -7 -8 -9
leaf_value=0.00069299816385921321 -0.00054246954796302843 -0.002210409225409298 -0.00085607471128201318 -0.00065190363844380293 0.00025125354763754561 -0.00028008808102292145 0.0011842413847497123 -0.00081697885243467991
leaf_weight=546 616 509 630 655 1527 629 1935 553
leaf_count=546 616 509 630 655 1527 629 1935 553
internal_value=0 -0.000776514 -0.000136862 0.000324103 0.000436578 0.000610852 0.000772724 -0.00148483
internal_weight=0 2238 1176 5362 4746 4091 3462 1062
internal_count=7600 2238 1176 5362 4746 4091 3462 1062
is_linear=0
shrinkage=0.01


Tree=40
num_leaves=10
num_cat=0
split_feature=208 118 118 207 111 200 133 116 31
split_gain=18.8145 16.2815 12.3867 10.9499 7.40082 5.84162 5.8015 4.87602 3.53217
threshold=0.038631027564406402 0.26568076014518743 0.26568076014518743 -0.53017738461494435 1.0000000180025095e-35 0.77966654300689708 -0.29831105470657343 0.56756192445755016 -0.38341224193572992
decision_type=2 2 2 2 2 2 2 2 2
left_child=1 3 4 7 8 -6 -5 -1 -2
right_child=2 -3 -4 6 5 -7 -8 -9 -10
leaf_value=-0.0021979306229367489 -0.00015059941462158382 0.00062045082434891198 -0.00058149268091888407 0.00019753241388796331 0.00081037919343541673 0.002133390230991111 -0.0010002737168205065 -0.00089789410724385994 0.00079093072857192384
leaf_weight=656 788 960 840 872 866 543 754 515 806
leaf_count=656 788 960 840 872 866 543 754 515 806
internal_value=0 -0.000503216 0.000491955 -0.000888887 0.00079222 0.00132024 -0.000357908 -0.00162618 0.000325482
internal_weight=0 3757 3843 2797 3003 1409 1626 1171 1594
internal_count=7600 3757 3843 2797 3003 1409 1626 1171 1594
is_linear=0
shrinkage=0.01


Tree=41
num_leaves=11
num_cat=0
split_feature=208 118 191 207 138 200 99 200 133 116
split_gain=18.4401 15.9575 12.1458 10.732 8.81956 7.31568 11.1342 7.11584 5.68605 4.77899
threshold=0.038631027564406402 0.26568076014518743 -0.58013513684272755 -0.53017738461494435 -0.25309003144502634 0.25988885760307318 -0.2894385010004043 0.69303691387176525 -0.29831105470657343 0.56756192445755016
decision_type=2 2 2 2 2 2 2 2 2 2
left_child=1 3 4 9 -2 -4 -7 -6 -5 -1
right_child=2 -3 5 8 7 6 -8 -9 -10 -11
leaf_value=-0.0021759513230488929 0.00073372734292565542 0.00061424630613025031 0.00024185586733233689 0.00019555708967520933 0.00018619900852067154 0.00042328792598775848 0.0023198709082658999 -0.0014352569086146846 -0.00099027097301635013 -0.00088891515105926589
leaf_weight=656 750 960 748 872 509 550 708 578 754 515
leaf_count=656 750 960 748 872 509 550 708 578 754 515
internal_value=0 -0.000498184 0.000487036 -0.000879998 -0.00010044 0.00102502 0.00149068 -0.000675992 -0.000354329 -0.00160992
internal_weight=0 3757 3843 2797 1837 2006 1258 1087 1626 1171
internal_count=7600 3757 3843 2797 1837 2006 1258 1087 1626 1171
is_linear=0
shrinkage=0.01


Tree=42
num_leaves=9
num_cat=0
split_feature=207 191 116 200 150 129 200 103
split_gain=18.1238 9.80912 6.88184 5.0355 8.70733 5.71732 7.1736 5.03548
threshold=-0.28221155703067774 -0.57170376181602467 0.084314765408635153 -0.8662961721420287 -1.1560148000717161 -0.1114453189074993 0.6064073145389558 -0.16286862641572949
decision_type=2 2 2 2 2 2 2 2
left_child=1 2 -1 -2 -5 6 -6 -3
right_child=3 7 -4 4 5 -7 -8 -9
leaf_value=0.00069497512508483921 -0.00053512220815022163 -0.0021219474833114108 -0.0008388980821972447 -0.00064457263459428385 0.00036835837653425533 -0.00027975770450787196 0.0012903024939674372 -0.00074422587212824901
leaf_weight=546 616 546 630 655 2004 629 1458 516
leaf_count=546 616 546 630 655 2004 629 1458 516
internal_value=0 -0.000755877 -0.000126743 0.000315489 0.000425893 0.000597283 0.000756629 -0.00145255
internal_weight=0 2238 1176 5362 4746 4091 3462 1062
internal_count=7600 2238 1176 5362 4746 4091 3462 1062
is_linear=0
shrinkage=0.01


Tree=43
num_leaves=10
num_cat=0
split_feature=208 150 207 118 16 200 111 200 31
split_gain=17.8397 15.6511 12.2978 11.9476 7.63619 8.11229 7.12497 5.61886 3.38116
threshold=0.038631027564406402 -1.1560148000717161 -1.2297241091728208 0.26568076014518743 0.83962810039520275 -0.34651847183704371 1.0000000180025095e-35 0.77966654300689708 -0.38341224193572992
decision_type=2 2 2 2 2 2 2 2 2
left_child=1 -1 -3 6 5 -4 8 -8 -2
right_child=3 2 4 -5 -6 -7 7 -9 -10
leaf_value=0.0010702045069626177 -0.00014981634913545413 -0.0019289686847478152 -0.0012564313009389438 -0.0005752064075088475 0.00055085078731784869 8.4799552847101458e-05 0.00079197596037750993 0.0020895158242722404 0.00077136793871186021
leaf_weight=549 788 700 1172 840 603 733 866 543 806
leaf_count=549 788 700 1172 840 603 733 866 543 806
internal_value=0 -0.000490006 -0.000757012 0.00047904 -0.000429911 -0.000740357 0.000773935 0.00129202 0.000315977
internal_weight=0 3757 3208 3843 2508 1905 3003 1409 1594
internal_count=7600 3757 3208 3843 2508 1905 3003 1409 1594
is_linear=0
shrinkage=0.01


Tree=44
num_leaves=10
num_cat=0
split_feature=207 191 116 194 12 200 100 142 200
split_gain=17.5012 9.5228 6.74756 4.97626 4.93679 4.92671 9.74846 12.7975 8.17994
threshold=-0.28221155703067774 -0.57170376181602467 0.084314765408635153 -0.11702087149024008 0.22545089572668078 -0.60640731453895558 -0.27102571725845331 -0.43375271558761591 0.51977771520614635
decision_type=2 2 2 2 2 2 2 2 2
left_child=1 2 -1 -3 5 -2 8 -8 -7
right_child=4 3 -4 -5 -6 6 7 -9 -10
leaf_value=0.00069076552515467396 -0.00023418413558795343 -0.0021427050466998709 -0.00082806902514984972 -0.00077247812458150641 -0.00035934983966759377 0.00043350882880416385 0.00099258844817224821 -0.00067215203229683889 0.0018071342259684095
leaf_weight=546 856 509 630 553 914 833 867 988 904
leaf_count=546 856 509 630 553 914 833 867 988 904
internal_value=0 -0.000742781 -0.000122896 -0.00142921 0.000310023 0.000447569 0.000610036 0.000105923 0.0011484
internal_weight=0 2238 1176 1062 5362 4448 3592 1855 1737
internal_count=7600 2238 1176 1062 5362 4448 3592 1855 1737
is_linear=0
shrinkage=0.01


Tree=45
num_leaves=11
num_cat=0
split_feature=208 118 191 207 138 200 200 99 133 116
split_gain=17.2724 15.3732 11.7193 10.0656 8.47186 6.99515 6.98216 10.7427 5.5397 4.68866
threshold=0.038631027564406402 0.26568076014518743 -0.58013513684272755 -0.53017738461494435 -0.25309003144502634 0.69303691387176525 0.25988885760307318 -0.2894385010004043 -0.29831105470657343 0.56756192445755016
decision_type=2 2 2 2 2 2 2 2 2 2
left_child=1 3 4 9 -2 -6 -4 -8 -5 -1
right_child=2 -3 6 8 5 -7 7 -9 -10 -11
leaf_value=-0.0021244641878463261 0.00071185458727646622 0.00060972107973884706 0.00023471081534632947 0.0001949411624422566 0.00018505048742316563 -0.0014225956006942376 0.00040627579010007054 0.0022692198208914701 -0.00097552718325401972 -0.00084964915037039871
leaf_weight=656 750 960 748 872 509 578 550 708 754 515
leaf_count=656 750 960 748 872 509 578 550 708 754 515
internal_value=0 -0.000482152 0.000471362 -0.00085691 -0.000105704 -0.000669797 0.000999812 0.00145474 -0.000347822 -0.00156381
internal_weight=0 3757 3843 2797 1837 1087 2006 1258 1626 1171
internal_count=7600 3757 3843 2797 1837 1087 2006 1258 1626 1171
is_linear=0
shrinkage=0.01


Tree=46
num_leaves=10
num_cat=0
split_feature=208 150 207 118 16 133 111 200 31
split_gain=16.9287 15.197 11.8071 11.5738 7.45756 7.82924 6.86155 5.42619 3.21068
threshold=0.038631027564406402 -1.1560148000717161 -1.2297241091728208 0.26568076014518743 0.83962810039520275 -0.31478454172611231 1.0000000180025095e-35 0.77966654300689708 -0.38341224193572992
decision_type=2 2 2 2 2 2 2 2 2
left_child=1 -1 -3 6 5 -4 8 -8 -2
right_child=3 2 4 -5 -6 -7 7 -9 -10
leaf_value=0.0010600805229177437 -0.00014641760910215888 -0.0018887706864558693 -3.3372883904504682e-05 -0.00057097686784358557 0.00054929609160548286 -0.0013194730386234088 0.00077391493024019391 0.0020490149494164504 0.00075124337090036594
leaf_weight=549 788 700 878 840 603 1027 866 543 806
leaf_count=549 788 700 878 840 603 1027 866 543 806
internal_value=0 -0.00047733 -0.000740435 0.000466648 -0.000419926 -0.000726719 0.000756893 0.00126531 0.000307481
internal_weight=0 3757 3208 3843 2508 1905 3003 1409 1594
internal_count=7600 3757 3208 3843 2508 1905 3003 1409 1594
is_linear=0
shrinkage=0.01


Tree=47
num_leaves=10
num_cat=0
split_feature=207 175 206 103 12 200 100 128 200
split_gain=16.6261 9.28121 5.91108 6.40195 4.88134 4.72966 9.4623 12.4063 7.95896
threshold=-0.28221155703067774 0.45911377668380743 -1.292402386665344 -0.16316130757331845 0.22545089572668078 -0.60640731453895558 -0.27102571725845331 -0.57326701283454884 0.51977771520614635
decision_type=2 2 2 2 2 2 2 2 2
left_child=1 2 -1 -4 5 -2 8 -8 -7
right_child=4 -3 3 -5 -6 6 7 -9 -10
leaf_value=-0.0019526783737122023 -0.00022903672280905236 0.00044217657179458837 -0.00132670464017654 0.0001596924233816418 -0.00036343072670273979 0.00042336331934350602 0.0009250249310970509 -0.00071062213419854328 0.0017783076972396738
leaf_weight=534 856 523 671 510 914 833 921 934 904
leaf_count=534 856 523 671 510 914 833 921 934 904
internal_value=0 -0.000723971 -0.0010796 -0.000684823 0.000302172 0.000438944 0.000598129 0.00010147 0.00112853
internal_weight=0 2238 1715 1181 5362 4448 3592 1855 1737
internal_count=7600 2238 1715 1181 5362 4448 3592 1855 1737
is_linear=0
shrinkage=0.01


Tree=48
num_leaves=11
num_cat=0
split_feature=208 191 191 118 117 207 200 99 167 200
split_gain=16.3632 17.6152 12.0283 9.95737 9.39726 8.83986 7.53929 10.4583 5.72139 3.64434
threshold=-0.052233345806598656 -0.58013513684272755 -0.58013513684272755 0.26568076014518743 -0.086458005011081682 -1.176843464374542 0.25988885760307318 -0.2894385010004043 0.096694707870483412 0.17325923591852191
decision_type=2 2 2 2 2 2 2 2 2 2
left_child=1 4 3 9 -1 -3 -4 -8 -7 -2
right_child=2 5 6 -5 -6 8 7 -9 -10 -11
leaf_value=-0.00051349979571574465 0.00093807768293379767 -0.0023229259288704129 0.00021509756678086679 -0.0013357746968360837 0.00090283867223964382 2.3740625668999933e-05 0.00041741949003420168 0.0022340877604923059 -0.0013896752573434796 -0.00010610463773754826
leaf_weight=970 542 520 837 510 906 521 566 720 636 872
leaf_count=970 542 520 837 510 906 521 566 720 636 872
internal_value=0 -0.000495218 0.000434769 -0.000137906 0.00017051 -0.00123994 0.000953763 0.00143453 -0.000753211 0.000294141
internal_weight=0 3553 4047 1924 1876 1677 2123 1286 1157 1414
internal_count=7600 3553 4047 1924 1876 1677 2123 1286 1157 1414
is_linear=0
shrinkage=0.01


Tree=49
num_leaves=10
num_cat=0
split_feature=207 173 12 200 100 142 200 186 176
split_gain=16.0777 9.0151 4.7724 4.59766 9.26712 12.1059 7.76876 4.42011 6.00632
threshold=-0.28221155703067774 0.412201538681984 0.22545089572668078 -0.60640731453895558 -0.27102571725845331 -0.43375271558761591 0.51977771520614635 -0.29953330010175699 0.83579093217849743
decision_type=2 2 2 2 2 2 2 2 2
left_child=1 7 3 -2 6 -6 -5 -1 -9
right_child=2 -3 -4 4 5 -7 -8 8 -10
leaf_value=-0.0017691400064729801 -0.00022620921594386696 0.00042461978798536098 -0.00036098710437818823 0.00041754430489750904 0.00096019406879354035 -0.00065893574186606872 0.001756200478289228 1.3651572517119349e-05 -0.0014522613676787571
leaf_weight=587 856 532 914 833 867 988 904 576 543
leaf_count=587 856 532 914 833 867 988 904 576 543
internal_value=0 -0.000711931 0.000297147 0.000432384 0.000589332 9.7822e-05 0.00111423 -0.00106635 -0.00069769
internal_weight=0 2238 5362 4448 3592 1855 1737 1706 1119
internal_count=7600 2238 5362 4448 3592 1855 1737 1706 1119
is_linear=0
shrinkage=0.01


Tree=50
num_leaves=10
num_cat=0
split_feature=208 150 207 118 16 200 111 200 31
split_gain=15.8375 14.7559 11.0901 11.0824 7.27588 7.59467 6.62899 5.19421 3.04886
threshold=0.038631027564406402 -1.1560148000717161 -1.2297241091728208 0.26568076014518743 0.83962810039520275 -0.17325923591852185 1.0000000180025095e-35 0.77966654300689708 -0.38341224193572992
decision_type=2 2 2 2 2 2 2 2 2
left_child=1 -1 -3 6 5 -4 8 -8 -2
right_child=3 2 4 -5 -6 -7 7 -9 -10
leaf_value=0.0010532409682673129 -0.00014866650138501797 -0.0018338737348393935 -0.0011682906441835752 -0.00056400114333137895 0.00054702070857381611 0.00016296842192277221 0.00075432622648888704 0.0020018716769903541 0.00072607962726459381
leaf_weight=549 788 700 1254 840 603 651 866 543 806
leaf_count=549 788 700 1254 840 603 651 866 543 806
internal_value=0 -0.000461691 -0.000720948 0.000451359 -0.000410323 -0.000713356 0.000735376 0.0012351 0.000293646
internal_weight=0 3757 3208 3843 2508 1905 3003 1409 1594
internal_count=7600 3757 3208 3843 2508 1905 3003 1409 1594
is_linear=0
shrinkage=0.01


Tree=51
num_leaves=10
num_cat=0
split_feature=207 175 206 103 12 200 100 128 200
split_gain=15.5263 8.78097 5.54635 6.21709 4.72469 4.42128 9.05124 11.8634 7.58099
threshold=-0.28221155703067774 0.45911377668380743 -1.292402386665344 -0.16316130757331845 0.22545089572668078 -0.60640731453895558 -0.27102571725845331 -0.57326701283454884 0.6064073145389558
decision_type=2 2 2 2 2 2 2 2 2
left_child=1 2 -1 -4 5 -2 8 -8 -7
right_child=4 -3 3 -5 -6 6 7 -9 -10
leaf_value=-0.0018912444902411296 -0.00021926989803628161 0.0004346678056036314 -0.0012956727160891759 0.00016910681762622996 -0.00036282857820132839 0.00046139433109819179 0.00090005678360969286 -0.00069940032633006527 0.001783484111825831
leaf_weight=534 856 523 671 510 914 899 921 934 838
leaf_count=534 856 523 671 510 914 899 921 934 838
internal_value=0 -0.000699618 -0.00104553 -0.000663126 0.000292008 0.000426567 0.000580475 9.47237e-05 0.00109922
internal_weight=0 2238 1715 1181 5362 4448 3592 1855 1737
internal_count=7600 2238 1715 1181 5362 4448 3592 1855 1737
is_linear=0
shrinkage=0.01


Tree=52
num_leaves=11
num_cat=0
split_feature=208 150 191 207 138 200 16 200 200 16
split_gain=15.3043 14.3825 10.9349 10.8422 8.11192 6.95348 6.91333 7.50208 6.11956 1.9085
threshold=0.051179921254515655 -1.1560148000717161 -0.58013513684272755 -1.2297241091728208 -0.25309003144502634 0.69303691387176525 0.83962810039520275 -0.17325923591852185 0.77966654300689708 0.46584279835224157
decision_type=2 2 2 2 2 2 2 2 2 2
left_child=1 -1 4 -3 -2 -6 7 -5 9 -4
right_child=2 3 8 6 5 -7 -8 -9 -10 -11
leaf_value=0.0010463736479837304 0.00069056501144999576 -0.0018048744186886538 0.00014382872977413791 -0.0011468312005411972 0.00019131085293049675 -0.0014177135880388645 0.00052994965724774618 0.00016389250208436883 0.0016285438750771191 0.00095492502251075684
leaf_weight=549 745 701 661 1261 504 575 608 668 811 517
leaf_count=549 745 701 661 1261 504 575 608 668 811 517
internal_value=0 -0.000450283 0.000447213 -0.00070404 -0.000112003 -0.00066614 -0.000399868 -0.000692936 0.000960038 0.000499802
internal_weight=0 3787 3813 3238 1824 1079 2537 1929 1989 1178
internal_count=7600 3787 3813 3238 1824 1079 2537 1929 1989 1178
is_linear=0
shrinkage=0.01


Tree=53
num_leaves=10
num_cat=0
split_feature=207 191 116 194 12 200 100 128 200
split_gain=15.0055 8.64283 6.55773 4.8025 4.64198 4.24981 8.81987 11.5413 7.3811
threshold=-0.28221155703067774 -0.57170376181602467 0.084314765408635153 -0.11702087149024008 0.22545089572668078 -0.60640731453895558 -0.27102571725845331 -0.57326701283454884 0.51977771520614635
decision_type=2 2 2 2 2 2 2 2 2
left_child=1 2 -1 -3 5 -2 8 -8 -7
right_child=4 3 -4 -5 -6 6 7 -9 -10
leaf_value=0.000704901520829757 -0.00021274501725728842 -0.002042655202923553 -0.00079241576560866282 -0.00069656471037230102 -0.00036201094225873351 0.00040433202758212021 0.00088616043259867703 -0.00069143399899031233 0.0017091617606883145
leaf_weight=546 856 509 630 553 914 833 921 934 904
leaf_count=546 856 509 630 553 914 833 921 934 904
internal_value=0 -0.000687783 -9.72327e-05 -0.00134172 0.000287068 0.000420444 0.000571338 9.18353e-05 0.00108341
internal_weight=0 2238 1176 1062 5362 4448 3592 1855 1737
internal_count=7600 2238 1176 1062 5362 4448 3592 1855 1737
is_linear=0
shrinkage=0.01


Tree=54
num_leaves=11
num_cat=0
split_feature=208 191 191 118 117 207 200 99 167 200
split_gain=14.8261 16.6628 11.2286 9.44922 9.08053 8.07179 7.02422 10.1396 5.47639 3.62959
threshold=-0.052233345806598656 -0.58013513684272755 -0.58013513684272755 0.26568076014518743 -0.086458005011081682 -1.176843464374542 0.25988885760307318 -0.2894385010004043 0.096694707870483412 0.17325923591852191
decision_type=2 2 2 2 2 2 2 2 2 2
left_child=1 4 3 9 -1 -3 -4 -8 -7 -2
right_child=2 5 6 -5 -6 8 7 -9 -10 -11
leaf_value=-0.00049629011546558201 0.00092404514647280542 -0.0022305619296474526 0.00020230358284024642 -0.0013063685149981585 0.00089597569803746369 2.9543748629527905e-05 0.00037784852459574241 0.0021666283421412423 -0.001353278587999316 -0.0001180215537363296
leaf_weight=970 542 520 837 510 906 521 566 720 636 872
leaf_count=970 542 520 837 510 906 521 566 720 636 872
internal_value=0 -0.000471385 0.000413845 -0.000139465 0.000176094 -0.0011957 0.000915291 0.00137934 -0.00073059 0.000281413
internal_weight=0 3553 4047 1924 1876 1677 2123 1286 1157 1414
internal_count=7600 3553 4047 1924 1876 1677 2123 1286 1157 1414
is_linear=0
shrinkage=0.01


Tree=55
num_leaves=10
num_cat=0
split_feature=208 150 118 207 16 200 111 200 31
split_gain=14.5383 13.9527 10.4965 10.3281 6.72437 7.24017 6.41469 4.72582 2.93837
threshold=0.051179921254515655 -1.1560148000717161 0.26568076014518743 -1.2297241091728208 0.83962810039520275 -0.17325923591852185 1.0000000180025095e-35 0.77966654300689708 -0.38341224193572992
decision_type=2 2 2 2 2 2 2 2 2
left_child=1 -1 6 -3 5 -5 8 -8 -2
right_child=2 3 -4 4 -6 -7 7 -9 -10
leaf_value=0.0010352529875445561 -0.00015582418153074312 -0.001763225234367389 -0.00055497416958364819 -0.0011268691790264696 0.00052508997328339709 0.00016077189789394833 0.00074763815345281687 0.0019438138727679265 0.00070586995851953135
leaf_weight=549 786 701 835 1261 608 668 858 537 797
leaf_count=549 786 701 835 1261 608 668 858 537 797
internal_value=0 -0.000438869 0.000435877 -0.000688806 -0.000391932 -0.000680968 0.000713701 0.0012081 0.000278017
internal_weight=0 3787 3813 3238 2537 1929 2978 1395 1583
internal_count=7600 3787 3813 3238 2537 1929 2978 1395 1583
is_linear=0
shrinkage=0.01


Tree=56
num_leaves=10
num_cat=0
split_feature=207 175 206 103 12 200 100 142 200
split_gain=14.2962 8.36217 5.08656 6.0385 4.58377 4.05261 8.60808 11.214 7.17782
threshold=-0.28221155703067774 0.45911377668380743 -1.292402386665344 -0.16316130757331845 0.22545089572668078 -0.60640731453895558 -0.27102571725845331 -0.43375271558761591 0.6064073145389558
decision_type=2 2 2 2 2 2 2 2 2
left_child=1 2 -1 -4 5 -2 8 -8 -7
right_child=4 -3 3 -5 -6 6 7 -9 -10
leaf_value=-0.001818794402475242 -0.00020558565521250189 0.00043557512932127461 -0.0012660775303315987 0.00017750955809492109 -0.00036479518928322636 0.00044534279500243979 0.00091637789301043579 -0.00064196967005553877 0.0017317970797585142
leaf_weight=534 856 523 671 510 914 899 867 988 838
leaf_count=534 856 523 671 510 914 899 867 988 838
internal_value=0 -0.000671331 -0.00100889 -0.000642683 0.000280201 0.000412739 0.00056009 8.63793e-05 0.00106598
internal_weight=0 2238 1715 1181 5362 4448 3592 1855 1737
internal_count=7600 2238 1715 1181 5362 4448 3592 1855 1737
is_linear=0
shrinkage=0.01


Tree=57
num_leaves=11
num_cat=0
split_feature=208 150 191 207 138 200 16 133 200 16
split_gain=14.0438 13.678 10.2728 9.9638 7.74349 6.75867 6.60587 7.17736 5.75631 1.83708
threshold=0.051179921254515655 -1.1560148000717161 -0.58013513684272755 -1.2297241091728208 -0.25309003144502634 0.69303691387176525 0.83962810039520275 -0.31478454172611231 0.77966654300689708 0.46584279835224157
decision_type=2 2 2 2 2 2 2 2 2 2
left_child=1 -1 4 -3 -2 -6 7 -5 9 -4
right_child=2 3 8 6 5 -7 -8 -9 -10 -11
leaf_value=0.0010281992797656681 0.00067051036363614466 -0.0017341045317002246 0.00012984059888880708 -1.3250630786264869e-05 0.00019032704565443201 -0.0013959982041026587 0.00052169078314364011 -0.0012370678151386631 0.0015738191188837869 0.00092561701678513773
leaf_weight=549 745 701 661 888 504 575 608 1041 811 517
leaf_count=549 745 701 661 888 504 575 608 1041 811 517
internal_value=0 -0.000431342 0.000428401 -0.000678806 -0.000113621 -0.000655027 -0.000387216 -0.000673693 0.000925458 0.000479091
internal_weight=0 3787 3813 3238 1824 1079 2537 1929 1989 1178
internal_count=7600 3787 3813 3238 1824 1079 2537 1929 1989 1178
is_linear=0
shrinkage=0.01


Tree=58
num_leaves=10
num_cat=0
split_feature=207 52 24 12 187 200 100 128 200
split_gain=13.8245 8.1863 10.6685 4.4937 4.16013 3.92293 8.38941 10.9614 7.00367
threshold=-0.28221155703067774 1.0000000180025095e-35 -0.32932066917419428 0.22545089572668078 -0.11693466082215308 -0.60640731453895558 -0.27102571725845331 -0.57326701283454884 0.51977771520614635
decision_type=2 2 2 2 2 2 2 2 2
left_child=1 2 -1 5 -4 -2 8 -8 -7
right_child=3 -3 4 -5 -6 6 7 -9 -10
leaf_value=0.00018168139566561174 -0.00020158205924595917 0.00036478984364023224 -0.0010018251858221051 -0.00036308830389340314 -0.0022110081978683606 0.00038967539880611207 0.00085820141009823093 -0.00067924978462051866 0.0016607060303640616
leaf_weight=513 856 578 624 914 523 833 921 934 904
leaf_count=513 856 578 624 914 523 833 921 934 904
internal_value=0 -0.000660163 -0.00101704 0.00027554 -0.00155318 0.000406769 0.000551743 8.40885e-05 0.00105117
internal_weight=0 2238 1660 5362 1147 4448 3592 1855 1737
internal_count=7600 2238 1660 5362 1147 4448 3592 1855 1737
is_linear=0
shrinkage=0.01


Tree=59
num_leaves=11
num_cat=0
split_feature=208 191 191 118 117 207 200 99 167 200
split_gain=13.6003 15.9721 10.5364 9.00738 8.75947 7.46888 6.61888 9.81253 5.22997 3.57587
threshold=-0.052233345806598656 -0.58013513684272755 -0.58013513684272755 0.26568076014518743 -0.086458005011081682 -1.176843464374542 0.25988885760307318 -0.2894385010004043 0.096694707870483412 0.17325923591852191
decision_type=2 2 2 2 2 2 2 2 2 2
left_child=1 4 3 9 -1 -3 -4 -8 -7 -2
right_child=2 5 6 -5 -6 8 7 -9 -10 -11
leaf_value=-0.00047794903257079234 0.00090916300724908962 -0.002156086506572767 0.00019000140008746937 -0.0012789112925575847 0.00088948181490705516 2.9614558919366885e-05 0.00034736644762959788 0.0021070582220393892 -0.001321738050014488 -0.00012516382046219029
leaf_weight=970 542 520 837 510 906 521 566 720 636 872
leaf_count=970 542 520 837 510 906 521 566 720 636 872
internal_value=0 -0.000451478 0.000396368 -0.000139616 0.000182441 -0.00116062 0.000882111 0.00133257 -0.000713221 0.000271304
internal_weight=0 3553 4047 1924 1876 1677 2123 1286 1157 1414
internal_count=7600 3553 4047 1924 1876 1677 2123 1286 1157 1414
is_linear=0
shrinkage=0.01


Tree=60
num_leaves=10
num_cat=0
split_feature=207 52 24 12 187 200 100 142 200
split_gain=13.3674 8.01449 10.3874 4.39337 4.05444 3.81429 8.21737 10.6753 6.85042
threshold=-0.28221155703067774 1.0000000180025095e-35 -0.32932066917419428 0.22545089572668078 -0.11693466082215308 -0.60640731453895558 -0.27102571725845331 -0.43375271558761591 0.6064073145389558
decision_type=2 2 2 2 2 2 2 2 2
left_child=1 2 -1 5 -4 -2 8 -8 -7
right_child=3 -3 4 -5 -6 6 7 -9 -10
leaf_value=0.00018055820398393032 -0.00019916594481146264 0.00036498205517748999 -0.00098699584119738308 -0.00036051198453878697 -0.002180720744369619 0.00043161401711676263 0.00089063646859977334 -0.00062981779002695278 0.0016883860683921047
leaf_weight=513 856 578 624 914 523 899 867 988 838
leaf_count=513 856 578 624 914 523 899 867 988 838
internal_value=0 -0.000649158 -0.00100227 0.000270947 -0.0015313 0.000400702 0.000543655 8.08204e-05 0.00103793
internal_weight=0 2238 1660 5362 1147 4448 3592 1855 1737
internal_count=7600 2238 1660 5362 1147 4448 3592 1855 1737
is_linear=0
shrinkage=0.01


Tree=61
num_leaves=11
num_cat=0
split_feature=208 191 191 118 117 207 200 99 167 200
split_gain=13.159 15.6604 10.2492 8.78727 8.55944 7.2532 6.44387 9.60415 5.10786 3.528
threshold=-0.052233345806598656 -0.58013513684272755 -0.58013513684272755 0.26568076014518743 -0.086458005011081682 -1.176843464374542 0.25988885760307318 -0.2894385010004043 0.096694707870483412 0.17325923591852191
decision_type=2 2 2 2 2 2 2 2 2 2
left_child=1 4 3 9 -1 -3 -4 -8 -7 -2
right_child=2 5 6 -5 -6 8 7 -9 -10 -11
leaf_value=-0.00046919665253930011 0.00090069943250337798 -0.0021272698487602888 0.00018606383758491371 -0.0012640326170173164 0.00088253093178639194 2.8723023980212418e-05 0.00033873923535889856 0.0020796458555317563 -0.0013067616826005601 -0.00012668061026488431
leaf_weight=970 542 520 837 510 906 521 566 720 636 872
leaf_count=970 542 520 837 510 906 521 566 720 636 872
internal_value=0 -0.000444093 0.000389885 -0.000138744 0.00018361 -0.00114628 0.000868962 0.00131343 -0.00070539 0.000267124
internal_weight=0 3553 4047 1924 1876 1677 2123 1286 1157 1414
internal_count=7600 3553 4047 1924 1876 1677 2123 1286 1157 1414
is_linear=0
shrinkage=0.01


Tree=62
num_leaves=10
num_cat=0
split_feature=207 52 24 12 187 200 100 128 200
split_gain=12.9252 7.84632 10.1137 4.29528 3.95139 3.70886 8.04897 10.4167 6.69146
threshold=-0.28221155703067774 1.0000000180025095e-35 -0.32932066917419428 0.22545089572668078 -0.11693466082215308 -0.60640731453895558 -0.27102571725845331 -0.57326701283454884 0.6064073145389558
decision_type=2 2 2 2 2 2 2 2 2
left_child=1 2 -1 5 -4 -2 8 -8 -7
right_child=3 -3 4 -5 -6 6 7 -9 -10
leaf_value=0.00017942113684201895 -0.00019679347758054099 0.00036511386032842636 -0.00097238782933578853 -0.00035794251925883611 -0.0021508441751299295 0.00042563313798817316 0.00083225559851637031 -0.00066650897443060956 0.0016677387858791554
leaf_weight=513 856 578 624 914 523 899 921 934 838
leaf_count=513 856 578 624 914 523 899 921 934 838
internal_value=0 -0.00063833 -0.000987722 0.000266427 -0.00150973 0.000394726 0.00053569 7.76216e-05 0.00102488
internal_weight=0 2238 1660 5362 1147 4448 3592 1855 1737
internal_count=7600 2238 1660 5362 1147 4448 3592 1855 1737
is_linear=0
shrinkage=0.01


Tree=63
num_leaves=10
num_cat=0
split_feature=208 150 118 207 16 133 111 200 31
split_gain=12.738 13.1868 9.78721 9.18837 6.37999 6.84601 6.05493 4.38207 2.67765
threshold=0.051179921254515655 -1.1560148000717161 0.26568076014518743 -1.2297241091728208 0.83962810039520275 -0.31478454172611231 1.0000000180025095e-35 0.77966654300689708 -0.38341224193572992
decision_type=2 2 2 2 2 2 2 2 2
left_child=1 -1 6 -3 5 -5 8 -8 -2
right_child=2 3 -4 4 -6 -7 7 -9 -10
leaf_value=0.0010222933545644193 -0.00016116586726504844 -0.0016671822881491319 -0.00054878812143439708 -1.0284937879905473e-05 0.00051946566227630496 -0.0012055192429659125 0.00071320777667234795 0.0018650579373647061 0.00066141182598231389
leaf_weight=549 786 701 835 888 608 1041 858 537 797
leaf_count=549 786 701 835 888 608 1041 858 537 797
internal_value=0 -0.0004108 0.000407999 -0.00065378 -0.000373766 -0.000655303 0.000676272 0.00115661 0.000252981
internal_weight=0 3787 3813 3238 2537 1929 2978 1395 1583
internal_count=7600 3787 3813 3238 2537 1929 2978 1395 1583
is_linear=0
shrinkage=0.01


Tree=64
num_leaves=11
num_cat=0
split_feature=208 191 191 118 117 207 200 99 167 200
split_gain=12.4954 15.1926 9.8714 8.47418 8.30872 6.92367 6.21718 9.31579 4.91631 3.48573
threshold=-0.052233345806598656 -0.58013513684272755 -0.58013513684272755 0.26568076014518743 -0.086458005011081682 -1.176843464374542 0.25988885760307318 -0.2894385010004043 0.096694707870483412 0.17325923591852191
decision_type=2 2 2 2 2 2 2 2 2 2
left_child=1 4 3 9 -1 -3 -4 -8 -7 -2
right_child=2 5 6 -5 -6 8 7 -9 -10 -11
leaf_value=-0.0004576680128631835 0.0008894724758557555 -0.0020828153656195633 0.00017931234761151812 -0.001243927952668552 0.00087411485229738084 2.6604925697238584e-05 0.00032672374693564941 0.0020412965657063374 -0.0012835988262322759 -0.00013173490032110976
leaf_weight=970 542 520 837 510 906 521 566 720 636 872
leaf_count=970 542 520 837 510 906 521 566 720 636 872
internal_value=0 -0.00043275 0.000379926 -0.000138868 0.000185506 -0.00112437 0.000850091 0.00128667 -0.000693611 0.000259704
internal_weight=0 3553 4047 1924 1876 1677 2123 1286 1157 1414
internal_count=7600 3553 4047 1924 1876 1677 2123 1286 1157 1414
is_linear=0
shrinkage=0.01


Tree=65
num_leaves=10
num_cat=0
split_feature=207 52 24 12 187 200 100 128 200
split_gain=12.3196 7.66481 9.84463 4.2329 3.82864 3.56283 7.85793 10.124 6.51923
threshold=-0.28221155703067774 1.0000000180025095e-35 -0.32932066917419428 0.22545089572668078 -0.11693466082215308 -0.60640731453895558 -0.27102571725845331 -0.57326701283454884 0.51977771520614635
decision_type=2 2 2 2 2 2 2 2 2
left_child=1 2 -1 5 -4 -2 8 -8 -7
right_child=3 -3 4 -5 -6 6 7 -9 -10
leaf_value=0.00018298803571544471 -0.00019228285191088062 0.00036857230801080518 -0.00095461134658529406 -0.00035970796232572325 -0.002114619559984134 0.00037077683050731598 0.0008169929994682652 -0.00066056530356279535 0.0015970612463527775
leaf_weight=513 856 578 624 914 523 833 921 934 904
leaf_count=513 856 578 624 914 523 833 921 934 904
internal_value=0 -0.000623197 -0.000968524 0.000260111 -0.00148354 0.000387475 0.000525636 7.30364e-05 0.00100898
internal_weight=0 2238 1660 5362 1147 4448 3592 1855 1737
internal_count=7600 2238 1660 5362 1147 4448 3592 1855 1737
is_linear=0
shrinkage=0.01


Tree=66
num_leaves=11
num_cat=0
split_feature=208 191 191 118 117 207 200 99 167 200
split_gain=12.0905 14.9037 9.57392 8.275 8.11885 6.72118 6.04462 9.14131 4.79521 3.43855
threshold=-0.052233345806598656 -0.58013513684272755 -0.58013513684272755 0.26568076014518743 -0.086458005011081682 -1.176843464374542 0.25988885760307318 -0.2894385010004043 0.096694707870483412 0.17325923591852191
decision_type=2 2 2 2 2 2 2 2 2 2
left_child=1 4 3 9 -1 -3 -4 -8 -7 -2
right_child=2 5 6 -5 -6 8 7 -9 -10 -11
leaf_value=-0.00044911455837457642 0.00088215460796751131 -0.0020550208261433558 0.00017534216460599392 -0.0012291929942701816 0.00086736391978975685 2.5009719105017321e-05 0.0003163108375259139 0.0020147506592830826 -0.001268957034132294 -0.00013211733536098427
leaf_weight=970 542 520 837 510 906 521 566 720 636 872
leaf_count=970 542 520 837 510 906 521 566 720 636 872
internal_value=0 -0.000425682 0.00037372 -0.000137197 0.000186669 -0.0011107 0.000836747 0.00126723 -0.000686281 0.000256663
internal_weight=0 3553 4047 1924 1876 1677 2123 1286 1157 1414
internal_count=7600 3553 4047 1924 1876 1677 2123 1286 1157 1414
is_linear=0
shrinkage=0.01


Tree=67
num_leaves=10
num_cat=0
split_feature=207 52 24 12 187 200 100 142 200
split_gain=11.9118 7.50399 9.58525 4.13849 3.73132 3.4649 7.69725 9.87775 6.37723
threshold=-0.28221155703067774 1.0000000180025095e-35 -0.32932066917419428 0.22545089572668078 -0.11693466082215308 -0.60640731453895558 -0.27102571725845331 -0.43375271558761591 0.6064073145389558
decision_type=2 2 2 2 2 2 2 2 2
left_child=1 2 -1 5 -4 -2 8 -8 -7
right_child=3 -3 4 -5 -6 6 7 -9 -10
leaf_value=0.0001817611578514266 -0.00019002953923220864 0.00036851469025130231 -0.00094050337817931835 -0.00035709831044483545 -0.002085672329032142 0.00041132859756845829 0.00084898495679020859 -0.00061357275900458786 0.00162391939632434
leaf_weight=513 856 578 624 914 523 899 867 988 838
leaf_count=513 856 578 624 914 523 899 867 988 838
internal_value=0 -0.000612795 -0.00095448 0.000255769 -0.00146267 0.000381705 0.000517953 7.00054e-05 0.000996332
internal_weight=0 2238 1660 5362 1147 4448 3592 1855 1737
internal_count=7600 2238 1660 5362 1147 4448 3592 1855 1737
is_linear=0
shrinkage=0.01


Tree=68
num_leaves=10
num_cat=0
split_feature=208 150 118 207 16 133 111 200 207
split_gain=11.7022 12.7016 9.21489 8.54432 6.14579 6.56487 5.77438 4.70995 2.9006
threshold=0.051179921254515655 -1.1560148000717161 0.26568076014518743 -1.2297241091728208 0.83962810039520275 -0.31478454172611231 -0.0056610254978295407 0.86629617214202892 0.73898205161094677
decision_type=2 2 2 2 2 2 2 2 2
left_child=1 -1 6 -3 5 -5 8 -8 -2
right_child=2 3 -4 4 -6 -7 7 -9 -10
leaf_value=0.001012740002670249 -0.00017885623147974357 -0.001609451596716654 -0.0005373326909427202 -6.8756338369640364e-06 0.00051449485241487544 -0.0011773111349641366 0.00068075366718372567 0.0018705483747056223 0.00069730907660513696
leaf_weight=549 828 701 835 888 608 1041 940 515 695
leaf_count=549 828 701 835 888 608 1041 940 515 695
internal_value=0 -0.000393743 0.000391058 -0.000632211 -0.000362189 -0.00063851 0.000651369 0.00110188 0.00022097
internal_weight=0 3787 3813 3238 2537 1929 2978 1455 1523
internal_count=7600 3787 3813 3238 2537 1929 2978 1455 1523
is_linear=0
shrinkage=0.01


Tree=69
num_leaves=10
num_cat=0
split_feature=207 52 24 12 187 200 100 128 200
split_gain=11.4987 7.33497 9.38754 4.08746 3.63201 3.35335 7.53777 9.69074 6.23972
threshold=-0.28221155703067774 1.0000000180025095e-35 -0.32932066917419428 0.22545089572668078 -0.11693466082215308 -0.60640731453895558 -0.27102571725845331 -0.57326701283454884 0.6064073145389558
decision_type=2 2 2 2 2 2 2 2 2
left_child=1 2 -1 5 -4 -2 8 -8 -7
right_child=3 -3 4 -5 -6 6 7 -9 -10
leaf_value=0.000184570759367815 -0.00018600356817859113 0.00036811868258539236 -0.00092764230459206132 -0.00035778224706920826 -0.002057468925868063 0.00040522522172342586 0.00079507041158368916 -0.00065052627050990897 0.0016046705327762473
leaf_weight=513 856 578 624 914 523 899 921 934 838
leaf_count=513 856 578 624 914 523 899 921 934 838
internal_value=0 -0.000602077 -0.000939892 0.000251296 -0.00144281 0.000376452 0.00051049 6.72066e-05 0.000983887
internal_weight=0 2238 1660 5362 1147 4448 3592 1855 1737
internal_count=7600 2238 1660 5362 1147 4448 3592 1855 1737
is_linear=0
shrinkage=0.01


Tree=70
num_leaves=11
num_cat=0
split_feature=208 191 191 118 117 207 200 99 167 200
split_gain=11.3325 14.465 9.16583 7.93605 7.85693 6.3575 5.8037 8.86164 4.59816 3.41256
threshold=-0.052233345806598656 -0.58013513684272755 -0.58013513684272755 0.26568076014518743 -0.086458005011081682 -1.176843464374542 0.25988885760307318 -0.2894385010004043 0.096694707870483412 0.17325923591852191
decision_type=2 2 2 2 2 2 2 2 2 2
left_child=1 4 3 9 -1 -3 -4 -8 -7 -2
right_child=2 5 6 -5 -6 8 7 -9 -10 -11
leaf_value=-0.0004342960479450844 0.00087073851202618797 -0.0020053977132416688 0.00016677641644161485 -0.0012074923214066646 0.00086077282900889104 2.2318692902020837e-05 0.00030042301646233027 0.0019726803413537305 -0.0012447823404624426 -0.00013969377799460519
leaf_weight=970 542 520 837 510 906 521 566 720 636 872
leaf_count=970 542 520 837 510 906 521 566 720 636 872
internal_value=0 -0.000412121 0.000361816 -0.000138094 0.000191148 -0.00108698 0.000814866 0.00123668 -0.000674204 0.000247615
internal_weight=0 3553 4047 1924 1876 1677 2123 1286 1157 1414
internal_count=7600 3553 4047 1924 1876 1677 2123 1286 1157 1414
is_linear=0
shrinkage=0.01


Tree=71
num_leaves=8
num_cat=0
split_feature=207 139 151 200 175 200 63
split_gain=11.1243 8.00674 8.32065 3.90494 5.59228 4.89117 3.80428
threshold=-0.31518819928169245 -0.12728021293878553 -0.42199949920177454 -0.95292580127716053 0.45911377668380743 1.0395554304122927 -0.66632932424545277
decision_type=2 2 2 2 2 2 2
left_child=1 2 -1 -2 5 6 -5
right_child=3 -3 -4 4 -6 -7 -8
leaf_value=-0.000178308067843318 -0.00059697787140929471 0.00016853235580024836 -0.0017738817311833798 -0.00046990676384568351 -0.00035186810303561972 0.0011077719778404571 0.00045938481090901427
leaf_weight=574 505 821 759 537 976 976 2452
leaf_count=574 505 821 759 537 976 976 2452
internal_value=0 -0.000608338 -0.00108682 0.00024061 0.000326216 0.000493129 0.000292429
internal_weight=0 2154 1333 5446 4941 3965 2989
internal_count=7600 2154 1333 5446 4941 3965 2989
is_linear=0
shrinkage=0.01


Tree=72
num_leaves=10
num_cat=0
split_feature=208 150 118 207 16 133 111 200 31
split_gain=10.9592 12.4397 8.89545 7.98343 6.16457 6.55794 5.56733 4.18926 2.44851
threshold=0.038631027564406402 -1.1560148000717161 0.26568076014518743 -1.2297241091728208 0.83962810039520275 -0.31478454172611231 1.0000000180025095e-35 0.77966654300689708 -0.38341224193572992
decision_type=2 2 2 2 2 2 2 2 2
left_child=1 -1 6 -3 5 -5 8 -8 -2
right_child=2 3 -4 4 -6 -7 7 -9 -10
leaf_value=0.0010069018937579487 -0.00017127590433742881 -0.0015663615759401832 -0.00053421225073924735 -2.920361859779614e-06 0.00052265337718361885 -0.00117998090926322 0.00065611495677673202 0.0017764944260859345 0.00061263043064683001
leaf_weight=549 788 700 840 878 603 1027 866 543 806
leaf_count=549 788 700 840 878 603 1027 866 543 806
internal_value=0 -0.000384059 0.000375464 -0.0006221 -0.00035855 -0.000637483 0.000629919 0.00108789 0.000225103
internal_weight=0 3757 3843 3208 2508 1905 3003 1409 1594
internal_count=7600 3757 3843 3208 2508 1905 3003 1409 1594
is_linear=0
shrinkage=0.01


Tree=73
num_leaves=11
num_cat=0
split_feature=208 191 191 118 117 207 200 99 167 200
split_gain=10.7515 14.0012 8.89515 7.65445 7.62309 6.08337 5.60176 8.56821 4.45345 3.36667
threshold=-0.052233345806598656 -0.58013513684272755 -0.58013513684272755 0.26568076014518743 -0.086458005011081682 -1.176843464374542 0.25988885760307318 -0.2894385010004043 0.096694707870483412 0.17325923591852191
decision_type=2 2 2 2 2 2 2 2 2 2
left_child=1 4 3 9 -1 -3 -4 -8 -7 -2
right_child=2 5 6 -5 -6 8 7 -9 -10 -11
leaf_value=-0.00042396342722679845 0.00085766923452969789 -0.0019637700302029353 0.00016201471911549676 -0.0011903078988555126 0.00085168808555769143 2.3882564378682443e-05 0.00029251387611018369 0.0019368521449093048 -0.0012231203143132717 -0.00014594627989852831
leaf_weight=970 542 520 837 510 906 521 566 720 636 872
leaf_count=970 542 520 837 510 906 521 566 720 636 872
internal_value=0 -0.000401418 0.000352418 -0.000140055 0.000192103 -0.00106537 0.000798729 0.00121314 -0.000661592 0.000238749
internal_weight=0 3553 4047 1924 1876 1677 2123 1286 1157 1414
internal_count=7600 3553 4047 1924 1876 1677 2123 1286 1157 1414
is_linear=0
shrinkage=0.01


Tree=74
num_leaves=10
num_cat=0
split_feature=207 52 24 12 187 200 100 128 200
split_gain=10.6001 7.05858 9.03238 4.01754 3.50082 3.14942 7.3206 9.31659 6.00952
threshold=-0.28221155703067774 1.0000000180025095e-35 -0.32932066917419428 0.22545089572668078 -0.11693466082215308 -0.60640731453895558 -0.27102571725845331 -0.57326701283454884 0.51977771520614635
decision_type=2 2 2 2 2 2 2 2 2
left_child=1 2 -1 5 -4 -2 8 -8 -7
right_child=3 -3 4 -5 -6 6 7 -9 -10
leaf_value=0.0001935250879007575 -0.00017972652358477258 0.00037366975644268229 -0.00089699528409908403 -0.00036256960035924325 -0.0020062299713405137 0.00034903516569820492 0.00077207950302914151 -0.00064533614857886117 0.0015264057618468243
leaf_weight=513 856 578 624 914 523 833 921 934 904
leaf_count=513 856 578 624 914 523 833 921 934 904
internal_value=0 -0.000578071 -0.000909461 0.000241276 -0.00140278 0.000365358 0.000495256 5.8405e-05 0.000961783
internal_weight=0 2238 1660 5362 1147 4448 3592 1855 1737
internal_count=7600 2238 1660 5362 1147 4448 3592 1855 1737
is_linear=0
shrinkage=0.01


Tree=75
num_leaves=11
num_cat=0
split_feature=208 191 191 118 117 207 200 103 200 16
split_gain=10.4023 13.7357 8.62569 7.47394 7.44893 5.90568 5.47077 4.39089 3.32045 2.20626
threshold=-0.052233345806598656 -0.58013513684272755 -0.58013513684272755 0.26568076014518743 -0.086458005011081682 -1.176843464374542 0.77966654300689708 -0.16335212439298627 0.17325923591852191 0.63966602087020885
decision_type=2 2 2 2 2 2 2 2 2 2
left_child=1 4 3 8 -1 -3 9 -7 -2 -4
right_child=2 5 6 -5 -6 7 -8 -9 -10 -11
leaf_value=-0.00041596705909727199 0.00085065825255948538 -0.0019376532881198308 4.3483567403943847e-05 -0.0011761044085963957 0.00084502827602790187 -0.0012379958220560974 0.0014184869968784581 -4.0838188641590546e-06 -0.00014604301537774768 0.00088854399556566929
leaf_weight=970 542 520 779 510 906 610 832 547 872 512
leaf_count=970 542 520 779 510 906 610 832 547 872 512
internal_value=0 -0.000394845 0.000346648 -0.000138309 0.000193021 -0.00105247 0.000786147 -0.000654634 0.000236002 0.000378628
internal_weight=0 3553 4047 1924 1876 1677 2123 1157 1414 1291
internal_count=7600 3553 4047 1924 1876 1677 2123 1157 1414 1291
is_linear=0
shrinkage=0.01


Tree=76
num_leaves=8
num_cat=0
split_feature=207 139 151 200 175 200 63
split_gain=10.2725 7.66032 8.0693 3.68845 5.30297 4.63571 3.43371
threshold=-0.31518819928169245 -0.12728021293878553 -0.42199949920177454 -0.95292580127716053 0.45911377668380743 1.1261850595474245 -0.66632932424545277
decision_type=2 2 2 2 2 2 2
left_child=1 2 -1 -2 5 6 -5
right_child=3 -3 -4 4 -6 -7 -8
leaf_value=-0.00015791669133434055 -0.00058282321460065571 0.00017529363087582633 -0.0017292061846148669 -0.00040875385730822315 -0.00034589682995367008 0.0011339827529788459 0.00045450386137720739
leaf_weight=574 505 821 759 562 976 845 2558
leaf_count=574 505 821 759 562 976 845 2558
internal_value=0 -0.000584585 -0.0010526 0.000231215 0.000314414 0.000476952 0.000299007
internal_weight=0 2154 1333 5446 4941 3965 3120
internal_count=7600 2154 1333 5446 4941 3965 3120
is_linear=0
shrinkage=0.01


Tree=77
num_leaves=10
num_cat=0
split_feature=208 150 118 207 16 200 111 200 31
split_gain=10.07 11.9324 8.36264 7.53736 5.67031 6.21898 5.38012 3.79005 2.42351
threshold=0.051179921254515655 -1.1560148000717161 0.26568076014518743 -1.2297241091728208 0.83962810039520275 -0.17325923591852185 1.0000000180025095e-35 0.77966654300689708 -0.38341224193572992
decision_type=2 2 2 2 2 2 2 2 2
left_child=1 -1 6 -3 5 -5 8 -8 -2
right_child=2 3 -4 4 -6 -7 7 -9 -10
leaf_value=0.00099797495320195053 -0.00018226554181987218 -0.0015142392422425987 -0.00052165472937586112 -0.0010214532516279291 0.00049931257783675004 0.0001719297425328924 0.0006511618790655269 0.0017223825483726862 0.00060030239713968359
leaf_weight=549 786 701 835 1261 608 668 858 537 797
leaf_count=549 786 701 835 1261 608 668 858 537 797
internal_value=0 -0.000365253 0.000362763 -0.000596388 -0.000342775 -0.000608193 0.000610744 0.00106352 0.000211737
internal_weight=0 3787 3813 3238 2537 1929 2978 1395 1583
internal_count=7600 3787 3813 3238 2537 1929 2978 1395 1583
is_linear=0
shrinkage=0.01


Tree=78
num_leaves=10
num_cat=0
split_feature=207 52 24 12 187 200 100 128 200
split_gain=9.91722 6.78383 8.7747 3.95152 3.38573 2.95674 7.10581 9.0247 5.78529
threshold=-0.28221155703067774 1.0000000180025095e-35 -0.32932066917419428 0.22545089572668078 -0.11693466082215308 -0.60640731453895558 -0.27102571725845331 -0.57326701283454884 0.51977771520614635
decision_type=2 2 2 2 2 2 2 2 2
left_child=1 2 -1 5 -4 -2 8 -8 -7
right_child=3 -3 4 -5 -6 6 7 -9 -10
leaf_value=0.00020312195297713675 -0.00017171494167248576 0.00037389294854220275 -0.00087284706882947386 -0.00036548815368694053 -0.0019636964931662054 0.00034071953475226131 0.00075430600357844358 -0.00064072919149528603 0.0014959161184855379
leaf_weight=513 856 578 624 914 523 833 921 934 904
leaf_count=513 856 578 624 914 523 833 921 934 904
internal_value=0 -0.000559141 -0.000884017 0.000233375 -0.00137024 0.000356433 0.000482295 5.19001e-05 0.000941927
internal_weight=0 2238 1660 5362 1147 4448 3592 1855 1737
internal_count=7600 2238 1660 5362 1147 4448 3592 1855 1737
is_linear=0
shrinkage=0.01


Tree=79
num_leaves=10
num_cat=0
split_feature=208 150 118 207 16 133 111 200 207
split_gain=9.7403 11.7085 8.17849 7.32822 5.57291 6.08023 5.28955 3.69902 2.41327
