tree
version=v3
num_class=1
num_tree_per_iteration=1
label_index=0
max_feature_idx=208
objective=huber
feature_names=Column_0 Column_1 Column_2 Column_3 Column_4 Column_5 Column_6 Column_7 Column_8 Column_9 Column_10 Column_11 Column_12 Column_13 Column_14 Column_15 Column_16 Column_17 Column_18 Column_19 Column_20 Column_21 Column_22 Column_23 Column_24 Column_25 Column_26 Column_27 Column_28 Column_29 Column_30 Column_31 Column_32 Column_33 Column_34 Column_35 Column_36 Column_37 Column_38 Column_39 Column_40 Column_41 Column_42 Column_43 Column_44 Column_45 Column_46 Column_47 Column_48 Column_49 Column_50 Column_51 Column_52 Column_53 Column_54 Column_55 Column_56 Column_57 Column_58 Column_59 Column_60 Column_61 Column_62 Column_63 Column_64 Column_65 Column_66 Column_67 Column_68 Column_69 Column_70 Column_71 Column_72 Column_73 Column_74 Column_75 Column_76 Column_77 Column_78 Column_79 Column_80 Column_81 Column_82 Column_83 Column_84 Column_85 Column_86 Column_87 Column_88 Column_89 Column_90 Column_91 Column_92 Column_93 Column_94 Column_95 Column_96 Column_97 Column_98 Column_99 Column_100 Column_101 Column_102 Column_103 Column_104 Column_105 Column_106 Column_107 Column_108 Column_109 Column_110 Column_111 Column_112 Column_113 Column_114 Column_115 Column_116 Column_117 Column_118 Column_119 Column_120 Column_121 Column_122 Column_123 Column_124 Column_125 Column_126 Column_127 Column_128 Column_129 Column_130 Column_131 Column_132 Column_133 Column_134 Column_135 Column_136 Column_137 Column_138 Column_139 Column_140 Column_141 Column_142 Column_143 Column_144 Column_145 Column_146 Column_147 Column_148 Column_149 Column_150 Column_151 Column_152 Column_153 Column_154 Column_155 Column_156 Column_157 Column_158 Column_159 Column_160 Column_161 Column_162 Column_163 Column_164 Column_165 Column_166 Column_167 Column_168 Column_169 Column_170 Column_171 Column_172 Column_173 Column_174 Column_175 Column_176 Column_177 Column_178 Column_179 Column_180 Column_181 Column_182 Column_183 Column_184 Column_185 Column_186 Column_187 Column_188 Column_189 Column_190 Column_191 Column_192 Column_193 Column_194 Column_195 Column_196 Column_197 Column_198 Column_199 Column_200 Column_201 Column_202 Column_203 Column_204 Column_205 Column_206 Column_207 Column_208
feature_infos=[-0.49798458814620972:5.711097240447998] [-0.32472646236419678:5.8191585540771484] [-1.1934499740600586:4.1432161331176758] [-1.8209398984909058:3.976776123046875] [-0.17217130959033966:6.1632852554321289] [-5.8467512130737305:0.366982102394104] [-0.21052423119544983:6.0957074165344238] [-0.30421936511993408:6.0366249084472656] [-4.088038444519043:0.67791956663131714] [-5.3985605239868164:0.94927918910980225] [-5.3085031509399414:1.1814702749252319] [-5.2710161209106445:1.2621390819549561] [-0.41360923647880554:4.4330081939697266] [-1.6340041160583496:2.1070466041564941] [-1.4804518222808838:2.2618250846862793] [-0.21308623254299164:6.08929443359375] [-1.5913738012313843:1.8369125127792358] [-0.50321805477142334:3.9489510059356689] [-0.50468844175338745:5.2492384910583496] [-3.2233238220214844:2.9665782451629639] none [-0.47360694408416748:4.2489871978759766] [-0.44263172149658203:5.448946475982666] [-0.47235724329948425:4.2337689399719238] [-0.33539626002311707:5.6069235801696777] none none none [-1.8257418870925903:0.54772257804870605] none [-0.54129999876022339:2.5558755397796631] [-0.39691537618637085:4.6916961669921875] [-0.47618791460990906:3.5030829906463623] [-0.76876586675643921:5.069185733795166] [-0.29427358508110046:6.0196504592895508] [-1.7029386758804321:0.58722025156021118] none [-4.0477099418640137:0.40741366147994995] [-0.53288727998733521:2.7038681507110596] [-3.8453667163848877:0.41239362955093384] [-0.31348082423210144:4.335669994354248] [-1.2649110555648804:0.79056942462921143] none [-3.6247878074645996:0.49054235219955444] [-0.70912033319473267:2.111309289932251] [-2.8777339458465576:0.93719702959060669] [-0.46100911498069763:3.4947834014892578] [-4.7011842727661133:0.25829082727432251] [-0.16222643852233887:6.1644139289855957] [-0.16222576797008514:6.1644139289855957] [-0.1622258722782135:6.1644139289855957] [-1.7495623826980591:3.6877543926239014] [-0.35196638107299805:4.360407829284668] [-0.22850809991359711:5.3894329071044922] [-0.16222198307514191:6.1644139289855957] [-0.16222190856933594:6.1644139289855957] [-0.16222190856933594:6.1644139289855957] [-0.83910608291625977:3.9030570983886719] [-0.35589531064033508:4.3584866523742676] [-5.3408932685852051:0.25013521313667297] [-0.16222147643566132:6.1644139289855957] [-0.16222146153450012:6.1644139289855957] [-0.16222147643566132:6.1644139289855957] [-1.8103036880493164:3.6377899646759033] [-0.36687842011451721:4.3296833038330078] [-0.17569348216056824:6.1433134078979492] [-0.16222143173217773:6.1644139289855957] none [-0.16222141683101654:6.1644139289855957] [-0.82726925611495972:3.8165662288665771] [-0.38384771347045898:4.2961215972900391] [-5.9146871566772461:0.22816237807273865] [-0.16224811971187592:6.1644139289855957] [-0.16222378611564636:6.1644139289855957] [-0.16222864389419556:6.1644139289855957] [-1.8284940719604492:3.5407266616821289] [-0.37949693202972412:4.2691287994384766] [-0.16421833634376526:6.1639704704284668] [-0.28110021352767944:3.9534168243408203] [-0.19425587356090546:6.037147045135498] [-0.23533974587917328:5.3001923561096191] [-0.84659367799758911:3.7580392360687256] [-0.40093600749969482:4.2502155303955078] [-4.2073192596435547:0.71892935037612915] [-0.59850776195526123:4.4260468482971191] [-0.84322267770767212:3.4400670528411865] [-0.68913215398788452:3.7757322788238525] [-1.5674479007720947:3.0357544422149658] [-0.69213414192199707:5.0263862609863281] [-1.6380274295806885:4.2883405685424805] [-0.3038860559463501:5.7726292610168457] [-0.40959200263023376:5.1103935241699219] [-0.33640041947364807:5.4994993209838867] [-1.5492256879806519:4.1091656684875488] [-0.56496971845626831:5.5912642478942871] [-1.7147738933563232:1.9307557344436646] [-3.4648356437683105:0.96587187051773071] [-1.2010223865509033:3.0677134990692139] [-2.0926582813262939:1.5923916101455688] [-0.77985715866088867:5.3460507392883301] [-0.33853012323379517:5.939455509185791] [-5.5759286880493164:0.30547294020652771] [-0.16621752083301544:6.1640505790710449] [-0.16385112702846527:6.1643867492675781] [-0.16431123018264771:6.1643385887145996] [-1.0004993677139282:4.589813232421875] [-0.22654618322849274:5.9636435508728027] [-0.61789059638977051:2.3694591522216797] [-1.2013803720474243:1.1634595394134521] [-0.88477790355682373:1.7389055490493774] [-0.92536008358001709:2.7018256187438965] [-2.5098366737365723:2.5721714496612549] [-0.96779388189315796:3.6576645374298096] none [-1.6911346912384033:0.75480550527572632] [-0.4183935821056366:4.1706981658935547] [-1.1786890029907227:2.1018764972686768] [-1.6759227514266968:2.5601987838745117] [-0.87003487348556519:3.164663553237915] [-0.44500601291656494:4.6425247192382812] [-1.2813718318939209:1.5516257286071777] none [-0.59475284814834595:3.2355518341064453] [-0.8481680154800415:2.9996027946472168] [-0.76135700941085815:3.0700969696044922] [-0.69583415985107422:3.0540521144866943] [-2.5969908237457275:4.0505785942077637] [-0.44719472527503967:5.3074917793273926] [-0.67360365390777588:2.9562487602233887] [-0.28178673982620239:5.6671695709228516] [-0.40216255187988281:5.3836092948913574] [-0.29402995109558105:5.3812618255615234] [-1.028529167175293:4.2001709938049316] [-0.46790584921836853:5.7352614402770996] [-0.55361455678939819:3.7456438541412354] [-0.23739612102508545:6.0341153144836426] [-0.30781251192092896:5.957242488861084] [-0.24997609853744507:5.953345775604248] [-5.0576086044311523:1.6670112609863281] [-0.38931509852409363:5.848052978515625] [-0.18964020907878876:6.1241164207458496] [-0.41141954064369202:4.6674208641052246] [-0.46203631162643433:4.2287883758544922] [-0.39938867092132568:5.0567736625671387] [-1.3051173686981201:3.1778037548065186] [-0.67794948816299438:4.1430635452270508] [-1.3068603277206421:2.5937175750732422] [-3.0333881378173828:1.7916234731674194] [-2.2466833591461182:2.1240601539611816] [-3.6245248317718506:1.5407088994979858] [-2.6919522285461426:2.5764985084533691] [-1.7785650491714478:2.8553934097290039] none none none none none none [-1.2736631631851196:2.312227725982666] [-1.2736631631851196:2.312227725982666] [-1.2736631631851196:2.312227725982666] [-0.87940531969070435:2.3580951690673828] none none [-1.5683722496032715:2.232083797454834] [-1.594538688659668:2.1474373340606689] [-1.7296202182769775:1.9272209405899048] [-1.4873154163360596:2.3013575077056885] [-1.5348687171936035:2.526777982711792] [-1.3473966121673584:2.949000358581543] [-1.8325022459030151:2.3017814159393311] [-1.9705021381378174:3.1290242671966553] [-1.9731091260910034:1.8163529634475708] [-1.0003833770751953:2.8504974842071533] [-0.99713611602783203:3.2113182544708252] [-0.97577494382858276:3.4140317440032959] [-1.4179590940475464:2.1917312145233154] [-1.0101330280303955:4.0306720733642578] none [-1.495785117149353:3.2399320602416992] [-2.0455899238586426:2.536179780960083] [-0.82523566484451294:3.6629674434661865] [-1.1970256567001343:2.1581239700317383] [-1.8004187345504761:1.2837255001068115] [-1.6294167041778564:1.8039644956588745] [-1.287097692489624:3.8121387958526611] [-1.8445121049880981:3.3350400924682617] [-1.2321150302886963:3.1830134391784668] none none none [-0.98460203409194946:1.9164931774139404] none none [-1.2296067476272583:2.9322855472564697] [-1.8004187345504761:1.2837255001068115] [-1.0266776084899902:2.5123424530029297] [-1.5975618362426758:2.1736018657684326] [-3.030825138092041:1.6222782135009766] [-1.0672866106033325:2.8997712135314941] [-1.6892775297164917:1.6892775297164917] [-0.5:2] [-0.5:2] [-0.5:2] [-0.5:2] [-0.5:2] [-4.472226619720459:1.2679446935653687] [-3.271803617477417:1.4950339794158936] [-1.6212873458862305:3.5120711326599121]
tree_sizes=1094 1149 1153 1062 1155 1057 1070 1246 1070 1067 1255 1159 1157 1161 1345 1157 1251 1346 1249 1167 1252 1250 1252 1169 1243 1164 969 1169 1247 1251 1168 1249 1253 1163 1068 1164 1154 1164 1160 1244 1171 1165 1254 1162 1158 1249 1159 1160 1163 1156 1159 1157 1251 1162 1159 1160 1159 1156 1254 1165 1159 1067 1153 1251 1165 1160 1161 1066 1166 1256 1068 1067 1162 1070 1158 1161 1161 1073 1164 1259 1064 1064 1163 1069 1165 1062 1067 1161 1067 1157 1064 1069 1164 1072 1063 1064 1072 1073 1067 1160

Tree=0
num_leaves=11
num_cat=0
split_feature=207 191 115 208 191 95 200 10 99 200
split_gain=40.525 19.568 14.0659 9.80981 20.0847 13.0853 13.0525 9.89258 6.70881 2.63707
threshold=-0.28064972162246699 -0.57170376181602467 -0.31216984987258906 0.01335102040320635 -0.57170376181602467 -0.1230512000620365 0.25988885760307318 0.20338257402181628 -0.2399712800979614 -0.17325923591852185
decision_type=2 2 2 2 2 2 2 2 2 2
left_child=1 2 -1 7 5 -5 -6 -2 -8 -9
right_child=3 -3 -4 4 6 -7 8 9 -10 -11
leaf_value=0.50349855569033974 0.5011875493101845 0.50032442200438632 0.50132996611251912 0.50168548195816198 0.50290492721390934 0.50337373142173192 0.50393370568437912 0.50248193754954751 0.50551003675024186 0.50340263935356455
leaf_weight=502 506 995 740 892 619 946 537 818 543 502
leaf_count=502 506 995 740 892 619 946 537 818 543 502
internal_value=0.5025 0.501369 0.502206 0.502972 0.503279 0.502554 0.504063 0.502376 0.504726 0.502832
internal_weight=0 2237 1242 5363 3537 1838 1699 1826 1080 1320
internal_count=7600 2237 1242 5363 3537 1838 1699 1826 1080 1320
is_linear=0
shrinkage=1


Tree=1
num_leaves=11
num_cat=0
split_feature=207 191 115 208 191 95 200 5 99 181
split_gain=39.7186 19.1785 13.786 9.61459 19.685 12.8249 12.7928 9.70477 6.5753 2.27596
threshold=-0.28064972162246699 -0.57170376181602467 -0.31216984987258906 0.01335102040320635 -0.57170376181602467 -0.1230512000620365 0.25988885760307318 0.25302413105964666 -0.2399712800979614 -0.064056763425469385
decision_type=2 2 2 2 2 2 2 2 2 2
left_child=1 2 -1 7 5 -5 -6 -2 -8 -9
right_child=3 -3 -4 4 6 -7 8 9 -10 -11
leaf_value=0.00098857022736331007 -0.0012199452219131921 -0.0021538221261197298 -0.0011583334538940895 -0.0008063727615123423 0.00040087805076739985 0.00086499416916168456 0.0014193687353064644 0.00071431116886108681 0.002979936501162185 -0.00014780354124779206
leaf_weight=502 559 995 740 892 619 946 537 749 543 518
leaf_count=502 559 995 740 892 619 946 537 749 543 518
internal_value=0 -0.00111934 -0.000290583 0.000466895 0.00077112 5.38629e-05 0.00154706 -0.000122395 0.00220399 0.000361844
internal_weight=0 2237 1242 5363 3537 1838 1699 1826 1080 1267
internal_count=7600 2237 1242 5363 3537 1838 1699 1826 1080 1267
is_linear=0
shrinkage=0.01


Tree=2
num_leaves=11
num_cat=0
split_feature=207 191 115 208 191 95 200 10 99 200
split_gain=38.9282 18.7969 13.5117 9.42326 19.2933 12.5697 12.5382 9.51572 6.44445 2.58874
threshold=-0.28064972162246699 -0.57170376181602467 -0.31216984987258906 0.01335102040320635 -0.57170376181602467 -0.1230512000620365 0.25988885760307318 0.20338257402181628 -0.2399712800979614 -0.17325923591852185
decision_type=2 2 2 2 2 2 2 2 2 2
left_child=1 2 -1 7 5 -5 -6 -2 -8 -9
right_child=3 -3 -4 4 6 -7 8 9 -10 -11
leaf_value=0.00097868452140823957 -0.001287126615646377 -0.0021322839276902562 -0.0011467501209471438 -0.0007983090481837019 0.00039686926002636773 0.00085634425748324207 0.0014051750755348128 -2.1143393002707777e-05 0.0029501371582863686 0.00089108326580872635
leaf_weight=502 506 995 740 892 619 946 537 818 543 502
leaf_count=502 506 995 740 892 619 946 537 818 543 502
internal_value=0 -0.00110814 -0.000287678 0.000462226 0.000763408 5.33243e-05 0.00153159 -0.000121171 0.00218195 0.000325779
internal_weight=0 2237 1242 5363 3537 1838 1699 1826 1080 1320
internal_count=7600 2237 1242 5363 3537 1838 1699 1826 1080 1320
is_linear=0
shrinkage=0.01


Tree=3
num_leaves=10
num_cat=0
split_feature=207 191 115 208 191 95 200 5 181
split_gain=38.1535 18.4228 13.2428 9.23574 18.9094 12.3196 12.2989 9.33478 2.23512
threshold=-0.28064972162246699 -0.57170376181602467 -0.31216984987258906 0.01335102040320635 -0.57170376181602467 -0.1230512000620365 0.43314808607101446 0.25302413105964666 -0.064056763425469385
decision_type=2 2 2 2 2 2 2 2 2
left_child=1 2 -1 7 5 -5 -6 -2 -9
right_child=3 -3 -4 4 6 -7 -8 8 -10
leaf_value=0.00096889770447786258 -0.0011963848118405384 -0.0021109610350355597 -0.0011352825708013986 -0.00079032592692061636 0.00055921191425994043 0.00084778083698747999 0.0022726395914970934 0.00070424942281072306 -0.0001500940434869539
leaf_weight=502 559 995 740 892 750 946 949 749 518
leaf_count=502 559 995 740 892 750 946 949 749 518
internal_value=0 -0.00109706 -0.000284801 0.000457604 0.000755774 5.2791e-05 0.00151627 -0.000119959 0.00035496
internal_weight=0 2237 1242 5363 3537 1838 1699 1826 1267
internal_count=7600 2237 1242 5363 3537 1838 1699 1826 1267
is_linear=0
shrinkage=0.01


Tree=4
num_leaves=11
num_cat=0
split_feature=207 191 115 208 191 200 95 10 99 200
split_gain=37.3943 18.0562 12.9793 9.05195 18.5331 12.0802 12.0744 9.15322 6.31575 2.54131
threshold=-0.28064972162246699 -0.57170376181602467 -0.31216984987258906 0.01335102040320635 -0.57170376181602467 0.25988885760307318 -0.1230512000620365 0.20338257402181628 -0.2399712800979614 -0.17325923591852185
decision_type=2 2 2 2 2 2 2 2 2 2
left_child=1 2 -1 7 6 -6 -5 -2 -7 -9
right_child=3 -3 -4 4 5 8 -8 9 -10 -11
leaf_value=0.00095920870274924998 -0.0012622915014024172 -0.0020898514457103148 -0.0011239297823395229 -0.00078242269892249709 0.00038730845731150458 0.0013705028094526024 0.00083930300043693533 -2.4134766886552708e-05 0.0028999603148995735 0.00087969556092785538
leaf_weight=502 506 995 740 892 619 537 946 818 543 502
leaf_count=502 506 995 740 892 619 537 946 818 543 502
internal_value=0 -0.00108609 -0.000281953 0.000453028 0.000748217 0.00150111 5.22631e-05 -0.000118759 0.00213948 0.000319595
internal_weight=0 2237 1242 5363 3537 1699 1838 1826 1080 1320
internal_count=7600 2237 1242 5363 3537 1699 1838 1826 1080 1320
is_linear=0
shrinkage=0.01


Tree=5
num_leaves=10
num_cat=0
split_feature=207 191 115 208 191 200 95 5 181
split_gain=36.6501 17.6969 12.721 8.87181 18.1643 11.849 11.8341 8.9789 2.195
threshold=-0.28064972162246699 -0.57170376181602467 -0.31216984987258906 0.01335102040320635 -0.57170376181602467 0.43314808607101446 -0.1230512000620365 0.25302413105964666 -0.064056763425469385
decision_type=2 2 2 2 2 2 2 2 2
left_child=1 2 -1 7 6 -6 -5 -2 -9
right_child=3 -3 -4 4 5 -7 -8 8 -10
leaf_value=0.00094961657186499245 -0.001173279202836424 -0.0020689529325630535 -0.0011126904937948376 -0.00077459848556362689 0.0005467038674280048 0.0022285044041007868 0.00083090998328474986 0.00069434703360976915 -0.00015229511190238175
leaf_weight=502 559 995 740 892 750 949 946 749 518
leaf_count=502 559 995 740 892 750 949 946 749 518
internal_value=0 -0.00107523 -0.000279133 0.000448497 0.000740734 0.0014861 5.17405e-05 -0.000117572 0.000348206
internal_weight=0 2237 1242 5363 3537 1699 1838 1826 1267
internal_count=7600 2237 1242 5363 3537 1699 1838 1826 1267
is_linear=0
shrinkage=0.01


Tree=6
num_leaves=10
num_cat=0
split_feature=207 191 115 206 208 191 200 95 196
split_gain=35.9392 15.5412 12.3742 11.4593 8.15131 16.5576 11.1847 10.9402 5.91042
threshold=-0.20618652552366254 -0.57170376181602467 -0.31216984987258906 -0.93021506071090687 -0.027263256721198555 -0.57170376181602467 0.43314808607101446 -0.1230512000620365 -0.70271378755569447
decision_type=2 2 2 2 2 2 2 2 2
left_child=1 2 -1 -3 8 7 -7 -6 -2
right_child=4 3 -4 -5 5 6 -8 -9 -10
leaf_value=0.00086203138767712052 0.00060228625375264026 -0.0030048383799273952 -0.0010997653988713562 -0.00094287561376729526 -0.00071319090640086121 0.00055849839010860714 0.0021911006635033621 0.00082778953172489068 -0.00061208486901941127
leaf_weight=551 682 502 772 582 891 766 928 954 972
leaf_count=551 682 502 772 582 891 766 928 954 972
internal_value=0 -0.00101006 -0.000282721 -0.00189777 0.000468173 0.000739025 0.00145286 8.36087e-05 -0.000111359
internal_weight=0 2407 1323 1084 5193 3539 1694 1845 1654
internal_count=7600 2407 1323 1084 5193 3539 1694 1845 1654
is_linear=0
shrinkage=0.01


Tree=7
num_leaves=12
num_cat=0
split_feature=207 191 115 206 208 191 200 83 5 3 207
split_gain=35.2241 15.0454 11.6381 11.1606 8.10453 16.2863 10.9488 10.7109 7.70885 6.29588 2.4281
threshold=-0.21741832047700879 -0.57170376181602467 -0.31216984987258906 -0.93021506071090687 -0.027263256721198555 -0.57170376181602467 0.43314808607101446 0.17698550224304202 0.25302413105964666 -0.37931382656097407 0.35615147650241857
decision_type=2 2 2 2 2 2 2 2 2 2 2
left_child=1 2 -1 -3 8 7 -7 -6 -2 -9 -10
right_child=4 3 -4 -5 5 6 -8 9 10 -11 -12
leaf_value=0.0008283052637992061 -0.0011503616302084936 -0.002974789965511912 -0.0010844631079270069 -0.00092745753378004514 -0.00094145490705425678 0.0005529133837175247 0.0021674185880517427 0.001332139639514491 0.00082811564163475784 -0.0001266550935204584 -8.4523172912005098e-05
leaf_weight=544 502 502 766 567 659 766 930 631 534 557 642
leaf_count=544 502 502 766 567 659 766 930 631 534 557 642
internal_value=0 -0.00100854 -0.000290153 -0.00188888 0.000459551 0.000730693 0.00143823 8.1004e-05 -0.000112951 0.000648176 0.000329889
internal_weight=0 2379 1310 1069 5221 3543 1696 1847 1678 1188 1176
internal_count=7600 2379 1310 1069 5221 3543 1696 1847 1678 1188 1176
is_linear=0
shrinkage=0.01


Tree=8
num_leaves=10
num_cat=0
split_feature=207 191 115 206 208 191 200 95 196
split_gain=34.5284 14.9346 11.8921 11.0028 7.82889 15.905 10.7442 10.5664 5.76682
threshold=-0.20618652552366254 -0.57170376181602467 -0.31216984987258906 -0.93021506071090687 -0.027263256721198555 -0.57170376181602467 0.43314808607101446 -0.1230512000620365 -0.70271378755569447
decision_type=2 2 2 2 2 2 2 2 2
left_child=1 2 -1 -3 8 7 -7 -6 -2
right_child=4 3 -4 -5 5 6 -8 -9 -10
leaf_value=0.00084519611330224193 0.00059585950323353223 -0.0029450420296122043 -0.0010780014389513031 -0.00092456878277735592 -0.00070110596255838298 0.00054738428006884847 0.0021475154144480193 0.00081332152621443269 -0.00060366872714716488
leaf_weight=551 682 502 772 582 891 766 928 954 972
leaf_count=551 682 502 772 582 891 766 928 954 972
internal_value=0 -0.000990039 -0.000277033 -0.00186025 0.000458892 0.000724333 0.00142396 8.19639e-05 -0.000109063
internal_weight=0 2407 1323 1084 5193 3539 1694 1845 1654
internal_count=7600 2407 1323 1084 5193 3539 1694 1845 1654
is_linear=0
shrinkage=0.01


Tree=9
num_leaves=10
num_cat=0
split_feature=207 191 115 208 191 117 200 10 200
split_gain=33.8419 16.3868 11.7698 8.21305 16.9437 11.1061 9.88364 8.48861 2.48559
threshold=-0.28064972162246699 -0.57170376181602467 -0.31216984987258906 0.067892208695411696 -0.57170376181602467 -0.17065998911857602 0.51977771520614635 0.20338257402181628 -0.17325923591852185
decision_type=2 2 2 2 2 2 2 2 2
left_child=1 2 -1 7 5 -5 -6 -2 -9
right_child=3 -3 -4 4 6 -7 -8 8 -10
leaf_value=0.00091476510755441329 -0.0011568789671133636 -0.0019894499068690147 -0.0010689412834582147 0.0008786948803632934 0.00063519009903150923 -0.00069842115727555419 0.0021930454900487453 -1.6415182382069257e-05 0.00084718020041209307
leaf_weight=502 538 995 740 853 768 937 867 853 547
leaf_count=502 538 995 740 853 768 937 867 853 547
internal_value=0 -0.00103322 -0.000267153 0.000430973 0.000725344 5.31319e-05 0.00146128 -8.92649e-05 0.000321004
internal_weight=0 2237 1242 5363 3425 1790 1635 1938 1400
internal_count=7600 2237 1242 5363 3425 1790 1635 1938 1400
is_linear=0
shrinkage=0.01


Tree=10
num_leaves=12
num_cat=0
split_feature=207 191 115 206 208 191 200 83 3 99 196
split_gain=33.1877 14.3577 11.4296 10.7431 7.52988 15.2779 10.3931 10.3319 6.18601 5.68337 5.63855
threshold=-0.20618652552366254 -0.57170376181602467 -0.31216984987258906 -0.93021506071090687 -0.027263256721198555 -0.57170376181602467 0.25988885760307318 0.17698550224304202 -0.37931382656097407 -0.2399712800979614 -0.70271378755569447
decision_type=2 2 2 2 2 2 2 2 2 2 2
left_child=1 2 -1 -3 10 7 -7 -6 -9 -8 -2
right_child=4 3 -4 -5 5 6 9 8 -10 -11 -12
leaf_value=0.00082866444595761524 0.00058993031037886032 -0.0028957804405307618 -0.0010567693297728327 -0.00089929370960073474 -0.00092444951048737973 0.00038183462923691231 0.0012724742417439547 0.0013165919035748211 -0.00012995600962299831 0.0027362691623575024 -0.00059618288776267187
leaf_weight=551 682 502 772 582 658 633 533 630 557 528 972
leaf_count=551 682 502 772 582 658 633 533 630 557 528 972
internal_value=0 -0.000970628 -0.000271528 -0.00182387 0.000449895 0.000710218 0.00139592 8.06394e-05 0.000637799 0.00200092 -0.000107108
internal_weight=0 2407 1323 1084 5193 3539 1694 1845 1187 1061 1654
internal_count=7600 2407 1323 1084 5193 3539 1694 1845 1187 1061 1654
is_linear=0
shrinkage=0.01


Tree=11
num_leaves=11
num_cat=0
split_feature=207 191 115 206 208 191 200 83 3 196
split_gain=32.5291 14.3916 11.452 10.4705 7.5244 14.9614 10.1918 9.87876 6.07421 4.90831
threshold=-0.19550494849681851 -0.57170376181602467 -0.31216984987258906 -0.93021506071090687 -0.027263256721198555 -0.57170376181602467 0.43314808607101446 0.17698550224304202 -0.37931382656097407 -0.70271378755569447
decision_type=2 2 2 2 2 2 2 2 2 2
left_child=1 2 -1 -3 9 7 -7 -6 -9 -2
right_child=4 3 -4 -5 5 6 -8 8 -10 -11
leaf_value=0.0008225251729320406 0.00054317163918474794 -0.0028668226581808937 -0.0010470452004382842 -0.00090202505751591877 -0.0009002171695331922 0.00053507084522725029 0.0020956065990020999 0.0013031326567262578 -0.00013218757536640887 -0.00056968795652467407
leaf_weight=566 674 502 778 590 655 765 924 629 555 962
leaf_count=566 674 502 778 590 655 765 924 629 555 962
internal_value=0 -0.000952542 -0.000259711 -0.00180526 0.00044934 0.000709278 0.00138879 8.51898e-05 0.000630326 -0.000111212
internal_weight=0 2436 1344 1092 5164 3528 1689 1839 1184 1636
internal_count=7600 2436 1344 1092 5164 3528 1689 1839 1184 1636
is_linear=0
shrinkage=0.01


Tree=12
num_leaves=11
num_cat=0
split_feature=207 173 206 104 208 191 200 95 99 196
split_gain=31.8818 14.1436 9.25173 8.76407 7.37467 14.6637 10.013 9.70781 5.37255 4.81064
threshold=-0.19550494849681851 0.36135488748550421 -1.1502638459205625 -0.16384751349687574 -0.027263256721198555 -0.57170376181602467 0.25988885760307318 -0.1230512000620365 -0.2399712800979614 -0.70271378755569447
decision_type=2 2 2 2 2 2 2 2 2 2
left_child=1 2 -1 -4 9 7 -7 -6 -8 -2
right_child=4 -3 3 -5 5 6 8 -9 -10 -11
leaf_value=-0.0024318064728030128 0.00053773990162578832 0.00039285277277324666 -0.0016012352609792977 8.8048556761904844e-05 -0.00066755083053181925 0.00037916359104086427 0.0012607005761766179 0.00078641700328471677 0.0026865961737271237 -0.00056399108571216535
leaf_weight=573 674 598 740 525 888 632 531 951 526 962
leaf_count=573 674 598 740 525 888 632 531 951 526 962
internal_value=0 -0.000943016 -0.00137765 -0.000900149 0.000444847 0.000702185 0.0013749 8.43379e-05 0.00197028 -0.000110099
internal_weight=0 2436 1838 1265 5164 3528 1689 1839 1057 1636
internal_count=7600 2436 1838 1265 5164 3528 1689 1839 1057 1636
is_linear=0
shrinkage=0.01


Tree=13
num_leaves=11
num_cat=0
split_feature=207 191 115 208 118 24 10 200 200 120
split_gain=31.2554 15.3656 11.0491 7.60714 16.2536 12.6966 8.25742 5.24664 2.43593 2.36962
threshold=-0.28064972162246699 -0.57170376181602467 -0.31216984987258906 0.067892208695411696 0.26568076014518743 -0.32494318485260004 0.20338257402181628 0.086629617959260954 -0.17325923591852185 0.68327331542968761
decision_type=2 2 2 2 2 2 2 2 2 2
left_child=1 2 -1 6 5 9 -2 -7 -8 -5
right_child=3 -3 -4 4 -6 7 8 -9 -10 -11
leaf_value=0.00089402408150314125 -0.0011394793213778747 -0.001918907113860586 -0.0010279902682916538 -0.00031201998330606518 -0.00061926103765986423 0.00076594943312779636 -1.5892317675506905e-05 0.0019710199760241283 0.00083903269331912485 0.00065529914400842208
leaf_weight=502 538 995 740 504 736 527 853 1149 547 509
leaf_count=502 538 995 740 504 736 527 853 1149 547 509
internal_value=0 -0.000992948 -0.000251137 0.000414176 0.00069748 0.00105788 -8.65042e-05 0.0015921 0.000318139 0.000174027
internal_weight=0 2237 1242 5363 3425 2689 1938 1676 1400 1013
internal_count=7600 2237 1242 5363 3425 2689 1938 1676 1400 1013
is_linear=0
shrinkage=0.01


Tree=14
num_leaves=13
num_cat=0
split_feature=207 191 115 206 208 191 200 83 5 3 99 207
split_gain=30.6428 13.5434 10.2345 9.76434 7.08329 14.5874 9.8973 9.73583 7.23277 5.60916 5.46659 2.34875
threshold=-0.22512678056955335 -0.57170376181602467 -0.31216984987258906 -0.93021506071090687 -0.027263256721198555 -0.57170376181602467 0.25988885760307318 0.17698550224304202 0.25302413105964666 -0.37931382656097407 -0.2399712800979614 0.35615147650241857
decision_type=2 2 2 2 2 2 2 2 2 2 2 2
left_child=1 2 -1 -3 8 7 -7 -6 -2 -9 -8 -10
right_child=4 3 -4 -5 5 6 10 9 11 -11 -12 -13
leaf_value=0.00079219569638544908 -0.0011044154518278415 -0.0028000362175915655 -0.0010112788808397262 -0.00087286462047326293 -0.00090649417448061234 0.00035838298987978559 0.0012227273827032951 0.0012487496427103894 0.00080659100649612195 -0.00012600515643426793 0.0026542915407087647 -8.7835694521515441e-05
leaf_weight=537 509 502 760 552 663 635 536 634 541 558 531 642
leaf_count=537 509 502 760 552 663 635 536 634 541 558 531 642
internal_value=0 -0.000948789 -0.000264582 -0.00179074 0.000424958 0.000678317 0.00134688 6.49007e-05 -0.000107667 0.000605198 0.00193516 0.000321196
internal_weight=0 2351 1297 1054 5249 3557 1702 1855 1692 1192 1067 1183
internal_count=7600 2351 1297 1054 5249 3557 1702 1855 1692 1192 1067 1183
is_linear=0
shrinkage=0.01


Tree=15
num_leaves=11
num_cat=0
split_feature=207 173 206 104 208 191 200 83 3 196
split_gain=30.0374 13.6082 8.87026 8.61069 6.95494 13.9863 9.5989 9.2494 5.72309 4.67862
threshold=-0.19550494849681851 0.36135488748550421 -1.1502638459205625 -0.16384751349687574 -0.027263256721198555 -0.57170376181602467 0.43314808607101446 0.17698550224304202 -0.37931382656097407 -0.70271378755569447
decision_type=2 2 2 2 2 2 2 2 2 2
left_child=1 2 -1 -4 9 7 -7 -6 -9 -2
right_child=4 -3 3 -5 5 6 -8 8 -10 -11
leaf_value=-0.0023738554190034875 0.0005317531283732396 0.0003950089572953764 -0.0015690313543734217 0.00010540495365858078 -0.00087521350928333427 0.00051017599040794562 0.0020246394795905469 0.0012588443152257798 -0.00013437389303628053 -0.00055475511331032053
leaf_weight=573 674 598 740 525 655 765 924 629 555 962
leaf_count=573 674 598 740 525 655 765 924 629 555 962
internal_value=0 -0.000915332 -0.00134166 -0.000874107 0.000431787 0.000681696 0.00133869 7.82875e-05 0.000605773 -0.000107135
internal_weight=0 2436 1838 1265 5164 3528 1689 1839 1184 1636
internal_count=7600 2436 1838 1265 5164 3528 1689 1839 1184 1636
is_linear=0
shrinkage=0.01


Tree=16
num_leaves=12
num_cat=0
split_feature=207 173 206 208 118 24 10 4 200 200 120
split_gain=29.4435 14.7863 8.02696 7.18168 15.6936 12.1055 7.94129 6.18761 5.00483 2.38019 2.22002
threshold=-0.28064972162246699 0.412201538681984 -1.292402386665344 0.067892208695411696 0.26568076014518743 -0.32494318485260004 0.20338257402181628 -0.17216403037309644 0.086629617959260954 -0.17325923591852185 0.68327331542968761
decision_type=2 2 2 2 2 2 2 2 2 2 2
left_child=1 2 -1 6 5 10 -2 -4 -7 -8 -5
right_child=3 -3 7 4 -6 8 9 -9 -10 -11 -12
leaf_value=-0.0024551005291829678 -0.0011171080584557326 0.00049172982018567003 -0.0017607530704742977 -0.00030209100649078625 -0.00061659939705350554 0.00074614486180487108 -1.7851306966086687e-05 -0.00030918834013535359 0.0019231170683070584 0.00082723598547579488 0.00063419611343275934
leaf_weight=519 538 532 535 504 736 527 853 651 1149 547 509
leaf_count=519 538 532 535 504 736 527 853 651 1149 547 509
internal_value=0 -0.000963738 -0.00141788 0.000401992 0.00067726 0.0010314 -8.44857e-05 -0.000963984 0.00155303 0.000312336 0.000168363
internal_weight=0 2237 1705 5363 3425 2689 1938 1186 1676 1400 1013
internal_count=7600 2237 1705 5363 3425 2689 1938 1186 1676 1400 1013
is_linear=0
shrinkage=0.01


Tree=17
num_leaves=13
num_cat=0
split_feature=207 191 115 103 208 191 200 83 5 3 99 207
split_gain=28.8671 13.1087 9.94935 9.69388 6.67319 13.9177 9.47726 9.22888 6.93643 5.30651 5.28013 2.29952
threshold=-0.22512678056955335 -0.57170376181602467 -0.31216984987258906 -0.16286862641572949 -0.027263256721198555 -0.57170376181602467 0.25988885760307318 0.17698550224304202 0.25302413105964666 -0.37931382656097407 -0.2399712800979614 0.35615147650241857
decision_type=2 2 2 2 2 2 2 2 2 2 2 2
left_child=1 2 -1 -3 8 7 -7 -6 -2 -9 -8 -10
right_child=4 3 -4 -5 5 6 10 9 11 -11 -12 -13
leaf_value=0.00079419983125133945 -0.0010806303573573329 -0.0027472478340714872 -0.00098397046760778477 -0.00082767920086778909 -0.00088655801337538215 0.00034411666174895885 0.0011868955748357269 0.0012112001862935318 0.00079575106016026797 -0.00012595248911412946 0.0025938328547340079 -8.9251381346725238e-05
leaf_weight=537 509 506 760 548 663 635 536 634 541 558 531 642
leaf_count=537 509 506 760 548 663 635 536 634 541 558 531 642
internal_value=0 -0.000920888 -0.00024775 -0.00174922 0.000412461 0.000658377 0.00131141 5.92083e-05 -0.000104515 0.000585251 0.00188707 0.000315471
internal_weight=0 2351 1297 1054 5249 3557 1702 1855 1692 1192 1067 1183
internal_count=7600 2351 1297 1054 5249 3557 1702 1855 1692 1192 1067 1183
is_linear=0
shrinkage=0.01


Tree=18
num_leaves=12
num_cat=0
split_feature=208 191 191 207 118 138 200 4 95 24 206
split_gain=28.4095 21.1119 16.8875 15.0875 11.5385 10.1248 8.37699 8.09329 7.46931 5.29316 3.08767
threshold=0.049917537719011314 -0.58013513684272755 -0.58013513684272755 -1.1792796254158018 0.26568076014518743 -0.25309003144502634 0.51977771520614635 -0.16479435563087461 0.19283423572778705 -0.32494318485260004 0.41411496698856359
decision_type=2 2 2 2 2 2 2 2 2 2 2
left_child=1 4 5 -3 9 -2 -7 -5 10 -1 -4
right_child=2 3 8 7 -6 6 -8 -9 -10 -11 -12
leaf_value=0.00022905236072226021 0.00086210952261337793 -0.0028707442161036083 0.00022282993696289997 -0.0015783291922654868 0.0010867513629482435 0.00035945200404394271 -0.0013254593230100332 0.00010243640577427729 0.0021720151347750737 -0.0010428679841037113 0.0012214031118845509
leaf_weight=578 745 520 504 635 711 508 704 522 616 754 803
leaf_count=578 745 520 504 635 711 508 704 522 616 754 803
internal_value=0 -0.00062441 0.000598661 -0.00145591 5.81253e-05 -5.53143e-05 -0.000619242 -0.000820024 0.0012642 -0.000490939 0.000836337
internal_weight=0 3720 3880 1677 2043 1957 1212 1157 1923 1332 1307
internal_count=7600 3720 3880 1677 2043 1957 1212 1157 1923 1332 1307
is_linear=0
shrinkage=0.01


Tree=19
num_leaves=11
num_cat=0
split_feature=207 191 115 103 173 208 24 117 187 69
split_gain=27.9082 12.8765 10.3992 9.97056 6.71983 8.81977 14.9229 5.79856 4.54508 3.54686
threshold=-0.19550494849681851 -0.57170376181602467 -0.31216984987258906 -0.16286862641572949 1.5657897591590884 -0.027263256721198555 -0.32932066917419428 -0.17065998911857602 -0.65062138438224781 -0.39486891031265253
decision_type=2 2 2 2 2 2 2 2 2 2
left_child=1 2 -1 -3 5 7 9 -2 -8 -7
right_child=4 3 -4 -5 -6 6 8 -9 -10 -11
leaf_value=0.00080434514353810332 -0.00082836039469510645 -0.002683725643775049 -0.0009772188148184759 -0.00077109399330343162 -0.00060689307346965728 0.00048541364795449959 0.00054798371890109592 0.00050009802474403672 0.0016134659930608839 -0.00060020478170929995
leaf_weight=566 642 524 778 568 571 594 542 673 1532 610
leaf_count=566 642 524 778 568 571 594 542 673 1532 610
internal_value=0 -0.000882295 -0.000226947 -0.00168888 0.000416203 0.000543394 0.000820942 -0.000148473 0.00133502 -6.4609e-05
internal_weight=0 2436 1344 1092 5164 4593 3278 1315 2074 1204
internal_count=7600 2436 1344 1092 5164 4593 3278 1315 2074 1204
is_linear=0
shrinkage=0.01


Tree=20
num_leaves=12
num_cat=0
split_feature=207 173 206 208 118 24 10 4 200 200 120
split_gain=27.3741 14.1356 7.69244 6.60104 14.9697 11.2788 7.5382 5.97383 4.83613 2.31444 2.09146
threshold=-0.28064972162246699 0.412201538681984 -1.292402386665344 0.067892208695411696 0.26568076014518743 -0.32494318485260004 0.20338257402181628 -0.17216403037309644 0.086629617959260954 -0.17325923591852185 0.68327331542968761
decision_type=2 2 2 2 2 2 2 2 2 2 2
left_child=1 2 -1 6 5 10 -2 -4 -7 -8 -5
right_child=3 -3 7 4 -6 8 9 -9 -10 -11 -12
leaf_value=-0.0023886689419099104 -0.0010848632803387797 0.00049383270335528139 -0.0017118379788573343 -0.00029228433130940956 -0.00061215470577261175 0.00070772298904285156 -1.7765155701305998e-05 -0.00028556863903947828 0.0018646888652610941 0.00081556893744032623 0.00061648769662322111
leaf_weight=519 538 532 535 504 736 527 853 651 1149 547 509
leaf_count=519 538 532 535 504 736 527 853 651 1149 547 509
internal_value=0 -0.000929253 -0.00137329 0.000387607 0.000651513 0.000997389 -7.87894e-05 -0.000928953 0.00150089 0.00030783 0.000164344
internal_weight=0 2237 1705 5363 3425 2689 1938 1186 1676 1400 1013
internal_count=7600 2237 1705 5363 3425 2689 1938 1186 1676 1400 1013
is_linear=0
shrinkage=0.01


Tree=21
num_leaves=12
num_cat=0
split_feature=208 191 191 207 118 138 200 4 95 24 206
split_gain=26.8884 20.3528 16.3369 14.5331 11.1182 9.77882 8.18867 7.82646 7.19345 5.11375 2.91627
threshold=0.049917537719011314 -0.58013513684272755 -0.58013513684272755 -1.1792796254158018 0.26568076014518743 -0.25309003144502634 0.51977771520614635 -0.16479435563087461 0.19283423572778705 -0.32494318485260004 0.41411496698856359
decision_type=2 2 2 2 2 2 2 2 2 2 2
left_child=1 4 5 -3 9 -2 -7 -5 10 -1 -4
right_child=2 3 8 7 -6 6 -8 -9 -10 -11 -12
leaf_value=0.00023140014092853635 0.00084080158188492183 -0.0028124749643533365 0.00022089024521096328 -0.0015454830503600879 0.0010724071374491892 0.00035260776357585934 -0.0013132569167237306 0.00010734351113478973 0.0021279071499601117 -0.0010187790050330036 0.0011913517813455165
leaf_weight=578 745 520 504 635 711 508 704 522 616 754 803
leaf_count=578 745 520 504 635 711 508 704 522 616 754 803
internal_value=0 -0.000607463 0.000582413 -0.00142387 6.26879e-05 -6.0813e-05 -0.000615023 -0.000799783 0.00123701 -0.000476284 0.000817126
internal_weight=0 3720 3880 1677 2043 1957 1212 1157 1923 1332 1307
internal_count=7600 3720 3880 1677 2043 1957 1212 1157 1923 1332 1307
is_linear=0
shrinkage=0.01


Tree=22
num_leaves=12
num_cat=0
split_feature=207 173 206 208 118 24 10 4 200 200 120
split_gain=26.4533 13.7209 7.37872 6.33126 14.5342 10.9258 7.3215 5.81339 4.75047 2.25791 2.02928
threshold=-0.28064972162246699 0.412201538681984 -1.292402386665344 0.067892208695411696 0.26568076014518743 -0.32494318485260004 0.20338257402181628 -0.17216403037309644 0.086629617959260954 -0.17325923591852185 0.68327331542968761
decision_type=2 2 2 2 2 2 2 2 2 2 2
left_child=1 2 -1 6 5 10 -2 -4 -7 -8 -5
right_child=3 -3 7 4 -6 8 9 -9 -10 -11 -12
leaf_value=-0.0023454238210718625 -0.0010672410856239968 0.00048856298977297322 -0.0016880838451262404 -0.00028939808098440398 -0.00060566134983001463 0.00068974517607677953 -1.6305995824784183e-05 -0.00028109829584580095 0.0018364186454688956 0.00080678703054780203 0.0006057645768109683
leaf_weight=519 538 532 535 504 736 527 853 651 1149 547 509
leaf_count=519 538 532 535 504 736 527 853 651 1149 547 509
internal_value=0 -0.000913491 -0.00135096 0.000381033 0.000639489 0.000980297 -7.57339e-05 -0.000915784 0.00147586 0.000305288 0.000160392
internal_weight=0 2237 1705 5363 3425 2689 1938 1186 1676 1400 1013
internal_count=7600 2237 1705 5363 3425 2689 1938 1186 1676 1400 1013
is_linear=0
shrinkage=0.01


Tree=23
num_leaves=11
num_cat=0
split_feature=207 191 115 103 173 208 24 142 187 120
split_gain=25.9319 12.0602 9.35498 9.16604 6.19412 8.33987 14.1259 6.01443 4.55387 3.4589
threshold=-0.22512678056955335 -0.57170376181602467 -0.31216984987258906 -0.16286862641572949 1.5657897591590884 -0.027263256721198555 -0.32932066917419428 -0.42841601371765131 -0.65062138438224781 0.049489094177261002
decision_type=2 2 2 2 2 2 2 2 2 2
left_child=1 2 -1 -3 5 7 9 -2 -8 -7
right_child=4 3 -4 -5 -6 6 8 -9 -10 -11
leaf_value=0.00078318899230956957 -0.00096114174913348993 -0.002637803827071003 -0.00094105032439907327 -0.00077122827326491427 -0.00058466837245010688 -0.00057656434702094573 0.00050163727116517049 0.00039464815065999776 0.0015618579963639723 0.00049139086510588577
leaf_weight=537 544 506 760 548 579 643 550 821 1538 574
leaf_count=537 544 506 760 548 579 643 550 821 1538 574
internal_value=0 -0.000872815 -0.000227159 -0.00166733 0.000390929 0.000511887 0.000783469 -0.000145681 0.00128259 -7.28616e-05
internal_weight=0 2351 1297 1054 5249 4670 3305 1365 2088 1217
internal_count=7600 2351 1297 1054 5249 4670 3305 1365 2088 1217
is_linear=0
shrinkage=0.01


Tree=24
num_leaves=12
num_cat=0
split_feature=208 191 191 207 118 138 200 4 200 24 208
split_gain=25.4485 19.601 15.7992 14.0049 10.734 9.44692 8.0191 7.60818 6.99195 4.95419 2.05876
threshold=0.049917537719011314 -0.58013513684272755 -0.58013513684272755 -1.1792796254158018 0.26568076014518743 -0.25309003144502634 0.51977771520614635 -0.16479435563087461 0.69303691387176525 -0.32494318485260004 0.62046295404434215
decision_type=2 2 2 2 2 2 2 2 2 2 2
left_child=1 4 5 -3 9 -2 -7 -5 10 -1 -4
right_child=2 3 8 7 -6 6 -8 -9 -10 -11 -12
leaf_value=0.00023366221398353628 0.0008202342714367422 -0.0027552954998816583 0.00022067818293502008 -0.0015147478997571701 0.001058804267125385 0.00034688781684619289 -0.001301638198638102 0.00011486664056127635 0.001866115266496842 -0.0009968582748815871 0.0011098708397030885
leaf_weight=578 745 520 532 635 711 508 704 522 881 754 510
leaf_count=578 745 520 532 635 711 508 704 522 881 754 510
internal_value=0 -0.000590974 0.000566604 -0.00139216 6.6684e-05 -6.59478e-05 -0.000610672 -0.00077952 0.00121034 -0.000462894 0.000655888
internal_weight=0 3720 3880 1677 2043 1957 1212 1157 1923 1332 1042
internal_count=7600 3720 3880 1677 2043 1957 1212 1157 1923 1332 1042
is_linear=0
shrinkage=0.01


Tree=25
num_leaves=11
num_cat=0
split_feature=207 88 24 208 173 208 24 117 187 69
split_gain=25.0738 11.9205 9.69227 8.86068 6.29375 7.82466 13.6644 5.33367 4.08105 3.28121
threshold=-0.19550494849681851 0.30727613717317587 -0.32494318485260004 -0.81457754969596852 1.5657897591590884 -0.027263256721198555 -0.32932066917419428 -0.17065998911857602 -0.65062138438224781 -0.39486891031265253
decision_type=2 2 2 2 2 2 2 2 2 2
left_child=1 2 -1 -4 5 7 9 -2 -8 -7
right_child=4 -3 3 -5 -6 6 8 -9 -10 -11
leaf_value=-0.00015441389643143613 -0.00078613794038761274 0.00052650242641029193 -0.0026000716428582864 -0.0009484094639964477 -0.00059562730699762919 0.00046065375581814873 0.00052516127471686211 0.00048795491594417828 0.0015347888555882138 -0.00058351786536704666
leaf_weight=611 642 508 582 735 571 594 542 673 1532 610
leaf_count=611 642 508 582 735 571 594 542 673 1532 610
internal_value=0 -0.000836292 -0.00119537 -0.0016783 0.000394502 0.000517594 0.000779017 -0.000134074 0.00127094 -6.83701e-05
internal_weight=0 2436 1928 1317 5164 4593 3278 1315 2074 1204
internal_count=7600 2436 1928 1317 5164 4593 3278 1315 2074 1204
is_linear=0
shrinkage=0.01


Tree=26
num_leaves=9
num_cat=0
split_feature=207 173 206 200 150 129 200 4
split_gain=24.5944 13.0459 7.01133 5.85823 11.0915 6.8086 9.45334 5.61173
threshold=-0.28064972162246699 0.412201538681984 -1.292402386665344 -0.8662961721420287 -1.1560148000717161 -0.1114453189074993 0.25988885760307318 -0.17216403037309644
decision_type=2 2 2 2 2 2 2 2
left_child=1 2 -1 -2 -5 6 -6 -4
right_child=3 -3 7 4 5 -7 -8 -9
leaf_value=-0.0022767719540472261 -0.00053767965614882212 0.000486321617022885 -0.0016419640315400664 -0.00071978319548461438 0.0002721495312181262 -0.00027464604328922477 0.0013257223414549271 -0.00025959730669054934
leaf_weight=519 631 532 535 655 1535 629 1913 651
leaf_count=519 631 532 535 655 1535 629 1913 651
internal_value=0 -0.000880809 -0.00130739 0.000367401 0.000488091 0.000682145 0.000856687 -0.000883178
internal_weight=0 2237 1705 5363 4732 4077 3448 1186
internal_count=7600 2237 1705 5363 4732 4077 3448 1186
is_linear=0
shrinkage=0.01


Tree=27
num_leaves=11
num_cat=0
split_feature=207 191 115 103 173 208 24 117 187 120
split_gain=24.1071 11.6992 9.71784 9.45213 6.09606 7.57277 13.3428 5.24997 3.99323 3.17611
threshold=-0.19550494849681851 -0.57170376181602467 -0.31216984987258906 -0.16286862641572949 1.5657897591590884 -0.027263256721198555 -0.32932066917419428 -0.17065998911857602 -0.65062138438224781 0.049489094177261002
decision_type=2 2 2 2 2 2 2 2 2 2
left_child=1 2 -1 -3 5 7 9 -2 -8 -7
right_child=4 3 -4 -5 -6 6 8 -9 -10 -11
leaf_value=0.00080159212103074039 -0.00078005388199124703 -0.002557475879476921 -0.00092061958145254444 -0.00069523315105265873 -0.00058763242051235339 -0.00055758904384428719 0.00051353638294510324 0.00048400242328761425 0.001512242320473014 0.00047127543323165834
leaf_weight=566 642 524 778 568 571 636 542 673 1532 568
leaf_count=566 642 524 778 568 571 636 542 673 1532 568
internal_value=0 -0.000820013 -0.000195343 -0.00158884 0.000386822 0.000507966 0.000765146 -0.000133126 0.00125125 -7.22111e-05
internal_weight=0 2436 1344 1092 5164 4593 3278 1315 2074 1204
internal_count=7600 2436 1344 1092 5164 4593 3278 1315 2074 1204
is_linear=0
shrinkage=0.01


Tree=28
num_leaves=12
num_cat=0
split_feature=208 191 191 207 118 138 200 4 200 206 208
split_gain=23.6639 18.8981 15.1189 13.3572 10.2331 9.07683 7.85079 7.35927 6.83961 4.79762 2.0642
threshold=0.049917537719011314 -0.58013513684272755 -0.58013513684272755 -1.1792796254158018 0.26568076014518743 -0.25309003144502634 0.6064073145389558 -0.16479435563087461 0.77966654300689708 0.10219606012105943 0.62046295404434215
decision_type=2 2 2 2 2 2 2 2 2 2 2
left_child=1 4 5 -3 9 -2 -7 -5 10 -1 -4
right_child=2 3 8 7 -6 6 -8 -9 -10 -11 -12
leaf_value=-0.0010476839969327536 0.00079624430454123597 -0.0026878081402168254 0.0002353602856571094 -0.0014813618747135679 0.0010445762398919129 0.0002678651403842608 -0.0013473063508984235 0.00012137389172027351 0.0018781764688757167 0.00015268552965342025 0.0010951667029083648
leaf_weight=659 745 520 553 635 711 556 656 522 806 673 564
leaf_count=659 745 520 553 635 711 556 656 522 806 673 564
internal_value=0 -0.000569876 0.000546376 -0.00135657 7.58822e-05 -7.24057e-05 -0.000606353 -0.000758261 0.0011761 -0.000441191 0.000669497
internal_weight=0 3720 3880 1677 2043 1957 1212 1157 1923 1332 1117
internal_count=7600 3720 3880 1677 2043 1957 1212 1157 1923 1332 1117
is_linear=0
shrinkage=0.01


Tree=29
num_leaves=12
num_cat=0
split_feature=207 173 206 97 200 151 200 4 117 208 161
split_gain=23.2373 12.5926 6.71536 5.65655 9.98364 10.0546 6.54085 5.4416 5.06997 4.12626 3.84672
threshold=-0.28064972162246699 0.412201538681984 -1.292402386665344 -0.54282060265541066 -0.51977771520614613 -0.83932939171791066 0.51977771520614635 -0.17216403037309644 0.58776721358299266 0.038704950362443931 -0.37449687719345087
decision_type=2 2 2 2 2 2 2 2 2 2 2
left_child=1 2 -1 8 -5 -6 -7 -4 9 -2 -11
right_child=3 -3 7 4 5 6 -8 -9 -10 10 -12
leaf_value=-0.0022239688900882568 -0.00044118667892308403 0.00048700647996703541 -0.0016073021444331019 -0.00046923675406080619 -9.4575839768401798e-05 0.00071400390507447755 0.001988921871658827 -0.00024605087974908466 -0.00079929064234838241 0.0010616947709109334 -2.2115489061252444e-05
leaf_weight=519 582 532 535 615 638 761 854 651 592 721 600
leaf_count=519 582 532 535 615 638 761 854 651 592 721 600
internal_value=0 -0.000856164 -0.00127526 0.000357121 0.000660034 0.00096829 0.00138817 -0.000860106 8.92262e-06 0.000260348 0.000569427
internal_weight=0 2237 1705 5363 2868 2253 1615 1186 2495 1903 1321
internal_count=7600 2237 1705 5363 2868 2253 1615 1186 2495 1903 1321
is_linear=0
shrinkage=0.01


Tree=30
num_leaves=11
num_cat=0
split_feature=207 191 115 103 173 208 24 117 187 69
split_gain=22.7847 11.2996 9.42434 9.20036 5.86833 7.16452 12.8475 5.10796 3.86462 3.0363
threshold=-0.19550494849681851 -0.57170376181602467 -0.31216984987258906 -0.16286862641572949 1.5657897591590884 -0.027263256721198555 -0.32932066917419428 -0.17065998911857602 -0.65062138438224781 -0.39486891031265253
decision_type=2 2 2 2 2 2 2 2 2 2
left_child=1 2 -1 -3 5 7 9 -2 -8 -7
right_child=4 3 -4 -5 -6 6 8 -9 -10 -11
leaf_value=0.00079847224836662246 -0.00076676840963782499 -0.0025084377202071618 -0.00089753221128504625 -0.00067116374191729692 -0.00058001784197969815 0.00043230545276712069 0.00049633299393838834 0.00048007408790539877 0.0014788239124692219 -0.00057214322293341381
leaf_weight=566 642 524 778 568 571 594 542 673 1532 610
leaf_count=566 642 524 778 568 571 594 542 673 1532 610
internal_value=0 -0.000797203 -0.000183292 -0.00155279 0.000376063 0.000494922 0.000745074 -0.000128651 0.00122207 -7.6593e-05
internal_weight=0 2436 1344 1092 5164 4593 3278 1315 2074 1204
internal_count=7600 2436 1344 1092 5164 4593 3278 1315 2074 1204
is_linear=0
shrinkage=0.01


Tree=31
num_leaves=12
num_cat=0
split_feature=208 191 191 207 118 138 200 4 95 24 206
split_gain=22.3747 18.2782 14.5449 12.853 9.92664 8.76957 7.68755 7.13163 6.72455 4.6801 2.57425
threshold=0.049917537719011314 -0.58013513684272755 -0.58013513684272755 -1.1792796254158018 0.26568076014518743 -0.25309003144502634 0.51977771520614635 -0.16479435563087461 0.19283423572778705 -0.32494318485260004 0.41411496698856359
decision_type=2 2 2 2 2 2 2 2 2 2 2
left_child=1 4 5 -3 9 -2 -7 -5 10 -1 -4
right_child=2 3 8 7 -6 6 -8 -9 -10 -11 -12
leaf_value=0.00024868530365493421 0.00077818250820046954 -0.0026336914224459459 0.00018278457114421245 -0.0014527381517686956 0.0010350222617620112 0.00033708444171887412 -0.0012770027679057836 0.00012501458754277721 0.0020103078882807912 -0.00094731231916088128 0.001094564373145671
leaf_weight=578 745 520 504 635 711 508 704 522 616 754 803
leaf_count=578 745 520 504 635 711 508 704 522 616 754 803
internal_value=0 -0.000554135 0.000531284 -0.00132782 8.09434e-05 -7.56388e-05 -0.000600471 -0.000740908 0.00114894 -0.000428328 0.000742968
internal_weight=0 3720 3880 1677 2043 1957 1212 1157 1923 1332 1307
internal_count=7600 3720 3880 1677 2043 1957 1212 1157 1923 1332 1307
is_linear=0
shrinkage=0.01


Tree=32
num_leaves=12
num_cat=0
split_feature=207 173 206 97 200 151 200 4 117 208 161
split_gain=22.0252 12.1305 6.43858 5.49295 9.59501 9.68451 6.40554 5.27213 4.89225 3.92041 3.67227
threshold=-0.28064972162246699 0.412201538681984 -1.292402386665344 -0.54282060265541066 -0.51977771520614613 -0.83932939171791066 0.51977771520614635 -0.17216403037309644 0.58776721358299266 0.038704950362443931 -0.37449687719345087
decision_type=2 2 2 2 2 2 2 2 2 2 2
left_child=1 2 -1 8 -5 -6 -7 -4 9 -2 -11
right_child=3 -3 7 4 5 6 -8 -9 -10 10 -12
leaf_value=-0.0021738229901215821 -0.00043227547073186319 0.00048476101723226613 -0.0015738308271045021 -0.00046089061557947529 -9.4740600489375175e-05 0.0006933027972094287 0.0019549642265332639 -0.00023394398424865967 -0.00078936553744210253 0.0010337825191984516 -2.5168009432187928e-05
leaf_weight=519 582 532 535 615 638 761 854 651 592 721 600
leaf_count=519 582 532 535 615 638 761 854 651 592 721 600
internal_value=0 -0.000833535 -0.00124487 0.000347682 0.000646182 0.000948379 0.00136046 -0.000838362 4.55618e-06 0.000251536 0.000552806
internal_weight=0 2237 1705 5363 2868 2253 1615 1186 2495 1903 1321
internal_count=7600 2237 1705 5363 2868 2253 1615 1186 2495 1903 1321
is_linear=0
shrinkage=0.01


Tree=33
num_leaves=11
num_cat=0
split_feature=207 88 24 208 173 208 24 117 187 120
split_gain=21.5988 10.911 9.10278 8.28421 5.66079 6.74088 12.3338 4.9361 3.70649 2.91008
threshold=-0.19550494849681851 0.30727613717317587 -0.32494318485260004 -0.73798248171806324 1.5657897591590884 -0.027263256721198555 -0.32932066917419428 -0.17065998911857602 -0.65062138438224781 -0.38503877818584437
decision_type=2 2 2 2 2 2 2 2 2 2
left_child=1 2 -1 -4 5 7 9 -2 -8 -7
right_child=4 -3 3 -5 -6 6 8 -9 -10 -11
leaf_value=-0.00011091461690956705 -0.00074926265486781904 0.0005276318193712606 -0.002427369776757767 -0.00083857396824227521 -0.00057287567859065375 -0.00064054477384917609 0.00048215650558531067 0.00047642554153801039 0.0014443371550801002 0.00035129485626336771
leaf_weight=611 642 508 621 696 571 523 542 673 1532 681
leaf_count=611 642 508 621 696 571 523 542 673 1532 681
internal_value=0 -0.000776181 -0.00111972 -0.00158773 0.000366146 0.000482884 0.000725528 -0.000121971 0.00119289 -7.95458e-05
internal_weight=0 2436 1928 1317 5164 4593 3278 1315 2074 1204
internal_count=7600 2436 1928 1317 5164 4593 3278 1315 2074 1204
is_linear=0
shrinkage=0.01


Tree=34
num_leaves=10
num_cat=0
split_feature=207 97 206 139 200 150 200 108 208
split_gain=21.1779 10.8867 8.69324 7.89095 5.41669 10.3071 5.74007 9.41177 2.45296
threshold=-0.22512678056955335 -0.42854817211627955 -0.6905226707458495 -0.12728021293878553 -0.8662961721420287 -1.1560148000717161 0.69303691387176525 0.52503162622451793 0.62046295404434215
decision_type=2 2 2 2 2 2 2 2 2
left_child=1 3 -3 -1 -2 -6 8 -8 -7
right_child=4 2 -4 -5 5 6 7 -9 -10
leaf_value=-0.00095393000180936524 -0.00054007249247267641 -0.002276680723313411 -0.00058968607030210666 0.00071969054882250192 -0.00069804286668663658 0.00013021666450912449 0.0019721974506230456 0.00038959986371024923 0.00078506569148190433
leaf_weight=540 601 618 604 589 651 1601 720 786 890
leaf_count=540 601 618 604 589 651 1601 720 786 890
internal_value=0 -0.000788764 -0.00144285 -8.08011e-05 0.000353283 0.000468797 0.000658842 0.00114622 0.000364185
internal_weight=0 2351 1222 1129 5249 4648 3997 1506 2491
internal_count=7600 2351 1222 1129 5249 4648 3997 1506 2491
is_linear=0
shrinkage=0.01


Tree=35
num_leaves=11
num_cat=0
split_feature=207 191 115 97 200 151 200 117 208 161
split_gain=20.7583 11.6496 9.01698 5.30255 9.20184 9.37893 6.18797 4.6531 3.74669 3.5398
threshold=-0.28064972162246699 -0.57170376181602467 -0.31216984987258906 -0.54282060265541066 -0.51977771520614613 -0.83932939171791066 0.51977771520614635 0.58776721358299266 0.038704950362443931 -0.37449687719345087
decision_type=2 2 2 2 2 2 2 2 2 2
left_child=1 2 -1 7 -5 -6 -7 8 -2 -10
right_child=3 -3 -4 4 5 6 -8 -9 9 -11
leaf_value=0.00087121099851416998 -0.00042721381304142327 -0.0016154604756118891 -0.00086508467694668958 -0.00045333773270202042 -9.9774175980434906e-05 0.00067655475661017816 0.0019166040114410368 -0.00077386556155967831 0.0010080169929461437 -3.1658119996427556e-05
leaf_weight=502 582 995 740 615 638 761 854 592 721 600
leaf_count=502 582 995 740 615 638 761 854 592 721 600
internal_value=0 -0.000809208 -0.000163297 0.000337535 0.000630816 0.000926756 0.00133228 4.08228e-07 0.000241275 0.000535795
internal_weight=0 2237 1242 5363 2868 2253 1615 2495 1903 1321
internal_count=7600 2237 1242 5363 2868 2253 1615 2495 1903 1321
is_linear=0
shrinkage=0.01


Tree=36
num_leaves=11
num_cat=0
split_feature=208 191 118 207 118 13 4 200 24 179
split_gain=20.4086 17.5761 13.8481 12.1274 9.51551 7.43847 6.92646 5.1181 4.45969 3.45854
threshold=0.049917537719011314 -0.58013513684272755 0.26568076014518743 -1.1792796254158018 0.26568076014518743 -0.35106298327445978 -0.16479435563087461 0.43314808607101446 -0.32494318485260004 -0.36403892934322352
decision_type=2 2 2 2 2 2 2 2 2 2
left_child=1 4 5 -3 8 7 -5 -2 -1 -7
right_child=2 3 -4 6 -6 9 -8 -9 -10 -11
leaf_value=0.00025579677657852639 0.00067573920132203333 -0.002556384740493601 -0.0006334452688753951 -0.0014193195667489998 0.0010276444099391634 0.00088044824318514122 0.00013557189223588483 0.0019292371267332063 -0.00091169774996358239 -2.0592300970554708e-05
leaf_weight=578 577 520 835 635 711 777 522 748 754 943
leaf_count=578 577 520 835 635 711 777 522 748 754 943
internal_value=0 -0.00052923 0.000507406 -0.00128791 9.35319e-05 0.00082025 -0.000717804 0.00138337 -0.000405082 0.000386448
internal_weight=0 3720 3880 1677 2043 3045 1157 1325 1332 1720
internal_count=7600 3720 3880 1677 2043 3045 1157 1325 1332 1720
is_linear=0
shrinkage=0.01


Tree=37
num_leaves=11
num_cat=0
split_feature=207 88 24 208 173 208 24 117 187 69
split_gain=20.0861 10.3284 8.72054 7.99508 5.43452 6.25839 11.7968 4.78834 3.51244 2.76496
threshold=-0.19550494849681851 0.30727613717317587 -0.32494318485260004 -0.81457754969596852 1.5657897591590884 -0.027263256721198555 -0.32932066917419428 -0.17065998911857602 -0.65062138438224781 -0.39486891031265253
decision_type=2 2 2 2 2 2 2 2 2 2
left_child=1 2 -1 -4 5 7 9 -2 -8 -7
right_child=4 -3 3 -5 -6 6 8 -9 -10 -11
leaf_value=-9.5350754541785457e-05 -0.00073316535298791703 0.0005200187053428743 -0.002416419241160532 -0.00084750535589687179 -0.00056697180466071966 0.00039954721879050691 0.00046646648387955607 0.00047403816723944222 0.0014031218494219549 -0.00055896877318613054
leaf_weight=611 642 508 582 735 571 594 542 673 1532 610
leaf_count=611 642 508 582 735 571 594 542 673 1532 610
internal_value=0 -0.000748507 -0.00108274 -0.00154083 0.000353091 0.000467473 0.000701271 -0.000115334 0.00115834 -8.60797e-05
internal_weight=0 2436 1928 1317 5164 4593 3278 1315 2074 1204
internal_count=7600 2436 1928 1317 5164 4593 3278 1315 2074 1204
is_linear=0
shrinkage=0.01


Tree=38
num_leaves=11
num_cat=0
split_feature=207 97 206 139 12 200 100 128 170 200
split_gain=19.6874 10.3724 8.30398 7.5996 5.23304 5.03287 14.9236 17.2339 10.7727 5.34574
threshold=-0.22512678056955335 -0.42854817211627955 -0.6905226707458495 -0.12728021293878553 0.22545089572668078 -0.25988885760307306 -0.27102571725845331 -0.57326701283454884 -0.10688823834061621 0.77966654300689708
decision_type=2 2 2 2 2 2 2 2 2 2
left_child=1 3 -3 -1 5 8 9 -8 -2 -7
right_child=4 2 -4 -5 -6 6 7 -9 -10 -11
leaf_value=-0.00092632058910439136 0.00097126611340962938 -0.0022138981569353429 -0.00056510540714953099 0.00071611280570040708 -0.00035439217251695415 0.00088306603368399174 0.0011049599465789894 -0.0010207700766289977 -0.00081215172154081407 0.0021001951376228294
leaf_weight=540 611 618 604 589 898 789 750 776 760 665
leaf_count=540 611 618 604 589 898 789 750 776 760 665
internal_value=0 -0.0007605 -0.00139895 -6.94621e-05 0.000340624 0.000484068 0.000714755 2.39858e-05 -1.73535e-05 0.00143973
internal_weight=0 2351 1222 1129 5249 4351 2980 1526 1371 1454
internal_count=7600 2351 1222 1129 5249 4351 2980 1526 1371 1454
is_linear=0
shrinkage=0.01


Tree=39
num_leaves=12
num_cat=0
split_feature=208 191 191 207 118 138 200 4 200 24 208
split_gain=19.34 17.094 13.4212 11.6861 9.10815 8.20881 7.50949 6.74574 6.46538 4.28648 1.89003
threshold=0.049917537719011314 -0.58013513684272755 -0.58013513684272755 -1.1792796254158018 0.26568076014518743 -0.25309003144502634 0.51977771520614635 -0.16479435563087461 0.77966654300689708 -0.32494318485260004 0.62046295404434215
decision_type=2 2 2 2 2 2 2 2 2 2 2
left_child=1 4 5 -3 9 -2 -7 -5 10 -1 -4
right_child=2 3 8 7 -6 6 -8 -9 -10 -11 -12
leaf_value=0.000259066396167302 0.00073700889350608893 -0.0025085737438382168 0.0001792928923788508 -0.0013960588764750253 0.0010128724174433205 0.0003297956194055444 -0.0012654891660829229 0.00013841504281051313 0.0017698586919684676 -0.00088553114789253996 0.001002025506771888
leaf_weight=578 745 520 553 635 711 508 704 522 806 754 564
leaf_count=578 745 520 553 635 711 508 704 522 806 754 564
internal_value=0 -0.000515188 0.000493944 -0.00126339 9.89732e-05 -8.90631e-05 -0.000596838 -0.000703755 0.00108726 -0.000388851 0.00059471
internal_weight=0 3720 3880 1677 2043 1957 1212 1157 1923 1332 1117
internal_count=7600 3720 3880 1677 2043 1957 1212 1157 1923 1332 1117
is_linear=0
shrinkage=0.01


Tree=40
num_leaves=11
num_cat=0
split_feature=207 191 103 115 173 208 24 142 187 120
split_gain=19.0404 9.90524 8.90029 8.72454 5.24323 5.95228 11.3803 4.63616 3.41282 2.66099
threshold=-0.19550494849681851 -0.57170376181602467 -0.16286862641572949 -0.31216984987258906 1.5657897591590884 -0.027263256721198555 -0.32932066917419428 -0.42841601371765131 -0.65062138438224781 0.049489094177261002
decision_type=2 2 2 2 2 2 2 2 2 2
left_child=1 3 -3 -1 5 7 9 -2 -8 -7
right_child=4 2 -4 -5 -6 6 8 -9 -10 -11
leaf_value=0.00079063491678595978 -0.00084177020701501173 -0.0023761276890370883 -0.00056906389581649506 -0.00084118747697056186 -0.00055994878066488582 -0.00053346776883791459 0.00045107292545290502 0.00037102699233093931 0.0013743497922834706 0.00040827423363316802
leaf_weight=566 524 524 568 778 571 636 542 791 1532 568
leaf_count=566 524 524 568 778 571 636 542 791 1532 568
internal_value=0 -0.000728762 -0.00143619 -0.000153977 0.000343777 0.000456128 0.000684137 -0.000112247 0.00113307 -8.91908e-05
internal_weight=0 2436 1092 1344 5164 4593 3278 1315 2074 1204
internal_count=7600 2436 1092 1344 5164 4593 3278 1315 2074 1204
is_linear=0
shrinkage=0.01


Tree=41
num_leaves=11
num_cat=0
split_feature=207 88 24 208 173 208 24 117 187 120
split_gain=18.6615 9.79566 8.36656 7.72992 5.13889 5.83383 11.1538 4.5472 3.3449 2.61279
threshold=-0.19550494849681851 0.30727613717317587 -0.32494318485260004 -0.73798248171806324 1.5657897591590884 -0.027263256721198555 -0.32932066917419428 -0.17065998911857602 -0.65062138438224781 -0.38503877818584437
decision_type=2 2 2 2 2 2 2 2 2 2
left_child=1 2 -1 -4 5 7 9 -2 -8 -7
right_child=4 -3 3 -5 -6 6 8 -9 -10 -11
leaf_value=-7.9832036488684921e-05 -0.00071319811643318683 0.00051390403749670575 -0.0023067303392068812 -0.00077200774259961625 -0.00055434928382783579 -0.00061987085331339977 0.00044656219826371156 0.00046321546230921842 0.0013606062917915791 0.00031994212374262783
leaf_weight=611 642 508 621 696 571 523 542 673 1532 681
leaf_count=611 642 508 621 696 571 523 542 673 1532 681
internal_value=0 -0.000721474 -0.00104698 -0.00149567 0.000340339 0.000451566 0.000677295 -0.000111125 0.00112174 -8.82989e-05
internal_weight=0 2436 1928 1317 5164 4593 3278 1315 2074 1204
internal_count=7600 2436 1928 1317 5164 4593 3278 1315 2074 1204
is_linear=0
shrinkage=0.01


Tree=42
num_leaves=12
num_cat=0
split_feature=207 173 206 4 97 200 151 200 117 208 161
split_gain=18.2977 10.6472 5.78291 5.0644 4.98961 8.46322 8.83449 5.87109 4.32222 3.39026 3.10238
threshold=-0.28064972162246699 0.412201538681984 -1.292402386665344 -0.17216403037309644 -0.54282060265541066 -0.51977771520614613 -0.83932939171791066 0.51977771520614635 0.58776721358299266 0.067892208695411696 -0.37449687719345087
decision_type=2 2 2 2 2 2 2 2 2 2 2
left_child=1 2 -1 -4 8 -6 -7 -8 9 -2 -11
right_child=4 -3 3 -5 5 6 7 -9 -10 10 -12
leaf_value=-0.0020254847714013505 -0.00039998817627395815 0.00047533480844397409 -0.0014806808360556367 -0.00016745680508943429 -0.00043833763747309462 -0.00011108149165016829 0.00064007094480848727 0.0018479528066877901 -0.00075636578302372664 0.0009571387677787534 -2.2193397544683197e-05
leaf_weight=519 600 532 535 651 615 638 761 854 592 706 597
leaf_count=519 600 532 535 651 615 638 761 854 592 706 597
internal_value=0 -0.000759735 -0.00114511 -0.000759847 0.000316899 0.000601394 0.000885209 0.00127879 -1.01286e-05 0.000222017 0.000508435
internal_weight=0 2237 1705 1186 5363 2868 2253 1615 2495 1903 1303
internal_count=7600 2237 1705 1186 5363 2868 2253 1615 2495 1903 1303
is_linear=0
shrinkage=0.01


Tree=43
num_leaves=11
num_cat=0
split_feature=207 191 103 115 12 200 100 128 170 200
split_gain=17.9418 9.55292 8.73944 8.49912 5.02191 4.55605 12.9222 15.2273 11.311 5.89414
threshold=-0.19550494849681851 -0.57170376181602467 -0.16286862641572949 -0.31216984987258906 0.22545089572668078 -0.34651847183704371 -0.27102571725845331 -0.57326701283454884 -0.10688823834061621 0.86629617214202892
decision_type=2 2 2 2 2 2 2 2 2 2
left_child=1 3 -3 -1 5 8 9 -8 -2 -7
right_child=4 2 -4 -5 -6 6 7 -9 -10 -11
leaf_value=0.00078937328150661967 0.0010435493252594829 -0.0023335642203464678 -0.00054290348777062138 -0.00082122992687968773 -0.00035199894699844197 0.00084342348749984241 0.0010478171610688891 -0.00091587019037611315 -0.00090589326610843971 0.00213121419652602
leaf_weight=566 533 524 568 778 885 908 777 803 674 584
leaf_count=566 533 524 568 778 885 908 777 803 674 584
internal_value=0 -0.000707425 -0.00140216 -0.000142955 0.000333712 0.000475533 0.000680068 4.98166e-05 -4.50375e-05 0.00134749
internal_weight=0 2436 1092 1344 5164 4279 3072 1580 1207 1492
internal_count=7600 2436 1092 1344 5164 4279 3072 1580 1207 1492
is_linear=0
shrinkage=0.01


Tree=44
num_leaves=11
num_cat=0
split_feature=208 191 118 207 118 111 4 200 206 31
split_gain=17.6961 16.26 12.8239 11.0957 8.69569 6.9689 6.50559 6.36996 4.11281 3.30124
threshold=0.049917537719011314 -0.58013513684272755 0.26568076014518743 -1.1792796254158018 0.26568076014518743 1.0000000180025095e-35 -0.16479435563087461 0.77966654300689708 0.10219606012105943 -0.38341224193572992
decision_type=2 2 2 2 2 2 2 2 2 2
left_child=1 4 5 -3 8 9 -5 -7 -1 -2
right_child=2 3 -4 6 -6 7 -8 -9 -10 -11
leaf_value=-0.00093200745642939883 -9.9382588166815672e-05 -0.0024358479417994831 -0.00062537059466100803 -0.0013570817302413813 0.00099915176113601119 0.00075938995181456246 0.0001498307118913109 0.0021478302899374776 0.00017939407763487892 0.00079598193602879513
leaf_weight=659 852 520 835 635 711 859 522 537 673 797
leaf_count=659 852 520 835 635 711 859 522 537 673 797
internal_value=0 -0.000492806 0.000472485 -0.00122253 0.000106185 0.000773538 -0.000677213 0.00129348 -0.000370466 0.000333368
internal_weight=0 3720 3880 1677 2043 3045 1157 1396 1332 1649
internal_count=7600 3720 3880 1677 2043 3045 1157 1396 1332 1649
is_linear=0
shrinkage=0.01


Tree=45
num_leaves=12
num_cat=0
split_feature=208 191 191 207 118 138 200 4 200 24 208
split_gain=17.3439 15.9364 12.6126 10.8749 8.52265 7.75396 7.33704 6.37613 6.1968 4.09225 1.8162
threshold=0.049917537719011314 -0.58013513684272755 -0.58013513684272755 -1.1792796254158018 0.26568076014518743 -0.25309003144502634 0.6064073145389558 -0.16479435563087461 0.77966654300689708 -0.32494318485260004 0.62046295404434215
decision_type=2 2 2 2 2 2 2 2 2 2 2
left_child=1 4 5 -3 9 -2 -7 -5 10 -1 -4
right_child=2 3 8 7 -6 6 -8 -9 -10 -11 -12
leaf_value=0.00026630699199907946 0.00070544767490101376 -0.0024114894602501476 0.00015349222995476817 -0.0013435109079431367 0.00098916024528967767 0.00025421209227650303 -0.0013072178022838028 0.0001483324031841538 0.0017111955616906185 -0.00085205774475801907 0.00095999508325410158
leaf_weight=578 745 520 553 635 711 556 656 522 806 754 564
leaf_count=578 745 520 553 635 711 556 656 522 806 754 564
internal_value=0 -0.000487878 0.00046776 -0.0012103 0.000105123 -9.74116e-05 -0.000590918 -0.000670441 0.00104292 -0.000366761 0.000560715
internal_weight=0 3720 3880 1677 2043 1957 1212 1157 1923 1332 1117
internal_count=7600 3720 3880 1677 2043 1957 1212 1157 1923 1332 1117
is_linear=0
shrinkage=0.01


Tree=46
num_leaves=11
num_cat=0
split_feature=207 97 206 139 12 200 100 128 170 200
split_gain=17.0423 9.29151 8.13298 6.85279 4.9435 4.37818 12.5675 14.8169 10.9756 5.72174
threshold=-0.19550494849681851 -0.42854817211627955 -0.6905226707458495 -0.12728021293878553 0.22545089572668078 -0.34651847183704371 -0.27102571725845331 -0.57326701283454884 -0.10688823834061621 0.86629617214202892
decision_type=2 2 2 2 2 2 2 2 2 2
left_child=1 3 -3 -1 5 8 9 -8 -2 -7
right_child=4 2 -4 -5 -6 6 7 -9 -10 -11
leaf_value=-0.00083897381086942729 0.0010279678098471243 -0.0021013242730630504 -0.00049796998800647493 0.0006925529439467937 -0.00035509724316508168 0.0008280086007491287 0.0010293686715046968 -0.00090767086279965373 -0.00089235657293301838 0.002096825883419202
leaf_weight=565 533 620 646 605 885 908 777 803 674 584
leaf_count=565 533 620 646 605 885 908 777 803 674 584
internal_value=0 -0.000689464 -0.00128318 -4.70305e-05 0.000325239 0.000465949 0.000666451 4.49112e-05 -4.43591e-05 0.00132465
internal_weight=0 2436 1266 1170 5164 4279 3072 1580 1207 1492
internal_count=7600 2436 1266 1170 5164 4279 3072 1580 1207 1492
is_linear=0
shrinkage=0.01


Tree=47
num_leaves=11
num_cat=0
split_feature=208 191 118 207 118 111 4 200 24 31
split_gain=16.7506 15.5561 12.4324 10.5577 8.28137 6.76338 6.23718 6.15696 3.99405 3.15775
threshold=0.049917537719011314 -0.58013513684272755 0.26568076014518743 -1.1792796254158018 0.26568076014518743 1.0000000180025095e-35 -0.16479435563087461 0.77966654300689708 -0.32494318485260004 -0.38341224193572992
decision_type=2 2 2 2 2 2 2 2 2 2
left_child=1 4 5 -3 8 9 -5 -7 -1 -2
right_child=2 3 -4 6 -6 7 -8 -9 -10 -11
leaf_value=0.00026669224257706614 -0.00010076204375085146 -0.0023767507342669818 -0.00062127675130840636 -0.001326976998360813 0.00097785620214953001 0.00074324322564582829 0.00014852152378173452 0.0021082732083321006 -0.00083817277728738667 0.00077492801488319898
leaf_weight=578 852 520 835 635 711 859 522 537 754 797
leaf_count=578 852 520 835 635 711 859 522 537 754 797
internal_value=0 -0.00047946 0.000459688 -0.00119321 0.000106423 0.000756111 -0.000661281 0.00126833 -0.000358734 0.000322479
internal_weight=0 3720 3880 1677 2043 3045 1157 1396 1332 1649
internal_count=7600 3720 3880 1677 2043 3045 1157 1396 1332 1649
is_linear=0
shrinkage=0.01


Tree=48
num_leaves=11
num_cat=0
split_feature=207 97 206 139 12 200 100 128 100 200
split_gain=16.4762 9.03051 7.85498 6.69298 4.87244 4.24102 12.2842 14.5081 10.7789 5.58903
threshold=-0.19550494849681851 -0.42854817211627955 -0.6905226707458495 -0.12728021293878553 0.22545089572668078 -0.34651847183704371 -0.27102571725845331 -0.57326701283454884 -0.27102571725845331 0.86629617214202892
decision_type=2 2 2 2 2 2 2 2 2 2
left_child=1 3 -3 -1 5 8 9 -8 -2 -7
right_child=4 2 -4 -5 -6 6 7 -9 -10 -11
leaf_value=-0.00082722501874184316 -0.0010501050517968504 -0.0020672741556275382 -0.00049156010844535701 0.00068633900700937496 -0.00035563713110230947 0.00081671345859611123 0.0010164735427886211 -0.00090027634405842984 0.00084375826443086393 0.0020707300673669512
leaf_weight=565 565 620 646 605 885 908 777 803 642 584
leaf_count=565 565 620 646 605 885 908 777 803 642 584
internal_value=0 -0.000677917 -0.00126324 -4.45701e-05 0.000319792 0.000459487 0.000656823 4.23279e-05 -4.27643e-05 0.00130756
internal_weight=0 2436 1266 1170 5164 4279 3072 1580 1207 1492
internal_count=7600 2436 1266 1170 5164 4279 3072 1580 1207 1492
is_linear=0
shrinkage=0.01


Tree=49
num_leaves=11
num_cat=0
split_feature=208 191 118 207 83 111 4 200 206 31
split_gain=16.1892 15.2009 12.1386 10.2406 8.12379 6.6398 6.11565 6.00783 5.52355 3.07002
threshold=0.049917537719011314 -0.58013513684272755 0.26568076014518743 -1.1792796254158018 0.17698550224304202 1.0000000180025095e-35 -0.16479435563087461 0.77966654300689708 0.09532428160309793 -0.38341224193572992
decision_type=2 2 2 2 2 2 2 2 2 2
left_child=1 4 5 -3 -1 9 -5 -7 -6 -2
right_child=2 3 -4 6 8 7 -8 -9 -10 -11
leaf_value=0.00099664586600616066 -0.00010215189085550226 -0.0023425450029541167 -0.00061619844509310981 -0.0013122129469952273 -0.0011163214772898819 0.00073364907938946902 0.00014884022512772903 0.0020820458072716339 0.00018368993643450487 0.0007612871114366747
leaf_weight=684 852 520 835 635 547 859 522 537 812 797
leaf_count=684 852 520 835 635 547 859 522 537 812 797
internal_value=0 -0.000471357 0.00045192 -0.00117691 0.000107799 0.00074482 -0.000653034 0.00125234 -0.000339567 0.000315168
internal_weight=0 3720 3880 1677 2043 3045 1157 1396 1359 1649
internal_count=7600 3720 3880 1677 2043 3045 1157 1396 1359 1649
is_linear=0
shrinkage=0.01


Tree=50
num_leaves=11
num_cat=0
split_feature=207 97 206 139 12 200 100 128 100 200
split_gain=15.8877 8.79404 7.59857 6.52714 4.79363 4.11974 11.9985 14.2041 10.5544 5.47541
threshold=-0.19550494849681851 -0.42854817211627955 -0.6905226707458495 -0.12728021293878553 0.22545089572668078 -0.34651847183704371 -0.27102571725845331 -0.57326701283454884 -0.27102571725845331 0.6064073145389558
decision_type=2 2 2 2 2 2 2 2 2 2
left_child=1 3 -3 -1 5 8 9 -8 -2 -7
right_child=4 2 -4 -5 -6 6 7 -9 -10 -11
leaf_value=-0.00081359842910719282 -0.0010392240488230028 -0.0020341113409019945 -0.00048432881933429362 0.00068109591858661622 -0.00035591504059134755 0.00065700091965474345 0.0010036618754829842 -0.00089290106857101549 0.00083481470617607846 0.0018697734662021998
leaf_weight=565 565 620 646 605 885 713 777 803 642 779
leaf_count=565 565 620 646 605 885 713 777 803 642 779
internal_value=0 -0.0006657 -0.00124331 -4.07009e-05 0.000314029 0.000452589 0.000647084 3.97758e-05 -4.2428e-05 0.00129021
internal_weight=0 2436 1266 1170 5164 4279 3072 1580 1207 1492
internal_count=7600 2436 1266 1170 5164 4279 3072 1580 1207 1492
is_linear=0
shrinkage=0.01


Tree=51
num_leaves=11
num_cat=0
split_feature=208 191 118 207 83 13 4 206 200 179
split_gain=15.6448 14.8539 11.852 9.93399 7.93146 6.52427 5.99788 5.34409 4.73331 2.95215
threshold=0.049917537719011314 -0.58013513684272755 0.26568076014518743 -1.1792796254158018 0.17698550224304202 -0.35106298327445978 -0.16479435563087461 0.09532428160309793 0.34651847183704382 -0.36403892934322352
decision_type=2 2 2 2 2 2 2 2 2 2
left_child=1 4 5 -3 -1 8 -5 -6 -2 -7
right_child=2 3 -4 6 7 9 -8 -9 -10 -11
leaf_value=0.00098740562744341993 0.00052789500205018794 -0.0023088674289935556 -0.00061117844023145067 -0.0012976421323239596 -0.0010969273672631551 0.00078381091583714355 0.00014927371052696843 0.00018179062768431859 0.0017483064299332325 -4.8656095188922882e-05
leaf_weight=684 529 520 835 635 547 777 522 812 796 943
leaf_count=684 529 520 835 635 547 777 522 812 796 943
internal_value=0 -0.000463364 0.000444256 -0.00116082 0.000109143 0.000733677 -0.000644842 -0.000332896 0.00126106 0.000327406
internal_weight=0 3720 3880 1677 2043 3045 1157 1359 1325 1720
internal_count=7600 3720 3880 1677 2043 3045 1157 1359 1325 1720
is_linear=0
shrinkage=0.01


Tree=52
num_leaves=12
num_cat=0
split_feature=208 191 191 207 118 138 4 200 24 14 198
split_gain=15.3334 14.5583 11.7141 9.7363 7.80093 7.2767 5.87852 5.72683 3.8661 3.59646 1.76617
threshold=0.049917537719011314 -0.58013513684272755 -0.58013513684272755 -1.1792796254158018 0.26568076014518743 0.50464129447937023 -0.16479435563087461 0.77966654300689708 -0.32494318485260004 1.0000000180025095e-35 0.30867956578731542
decision_type=2 2 2 2 2 2 2 2 2 2 2
left_child=1 4 5 -3 8 9 -5 10 -1 -2 -4
right_child=2 3 7 6 -6 -7 -8 -9 -10 -11 -12
leaf_value=0.00027191717981660555 0.00075998953196405362 -0.0022857787507367063 0.00096592819339029251 -0.0012846657172116765 0.00095382982648027539 -0.0010679660146582007 0.00014778096223485538 0.0016365438638705351 -0.00081510712566865184 -0.00025649539746646982 0.00016737674688021935
leaf_weight=578 739 520 508 635 711 560 522 806 754 658 609
leaf_count=578 739 520 508 635 711 560 522 806 754 658 609
internal_value=0 -0.00045873 0.000439813 -0.00114921 0.000108052 -0.000104856 -0.000638393 0.000994112 -0.00034341 0.000281216 0.00053055
internal_weight=0 3720 3880 1677 2043 1957 1157 1923 1332 1397 1117
internal_count=7600 3720 3880 1677 2043 1957 1157 1923 1332 1397 1117
is_linear=0
shrinkage=0.01


Tree=53
num_leaves=11
num_cat=0
split_feature=207 97 206 139 12 200 100 128 100 200
split_gain=15.1161 8.50274 7.23782 6.34523 4.71238 3.94218 11.7031 13.7641 10.3184 5.32109
threshold=-0.19550494849681851 -0.42854817211627955 -0.6905226707458495 -0.12728021293878553 0.22545089572668078 -0.34651847183704371 -0.27102571725845331 -0.57326701283454884 -0.27102571725845331 0.86629617214202892
decision_type=2 2 2 2 2 2 2 2 2 2
left_child=1 3 -3 -1 5 8 9 -8 -2 -7
right_child=4 2 -4 -5 -6 6 7 -9 -10 -11
leaf_value=-0.00079682305896761865 -0.0010261334102297927 -0.0019890961899730049 -0.00047655022758165167 0.0006768960063903755 -0.00035793443572165517 0.00079016824335599372 0.00098300272316514297 -0.0008839570388032192 0.00082683668712047408 0.0020137565313640676
leaf_weight=565 565 620 646 605 885 908 777 803 642 584
leaf_count=565 565 620 646 605 885 908 777 803 642 584
internal_value=0 -0.000649333 -0.00121729 -3.47717e-05 0.000306308 0.000443689 0.000633946 3.41618e-05 -4.05437e-05 0.00126911
internal_weight=0 2436 1266 1170 5164 4279 3072 1580 1207 1492
internal_count=7600 2436 1266 1170 5164 4279 3072 1580 1207 1492
is_linear=0
shrinkage=0.01


Tree=54
num_leaves=11
num_cat=0
split_feature=208 191 118 207 83 111 4 200 206 31
split_gain=14.8189 14.2264 11.4795 9.44431 7.65266 6.34587 5.76381 5.71323 5.15895 2.87949
threshold=0.049917537719011314 -0.58013513684272755 0.26568076014518743 -1.1792796254158018 0.17698550224304202 1.0000000180025095e-35 -0.16479435563087461 0.77966654300689708 0.09532428160309793 -0.38341224193572992
decision_type=2 2 2 2 2 2 2 2 2 2
left_child=1 4 5 -3 -1 9 -5 -7 -6 -2
right_child=2 3 -4 6 8 7 -8 -9 -10 -11
leaf_value=0.00097200564837320817 -0.00010699001499976386 -0.0022529284736592672 -0.00060634474297406842 -0.0012703693781348725 -0.001075564076629394 0.00070755313389954388 0.00014803244387200174 0.0020224750335211213 0.00018080984412510698 0.00072922789595712678
leaf_weight=684 852 520 835 635 547 859 522 537 812 797
leaf_count=684 852 520 835 635 547 859 522 537 812 797
internal_value=0 -0.000450967 0.000432371 -0.00113353 0.000109318 0.000717207 -0.000630434 0.00121336 -0.000324883 0.000297174
internal_weight=0 3720 3880 1677 2043 3045 1157 1396 1359 1649
internal_count=7600 3720 3880 1677 2043 3045 1157 1396 1359 1649
is_linear=0
shrinkage=0.01


Tree=55
num_leaves=11
num_cat=0
split_feature=207 97 206 139 12 200 100 128 100 200
split_gain=14.576 8.28005 7.00147 6.188 4.63612 3.83025 12.3872 14.3927 9.75766 4.60132
threshold=-0.19550494849681851 -0.42854817211627955 -0.6905226707458495 -0.12728021293878553 0.22545089572668078 -0.25988885760307306 -0.27102571725845331 -0.57326701283454884 -0.27102571725845331 0.95292580127716076
decision_type=2 2 2 2 2 2 2 2 2 2
left_child=1 3 -3 -1 5 8 9 -8 -2 -7
right_child=4 2 -4 -5 -6 6 7 -9 -10 -11
leaf_value=-0.0007837191194613193 -0.00091863287958689037 -0.0019571984239831388 -0.00046955318804311309 0.00067162704569757111 -0.00035805925398231037 0.00087767916455241263 0.00099957555637390544 -0.00095393799579425464 0.00079302158493739343 0.0020568964046898059
leaf_weight=565 625 620 646 605 885 913 742 767 713 519
leaf_count=565 625 620 646 605 885 913 742 767 713 519
internal_value=0 -0.000637628 -0.0011981 -3.11683e-05 0.000300786 0.000437052 0.000638852 6.63659e-06 -6.51806e-06 0.00130506
internal_weight=0 2436 1266 1170 5164 4279 2941 1509 1338 1432
internal_count=7600 2436 1266 1170 5164 4279 2941 1509 1338 1432
is_linear=0
shrinkage=0.01


Tree=56
num_leaves=11
num_cat=0
split_feature=208 191 118 207 83 111 4 200 206 31
split_gain=14.3237 13.9007 11.2052 9.16154 7.47133 6.22948 5.65122 5.57614 4.99069 2.79973
threshold=0.049917537719011314 -0.58013513684272755 0.26568076014518743 -1.1792796254158018 0.17698550224304202 1.0000000180025095e-35 -0.16479435563087461 0.77966654300689708 0.09532428160309793 -0.38341224193572992
decision_type=2 2 2 2 2 2 2 2 2 2
left_child=1 4 5 -3 -1 9 -5 -7 -6 -2
right_child=2 3 -4 6 8 7 -8 -9 -10 -11
leaf_value=0.00096287074107462289 -0.00010819199712681388 -0.0022205849619931542 -0.0006011445577678823 -0.0012562197995680115 -0.0010568985982838052 0.00069837869235709618 0.00014826112106229247 0.0019974284139730632 0.00017881699749572533 0.00071636253681809172
leaf_weight=684 852 520 835 635 547 859 522 537 812 797
leaf_count=684 852 520 835 635 547 859 522 537 812 797
internal_value=0 -0.000443369 0.000425086 -0.00111807 0.000110465 0.000706498 -0.000622565 0.00119808 -0.000318561 0.000290334
internal_weight=0 3720 3880 1677 2043 3045 1157 1396 1359 1649
internal_count=7600 3720 3880 1677 2043 3045 1157 1396 1359 1649
is_linear=0
shrinkage=0.01


Tree=57
num_leaves=11
num_cat=0
split_feature=207 97 206 139 12 200 170 103 170 200
split_gain=14.055 8.06306 6.7727 6.03468 4.5611 3.72569 11.197 12.2953 9.94731 3.69468
threshold=-0.19550494849681851 -0.42854817211627955 -0.6905226707458495 -0.12728021293878553 0.22545089572668078 -0.34651847183704371 -0.10688823834061621 -0.16343573480844495 -0.10688823834061621 0.6064073145389558
decision_type=2 2 2 2 2 2 2 2 2 2
left_child=1 3 -3 -1 5 8 7 -7 -2 -8
right_child=4 2 -4 -5 -6 6 9 -9 -10 -11
leaf_value=-0.00077083642079165998 0.00098062961185058344 -0.0019258009376184595 -0.00046266179358811569 0.00066636636385873096 -0.0003581319681084636 -0.0010824584143486527 0.000652731148972243 0.00084917439410401793 -0.00084752529561422907 0.0015727332471508206
leaf_weight=565 533 620 646 605 885 635 825 685 674 927
leaf_count=565 533 620 646 605 885 635 825 685 674 927
internal_value=0 -0.000626128 -0.00117921 -2.76675e-05 0.000295362 0.00043052 0.000615479 -8.00581e-05 -4.02291e-05 0.00113951
internal_weight=0 2436 1266 1170 5164 4279 3072 1320 1207 1752
internal_count=7600 2436 1266 1170 5164 4279 3072 1320 1207 1752
is_linear=0
shrinkage=0.01


Tree=58
num_leaves=12
num_cat=0
split_feature=208 191 191 207 138 138 200 4 200 95 198
split_gain=13.8174 13.5739 10.9975 8.89821 7.31661 6.92188 7.12563 5.52628 5.33426 4.57484 1.71197
threshold=0.049917537719011314 -0.58013513684272755 -0.58013513684272755 -1.1792796254158018 -0.25309003144502634 -0.25309003144502634 0.6064073145389558 -0.16479435563087461 0.77966654300689708 -0.21708470582962033 0.30867956578731542
decision_type=2 2 2 2 2 2 2 2 2 2 2
left_child=1 4 5 -3 -1 -2 -7 -5 10 -6 -4
right_child=2 3 8 7 9 6 -8 -9 -10 -11 -12
leaf_value=-0.00075933105186541498 0.00064831741400150553 -0.0021887401200186177 0.00093583666489988494 -0.0012404645082621476 0.0012380191063365441 0.00025634709540034293 -0.0012824229844092061 0.00014840413387967418 0.0015746039106445872 6.2006256728343691e-05 0.00014963429064867629
leaf_weight=655 745 520 508 635 544 556 656 522 806 844 609
leaf_count=655 745 520 508 635 544 556 656 522 806 844 609
internal_value=0 -0.000435462 0.000417505 -0.00110219 0.000111823 -0.000110242 -0.000576519 -0.000613853 0.000954583 0.000522922 0.000507191
internal_weight=0 3720 3880 1677 2043 1957 1212 1157 1923 1388 1117
internal_count=7600 3720 3880 1677 2043 1957 1212 1157 1923 1388 1117
is_linear=0
shrinkage=0.01


Tree=59
num_leaves=11
num_cat=0
split_feature=207 52 24 12 187 200 100 128 100 200
split_gain=13.6139 8.55489 8.84638 4.47847 4.44438 3.73226 12.2552 13.8924 9.27624 4.41385
threshold=-0.22512678056955335 1.0000000180025095e-35 -0.33163593709468836 0.22545089572668078 -0.11693466082215308 -0.25988885760307306 -0.27102571725845331 -0.57326701283454884 -0.27102571725845331 0.69303691387176525
decision_type=2 2 2 2 2 2 2 2 2 2
left_child=1 2 -1 5 -4 8 9 -8 -2 -7
right_child=3 -3 4 -5 -6 6 7 -9 -10 -11
leaf_value=9.0811777988838115e-05 -0.00088725243089216022 0.00039579444457069068 -0.00091590016192317754 -0.00035970693465684205 -0.00213162753050596 0.00071680978250704647 0.00095916662488132714 -0.00094938588371265152 0.00076060424182435569 0.0018187721922091602
leaf_weight=531 646 602 677 898 541 722 750 776 725 732
leaf_count=531 646 602 677 898 541 722 750 776 725 732
internal_value=0 -0.000632406 -0.000986309 0.000283251 -0.00145589 0.000415951 0.000614607 -1.13686e-05 -1.58476e-05 0.00127158
internal_weight=0 2351 1749 5249 1218 4351 2980 1526 1371 1454
internal_count=7600 2351 1749 5249 1218 4351 2980 1526 1371 1454
is_linear=0
shrinkage=0.01


Tree=60
num_leaves=11
num_cat=0
split_feature=208 191 118 207 118 111 200 200 24 31
split_gain=13.3747 13.2909 10.8285 8.65404 7.17974 6.04865 5.44722 5.37562 3.637 2.67385
threshold=0.049917537719011314 -0.58013513684272755 0.26568076014518743 -1.1792796254158018 0.26568076014518743 1.0000000180025095e-35 -0.77966654300689686 0.77966654300689708 -0.32494318485260004 -0.38341224193572992
decision_type=2 2 2 2 2 2 2 2 2 2
left_child=1 4 5 -3 8 9 -5 -7 -1 -2
right_child=2 3 -4 6 -6 7 -8 -9 -10 -11
leaf_value=0.00027682307043360956 -0.00011213901823273073 -0.0021597106084720089 -0.00059807114673584617 -0.001346423166917167 0.00092452557567400926 0.00068116440930703548 2.9778319539747823e-05 0.0019566437328282877 -0.00077750060777581327 0.00069366597967087079
leaf_weight=578 852 520 835 535 711 859 622 537 754 797
leaf_count=578 852 520 835 535 711 859 622 537 754 797
internal_value=0 -0.00042843 0.000410762 -0.00108817 0.000113121 0.000687405 -0.000606581 0.0011718 -0.000319994 0.000277325
internal_weight=0 3720 3880 1677 2043 3045 1157 1396 1332 1649
internal_count=7600 3720 3880 1677 2043 3045 1157 1396 1332 1649
is_linear=0
shrinkage=0.01


Tree=61
num_leaves=10
num_cat=0
split_feature=207 143 191 12 200 170 103 100 200
split_gain=13.1322 7.66553 6.21573 4.40638 3.508 10.7038 11.7253 9.56016 3.51068
threshold=-0.19550494849681851 -0.39619614183902735 -0.57170376181602467 0.22545089572668078 -0.34651847183704371 -0.10688823834061621 -0.16343573480844495 -0.27102571725845331 0.6064073145389558
decision_type=2 2 2 2 2 2 2 2 2
left_child=1 -1 -3 4 7 6 -6 -2 -7
right_child=3 2 -4 -5 5 8 -8 -9 -10
leaf_value=0.00027202035575911481 -0.00098712779415886754 -0.00034281194451816685 -0.0015427234019425972 -0.00035681389052273529 -0.0010611124278686018 0.00063567799951838838 0.00082520984814788659 0.00079645957120127011 0.0015324789153672192
leaf_weight=707 565 834 895 885 635 825 685 642 927
leaf_count=707 565 834 895 885 635 825 685 642 927
internal_value=0 -0.000605223 -0.000963934 0.0002855 0.000418346 0.000597821 -8.22255e-05 -3.84426e-05 0.00111018
internal_weight=0 2436 1729 5164 4279 3072 1320 1207 1752
internal_count=7600 2436 1729 5164 4279 3072 1320 1207 1752
is_linear=0
shrinkage=0.01


Tree=62
num_leaves=11
num_cat=0
split_feature=208 191 118 207 83 13 4 206 200 179
split_gain=12.9327 12.933 10.5395 8.42555 7.05923 5.9653 5.39143 4.7431 4.34943 2.64744
threshold=0.049917537719011314 -0.58013513684272755 0.26568076014518743 -1.1792796254158018 0.17698550224304202 -0.35106298327445978 -0.16479435563087461 0.09532428160309793 0.34651847183704382 -0.36403892934322352
decision_type=2 2 2 2 2 2 2 2 2 2
left_child=1 4 5 -3 -1 8 -5 -6 -2 -7
right_child=2 3 -4 6 7 9 -8 -9 -10 -11
leaf_value=0.0009414819679842522 0.00047832280154791549 -0.0021293868635794541 -0.0005913606775456811 -0.0012158168192089381 -0.0010238975329687258 0.00072057487531112662 0.00015600160965241022 0.00018077522099657235 0.0016481983193328568 -6.7760693392520554e-05
leaf_weight=684 529 520 835 635 547 777 522 812 796 943
leaf_count=684 529 520 835 635 547 777 522 812 796 943
internal_value=0 -0.000421291 0.000403918 -0.00107209 0.000112918 0.000676843 -0.000596898 -0.000304108 0.00118113 0.000288365
internal_weight=0 3720 3880 1677 2043 3045 1157 1359 1325 1720
internal_count=7600 3720 3880 1677 2043 3045 1157 1359 1325 1720
is_linear=0
shrinkage=0.01


Tree=63
num_leaves=12
num_cat=0
split_feature=208 191 191 207 138 138 200 4 200 95 198
split_gain=12.6753 12.6756 10.4324 8.25788 7.0045 6.57101 6.95865 5.28414 5.04155 4.34398 1.66274
threshold=0.049917537719011314 -0.58013513684272755 -0.58013513684272755 -1.1792796254158018 -0.25309003144502634 -0.25309003144502634 0.6064073145389558 -0.16479435563087461 0.77966654300689708 -0.21708470582962033 0.30867956578731542
decision_type=2 2 2 2 2 2 2 2 2 2 2
left_child=1 4 5 -3 -1 -2 -7 -5 10 -6 -4
right_child=2 3 8 7 9 6 -8 -9 -10 -11 -12
leaf_value=-0.00074058218308251697 0.00062495448117807736 -0.0021080929944179774 0.0009104681459592847 -0.0012036586529474457 0.0012108444104952094 0.00025461479195995797 -0.0012660189778522712 0.00015444160242260779 0.0015257446659787629 6.4888936885965624e-05 0.00013565242977238505
leaf_weight=655 745 520 508 635 544 556 656 522 806 844 609
leaf_count=655 745 520 508 635 544 556 656 522 806 844 609
internal_value=0 -0.000417078 0.000399879 -0.00106137 0.000111789 -0.00011413 -0.000568435 -0.000590929 0.000922975 0.000514024 0.000488031
internal_weight=0 3720 3880 1677 2043 1957 1212 1157 1923 1388 1117
internal_count=7600 3720 3880 1677 2043 1957 1212 1157 1923 1388 1117
is_linear=0
shrinkage=0.01


Tree=64
num_leaves=11
num_cat=0
split_feature=207 52 24 12 187 200 100 128 100 200
split_gain=12.5129 8.27788 8.48307 4.34357 4.23844 3.4814 11.7085 13.2369 8.86693 4.22855
threshold=-0.22512678056955335 1.0000000180025095e-35 -0.33163593709468836 0.22545089572668078 -0.11693466082215308 -0.25988885760307306 -0.27102571725845331 -0.57326701283454884 -0.27102571725845331 0.6064073145389558
decision_type=2 2 2 2 2 2 2 2 2 2
left_child=1 2 -1 5 -4 8 9 -8 -2 -7
right_child=3 -3 4 -5 -6 6 7 -9 -10 -11
leaf_value=0.00010034846988411905 -0.00086675439611468008 0.00040512046600348534 -0.00088692903505607973 -0.00036164393590167911 -0.0020741555139735727 0.00064146883549699675 0.00092961439111570747 -0.00093336652305541846 0.00074433659985059352 0.0017252069148278059
leaf_weight=531 646 602 677 898 541 656 750 776 725 798
leaf_count=531 646 602 677 898 541 656 750 776 725 798
internal_value=0 -0.000606296 -0.000954422 0.000271557 -0.00141426 0.000402243 0.000594106 -1.77468e-05 -1.47916e-05 0.00123626
internal_weight=0 2351 1749 5249 1218 4351 2980 1526 1371 1454
internal_count=7600 2351 1749 5249 1218 4351 2980 1526 1371 1454
is_linear=0
shrinkage=0.01


Tree=65
num_leaves=11
num_cat=0
split_feature=208 191 118 207 118 111 200 200 24 31
split_gain=12.2683 12.4116 10.245 8.03166 6.86642 5.78392 5.21295 5.13548 3.47198 2.51431
threshold=0.049917537719011314 -0.58013513684272755 0.26568076014518743 -1.1792796254158018 0.26568076014518743 1.0000000180025095e-35 -0.77966654300689686 0.77966654300689708 -0.32494318485260004 -0.38341224193572992
decision_type=2 2 2 2 2 2 2 2 2 2
left_child=1 4 5 -3 8 9 -5 -7 -1 -2
right_child=2 3 -4 6 -6 7 -8 -9 -10 -11
leaf_value=0.00027256482549875354 -0.000116180652647171 -0.0020801604837112019 -0.00058786668801926974 -0.001307680549152265 0.00090650536798945417 0.00065661642784018304 3.8602765887441155e-05 0.0019032801359976873 -0.00075756329178543647 0.00066521484637213028
leaf_weight=578 852 520 835 535 711 859 622 537 754 797
leaf_count=578 852 520 835 535 711 859 622 537 754 797
internal_value=0 -0.000410327 0.000393406 -0.00104787 0.000113003 0.000662491 -0.000583922 0.00113617 -0.000310556 0.000261486
internal_weight=0 3720 3880 1677 2043 3045 1157 1396 1332 1649
internal_count=7600 3720 3880 1677 2043 3045 1157 1396 1332 1649
is_linear=0
shrinkage=0.01


Tree=66
num_leaves=11
num_cat=0
split_feature=207 52 24 207 12 200 170 103 170 200
split_gain=12.0681 7.36817 8.60724 4.43892 4.27197 3.27432 10.2376 11.1425 9.17235 3.3128
threshold=-0.19550494849681851 1.0000000180025095e-35 -0.32932066917419428 -0.65463507175445546 0.22545089572668078 -0.34651847183704371 -0.10688823834061621 -0.16343573480844495 -0.10688823834061621 0.6064073145389558
decision_type=2 2 2 2 2 2 2 2 2 2
left_child=1 2 -1 -4 5 8 7 -7 -2 -8
right_child=4 -3 3 -5 -6 6 9 -9 -10 -11
leaf_value=0.00010873123033551671 0.00094346839845037235 0.00036412372809307986 -0.001861749221127153 -0.00064351290841939391 -0.0003587518655392473 -0.0010414376083567123 0.00061803011761547887 0.00079741502026721401 -0.00081202999658285685 0.0014891902446723469
leaf_weight=577 533 617 740 502 885 635 825 685 674 927
leaf_count=577 533 617 740 502 885 635 825 685 674 927
internal_value=0 -0.000580187 -0.000900495 -0.00136935 0.00027369 0.000404494 0.000577888 -8.71845e-05 -3.68182e-05 0.00107897
internal_weight=0 2436 1819 1242 5164 4279 3072 1320 1207 1752
internal_count=7600 2436 1819 1242 5164 4279 3072 1320 1207 1752
is_linear=0
shrinkage=0.01


Tree=67
num_leaves=10
num_cat=0
split_feature=208 150 118 206 13 16 133 200 179
split_gain=11.8353 12.2119 9.9905 8.97915 5.7037 4.99794 6.63055 4.16241 2.50455
threshold=0.049917537719011314 -1.1560148000717161 0.26568076014518743 -1.1502638459205625 -0.35106298327445978 0.83962810039520275 -0.31478454172611231 0.34651847183704382 -0.36403892934322352
decision_type=2 2 2 2 2 2 2 2 2
left_child=1 -1 4 -3 7 6 -5 -2 -6
right_child=2 3 -4 5 8 -7 -8 -9 -10
leaf_value=0.00097397431467010048 0.00045769704944504308 -0.0016485953035616585 -0.00058260904035627181 4.5637843520803889e-05 0.00069264179106488311 0.00041059563582641472 -0.0011585026673856193 0.0016021449119642368 -7.4123745253905878e-05
leaf_weight=549 529 692 835 825 777 628 1026 796 943
leaf_count=549 529 692 835 825 777 628 1026 796 943
internal_value=0 -0.00040302 0.000386401 -0.000641421 0.000652123 -0.000360274 -0.000621811 0.00114523 0.000272258
internal_weight=0 3720 3880 3171 3045 2479 1851 1325 1720
internal_count=7600 3720 3880 3171 3045 2479 1851 1325 1720
is_linear=0
shrinkage=0.01


Tree=68
num_leaves=11
num_cat=0
split_feature=207 52 24 12 187 200 100 128 100 200
split_gain=11.6658 7.93791 8.09983 4.23229 4.10149 3.26724 11.2468 12.6986 8.55618 4.08171
threshold=-0.22512678056955335 1.0000000180025095e-35 -0.33163593709468836 0.22545089572668078 -0.11693466082215308 -0.25988885760307306 -0.27102571725845331 -0.57326701283454884 -0.27102571725845331 0.95292580127716076
decision_type=2 2 2 2 2 2 2 2 2 2
left_child=1 2 -1 5 -4 8 9 -8 -2 -7
right_child=3 -3 4 -5 -6 6 7 -9 -10 -11
leaf_value=0.00010435330262539204 -0.00084969968321412762 0.00040501586450658356 -0.00085690557938468057 -0.00036283322950780503 -0.0020247938522557742 0.00080217809442417309 0.00090530706487013959 -0.0009194050114831381 0.00073290818219578916 0.0019008514648346908
leaf_weight=531 646 602 677 898 541 919 750 776 725 535
leaf_count=531 646 602 677 898 541 919 750 776 725 535
internal_value=0 -0.000585414 -0.000926316 0.000262204 -0.00137565 0.000391205 0.000577074 -2.25937e-05 -1.27991e-05 0.00120644
internal_weight=0 2351 1749 5249 1218 4351 2980 1526 1371 1454
internal_count=7600 2351 1749 5249 1218 4351 2980 1526 1371 1454
is_linear=0
shrinkage=0.01


Tree=69
num_leaves=12
num_cat=0
split_feature=208 191 191 208 202 139 138 200 95 207 206
split_gain=11.4563 11.9992 9.76463 7.74142 6.7052 10.4107 6.22077 6.79226 4.7693 3.48759 2.27216
threshold=0.049917537719011314 -0.58013513684272755 -0.58013513684272755 -0.50161445140838612 1.0000000180025095e-35 -0.32092337310314173 -0.25309003144502634 0.51977771520614635 0.19283423572778705 -1.0245770215988157 0.41411496698856359
decision_type=2 2 2 2 2 2 2 2 2 2 2
left_child=1 4 6 9 5 -1 -2 -8 10 -3 -4
right_child=2 3 8 -5 -6 -7 7 -9 -10 -11 -12
leaf_value=-0.0010686455407114181 0.00060199500761391755 -0.0021316096699718237 1.8060100029244843e-05 -9.9955254781812172e-05 0.0011125942087029648 0.00058024033061853861 0.00032211863057999315 -0.0011950722290103757 0.0016116542334684591 -0.0009963441325467812 0.0008746723770216144
leaf_weight=737 745 505 504 589 509 797 508 704 616 583 803
leaf_count=737 745 505 504 589 509 797 508 704 616 583 803
internal_value=0 -0.000396515 0.000380164 -0.00102338 0.000118047 -0.000211956 -0.000117122 -0.000559154 0.000886242 -0.00152328 0.000544349
internal_weight=0 3720 3880 1677 2043 1534 1957 1212 1923 1088 1307
internal_count=7600 3720 3880 1677 2043 1534 1957 1212 1923 1088 1307
is_linear=0
shrinkage=0.01


Tree=70
num_leaves=10
num_cat=0
split_feature=207 143 191 12 200 170 103 100 200
split_gain=11.2943 7.15795 5.56667 4.11793 3.08087 9.7944 10.6362 8.84304 3.18954
threshold=-0.19550494849681851 -0.39619614183902735 -0.57170376181602467 0.22545089572668078 -0.34651847183704371 -0.10688823834061621 -0.16343573480844495 -0.27102571725845331 0.6064073145389558
decision_type=2 2 2 2 2 2 2 2 2
left_child=1 -1 -3 4 7 6 -6 -2 -7
right_child=3 2 -4 -5 5 8 -8 -9 -10
leaf_value=0.00028642499785477761 -0.00094729450763310352 -0.00032010963429991111 -0.0014556451322583681 -0.00035616496478071426 -0.0010214501140267025 0.00059921990718505571 0.00077513893716713673 0.00076809438205379602 0.0014540198217681552
leaf_weight=707 565 834 895 885 635 825 685 642 927
leaf_count=707 565 834 895 885 635 825 685 642 927
internal_value=0 -0.000561277 -0.000907909 0.00026477 0.000393194 0.000561387 -8.91293e-05 -3.48838e-05 0.0010515
internal_weight=0 2436 1729 5164 4279 3072 1320 1207 1752
internal_count=7600 2436 1729 5164 4279 3072 1320 1207 1752
is_linear=0
shrinkage=0.01


Tree=71
num_leaves=10
num_cat=0
split_feature=208 150 118 206 13 16 133 200 179
split_gain=11.0766 11.7994 9.58994 8.54009 5.53317 4.88385 6.44607 4.06996 2.40061
threshold=0.049917537719011314 -1.1560148000717161 0.26568076014518743 -1.1502638459205625 -0.35106298327445978 0.83962810039520275 -0.31478454172611231 0.34651847183704382 -0.36403892934322352
decision_type=2 2 2 2 2 2 2 2 2
left_child=1 -1 4 -3 7 6 -5 -2 -6
right_child=2 3 -4 5 8 -7 -8 -9 -10
leaf_value=0.00096364682200169682 0.00043997656075008365 -0.001606469813352747 -0.00057557449039227955 4.9522554336793046e-05 0.00067157713749249409 0.00041197945826283174 -0.001137748725314774 0.0015716433328334782 -7.9109703393333045e-05
leaf_weight=549 529 692 835 825 777 628 1026 796 943
leaf_count=549 529 692 835 825 777 628 1026 796 943
internal_value=0 -0.000389889 0.000373811 -0.000624228 0.000634151 -0.000350041 -0.000608576 0.00111983 0.000260009
internal_weight=0 3720 3880 3171 3045 2479 1851 1325 1720
internal_count=7600 3720 3880 3171 3045 2479 1851 1325 1720
is_linear=0
shrinkage=0.01


Tree=72
num_leaves=11
num_cat=0
split_feature=207 52 24 12 187 200 100 128 100 200
split_gain=10.9207 7.70206 7.91718 4.08177 3.94535 3.074 10.792 12.1127 8.19788 3.96677
threshold=-0.22512678056955335 1.0000000180025095e-35 -0.33163593709468836 0.22545089572668078 -0.11693466082215308 -0.25988885760307306 -0.27102571725845331 -0.57326701283454884 -0.27102571725845331 0.95292580127716076
decision_type=2 2 2 2 2 2 2 2 2 2
left_child=1 2 -1 5 -4 8 9 -8 -2 -7
right_child=3 -3 4 -5 -6 6 7 -9 -10 -11
leaf_value=0.00011677242929004958 -0.00083068635091423438 0.00040919418173665772 -0.00083767452573354194 -0.00036012934440878035 -0.0019831174209218152 0.00077864970351657146 0.00087948767579083017 -0.00090262798733405862 0.00071843101556316529 0.0018617432989946037
leaf_weight=531 646 602 677 898 541 919 750 776 725 535
leaf_count=531 646 602 677 898 541 919 750 776 725 535
internal_value=0 -0.000566411 -0.00090221 0.000253692 -0.00134645 0.000380379 0.000560667 -2.6752e-05 -1.14959e-05 0.00117717
internal_weight=0 2351 1749 5249 1218 4351 2980 1526 1371 1454
internal_count=7600 2351 1749 5249 1218 4351 2980 1526 1371 1454
is_linear=0
shrinkage=0.01


Tree=73
num_leaves=10
num_cat=0
split_feature=208 150 118 206 111 200 16 133 31
split_gain=10.7218 11.5439 9.3716 8.31529 5.42958 4.87446 4.78648 6.30437 2.31869
threshold=0.049917537719011314 -1.1560148000717161 0.26568076014518743 -1.1502638459205625 1.0000000180025095e-35 0.77966654300689708 0.83962810039520275 -0.31478454172611231 -0.38341224193572992
decision_type=2 2 2 2 2 2 2 2 2
left_child=1 -1 4 -3 8 -6 7 -5 -2
right_child=2 3 -4 6 5 -7 -8 -9 -10
leaf_value=0.00095520728262215985 -0.00012607002197654137 -0.0015846095075009853 -0.00057074015204443371 5.0052931085652244e-05 0.00061686708079931364 0.0018314361645410003 0.00040955867438045461 -0.0011240961843291888 0.00062431214626766315
leaf_weight=549 852 692 835 825 859 537 628 1026 797
leaf_count=549 852 692 835 825 859 537 628 1026 797
internal_value=0 -0.000383593 0.000367775 -0.000615382 0.000625135 0.00108408 -0.000344827 -0.000600772 0.000236607
internal_weight=0 3720 3880 3171 3045 1396 2479 1851 1649
internal_count=7600 3720 3880 3171 3045 1396 2479 1851 1649
is_linear=0
shrinkage=0.01


Tree=74
num_leaves=11
num_cat=0
split_feature=207 88 24 208 12 200 170 103 170 200
split_gain=10.5583 6.89914 6.59446 5.73665 4.01317 2.89984 9.41322 10.1614 8.53325 3.0493
threshold=-0.19550494849681851 0.30727613717317587 -0.32494318485260004 -0.81457754969596852 0.22545089572668078 -0.34651847183704371 -0.10688823834061621 -0.16343573480844495 -0.10688823834061621 0.6064073145389558
decision_type=2 2 2 2 2 2 2 2 2 2
left_child=1 2 -1 -4 5 8 7 -7 -2 -8
right_child=4 -3 3 -5 -6 6 9 -9 -10 -11
leaf_value=4.2781498887707251e-05 0.00091298565684815979 0.00049408457558198767 -0.0019558854003459266 -0.0006269103728538081 -0.00035698835782990875 -0.0010030522850822423 0.00058420999749196753 0.00075297935963965223 -0.0007802498377271471 0.0014200062389905488
leaf_weight=611 533 508 582 735 885 635 825 685 674 927
leaf_count=611 533 508 582 735 885 635 825 685 674 927
internal_value=0 -0.000542681 -0.000815853 -0.0012142 0.000255997 0.000382777 0.000545954 -9.17783e-05 -3.25328e-05 0.00102644
internal_weight=0 2436 1928 1317 5164 4279 3072 1320 1207 1752
internal_count=7600 2436 1928 1317 5164 4279 3072 1320 1207 1752
is_linear=0
shrinkage=0.01


Tree=75
num_leaves=11
num_cat=0
split_feature=207 52 24 12 187 200 100 128 100 200
split_gain=10.3522 7.48059 7.64236 3.95142 3.84332 2.92118 10.391 11.6449 7.92143 3.84106
threshold=-0.22512678056955335 1.0000000180025095e-35 -0.33163593709468836 0.22545089572668078 -0.11693466082215308 -0.25988885760307306 -0.27102571725845331 -0.57326701283454884 -0.27102571725845331 0.69303691387176525
decision_type=2 2 2 2 2 2 2 2 2 2
left_child=1 2 -1 5 -4 8 9 -8 -2 -7
right_child=3 -3 4 -5 -6 6 7 -9 -10 -11
leaf_value=0.00011873586734725257 -0.00081562189059971755 0.0004100071668525867 -0.00081671194509336383 -0.00035694131292093558 -0.0019472474583412578 0.00063481811840194232 0.00085956147713994139 -0.00088780186601182976 0.00070715171809404575 0.0016627955132863745
leaf_weight=531 646 602 677 898 541 722 750 776 725 732
leaf_count=531 646 602 677 898 541 722 750 776 725 732
internal_value=0 -0.000551468 -0.000882405 0.000247 -0.00131886 0.000371647 0.000547397 -2.9006e-05 -1.03623e-05 0.00115234
internal_weight=0 2351 1749 5249 1218 4351 2980 1526 1371 1454
internal_count=7600 2351 1749 5249 1218 4351 2980 1526 1371 1454
is_linear=0
shrinkage=0.01


Tree=76
num_leaves=11
num_cat=0
split_feature=208 191 118 208 202 139 13 200 207 179
split_gain=10.2066 11.335 9.10502 7.32243 6.67175 10.025 5.35786 3.91595 3.20499 2.32137
threshold=0.049917537719011314 -0.58013513684272755 0.26568076014518743 -0.50161445140838612 1.0000000180025095e-35 -0.32092337310314173 -0.35106298327445978 0.34651847183704382 -1.0245770215988157 -0.36403892934322352
decision_type=2 2 2 2 2 2 2 2 2 2
left_child=1 4 6 8 5 -1 7 -2 -3 -8
right_child=2 3 -4 -5 -6 -7 9 -9 -10 -11
